genomestart  1
trait 1 0.0 0.0 0.0 0.0 0.0 0.0 0.0 0.0 
node 1 1 1 1
node 2 1 1 1
node 3 1 1 1
node 4 1 1 1
node 5 1 1 1
node 6 1 1 1
node 7 1 1 1
node 8 1 1 1
node 9 1 1 3
node 10 1 0 0
node 11 1 0 0
node 12 1 0 0
node 13 1 0 0
node 14 1 0 2
node 15 1 0 2
node 16 1 0 2
node 17 1 0 2
node 18 1 0 2
gene  1 1 10 -0.08107293646374347 0 1.0 -0.08107293646374347 1
gene  1 2 10 -0.7459338636930303 0 2.0 -0.7459338636930303 1
gene  1 3 10 -0.9630725209827072 0 3.0 -0.9630725209827072 1
gene  1 4 10 0.15946397803299073 0 4.0 0.15946397803299073 1
gene  1 5 10 0.5842322429518712 0 5.0 0.5842322429518712 1
gene  1 6 10 -0.14211948671642838 0 6.0 -0.14211948671642838 1
gene  1 7 10 -0.9607628600586379 0 7.0 -0.9607628600586379 1
gene  1 8 10 -0.22956077235978212 0 8.0 -0.22956077235978212 1
gene  1 9 10 0.6556985657034883 0 9.0 0.6556985657034883 1
gene  1 1 11 0.39281495558355706 0 10.0 0.39281495558355706 1
gene  1 2 11 0.9603502355901226 0 11.0 0.9603502355901226 1
gene  1 3 11 0.8997929374898533 0 12.0 0.8997929374898533 1
gene  1 4 11 -0.4894786313663476 0 13.0 -0.4894786313663476 1
gene  1 5 11 0.2573457106353425 0 14.0 0.2573457106353425 1
gene  1 6 11 -0.9795149708463733 0 15.0 -0.9795149708463733 1
gene  1 7 11 0.13810369580952142 0 16.0 0.13810369580952142 1
gene  1 8 11 0.547033282636648 0 17.0 0.547033282636648 1
gene  1 9 11 0.6842697024440493 0 18.0 0.6842697024440493 1
gene  1 1 12 0.5280024113877206 0 19.0 0.5280024113877206 1
gene  1 2 12 -0.5072383235207659 0 20.0 -0.5072383235207659 1
gene  1 3 12 0.8183676615439468 0 21.0 0.8183676615439468 1
gene  1 4 12 -0.8821438480702047 0 22.0 -0.8821438480702047 1
gene  1 5 12 0.44581479967871174 0 23.0 0.44581479967871174 1
gene  1 6 12 -0.2673229875140575 0 24.0 -0.2673229875140575 1
gene  1 7 12 -0.3837715934671819 0 25.0 -0.3837715934671819 1
gene  1 8 12 -0.6775803468271042 0 26.0 -0.6775803468271042 1
gene  1 9 12 0.3385413757945932 0 27.0 0.3385413757945932 1
gene  1 1 13 -0.5046767527805612 0 28.0 -0.5046767527805612 1
gene  1 2 13 0.1962560600559542 0 29.0 0.1962560600559542 1
gene  1 3 13 0.9913393566799871 0 30.0 0.9913393566799871 1
gene  1 4 13 0.47566032849375794 0 31.0 0.47566032849375794 1
gene  1 5 13 -0.38520531967315474 0 32.0 -0.38520531967315474 1
gene  1 6 13 0.8807878391702205 0 33.0 0.8807878391702205 1
gene  1 7 13 -0.3489930296046885 0 34.0 -0.3489930296046885 1
gene  1 8 13 0.5805607688526034 0 35.0 0.5805607688526034 1
gene  1 9 13 -0.8817681119676516 0 36.0 -0.8817681119676516 1
gene  1 9 14 -0.5388265381216043 0 37.0 -0.5388265381216043 1
gene  1 10 14 0.6244687037924741 0 38.0 0.6244687037924741 1
gene  1 11 14 0.6645334857068123 0 39.0 0.6645334857068123 1
gene  1 12 14 -0.07906297443175525 0 40.0 -0.07906297443175525 1
gene  1 13 14 -0.9899854787938366 0 41.0 -0.9899854787938366 1
gene  1 9 15 0.8497622327779513 0 42.0 0.8497622327779513 1
gene  1 10 15 0.3990688144356075 0 43.0 0.3990688144356075 1
gene  1 11 15 0.3162549387295853 0 44.0 0.3162549387295853 1
gene  1 12 15 -0.37081658071746415 0 45.0 -0.37081658071746415 1
gene  1 13 15 0.6164069814217563 0 46.0 0.6164069814217563 1
gene  1 9 16 -0.9238653398001606 0 47.0 -0.9238653398001606 1
gene  1 10 16 0.05807168144153785 0 48.0 0.05807168144153785 1
gene  1 11 16 0.4470781887784827 0 49.0 0.4470781887784827 1
gene  1 12 16 -0.8448683927327805 0 50.0 -0.8448683927327805 1
gene  1 13 16 -0.12874941936190187 0 51.0 -0.12874941936190187 1
gene  1 9 17 -0.982566070339506 0 52.0 -0.982566070339506 1
gene  1 10 17 0.6430810172011928 0 53.0 0.6430810172011928 1
gene  1 11 17 0.05475731988922705 0 54.0 0.05475731988922705 1
gene  1 12 17 -0.4873671537380899 0 55.0 -0.4873671537380899 1
gene  1 13 17 0.5032412173495312 0 56.0 0.5032412173495312 1
gene  1 9 18 0.5218901296471425 0 57.0 0.5218901296471425 1
gene  1 10 18 0.5763457347126076 0 58.0 0.5763457347126076 1
gene  1 11 18 -0.3545443338730059 0 59.0 -0.3545443338730059 1
gene  1 12 18 -0.8916636205632951 0 60.0 -0.8916636205632951 1
gene  1 13 18 -0.9947352837911932 0 61.0 -0.9947352837911932 1
genomeend 1
