genomestart  1
trait 1 0.0 0.0 0.0 0.0 0.0 0.0 0.0 0.0 
node 1 1 1 1
node 2 1 1 1
node 3 1 1 1
node 4 1 1 1
node 5 1 1 1
node 6 1 1 1
node 7 1 1 1
node 8 1 1 1
node 9 1 1 1
node 10 1 1 1
node 11 1 1 1
node 12 1 1 1
node 13 1 1 3
node 14 1 0 2
node 15 1 0 2
node 16 1 0 2
node 17 1 0 2
gene  1 1 14 0.721332243851126 0 1.0 0.721332243851126 1
gene  1 2 14 0.31581675581147184 0 2.0 0.31581675581147184 1
gene  1 3 14 0.6995842343176027 0 3.0 0.6995842343176027 1
gene  1 4 14 -0.11036807754228961 0 4.0 -0.11036807754228961 1
gene  1 5 14 0.9850882886505283 0 5.0 0.9850882886505283 1
gene  1 6 14 -0.8793064743918967 0 6.0 -0.8793064743918967 1
gene  1 7 14 0.2570386262601123 0 7.0 0.2570386262601123 1
gene  1 8 14 -0.45631767778850274 0 8.0 -0.45631767778850274 1
gene  1 9 14 0.6890809550952853 0 9.0 0.6890809550952853 1
gene  1 10 14 -0.06889458040138974 0 10.0 -0.06889458040138974 1
gene  1 11 14 -0.018918952695941793 0 11.0 -0.018918952695941793 1
gene  1 12 14 -0.9492408265087727 0 12.0 -0.9492408265087727 1
gene  1 13 14 -0.026943554525834745 0 13.0 -0.026943554525834745 1
gene  1 1 15 0.6965050081646967 0 14.0 0.6965050081646967 1
gene  1 2 15 0.9900079849240633 0 15.0 0.9900079849240633 1
gene  1 3 15 0.4669076654888402 0 16.0 0.4669076654888402 1
gene  1 4 15 -0.6685876865358503 0 17.0 -0.6685876865358503 1
gene  1 5 15 0.9427316201670883 0 18.0 0.9427316201670883 1
gene  1 6 15 -0.4516427146062081 0 19.0 -0.4516427146062081 1
gene  1 7 15 0.5384912948128283 0 20.0 0.5384912948128283 1
gene  1 8 15 -0.30719164019638845 0 21.0 -0.30719164019638845 1
gene  1 9 15 -0.16624519351574496 0 22.0 -0.16624519351574496 1
gene  1 10 15 0.6796081599436319 0 23.0 0.6796081599436319 1
gene  1 11 15 0.24349921118165896 0 24.0 0.24349921118165896 1
gene  1 12 15 -0.9742276294634816 0 25.0 -0.9742276294634816 1
gene  1 13 15 -0.060162577434670905 0 26.0 -0.060162577434670905 1
gene  1 1 16 0.18117543899865807 0 27.0 0.18117543899865807 1
gene  1 2 16 0.1585607895445632 0 28.0 0.1585607895445632 1
gene  1 3 16 0.515066574688719 0 29.0 0.515066574688719 1
gene  1 4 16 -0.449771647334667 0 30.0 -0.449771647334667 1
gene  1 5 16 -0.8084926670256574 0 31.0 -0.8084926670256574 1
gene  1 6 16 -0.7927827899531823 0 32.0 -0.7927827899531823 1
gene  1 7 16 0.9898346454607074 0 33.0 0.9898346454607074 1
gene  1 8 16 0.13637595419429305 0 34.0 0.13637595419429305 1
gene  1 9 16 0.5396543595043433 0 35.0 0.5396543595043433 1
gene  1 10 16 0.25010241434417824 0 36.0 0.25010241434417824 1
gene  1 11 16 -0.4519432519955453 0 37.0 -0.4519432519955453 1
gene  1 12 16 0.6158090675704955 0 38.0 0.6158090675704955 1
gene  1 13 16 0.8186013537643452 0 39.0 0.8186013537643452 1
gene  1 1 17 0.3358772787120572 0 40.0 0.3358772787120572 1
gene  1 2 17 0.4594892629786407 0 41.0 0.4594892629786407 1
gene  1 3 17 -0.03131576021831428 0 42.0 -0.03131576021831428 1
gene  1 4 17 0.8146420049633372 0 43.0 0.8146420049633372 1
gene  1 5 17 -0.42723481013216236 0 44.0 -0.42723481013216236 1
gene  1 6 17 -0.86381296058797 0 45.0 -0.86381296058797 1
gene  1 7 17 -0.26232533634242683 0 46.0 -0.26232533634242683 1
gene  1 8 17 -0.3028136374571837 0 47.0 -0.3028136374571837 1
gene  1 9 17 0.8292191233070355 0 48.0 0.8292191233070355 1
gene  1 10 17 0.3880717443028987 0 49.0 0.3880717443028987 1
gene  1 11 17 0.8658469082251715 0 50.0 0.8658469082251715 1
gene  1 12 17 -0.6253693022459369 0 51.0 -0.6253693022459369 1
gene  1 13 17 0.20265358023586466 0 52.0 0.20265358023586466 1
genomeend 1
