genomestart  1
trait 1 0.0 0.0 0.0 0.0 0.0 0.0 0.0 0.0 
node 1 1 1 1
node 2 1 1 1
node 3 1 1 1
node 4 1 1 1
node 5 1 1 3
node 6 1 0 2
node 7 1 0 2
node 8 1 0 2
node 9 1 0 2
gene  1 1 6 -0.7734278930880937 0 1.0 -0.7734278930880937 1
gene  1 2 6 -0.30955076477630294 0 2.0 -0.30955076477630294 1
gene  1 3 6 -0.9627205009939309 0 3.0 -0.9627205009939309 1
gene  1 4 6 0.023065043322581857 0 4.0 0.023065043322581857 1
gene  1 5 6 -0.8168889526286476 0 5.0 -0.8168889526286476 1
gene  1 1 7 -0.7093240218618652 0 6.0 -0.7093240218618652 1
gene  1 2 7 0.6659588939348952 0 7.0 0.6659588939348952 1
gene  1 3 7 0.031252281023616324 0 8.0 0.031252281023616324 1
gene  1 4 7 -0.710293076514935 0 9.0 -0.710293076514935 1
gene  1 5 7 0.3949795993135816 0 10.0 0.3949795993135816 1
gene  1 1 8 0.30671409240905534 0 11.0 0.30671409240905534 1
gene  1 2 8 0.2436211054081837 0 12.0 0.2436211054081837 1
gene  1 3 8 -0.6652902192368433 0 13.0 -0.6652902192368433 1
gene  1 4 8 -0.5274099424149069 0 14.0 -0.5274099424149069 1
gene  1 5 8 0.7089619614035744 0 15.0 0.7089619614035744 1
gene  1 1 9 -0.4720997237075879 0 16.0 -0.4720997237075879 1
gene  1 2 9 0.20376138130662758 0 17.0 0.20376138130662758 1
gene  1 3 9 -0.3164446437989792 0 18.0 -0.3164446437989792 1
gene  1 4 9 0.41156953424610776 0 19.0 0.41156953424610776 1
gene  1 5 9 0.36444742451213696 0 20.0 0.36444742451213696 1
genomeend 1
