genomestart  1
trait 1 0.0 0.0 0.0 0.0 0.0 0.0 0.0 0.0 
node 1 1 1 1
node 2 1 1 1
node 3 1 1 1
node 4 1 1 1
node 5 1 1 1
node 6 1 1 1
node 7 1 1 1
node 8 1 1 1
node 9 1 1 1
node 10 1 1 1
node 11 1 1 1
node 12 1 1 1
node 13 1 1 1
node 14 1 1 1
node 15 1 1 1
node 16 1 1 1
node 17 1 1 1
node 18 1 1 1
node 19 1 1 1
node 20 1 1 1
node 21 1 1 1
node 22 1 1 1
node 23 1 1 3
node 24 1 0 0
node 25 1 0 0
node 26 1 0 0
node 27 1 0 0
node 28 1 0 2
node 29 1 0 2
node 30 1 0 2
node 31 1 0 2
node 32 1 0 2
gene  1 1 24 0.5432683181244454 0 1.0 0.5432683181244454 1
gene  1 2 24 0.4941917260960782 0 2.0 0.4941917260960782 1
gene  1 3 24 -0.7729019424252888 0 3.0 -0.7729019424252888 1
gene  1 4 24 0.26545535211901106 0 4.0 0.26545535211901106 1
gene  1 5 24 -0.7433290894769693 0 5.0 -0.7433290894769693 1
gene  1 6 24 -0.3519950789888395 0 6.0 -0.3519950789888395 1
gene  1 7 24 -0.469824160464528 0 7.0 -0.469824160464528 1
gene  1 8 24 -0.37665354703795795 0 8.0 -0.37665354703795795 1
gene  1 9 24 -0.9354011066216744 0 9.0 -0.9354011066216744 1
gene  1 10 24 -0.20850141001996225 0 10.0 -0.20850141001996225 1
gene  1 11 24 -0.9083079079966075 0 11.0 -0.9083079079966075 1
gene  1 12 24 0.005692654908638017 0 12.0 0.005692654908638017 1
gene  1 13 24 0.41550036197514084 0 13.0 0.41550036197514084 1
gene  1 14 24 -0.3827869846696167 0 14.0 -0.3827869846696167 1
gene  1 15 24 -0.4682721693142876 0 15.0 -0.4682721693142876 1
gene  1 16 24 0.8246424250902582 0 16.0 0.8246424250902582 1
gene  1 17 24 0.5727293288667061 0 17.0 0.5727293288667061 1
gene  1 18 24 0.4488615117031187 0 18.0 0.4488615117031187 1
gene  1 19 24 0.6907276525605325 0 19.0 0.6907276525605325 1
gene  1 20 24 0.5106465122163145 0 20.0 0.5106465122163145 1
gene  1 21 24 -0.8793310522120666 0 21.0 -0.8793310522120666 1
gene  1 22 24 0.506092419641266 0 22.0 0.506092419641266 1
gene  1 23 24 0.26161789908998523 0 23.0 0.26161789908998523 1
gene  1 1 25 0.02027976449898161 0 24.0 0.02027976449898161 1
gene  1 2 25 -0.7878487289820982 0 25.0 -0.7878487289820982 1
gene  1 3 25 0.3178900122792382 0 26.0 0.3178900122792382 1
gene  1 4 25 0.9582099574132308 0 27.0 0.9582099574132308 1
gene  1 5 25 0.591161204715504 0 28.0 0.591161204715504 1
gene  1 6 25 0.5169348502996328 0 29.0 0.5169348502996328 1
gene  1 7 25 0.7865140701541865 0 30.0 0.7865140701541865 1
gene  1 8 25 -0.30197066675833273 0 31.0 -0.30197066675833273 1
gene  1 9 25 -0.9648457436681672 0 32.0 -0.9648457436681672 1
gene  1 10 25 0.21503282066922902 0 33.0 0.21503282066922902 1
gene  1 11 25 -0.922539234229577 0 34.0 -0.922539234229577 1
gene  1 12 25 -0.6159247030784322 0 35.0 -0.6159247030784322 1
gene  1 13 25 0.4043365461769548 0 36.0 0.4043365461769548 1
gene  1 14 25 -0.7580502979739778 0 37.0 -0.7580502979739778 1
gene  1 15 25 0.513846377852861 0 38.0 0.513846377852861 1
gene  1 16 25 0.6990353182192774 0 39.0 0.6990353182192774 1
gene  1 17 25 0.5443163465919312 0 40.0 0.5443163465919312 1
gene  1 18 25 -0.6556364642729244 0 41.0 -0.6556364642729244 1
gene  1 19 25 -0.9222773881160463 0 42.0 -0.9222773881160463 1
gene  1 20 25 -0.058501260561890533 0 43.0 -0.058501260561890533 1
gene  1 21 25 -0.21336525266871698 0 44.0 -0.21336525266871698 1
gene  1 22 25 0.6375280702565544 0 45.0 0.6375280702565544 1
gene  1 23 25 -0.07946648846376103 0 46.0 -0.07946648846376103 1
gene  1 1 26 0.5957152435477231 0 47.0 0.5957152435477231 1
gene  1 2 26 0.40286754182684514 0 48.0 0.40286754182684514 1
gene  1 3 26 0.37776939211150984 0 49.0 0.37776939211150984 1
gene  1 4 26 0.731880389228575 0 50.0 0.731880389228575 1
gene  1 5 26 -0.4450554187878313 0 51.0 -0.4450554187878313 1
gene  1 6 26 -0.12173628578109397 0 52.0 -0.12173628578109397 1
gene  1 7 26 -0.13595010836987198 0 53.0 -0.13595010836987198 1
gene  1 8 26 0.1356771786859421 0 54.0 0.1356771786859421 1
gene  1 9 26 -0.7981221269452236 0 55.0 -0.7981221269452236 1
gene  1 10 26 0.11110406373789017 0 56.0 0.11110406373789017 1
gene  1 11 26 0.4808244221426746 0 57.0 0.4808244221426746 1
gene  1 12 26 -0.733418452390732 0 58.0 -0.733418452390732 1
gene  1 13 26 -0.6003121957845576 0 59.0 -0.6003121957845576 1
gene  1 14 26 -0.237218307206153 0 60.0 -0.237218307206153 1
gene  1 15 26 -0.5770313753782481 0 61.0 -0.5770313753782481 1
gene  1 16 26 -0.28760567124444136 0 62.0 -0.28760567124444136 1
gene  1 17 26 -0.9319349812683595 0 63.0 -0.9319349812683595 1
gene  1 18 26 0.8192896163174448 0 64.0 0.8192896163174448 1
gene  1 19 26 0.10876519217588843 0 65.0 0.10876519217588843 1
gene  1 20 26 -0.6029970061594432 0 66.0 -0.6029970061594432 1
gene  1 21 26 -0.24198915004138666 0 67.0 -0.24198915004138666 1
gene  1 22 26 0.4642010794957342 0 68.0 0.4642010794957342 1
gene  1 23 26 -0.8681507861787985 0 69.0 -0.8681507861787985 1
gene  1 1 27 0.36511264031612556 0 70.0 0.36511264031612556 1
gene  1 2 27 -0.8081830146078036 0 71.0 -0.8081830146078036 1
gene  1 3 27 8.949149332099227E-4 0 72.0 8.949149332099227E-4 1
gene  1 4 27 -0.41814898857994875 0 73.0 -0.41814898857994875 1
gene  1 5 27 0.9525393984566753 0 74.0 0.9525393984566753 1
gene  1 6 27 0.3801129243519664 0 75.0 0.3801129243519664 1
gene  1 7 27 0.4598864752357005 0 76.0 0.4598864752357005 1
gene  1 8 27 -0.35180312347913667 0 77.0 -0.35180312347913667 1
gene  1 9 27 -0.9637681129782584 0 78.0 -0.9637681129782584 1
gene  1 10 27 -0.8114104288424191 0 79.0 -0.8114104288424191 1
gene  1 11 27 -0.4005686856073686 0 80.0 -0.4005686856073686 1
gene  1 12 27 0.2976801744557841 0 81.0 0.2976801744557841 1
gene  1 13 27 -0.9253743596674768 0 82.0 -0.9253743596674768 1
gene  1 14 27 -0.09819937628528108 0 83.0 -0.09819937628528108 1
gene  1 15 27 0.22048556357367388 0 84.0 0.22048556357367388 1
gene  1 16 27 -0.48595871478325536 0 85.0 -0.48595871478325536 1
gene  1 17 27 0.4293021832121361 0 86.0 0.4293021832121361 1
gene  1 18 27 -0.9718134665608399 0 87.0 -0.9718134665608399 1
gene  1 19 27 0.9031757767608558 0 88.0 0.9031757767608558 1
gene  1 20 27 0.8956602581601892 0 89.0 0.8956602581601892 1
gene  1 21 27 0.16661876148161525 0 90.0 0.16661876148161525 1
gene  1 22 27 -0.509235462638694 0 91.0 -0.509235462638694 1
gene  1 23 27 0.2879914958252805 0 92.0 0.2879914958252805 1
gene  1 23 28 -0.4902637277761368 0 93.0 -0.4902637277761368 1
gene  1 24 28 -0.7890399336314475 0 94.0 -0.7890399336314475 1
gene  1 25 28 0.950323198007677 0 95.0 0.950323198007677 1
gene  1 26 28 0.7368360239826525 0 96.0 0.7368360239826525 1
gene  1 27 28 -0.04002081530026069 0 97.0 -0.04002081530026069 1
gene  1 23 29 0.7153214047980212 0 98.0 0.7153214047980212 1
gene  1 24 29 0.4811591094318576 0 99.0 0.4811591094318576 1
gene  1 25 29 0.6862624270794577 0 100.0 0.6862624270794577 1
gene  1 26 29 -0.4827082222231962 0 101.0 -0.4827082222231962 1
gene  1 27 29 -0.30668178100337606 0 102.0 -0.30668178100337606 1
gene  1 23 30 0.45174043697639843 0 103.0 0.45174043697639843 1
gene  1 24 30 0.21293596908956047 0 104.0 0.21293596908956047 1
gene  1 25 30 0.6326959564231746 0 105.0 0.6326959564231746 1
gene  1 26 30 -0.8350619161831572 0 106.0 -0.8350619161831572 1
gene  1 27 30 0.747040735027717 0 107.0 0.747040735027717 1
gene  1 23 31 -0.4070626107803509 0 108.0 -0.4070626107803509 1
gene  1 24 31 0.4878354647857638 0 109.0 0.4878354647857638 1
gene  1 25 31 -0.35339182012716097 0 110.0 -0.35339182012716097 1
gene  1 26 31 0.585911361702378 0 111.0 0.585911361702378 1
gene  1 27 31 -0.08987511629418454 0 112.0 -0.08987511629418454 1
gene  1 23 32 -0.06591110334588224 0 113.0 -0.06591110334588224 1
gene  1 24 32 0.6131736092525653 0 114.0 0.6131736092525653 1
gene  1 25 32 0.25442815351470494 0 115.0 0.25442815351470494 1
gene  1 26 32 -0.572374190867659 0 116.0 -0.572374190867659 1
gene  1 27 32 0.022760341376820814 0 117.0 0.022760341376820814 1
genomeend 1
