genomestart  1
trait 1 0.0 0.0 0.0 0.0 0.0 0.0 0.0 0.0 
node 1 1 1 1
node 2 1 1 1
node 3 1 1 1
node 4 1 1 1
node 5 1 1 1
node 6 1 1 1
node 7 1 1 1
node 8 1 1 1
node 9 1 1 1
node 10 1 1 1
node 11 1 1 3
node 12 1 0 0
node 13 1 0 0
node 14 1 0 0
node 15 1 0 0
node 16 1 0 2
node 17 1 0 2
node 18 1 0 2
node 19 1 0 2
node 20 1 0 2
gene  1 1 12 0.38574246751529073 0 1.0 0.38574246751529073 1
gene  1 2 12 0.6766503145848208 0 2.0 0.6766503145848208 1
gene  1 3 12 0.39491020393499643 0 3.0 0.39491020393499643 1
gene  1 4 12 -0.5985204368355271 0 4.0 -0.5985204368355271 1
gene  1 5 12 0.1174178504487241 0 5.0 0.1174178504487241 1
gene  1 6 12 -0.660032856369039 0 6.0 -0.660032856369039 1
gene  1 7 12 0.6524649845085158 0 7.0 0.6524649845085158 1
gene  1 8 12 0.8985155542645352 0 8.0 0.8985155542645352 1
gene  1 9 12 0.3510953197626375 0 9.0 0.3510953197626375 1
gene  1 10 12 0.4224155111834954 0 10.0 0.4224155111834954 1
gene  1 11 12 -0.06834586852333047 0 11.0 -0.06834586852333047 1
gene  1 1 13 -0.2090713382246533 0 12.0 -0.2090713382246533 1
gene  1 2 13 0.6375140600910305 0 13.0 0.6375140600910305 1
gene  1 3 13 -0.6415150283040298 0 14.0 -0.6415150283040298 1
gene  1 4 13 -0.5351418241355432 0 15.0 -0.5351418241355432 1
gene  1 5 13 -0.24357605050960518 0 16.0 -0.24357605050960518 1
gene  1 6 13 0.46190748363623535 0 17.0 0.46190748363623535 1
gene  1 7 13 -0.44683280058057007 0 18.0 -0.44683280058057007 1
gene  1 8 13 0.4675972890580048 0 19.0 0.4675972890580048 1
gene  1 9 13 0.05132891778106086 0 20.0 0.05132891778106086 1
gene  1 10 13 0.5960750177911863 0 21.0 0.5960750177911863 1
gene  1 11 13 0.4179510174866964 0 22.0 0.4179510174866964 1
gene  1 1 14 -0.4741707978832691 0 23.0 -0.4741707978832691 1
gene  1 2 14 0.38887898246215513 0 24.0 0.38887898246215513 1
gene  1 3 14 -0.019266272811204965 0 25.0 -0.019266272811204965 1
gene  1 4 14 0.40287579780497185 0 26.0 0.40287579780497185 1
gene  1 5 14 0.5387585894963025 0 27.0 0.5387585894963025 1
gene  1 6 14 -0.5324603874419908 0 28.0 -0.5324603874419908 1
gene  1 7 14 0.38744666508759273 0 29.0 0.38744666508759273 1
gene  1 8 14 0.7912160958403052 0 30.0 0.7912160958403052 1
gene  1 9 14 -0.5894856132312567 0 31.0 -0.5894856132312567 1
gene  1 10 14 -0.42150243984807334 0 32.0 -0.42150243984807334 1
gene  1 11 14 -0.7754213581441458 0 33.0 -0.7754213581441458 1
gene  1 1 15 -0.6778780053750187 0 34.0 -0.6778780053750187 1
gene  1 2 15 0.3436773370379974 0 35.0 0.3436773370379974 1
gene  1 3 15 -0.42476173607806256 0 36.0 -0.42476173607806256 1
gene  1 4 15 0.7448804104095872 0 37.0 0.7448804104095872 1
gene  1 5 15 0.48728188185308885 0 38.0 0.48728188185308885 1
gene  1 6 15 -0.11958172230963826 0 39.0 -0.11958172230963826 1
gene  1 7 15 -0.4631481386043743 0 40.0 -0.4631481386043743 1
gene  1 8 15 0.4702957568501209 0 41.0 0.4702957568501209 1
gene  1 9 15 -0.8507541753206034 0 42.0 -0.8507541753206034 1
gene  1 10 15 -0.5299022145845095 0 43.0 -0.5299022145845095 1
gene  1 11 15 0.42261467912452255 0 44.0 0.42261467912452255 1
gene  1 11 16 0.2472251420506224 0 45.0 0.2472251420506224 1
gene  1 12 16 0.8299661282598554 0 46.0 0.8299661282598554 1
gene  1 13 16 -0.6753924859365579 0 47.0 -0.6753924859365579 1
gene  1 14 16 0.8217510655751779 0 48.0 0.8217510655751779 1
gene  1 15 16 0.8243118521043755 0 49.0 0.8243118521043755 1
gene  1 11 17 -0.430720879553513 0 50.0 -0.430720879553513 1
gene  1 12 17 -0.36619096834961506 0 51.0 -0.36619096834961506 1
gene  1 13 17 0.24652947144534187 0 52.0 0.24652947144534187 1
gene  1 14 17 -0.5483375123997747 0 53.0 -0.5483375123997747 1
gene  1 15 17 0.9620355619787865 0 54.0 0.9620355619787865 1
gene  1 11 18 -0.6636531071829079 0 55.0 -0.6636531071829079 1
gene  1 12 18 0.6729476166895123 0 56.0 0.6729476166895123 1
gene  1 13 18 0.7451924535341024 0 57.0 0.7451924535341024 1
gene  1 14 18 0.35770966764950785 0 58.0 0.35770966764950785 1
gene  1 15 18 0.47745940207408044 0 59.0 0.47745940207408044 1
gene  1 11 19 -0.12041460188836928 0 60.0 -0.12041460188836928 1
gene  1 12 19 -0.329546079535612 0 61.0 -0.329546079535612 1
gene  1 13 19 0.5181717106359361 0 62.0 0.5181717106359361 1
gene  1 14 19 0.31490282474819 0 63.0 0.31490282474819 1
gene  1 15 19 -0.12732902912698396 0 64.0 -0.12732902912698396 1
gene  1 11 20 -0.640185868494357 0 65.0 -0.640185868494357 1
gene  1 12 20 -0.9604880685915024 0 66.0 -0.9604880685915024 1
gene  1 13 20 0.4765285345219388 0 67.0 0.4765285345219388 1
gene  1 14 20 0.937473121815147 0 68.0 0.937473121815147 1
gene  1 15 20 -0.5311692538137555 0 69.0 -0.5311692538137555 1
genomeend 1
