genomestart  1
trait 1 0.0 0.0 0.0 0.0 0.0 0.0 0.0 0.0 
node 1 1 1 1
node 2 1 1 1
node 3 1 1 1
node 4 1 1 1
node 5 1 1 3
node 6 1 0 0
node 7 1 0 0
node 8 1 0 0
node 9 1 0 0
node 10 1 0 2
node 11 1 0 2
node 12 1 0 2
node 13 1 0 2
gene  1 1 6 0.5892247748739557 0 1.0 0.5892247748739557 1
gene  1 2 6 -0.76043996581825 0 2.0 -0.76043996581825 1
gene  1 3 6 0.257536846323718 0 3.0 0.257536846323718 1
gene  1 4 6 -0.3005672724657764 0 4.0 -0.3005672724657764 1
gene  1 5 6 -0.7868099001769943 0 5.0 -0.7868099001769943 1
gene  1 1 7 0.299066049527555 0 6.0 0.299066049527555 1
gene  1 2 7 0.6534648676901874 0 7.0 0.6534648676901874 1
gene  1 3 7 -0.8715428701606924 0 8.0 -0.8715428701606924 1
gene  1 4 7 0.37454726987947184 0 9.0 0.37454726987947184 1
gene  1 5 7 -0.602139861801901 0 10.0 -0.602139861801901 1
gene  1 1 8 -0.982764764258225 0 11.0 -0.982764764258225 1
gene  1 2 8 -0.9262795824591512 0 12.0 -0.9262795824591512 1
gene  1 3 8 -0.4942665153952044 0 13.0 -0.4942665153952044 1
gene  1 4 8 0.09610431473118364 0 14.0 0.09610431473118364 1
gene  1 5 8 0.5676304536211312 0 15.0 0.5676304536211312 1
gene  1 1 9 0.02298516493897229 0 16.0 0.02298516493897229 1
gene  1 2 9 -0.7136632734940627 0 17.0 -0.7136632734940627 1
gene  1 3 9 -0.133751951636785 0 18.0 -0.133751951636785 1
gene  1 4 9 0.32014615703132865 0 19.0 0.32014615703132865 1
gene  1 5 9 0.14533282188887098 0 20.0 0.14533282188887098 1
gene  1 5 10 0.008956753856049104 0 21.0 0.008956753856049104 1
gene  1 6 10 -0.7009340973734909 0 22.0 -0.7009340973734909 1
gene  1 7 10 -0.287471487283831 0 23.0 -0.287471487283831 1
gene  1 8 10 0.20137342815902948 0 24.0 0.20137342815902948 1
gene  1 9 10 -0.634422061072188 0 25.0 -0.634422061072188 1
gene  1 5 11 -0.8772686326282249 0 26.0 -0.8772686326282249 1
gene  1 6 11 -0.19791887194107594 0 27.0 -0.19791887194107594 1
gene  1 7 11 0.6074017147311822 0 28.0 0.6074017147311822 1
gene  1 8 11 -0.8350706845021865 0 29.0 -0.8350706845021865 1
gene  1 9 11 -0.7240496913778208 0 30.0 -0.7240496913778208 1
gene  1 5 12 0.971721861812088 0 31.0 0.971721861812088 1
gene  1 6 12 -0.7907408741991397 0 32.0 -0.7907408741991397 1
gene  1 7 12 -0.05188774599317314 0 33.0 -0.05188774599317314 1
gene  1 8 12 0.9369037146447895 0 34.0 0.9369037146447895 1
gene  1 9 12 -0.8786646990163038 0 35.0 -0.8786646990163038 1
gene  1 5 13 0.021585076810495263 0 36.0 0.021585076810495263 1
gene  1 6 13 0.24823989668543922 0 37.0 0.24823989668543922 1
gene  1 7 13 0.98156848805553 0 38.0 0.98156848805553 1
gene  1 8 13 -0.11561385949955183 0 39.0 -0.11561385949955183 1
gene  1 9 13 0.4197738310993523 0 40.0 0.4197738310993523 1
genomeend 1
