genomestart  1
trait 1 0.0 0.0 0.0 0.0 0.0 0.0 0.0 0.0 
node 1 1 1 1
node 2 1 1 1
node 3 1 1 1
node 4 1 1 1
node 5 1 1 1
node 6 1 1 1
node 7 1 1 1
node 8 1 1 1
node 9 1 1 1
node 10 1 1 1
node 11 1 1 1
node 12 1 1 1
node 13 1 1 3
node 14 1 0 2
gene  1 1 14 -0.2551545697455112 0 1.0 -0.2551545697455112 1
gene  1 2 14 -0.01640178992099839 0 2.0 -0.01640178992099839 1
gene  1 3 14 0.8160730440223468 0 3.0 0.8160730440223468 1
gene  1 4 14 0.29951775753245014 0 4.0 0.29951775753245014 1
gene  1 5 14 0.0956160597976573 0 5.0 0.0956160597976573 1
gene  1 6 14 -0.17845411991187754 0 6.0 -0.17845411991187754 1
gene  1 7 14 0.7039063050090348 0 7.0 0.7039063050090348 1
gene  1 8 14 -0.463506693078805 0 8.0 -0.463506693078805 1
gene  1 9 14 -0.026605137079587893 0 9.0 -0.026605137079587893 1
gene  1 10 14 0.6751719033815708 0 10.0 0.6751719033815708 1
gene  1 11 14 -0.7304160815472616 0 11.0 -0.7304160815472616 1
gene  1 12 14 -0.6559498931447154 0 12.0 -0.6559498931447154 1
gene  1 13 14 -0.26823901746685974 0 13.0 -0.26823901746685974 1
genomeend 1
