genomestart  1
trait 1 0.0 0.0 0.0 0.0 0.0 0.0 0.0 0.0 
node 1 1 1 1
node 2 1 1 1
node 3 1 1 1
node 4 1 1 1
node 5 1 1 1
node 6 1 1 1
node 7 1 1 1
node 8 1 1 1
node 9 1 1 3
node 10 1 0 0
node 11 1 0 0
node 12 1 0 0
node 13 1 0 0
node 14 1 0 2
node 15 1 0 2
node 16 1 0 2
node 17 1 0 2
gene  1 1 10 0.5650645898264381 0 1.0 0.5650645898264381 1
gene  1 2 10 0.3979168658619596 0 2.0 0.3979168658619596 1
gene  1 3 10 -0.48512121538416364 0 3.0 -0.48512121538416364 1
gene  1 4 10 -0.024675008803445975 0 4.0 -0.024675008803445975 1
gene  1 5 10 -0.19077652385497157 0 5.0 -0.19077652385497157 1
gene  1 6 10 0.7969376516585096 0 6.0 0.7969376516585096 1
gene  1 7 10 0.9727329103377067 0 7.0 0.9727329103377067 1
gene  1 8 10 -0.7944567841901177 0 8.0 -0.7944567841901177 1
gene  1 9 10 -0.5567491220588974 0 9.0 -0.5567491220588974 1
gene  1 1 11 0.9535059198253916 0 10.0 0.9535059198253916 1
gene  1 2 11 -0.4690497069528161 0 11.0 -0.4690497069528161 1
gene  1 3 11 -0.7138364165976575 0 12.0 -0.7138364165976575 1
gene  1 4 11 0.47630237947723375 0 13.0 0.47630237947723375 1
gene  1 5 11 0.7402545747344752 0 14.0 0.7402545747344752 1
gene  1 6 11 -0.6843227093954669 0 15.0 -0.6843227093954669 1
gene  1 7 11 -0.07952602984272916 0 16.0 -0.07952602984272916 1
gene  1 8 11 -0.20315213628159157 0 17.0 -0.20315213628159157 1
gene  1 9 11 0.6375584387883088 0 18.0 0.6375584387883088 1
gene  1 1 12 -0.5085939205199573 0 19.0 -0.5085939205199573 1
gene  1 2 12 0.34263871098273746 0 20.0 0.34263871098273746 1
gene  1 3 12 -0.9777968193529384 0 21.0 -0.9777968193529384 1
gene  1 4 12 -0.5034261922017202 0 22.0 -0.5034261922017202 1
gene  1 5 12 0.12443432519404807 0 23.0 0.12443432519404807 1
gene  1 6 12 0.3715433653890253 0 24.0 0.3715433653890253 1
gene  1 7 12 0.672331288204577 0 25.0 0.672331288204577 1
gene  1 8 12 -0.46180091476410734 0 26.0 -0.46180091476410734 1
gene  1 9 12 0.48272291598049133 0 27.0 0.48272291598049133 1
gene  1 1 13 -0.08498514429310444 0 28.0 -0.08498514429310444 1
gene  1 2 13 -0.34224756671222156 0 29.0 -0.34224756671222156 1
gene  1 3 13 0.8676119340163131 0 30.0 0.8676119340163131 1
gene  1 4 13 -0.6041109064923827 0 31.0 -0.6041109064923827 1
gene  1 5 13 -0.4301804964711161 0 32.0 -0.4301804964711161 1
gene  1 6 13 -0.5888014060802277 0 33.0 -0.5888014060802277 1
gene  1 7 13 -0.7438745344991085 0 34.0 -0.7438745344991085 1
gene  1 8 13 -0.3864859400312811 0 35.0 -0.3864859400312811 1
gene  1 9 13 -0.4109775401820671 0 36.0 -0.4109775401820671 1
gene  1 9 14 -0.932143744323195 0 37.0 -0.932143744323195 1
gene  1 10 14 -0.45002973482641884 0 38.0 -0.45002973482641884 1
gene  1 11 14 0.7802277704694819 0 39.0 0.7802277704694819 1
gene  1 12 14 0.9879660183556742 0 40.0 0.9879660183556742 1
gene  1 13 14 -0.32039233381267496 0 41.0 -0.32039233381267496 1
gene  1 9 15 -0.8747171108202499 0 42.0 -0.8747171108202499 1
gene  1 10 15 0.351024562286985 0 43.0 0.351024562286985 1
gene  1 11 15 0.47348212993660643 0 44.0 0.47348212993660643 1
gene  1 12 15 0.36428498373377316 0 45.0 0.36428498373377316 1
gene  1 13 15 0.0653172289741758 0 46.0 0.0653172289741758 1
gene  1 9 16 0.006569389686978955 0 47.0 0.006569389686978955 1
gene  1 10 16 0.12450353908567291 0 48.0 0.12450353908567291 1
gene  1 11 16 0.5365190888782196 0 49.0 0.5365190888782196 1
gene  1 12 16 0.7478036788011324 0 50.0 0.7478036788011324 1
gene  1 13 16 0.5000229665961047 0 51.0 0.5000229665961047 1
gene  1 9 17 0.1370759861743881 0 52.0 0.1370759861743881 1
gene  1 10 17 0.03922670992911481 0 53.0 0.03922670992911481 1
gene  1 11 17 -0.6624938505466286 0 54.0 -0.6624938505466286 1
gene  1 12 17 -0.8305331049397527 0 55.0 -0.8305331049397527 1
gene  1 13 17 -0.10562598266982037 0 56.0 -0.10562598266982037 1
genomeend 1
