genomestart  1
trait 1 0.0 0.0 0.0 0.0 0.0 0.0 0.0 0.0 
node 1 1 1 1
node 2 1 1 1
node 3 1 1 1
node 4 1 1 1
node 5 1 1 1
node 6 1 1 1
node 7 1 1 1
node 8 1 1 1
node 9 1 1 1
node 10 1 1 1
node 11 1 1 1
node 12 1 1 1
node 13 1 1 1
node 14 1 1 1
node 15 1 1 1
node 16 1 1 1
node 17 1 1 3
node 18 1 0 2
node 19 1 0 2
node 20 1 0 2
node 21 1 0 2
gene  1 1 18 -0.46453208204302954 0 1.0 -0.46453208204302954 1
gene  1 2 18 0.252212866390899 0 2.0 0.252212866390899 1
gene  1 3 18 -0.5635782515483317 0 3.0 -0.5635782515483317 1
gene  1 4 18 0.7572533391655767 0 4.0 0.7572533391655767 1
gene  1 5 18 -0.16020199528763734 0 5.0 -0.16020199528763734 1
gene  1 6 18 0.35440733133536284 0 6.0 0.35440733133536284 1
gene  1 7 18 0.19063326763842736 0 7.0 0.19063326763842736 1
gene  1 8 18 -0.6548611807321197 0 8.0 -0.6548611807321197 1
gene  1 9 18 -0.24242045761360276 0 9.0 -0.24242045761360276 1
gene  1 10 18 0.01639155882706833 0 10.0 0.01639155882706833 1
gene  1 11 18 0.3429561123401116 0 11.0 0.3429561123401116 1
gene  1 12 18 0.03766402617006237 0 12.0 0.03766402617006237 1
gene  1 13 18 0.9322169703059641 0 13.0 0.9322169703059641 1
gene  1 14 18 -0.5377083962330205 0 14.0 -0.5377083962330205 1
gene  1 15 18 0.6328776748004736 0 15.0 0.6328776748004736 1
gene  1 16 18 0.2480018538483717 0 16.0 0.2480018538483717 1
gene  1 17 18 -0.37075056816241225 0 17.0 -0.37075056816241225 1
gene  1 1 19 -0.501450179178019 0 18.0 -0.501450179178019 1
gene  1 2 19 -0.7390606204129602 0 19.0 -0.7390606204129602 1
gene  1 3 19 0.8175161564720741 0 20.0 0.8175161564720741 1
gene  1 4 19 -0.2449758126337077 0 21.0 -0.2449758126337077 1
gene  1 5 19 0.699737362874689 0 22.0 0.699737362874689 1
gene  1 6 19 0.02323517198220304 0 23.0 0.02323517198220304 1
gene  1 7 19 -0.3034563279763226 0 24.0 -0.3034563279763226 1
gene  1 8 19 -0.41368266455468483 0 25.0 -0.41368266455468483 1
gene  1 9 19 0.229318945980573 0 26.0 0.229318945980573 1
gene  1 10 19 -0.11981118627782783 0 27.0 -0.11981118627782783 1
gene  1 11 19 -0.9048678845087125 0 28.0 -0.9048678845087125 1
gene  1 12 19 0.9574396995406695 0 29.0 0.9574396995406695 1
gene  1 13 19 -0.6453613959818539 0 30.0 -0.6453613959818539 1
gene  1 14 19 -0.4823918806494816 0 31.0 -0.4823918806494816 1
gene  1 15 19 0.8624090033199199 0 32.0 0.8624090033199199 1
gene  1 16 19 -0.12315406501097004 0 33.0 -0.12315406501097004 1
gene  1 17 19 0.6057018528767462 0 34.0 0.6057018528767462 1
gene  1 1 20 0.07998795983783147 0 35.0 0.07998795983783147 1
gene  1 2 20 0.4063936481280268 0 36.0 0.4063936481280268 1
gene  1 3 20 0.3991021689892852 0 37.0 0.3991021689892852 1
gene  1 4 20 -0.11968376310817508 0 38.0 -0.11968376310817508 1
gene  1 5 20 -0.4938106276848797 0 39.0 -0.4938106276848797 1
gene  1 6 20 0.19007281616465566 0 40.0 0.19007281616465566 1
gene  1 7 20 0.651296006409384 0 41.0 0.651296006409384 1
gene  1 8 20 -0.6916157053537266 0 42.0 -0.6916157053537266 1
gene  1 9 20 -0.08950589139485432 0 43.0 -0.08950589139485432 1
gene  1 10 20 -0.23402122294273353 0 44.0 -0.23402122294273353 1
gene  1 11 20 0.260720961934211 0 45.0 0.260720961934211 1
gene  1 12 20 -0.7847166599578083 0 46.0 -0.7847166599578083 1
gene  1 13 20 -0.04305984259427087 0 47.0 -0.04305984259427087 1
gene  1 14 20 -0.15205296869432006 0 48.0 -0.15205296869432006 1
gene  1 15 20 0.32897567828613916 0 49.0 0.32897567828613916 1
gene  1 16 20 0.9523278440728933 0 50.0 0.9523278440728933 1
gene  1 17 20 0.14170486663345128 0 51.0 0.14170486663345128 1
gene  1 1 21 -0.052979797209670276 0 52.0 -0.052979797209670276 1
gene  1 2 21 0.744701620460814 0 53.0 0.744701620460814 1
gene  1 3 21 -0.12375510517908928 0 54.0 -0.12375510517908928 1
gene  1 4 21 -0.12121840165762887 0 55.0 -0.12121840165762887 1
gene  1 5 21 -0.9737568426822817 0 56.0 -0.9737568426822817 1
gene  1 6 21 0.6243240176464131 0 57.0 0.6243240176464131 1
gene  1 7 21 0.18629909179021542 0 58.0 0.18629909179021542 1
gene  1 8 21 -0.042128697644322144 0 59.0 -0.042128697644322144 1
gene  1 9 21 -0.9405157361765627 0 60.0 -0.9405157361765627 1
gene  1 10 21 0.9293266707279068 0 61.0 0.9293266707279068 1
gene  1 11 21 -0.5761556755966143 0 62.0 -0.5761556755966143 1
gene  1 12 21 -0.8505041192112581 0 63.0 -0.8505041192112581 1
gene  1 13 21 0.95142298412899 0 64.0 0.95142298412899 1
gene  1 14 21 -0.9117122591767564 0 65.0 -0.9117122591767564 1
gene  1 15 21 0.8416207374087792 0 66.0 0.8416207374087792 1
gene  1 16 21 -0.8620540372008544 0 67.0 -0.8620540372008544 1
gene  1 17 21 -0.9903526414471644 0 68.0 -0.9903526414471644 1
genomeend 1
