/* Species # 175         : (size= 002) (AvfFit= 977,500) (Age= 26,000)  */
/*-------------------------------------------------------------------*/
/* Organism # 000 Fitness:  0,000 Error:  0,000                      */
genomestart  0
trait 1 0.15906958955964612 0.29105188460910975 0.0 0.0 0.0 0.0 0.0 0.0 
node 1 1 1 1
node 2 1 1 1
node 3 1 1 1
node 4 1 1 1
node 5 1 1 1
node 6 1 1 1
node 7 1 1 1
node 8 1 1 1
node 9 1 1 1
node 10 1 1 1
node 11 1 1 1
node 12 1 1 1
node 13 1 1 1
node 14 1 1 1
node 15 1 1 1
node 16 1 1 1
node 17 1 1 1
node 18 1 1 1
node 19 1 1 1
node 20 1 1 1
node 21 1 1 1
node 22 1 1 1
node 23 1 1 3
node 24 1 0 0
node 25 1 0 0
node 26 1 0 0
node 27 1 0 0
node 28 1 0 2
node 29 1 0 2
node 30 1 0 2
node 31 1 0 2
node 32 1 0 2
node 41 1 0 0
node 69 1 0 0
node 99 1 0 0
node 103 1 0 0
node 110 1 0 0
node 128 1 0 0
node 150 1 0 0
node 191 1 0 0
node 236 1 0 0
node 242 1 0 0
node 277 1 0 0
node 286 1 0 0
node 295 1 0 0
node 310 1 0 0
node 333 1 0 0
node 355 1 0 0
node 361 1 0 0
node 390 1 0 0
node 419 1 0 0
node 449 1 0 0
node 458 1 0 0
node 492 1 0 0
node 502 1 0 0
node 519 1 0 0
node 550 1 0 0
node 613 1 0 0
node 637 1 0 0
node 650 1 0 0
node 684 1 0 0
node 693 1 0 0
node 762 1 0 0
node 780 1 0 0
node 801 1 0 0
node 817 1 0 0
node 833 1 0 0
node 837 1 0 0
node 877 1 0 0
node 949 1 0 0
node 953 1 0 0
node 967 1 0 0
node 984 1 0 0
node 1008 1 0 0
node 1029 1 0 0
node 1062 1 0 0
node 1090 1 0 0
node 1102 1 0 0
node 1125 1 0 0
node 1134 1 0 0
node 1274 1 0 0
node 1291 1 0 0
node 1304 1 0 0
node 1314 1 0 0
node 1321 1 0 0
node 1327 1 0 0
node 1346 1 0 0
node 1360 1 0 0
node 1367 1 0 0
node 1410 1 0 0
node 1417 1 0 0
node 1459 1 0 0
node 1482 1 0 0
node 1487 1 0 0
node 1497 1 0 0
node 1505 1 0 0
node 1524 1 0 0
node 1533 1 0 0
node 1569 1 0 0
node 1584 1 0 0
node 1593 1 0 0
node 1598 1 0 0
node 1620 1 0 0
node 1639 1 0 0
node 1685 1 0 0
node 1698 1 0 0
node 1712 1 0 0
node 1743 1 0 0
node 1795 1 0 0
node 1821 1 0 0
node 1852 1 0 0
node 1865 1 0 0
node 1866 1 0 0
node 1877 1 0 0
node 1890 1 0 0
node 1896 1 0 0
node 1907 1 0 0
node 1915 1 0 0
node 1934 1 0 0
node 1984 1 0 0
node 2003 1 0 0
node 2011 1 0 0
node 2034 1 0 0
node 2054 1 0 0
node 2058 1 0 0
node 2076 1 0 0
node 2167 1 0 0
node 2188 1 0 0
node 2223 1 0 0
node 2230 1 0 0
node 2301 1 0 0
node 2329 1 0 0
node 2335 1 0 0
node 2353 1 0 0
node 2382 1 0 0
node 2389 1 0 0
node 2407 1 0 0
node 2438 1 0 0
node 2444 1 0 0
node 2497 1 0 0
node 2517 1 0 0
node 2543 1 0 0
node 2571 1 0 0
node 2593 1 0 0
node 2615 1 0 0
node 2628 1 0 0
node 2643 1 0 0
node 2646 1 0 0
node 2731 1 0 0
node 2741 1 0 0
node 2819 1 0 0
gene  1 1 24 0.6836074841519658 0 1.0 0.6836074841519658 1
gene  1 2 24 0.2418349725060388 0 2.0 0.2418349725060388 1
gene  1 3 24 2.231101296592862 0 3.0 2.231101296592862 1
gene  1 4 24 1.9984107658146633 0 4.0 1.9984107658146633 1
gene  1 5 24 -1.295047861402809 0 5.0 -1.295047861402809 1
gene  1 6 24 -0.46614332725808727 0 6.0 -0.46614332725808727 1
gene  1 7 24 -0.6632373714736616 0 7.0 -0.6632373714736616 1
gene  1 8 24 -1.1786407631101534 0 8.0 -1.1786407631101534 1
gene  1 9 24 0.7083499676735852 0 9.0 0.7083499676735852 1
gene  1 10 24 1.8287682424176324 0 10.0 1.8287682424176324 1
gene  1 11 24 0.13114292736241406 0 11.0 0.13114292736241406 1
gene  1 12 24 0.20129052057887642 0 12.0 0.20129052057887642 1
gene  1 13 24 0.15119511013894327 0 13.0 0.15119511013894327 1
gene  1 14 24 -2.305494291515135 0 14.0 -2.305494291515135 1
gene  1 15 24 1.7866237942300476 0 15.0 1.7866237942300476 1
gene  1 16 24 0.4609847206181178 0 16.0 0.4609847206181178 1
gene  1 17 24 1.1367228621818093 0 17.0 1.1367228621818093 1
gene  1 18 24 1.0832013029571876 0 18.0 1.0832013029571876 1
gene  1 19 24 1.1167443914792334 0 19.0 1.1167443914792334 1
gene  1 20 24 0.07414205454090883 0 20.0 0.07414205454090883 1
gene  1 21 24 0.5418885079930811 0 21.0 0.5418885079930811 1
gene  1 22 24 2.484950267181405 0 22.0 2.484950267181405 1
gene  1 23 24 0.425929415896056 0 23.0 0.425929415896056 1
gene  1 1 25 0.6154095691625152 0 24.0 0.6154095691625152 1
gene  1 2 25 -2.8755165268856366 0 25.0 -2.8755165268856366 1
gene  1 3 25 2.689302679798512 0 26.0 2.689302679798512 0
gene  1 4 25 -0.7614296740576152 0 27.0 -0.7614296740576152 1
gene  1 5 25 -0.12017325232786724 0 28.0 -0.12017325232786724 1
gene  1 6 25 -0.8995478796312145 0 29.0 -0.8995478796312145 1
gene  1 7 25 -0.012654369140360444 0 30.0 -0.012654369140360444 1
gene  1 8 25 1.3910890901314834 0 31.0 1.3910890901314834 1
gene  1 9 25 0.3584175622867064 0 32.0 0.3584175622867064 1
gene  1 10 25 0.2779443092033518 0 33.0 0.2779443092033518 1
gene  1 11 25 1.142465146794125 0 34.0 1.142465146794125 1
gene  1 12 25 0.9036541395774667 0 35.0 0.9036541395774667 1
gene  1 13 25 -1.2351814578924105 0 36.0 -1.2351814578924105 1
gene  1 14 25 -2.406576236033213 0 37.0 -2.406576236033213 1
gene  1 15 25 -1.3059963432256165 0 38.0 -1.3059963432256165 1
gene  1 16 25 -0.07279068140327355 0 39.0 -0.07279068140327355 1
gene  1 17 25 2.1463068148221858 0 40.0 2.1463068148221858 1
gene  1 18 25 -0.8147305052695352 0 41.0 -0.8147305052695352 1
gene  1 19 25 -1.8963916370755176 0 42.0 -1.8963916370755176 1
gene  1 20 25 -0.17530964326477716 0 43.0 -0.17530964326477716 1
gene  1 21 25 -2.1615664960138625 0 44.0 -2.1615664960138625 1
gene  1 22 25 -0.5353496319643707 0 45.0 -0.5353496319643707 1
gene  1 23 25 2.211182550883856 0 46.0 2.211182550883856 1
gene  1 1 26 -0.1813538282281052 0 47.0 -0.1813538282281052 1
gene  1 2 26 1.0348232233393615 0 48.0 1.0348232233393615 1
gene  1 3 26 -0.26852393576716355 0 49.0 -0.26852393576716355 1
gene  1 4 26 -0.5462351900443294 0 50.0 -0.5462351900443294 1
gene  1 5 26 1.841798679175527 0 51.0 1.841798679175527 1
gene  1 6 26 0.9246057866887103 0 52.0 0.9246057866887103 1
gene  1 7 26 2.961718684201993 0 53.0 2.961718684201993 1
gene  1 8 26 1.3531921659176516 0 54.0 1.3531921659176516 1
gene  1 9 26 -1.7276248866576271 0 55.0 -1.7276248866576271 1
gene  1 10 26 2.0139802487278704 0 56.0 2.0139802487278704 1
gene  1 11 26 1.528778550886252 0 57.0 1.528778550886252 1
gene  1 12 26 -0.5785609867130133 0 58.0 -0.5785609867130133 1
gene  1 13 26 -2.6797800697851013 0 59.0 -2.6797800697851013 1
gene  1 14 26 -0.5697240976550146 0 60.0 -0.5697240976550146 1
gene  1 15 26 -0.6337731619541322 0 61.0 -0.6337731619541322 1
gene  1 16 26 -3.0562620734655126 0 62.0 -3.0562620734655126 1
gene  1 17 26 -0.6658234717228073 0 63.0 -0.6658234717228073 1
gene  1 18 26 3.3403867808578074 0 64.0 3.3403867808578074 1
gene  1 19 26 0.7776803632315288 0 65.0 0.7776803632315288 1
gene  1 20 26 -0.7243609006292111 0 66.0 -0.7243609006292111 1
gene  1 21 26 -3.0739483612397973 0 67.0 -3.0739483612397973 1
gene  1 22 26 -0.8853447786938764 0 68.0 -0.8853447786938764 1
gene  1 23 26 -1.392668583310223 0 69.0 -1.392668583310223 1
gene  1 1 27 0.1950912962028929 0 70.0 0.1950912962028929 1
gene  1 2 27 -2.3849842766314993 0 71.0 -2.3849842766314993 1
gene  1 3 27 -1.4510293084069832 0 72.0 -1.4510293084069832 1
gene  1 4 27 -2.108078397682316 0 73.0 -2.108078397682316 1
gene  1 5 27 0.9853093818432086 0 74.0 0.9853093818432086 1
gene  1 6 27 1.9012442085109171 0 75.0 1.9012442085109171 1
gene  1 7 27 -1.1359514906506512 0 76.0 -1.1359514906506512 1
gene  1 8 27 1.3588260773815568 0 77.0 1.3588260773815568 1
gene  1 9 27 -2.8086161361721667 0 78.0 -2.8086161361721667 1
gene  1 10 27 0.6822866399342444 0 79.0 0.6822866399342444 1
gene  1 11 27 -1.4192574802827127 0 80.0 -1.4192574802827127 1
gene  1 12 27 2.0194659787646483 0 81.0 2.0194659787646483 1
gene  1 13 27 -3.29794013327734 0 82.0 -3.29794013327734 1
gene  1 14 27 -1.0273223382155723 0 83.0 -1.0273223382155723 1
gene  1 15 27 0.8854793246663014 0 84.0 0.8854793246663014 1
gene  1 16 27 -2.4100030796377325 0 85.0 -2.4100030796377325 1
gene  1 17 27 1.1641354279973304 0 86.0 1.1641354279973304 1
gene  1 18 27 -1.5657621004727782 0 87.0 -1.5657621004727782 1
gene  1 19 27 0.9635940309111093 0 88.0 0.9635940309111093 1
gene  1 20 27 -1.5141808232294682 0 89.0 -1.5141808232294682 1
gene  1 21 27 -1.6098739089238192 0 90.0 -1.6098739089238192 1
gene  1 22 27 -0.20721715934182405 0 91.0 -0.20721715934182405 1
gene  1 23 27 -2.7987944125960222 0 92.0 -2.7987944125960222 1
gene  1 23 28 1.3272888213665466 0 93.0 1.3272888213665466 1
gene  1 24 28 1.3820786340802313 0 94.0 1.3820786340802313 1
gene  1 25 28 0.8152174332290762 0 95.0 0.8152174332290762 1
gene  1 26 28 -1.8871519098029614 0 96.0 -1.8871519098029614 1
gene  1 27 28 -1.0416194194378714 0 97.0 -1.0416194194378714 1
gene  1 23 29 1.712662646035409 0 98.0 1.712662646035409 1
gene  1 24 29 0.3750308964985809 0 99.0 0.3750308964985809 1
gene  1 25 29 2.0081239104076944 0 100.0 2.0081239104076944 1
gene  1 26 29 -1.8177506182944394 0 101.0 -1.8177506182944394 1
gene  1 27 29 0.24578722111506612 0 102.0 0.24578722111506612 1
gene  1 23 30 -0.9792201881248785 0 103.0 -0.9792201881248785 1
gene  1 24 30 0.3847222154010963 0 104.0 0.3847222154010963 1
gene  1 25 30 1.8066113481737804 0 105.0 1.8066113481737804 1
gene  1 26 30 0.2284221571408082 0 106.0 0.2284221571408082 1
gene  1 27 30 2.7779870153214823 0 107.0 2.7779870153214823 1
gene  1 23 31 0.4191893547743016 0 108.0 0.4191893547743016 1
gene  1 24 31 0.77248384192597 0 109.0 0.77248384192597 1
gene  1 25 31 -2.4322039769326436 0 110.0 -2.4322039769326436 1
gene  1 26 31 1.9221518817702068 0 111.0 1.9221518817702068 1
gene  1 27 31 -1.706516430146761 0 112.0 -1.706516430146761 1
gene  1 23 32 -1.20797389976055 0 113.0 -1.20797389976055 1
gene  1 24 32 0.41904467590066785 0 114.0 0.41904467590066785 1
gene  1 25 32 -1.5085101012937148 0 115.0 -1.5085101012937148 1
gene  1 26 32 -0.2604847518040827 0 116.0 -0.2604847518040827 1
gene  1 27 32 1.0654473885398326 0 117.0 1.0654473885398326 1
gene  1 15 28 4.70782994343627 0 145.0 4.70782994343627 1
gene  1 24 41 0.7041611002973363 0 162.0 0.7041611002973363 1
gene  1 41 29 -0.7849467345565301 0 163.0 -0.7849467345565301 1
gene  1 11 28 9.218883268875562 0 192.0 9.218883268875562 1
gene  1 8 29 -2.176334847719313 0 252.0 -2.176334847719313 1
gene  1 8 69 0.6109648487557431 0 286.0 0.6109648487557431 1
gene  1 69 26 2.7645682336002895 0 287.0 2.7645682336002895 1
gene  1 14 28 8.721990907806568 0 325.0 8.721990907806568 1
gene  1 10 28 4.561700536875561 0 337.0 4.561700536875561 1
gene  1 15 32 6.306243292515637 0 371.0 6.306243292515637 1
gene  1 20 99 2.16353396511089 0 420.0 2.16353396511089 1
gene  1 99 27 -2.8094737854649665 0 421.0 -2.8094737854649665 1
gene  1 5 103 -1.0264695869117828 0 442.0 -1.0264695869117828 1
gene  1 103 24 1.3671339875182222 0 443.0 1.3671339875182222 1
gene  1 3 110 -1.3192452305966889 0 466.0 -1.3192452305966889 1
gene  1 110 26 0.17226926783242408 0 467.0 0.17226926783242408 1
gene  1 17 99 8.667263408509712 0 517.0 8.667263408509712 1
gene  1 16 128 -1.1029401447466332 0 542.0 -1.1029401447466332 1
gene  1 128 25 1.5541036770496022 0 543.0 1.5541036770496022 1
gene  1 22 103 -3.6589079271917693 0 584.0 -3.6589079271917693 1
gene  1 24 150 -0.4951572804097779 0 612.0 -0.4951572804097779 1
gene  1 150 29 1.760461199179113 0 613.0 1.760461199179113 1
gene  1 6 128 7.989030214491342 0 659.0 7.989030214491342 1
gene  1 150 69 7.977677494161361 0 697.0 7.977677494161361 1
gene  1 31 32 -7.223103554147636 0 712.0 -7.223103554147636 1
gene  1 26 41 -6.934677827942377 0 740.0 -6.934677827942377 1
gene  1 7 191 2.7026679260086692 0 774.0 2.7026679260086692 1
gene  1 191 26 2.8964560025688257 0 775.0 2.8964560025688257 1
gene  1 103 26 0.9890079923258703 0 816.0 0.9890079923258703 1
gene  1 9 29 -5.980022400228384 0 851.0 -5.980022400228384 1
gene  1 11 99 -3.9682740919211192 0 864.0 -3.9682740919211192 1
gene  1 12 99 -10.457000068568073 0 920.0 -10.457000068568073 1
gene  1 26 236 2.413153052333878 0 945.0 2.413153052333878 1
gene  1 236 28 -0.39879288095864707 0 946.0 -0.39879288095864707 1
gene  1 22 242 0.9659975009029367 0 964.0 0.9659975009029367 1
gene  1 242 24 1.9563221533460138 0 965.0 1.9563221533460138 1
gene  1 15 99 9.470992938607854 0 1027.0 9.470992938607854 1
gene  1 191 69 2.1652779438076055 0 1052.0 2.1652779438076055 1
gene  1 15 277 0.9471773128246486 0 1090.0 0.9471773128246486 1
gene  1 277 28 2.35561451715437 0 1091.0 2.35561451715437 1
gene  1 27 286 -0.12275845610281455 0 1116.0 -0.12275845610281455 1
gene  1 286 28 0.025667614407639316 0 1117.0 0.025667614407639316 1
gene  1 191 295 1.462792961073816 0 1142.0 1.462792961073816 1
gene  1 295 26 -0.6328061547708835 0 1143.0 -0.6328061547708835 1
gene  1 22 128 0.47233297098327853 0 1174.0 0.47233297098327853 1
gene  1 19 310 2.4856618195935347 0 1209.0 2.4856618195935347 1
gene  1 310 24 -1.6364077796782248 0 1210.0 -1.6364077796782248 1
gene  1 242 103 8.287160315783602 0 1238.0 8.287160315783602 1
gene  1 16 236 -0.9082556621137352 0 1287.0 -0.9082556621137352 1
gene  1 20 333 1.0 0 1305.0 1.0 1
gene  1 333 24 -0.43803176646816433 0 1306.0 -0.43803176646816433 1
gene  1 14 277 -7.3398616412898825 0 1364.0 -7.3398616412898825 1
gene  1 2 355 -0.6544197900779483 0 1395.0 -0.6544197900779483 1
gene  1 355 27 0.057231611804800075 0 1396.0 0.057231611804800075 1
gene  1 69 361 -0.018934202235794118 0 1416.0 -0.018934202235794118 1
gene  1 361 26 2.638823677941647 0 1417.0 2.638823677941647 1
gene  1 9 32 -4.24720604900855 0 1466.0 -4.24720604900855 1
gene  1 14 333 -3.785843903385777 0 1482.0 -3.785843903385777 1
gene  1 32 277 2.2177074487957547 0 1522.0 2.2177074487957547 1
gene  1 3 390 1.0 0 1547.0 1.0 1
gene  1 390 26 2.717639197728152 0 1548.0 2.717639197728152 1
gene  1 286 236 0.7913139280449974 0 1594.0 0.7913139280449974 1
gene  1 20 419 1.0 0 1638.0 1.0 1
gene  1 419 27 2.372046399786742 0 1639.0 2.372046399786742 1
gene  1 17 355 -3.941543941741722 0 1648.0 -3.941543941741722 1
gene  1 8 150 0.9703385552652399 0 1688.0 0.9703385552652399 1
gene  1 355 310 -5.568152431032543 0 1725.0 -5.568152431032543 1
gene  1 2 449 2.715246405901041 0 1757.0 2.715246405901041 1
gene  1 449 355 1.1406736985867385 0 1758.0 1.1406736985867385 1
gene  1 10 458 1.0 0 1789.0 1.0 1
gene  1 458 26 0.8334553162957417 0 1790.0 0.8334553162957417 1
gene  1 286 242 0.0177850674950375 0 1819.0 0.0177850674950375 1
gene  1 103 361 -4.425782843693852 0 1881.0 -4.425782843693852 1
gene  1 22 492 1.0 0 1911.0 0.0 1
gene  1 492 128 0.47233297098327853 0 1912.0 0.0 1
gene  1 14 502 1.0 0 1950.0 0.0 1
gene  1 502 25 -2.406576236033213 0 1951.0 0.0 1
gene  1 10 519 1.0 0 2010.0 0.0 1
gene  1 519 25 0.2779443092033518 0 2011.0 0.0 1
gene  1 103 333 -4.925490828342904 0 2033.0 -4.925490828342904 1
gene  1 7 242 -8.589149608783572 0 2047.0 -8.589149608783572 1
gene  1 361 30 -3.364430012547958 0 2081.0 -3.364430012547958 1
gene  1 286 550 1.0 0 2139.0 0.0 1
gene  1 550 28 0.025667614407639316 0 2140.0 0.0 1
gene  1 16 449 -4.819583852973205 0 2207.0 -4.819583852973205 1
gene  1 22 99 -2.805021694326193 0 2256.0 -2.805021694326193 1
gene  1 519 191 5.4862128461960324 0 2286.0 5.4862128461960324 1
gene  1 41 277 -9.127596344581471 0 2326.0 -9.127596344581471 1
gene  1 19 613 1.0 0 2370.0 0.0 1
gene  1 613 24 1.1167443914792334 0 2371.0 0.0 1
gene  1 19 361 -0.9731171545944906 0 2386.0 -0.9731171545944906 1
gene  1 150 519 6.419898397957137 0 2419.0 6.419898397957137 1
gene  1 8 637 1.0 0 2459.0 0.0 1
gene  1 637 69 0.6109648487557431 0 2460.0 0.0 1
gene  1 99 41 -5.8512602291313005 0 2491.0 -5.8512602291313005 1
gene  1 14 650 1.0 0 2525.0 0.0 1
gene  1 650 26 -0.5697240976550146 0 2526.0 0.0 1
gene  1 99 449 9.692660829861735 0 2574.0 9.692660829861735 1
gene  1 128 650 -5.0758949069195305 0 2611.0 -5.0758949069195305 1
gene  1 242 613 -5.126578153185584 0 2631.0 -5.126578153185584 1
gene  1 26 684 1.0 0 2651.0 0.0 1
gene  1 684 41 -6.934677827942377 0 2652.0 0.0 1
gene  1 7 693 1.0 0 2686.0 0.0 1
gene  1 693 27 -1.1359514906506512 0 2687.0 0.0 1
gene  1 693 637 -8.665673205969714 0 2741.0 -8.665673205969714 1
gene  1 21 28 0.06671616490239618 0 2763.0 0.06671616490239618 1
gene  1 458 103 8.611347731799743 0 2802.0 8.611347731799743 1
gene  1 286 41 -0.3004047542578181 0 2819.0 -0.3004047542578181 1
gene  1 502 390 -8.194380204004723 0 2870.0 -8.194380204004723 1
gene  1 333 32 -7.464997288507407 0 2893.0 -7.464997288507407 1
gene  1 30 236 5.775671236113728 0 2925.0 5.775671236113728 1
gene  1 9 762 1.0 0 2965.0 0.0 1
gene  1 762 26 -1.7276248866576271 0 2966.0 0.0 1
gene  1 16 613 4.007700359226538 0 2985.0 4.007700359226538 1
gene  1 25 780 1.0 0 3029.0 0.0 1
gene  1 780 28 0.8152174332290762 0 3030.0 0.0 1
gene  1 502 69 2.7969092830649056 0 3080.0 2.7969092830649056 1
gene  1 2 801 1.0 0 3114.0 0.0 1
gene  1 801 26 1.0348232233393615 0 3115.0 0.0 1
gene  1 550 310 4.349619558396177 0 3126.0 4.349619558396177 1
gene  1 550 817 1.0 0 3162.0 0.0 1
gene  1 817 28 0.025667614407639316 0 3163.0 0.0 1
gene  1 103 833 1.0 0 3220.0 0.0 1
gene  1 833 24 1.3671339875182222 0 3221.0 0.0 1
gene  1 14 837 1.0 0 3236.0 0.0 1
gene  1 837 333 -3.785843903385777 0 3237.0 0.0 1
gene  1 21 150 0.37578412308161835 0 3282.0 0.37578412308161835 1
gene  1 650 780 3.1321547879450895 0 3314.0 3.1321547879450895 1
gene  1 15 837 -8.001033582604686 0 3364.0 -8.001033582604686 1
gene  1 20 877 1.0 0 3407.0 0.0 1
gene  1 877 99 2.16353396511089 0 3408.0 0.0 1
gene  1 16 333 -7.684474477005092 0 3491.0 -7.684474477005092 1
gene  1 4 361 9.048045139790645 0 3557.0 9.048045139790645 1
gene  1 17 150 -6.332162956026258 0 3601.0 -6.332162956026258 1
gene  1 15 419 6.608183758505177 0 3630.0 6.608183758505177 1
gene  1 27 236 -9.183117112089807 0 3680.0 -9.183117112089807 1
gene  1 242 949 1.0 0 3697.0 0.0 1
gene  1 949 24 1.9563221533460138 0 3698.0 0.0 1
gene  1 21 953 1.0 0 3730.0 0.0 1
gene  1 953 26 -3.0739483612397973 0 3731.0 0.0 1
gene  1 21 967 1.0 0 3782.0 0.0 1
gene  1 967 27 -1.6098739089238192 0 3783.0 0.0 1
gene  1 295 41 -9.542866571256884 0 3812.0 -9.542866571256884 1
gene  1 1 984 1.0 0 3857.0 0.0 1
gene  1 984 27 0.1950912962028929 0 3858.0 0.0 1
gene  1 502 355 -8.196641142612357 0 3916.0 -8.196641142612357 1
gene  1 877 110 8.721426883747764 0 3933.0 8.721426883747764 1
gene  1 24 1008 1.0 0 3947.0 0.0 1
gene  1 1008 150 -0.4951572804097779 0 3948.0 0.0 1
gene  1 4 492 -8.457524817301785 0 3998.0 -8.457524817301785 1
gene  1 20 1029 1.0 0 4022.0 0.0 1
gene  1 1029 25 -0.17530964326477716 0 4023.0 0.0 1
gene  1 103 801 -2.3027310937624277 0 4066.0 -2.3027310937624277 1
gene  1 984 492 6.950981250856162 0 4110.0 6.950981250856162 1
gene  1 693 550 -0.3055966438361801 0 4127.0 -0.3055966438361801 1
gene  1 550 1062 1.0 0 4155.0 0.0 1
gene  1 1062 310 4.349619558396177 0 4156.0 0.0 1
gene  1 502 984 4.146867788623857 0 4187.0 4.146867788623857 1
gene  1 833 613 -0.7014831771904717 0 4214.0 -0.7014831771904717 1
gene  1 4 1090 1.0 0 4251.0 0.0 1
gene  1 1090 24 1.9984107658146633 0 4252.0 0.0 1
gene  1 191 1102 1.0 0 4284.0 0.0 1
gene  1 1102 295 1.462792961073816 0 4285.0 0.0 1
gene  1 984 449 -9.331156395448737 0 4326.0 -9.331156395448737 1
gene  1 15 1125 1.0 0 4368.0 0.0 1
gene  1 1125 27 0.8854793246663014 0 4369.0 0.0 1
gene  1 4 1134 1.0 0 4401.0 0.0 1
gene  1 1134 27 -2.108078397682316 0 4402.0 0.0 1
gene  1 12 449 2.6982152417791836 0 4445.0 2.6982152417791836 1
gene  1 9 242 8.99554449740825 0 4467.0 8.99554449740825 1
gene  1 41 30 -7.1994370192127715 0 4490.0 -7.1994370192127715 1
gene  1 458 1125 6.521126856990772 0 4529.0 6.521126856990772 1
gene  1 762 1008 -2.260922377983232 0 4582.0 -2.260922377983232 1
gene  1 984 1062 -2.3548248112539314 0 4623.0 -2.3548248112539314 1
gene  1 1029 1134 8.217670137638471 0 4653.0 8.217670137638471 1
gene  1 1029 277 9.693352686705248 0 4681.0 9.693352686705248 1
gene  1 22 286 -7.354671207895601 0 4716.0 -7.354671207895601 1
gene  1 355 333 -0.9474445607950321 0 4740.0 -0.9474445607950321 1
gene  1 550 333 -4.863400180773963 0 4777.0 -4.863400180773963 1
gene  1 99 967 -3.0131111743463714 0 4792.0 -3.0131111743463714 0
gene  1 9 286 -1.1573702637585275 0 4832.0 -1.1573702637585275 1
gene  1 150 30 -6.491196081375619 0 4880.0 -6.491196081375619 1
gene  1 19 1274 1.0 0 4895.0 0.5 1
gene  1 1274 310 2.4856618195935347 0 4896.0 1.2428309097967674 1
gene  1 18 128 -7.746707048955349 0 4928.0 -7.746707048955349 1
gene  1 984 1291 1.2558037204776618 0 4965.0 0.7558037204776619 1
gene  1 1291 27 0.1950912962028929 0 4966.0 0.09754564810144645 1
gene  1 817 191 -1.6892382258812573 0 4986.0 -1.6892382258812573 1
gene  1 984 1304 -0.20809565140969655 0 5012.0 -0.7080956514096965 1
gene  1 1304 449 -9.66342426761149 0 5013.0 -4.997846069887121 1
gene  1 14 1314 1.0 0 5061.0 0.5 1
gene  1 1314 333 -1.5154503933520993 0 5062.0 0.3774715583407894 1
gene  1 286 1321 0.1112012954871675 0 5086.0 -0.3887987045128325 1
gene  1 1321 28 1.1416154846989175 0 5087.0 1.1287816774950978 1
gene  1 2 1327 1.0 0 5110.0 0.5 1
gene  1 1327 355 -0.6412007496555301 0 5111.0 -0.31399085461655596 1
gene  1 1134 1304 5.926753150899585 0 5151.0 5.926753150899585 1
gene  1 4 1346 1.0 0 5175.0 0.5 1
gene  1 1346 24 2.2236037097362806 0 5176.0 1.2243983268289491 1
gene  1 15 1360 1.5066331925294723 0 5223.0 1.0066331925294723 1
gene  1 1360 837 -7.490002488059725 0 5224.0 -3.4894856967573817 1
gene  1 19 1367 1.5849160353775569 0 5258.0 1.0849160353775569 1
gene  1 1367 1274 1.0 0 5259.0 0.5 1
gene  1 637 1102 -7.987072237478704 0 5285.0 -7.987072237478704 1
gene  1 5 1274 2.0757661739668176 0 5333.0 2.0757661739668176 1
gene  1 1102 650 6.3099088970887385 0 5336.0 6.3099088970887385 1
gene  1 1367 492 -10.166554880406526 0 5372.0 -10.166554880406526 1
gene  1 236 32 -1.6252334618324744 0 5410.0 -1.6252334618324744 1
gene  1 24 1410 1.0 0 5435.0 0.5 1
gene  1 1410 1008 1.0 0 5436.0 0.5 1
gene  1 1102 1417 1.0 0 5466.0 0.5 1
gene  1 1417 295 1.462792961073816 0 5467.0 0.731396480536908 1
gene  1 295 361 -2.64196572965706 0 5516.0 -2.64196572965706 1
gene  1 801 949 -7.145858985556223 0 5526.0 -7.145858985556223 1
gene  1 1134 99 -0.4936522756317029 0 5559.0 -0.4936522756317029 1
gene  1 6 236 2.9830221849150504 0 5608.0 2.9830221849150504 1
gene  1 12 1459 0.3626243331208577 0 5634.0 -0.13737566687914232 1
gene  1 1459 25 0.10670965589800491 0 5635.0 -0.3451174138907284 1
gene  1 502 519 4.48879772208064 0 5675.0 4.48879772208064 1
gene  1 242 1482 -0.03973384367441679 0 5706.0 -0.5397338436744168 1
gene  1 1482 24 3.1229751646825363 0 5707.0 2.1448140880095297 1
gene  1 10 1487 1.0 0 5733.0 0.5 1
gene  1 1487 458 1.0 0 5734.0 0.5 1
gene  1 9 1497 -0.06172645492845197 0 5774.0 -0.561726454928452 1
gene  1 1497 286 -0.5209168932561625 0 5775.0 -0.26045844662808126 1
gene  1 1304 1505 1.5467291080896595 0 5802.0 1.0467291080896595 1
gene  1 1505 449 -9.331156395448737 0 5803.0 -4.665578197724368 1
gene  1 13 1274 10.313720555232493 0 5813.0 10.313720555232493 1
gene  1 550 1274 5.224760454077588 0 5865.0 5.224760454077588 1
gene  1 817 1524 1.0 0 5874.0 0.5 1
gene  1 1524 191 -1.9290651312772766 0 5875.0 -0.48945050866789674 1
gene  1 6 1533 0.38818773834865633 0 5912.0 -0.11181226165134367 1
gene  1 1533 26 0.630772334410092 0 5913.0 0.1684694410657368 1
gene  1 1459 242 4.081173235260422 0 5962.0 4.081173235260422 1
gene  1 762 984 -6.492300398169439 0 6000.0 -6.492300398169439 1
gene  1 12 1569 2.1606905520171296 0 6043.0 1.6606905520171293 1
gene  1 1569 26 -1.6255845585913962 0 6044.0 -1.3363040652348896 1
gene  1 613 1524 1.366626171552805 0 6051.0 1.366626171552805 1
gene  1 17 1008 7.4825575616648985 0 6083.0 7.4825575616648985 1
gene  1 12 1584 0.7124516798243605 0 6101.0 0.21245167982436053 1
gene  1 1584 25 -0.2589495627963547 0 6102.0 -0.710776632585088 1
gene  1 17 1593 1.0 0 6140.0 0.0 1
gene  1 1593 99 8.667263408509712 0 6141.0 0.0 1
gene  1 492 1593 -7.620753615685968 0 6165.0 -7.620753615685968 1
gene  1 17 1598 1.0 0 6171.0 0.0 1
gene  1 1598 355 -3.941543941741722 0 6172.0 0.0 1
gene  1 11 1620 1.0 0 6236.0 0.0 1
gene  1 1620 25 1.142465146794125 0 6237.0 0.0 1
gene  1 693 26 8.355633439210646 0 6249.0 8.355633439210646 1
gene  1 1505 1327 1.355161854974506 0 6276.0 1.355161854974506 1
gene  1 361 1639 1.0 0 6328.0 0.0 1
gene  1 1639 26 2.638823677941647 0 6329.0 0.0 1
gene  1 1 30 -4.864879633811277 0 6336.0 -4.864879633811277 1
gene  1 15 286 6.8571364552870655 0 6391.0 6.8571364552870655 1
gene  1 26 277 -7.6139893460096895 0 6402.0 -7.6139893460096895 0
gene  1 984 333 -0.2746708727174496 0 6442.0 -0.2746708727174496 1
gene  1 12 1685 1.0 0 6503.0 0.0 1
gene  1 1685 24 0.20129052057887642 0 6504.0 0.0 1
gene  1 4 1321 -1.3501292007379073 0 6517.0 -1.3501292007379073 1
gene  1 1367 1698 1.0 0 6564.0 0.0 1
gene  1 1698 492 -10.166554880406526 0 6565.0 0.0 1
gene  1 984 242 1.9440185465837756 0 6574.0 1.9440185465837756 1
gene  1 17 1487 -1.055182604606163 0 6598.0 -1.055182604606163 1
gene  1 780 1712 1.0 0 6635.0 0.0 1
gene  1 1712 28 0.8152174332290762 0 6636.0 0.0 1
gene  1 1497 128 7.58910591835848 0 6681.0 7.58910591835848 1
gene  1 110 355 -9.1206131420467 0 6710.0 -9.1206131420467 1
gene  1 25 1321 9.879690507588977 0 6737.0 9.879690507588977 1
gene  1 24 1743 1.0 0 6773.0 0.0 1
gene  1 1743 41 0.7041611002973363 0 6774.0 0.0 1
gene  1 502 286 8.85178966305528 0 6813.0 8.85178966305528 1
gene  1 23 103 -0.4048143015526484 0 6846.0 -0.4048143015526484 1
gene  1 650 277 1.1193737636633083 0 6864.0 1.1193737636633083 1
gene  1 99 1125 1.1613286408638057 0 6890.0 1.1613286408638057 1
gene  1 27 1795 1.0 0 6981.0 0.0 1
gene  1 1795 236 -9.183117112089807 0 6982.0 0.0 1
gene  1 762 295 9.643199240056376 0 6998.0 9.643199240056376 1
gene  1 613 1712 -7.789632665523744 0 7044.0 -7.789632665523744 1
gene  1 637 519 8.750591983531436 0 7074.0 8.750591983531436 1
gene  1 10 1821 1.0 0 7084.0 0.0 1
gene  1 1821 25 0.2779443092033518 0 7085.0 0.0 1
gene  1 3 877 8.576290453469953 0 7137.0 8.576290453469953 1
gene  1 242 1639 -6.406563891121316 0 7158.0 -6.406563891121316 1
gene  1 21 1367 3.9665787238774888 0 7187.0 3.9665787238774888 1
gene  1 110 1852 1.0 0 7224.0 0.0 1
gene  1 1852 26 0.17226926783242408 0 7225.0 0.0 1
gene  1 27 1865 1.0 0 7278.0 0.0 1
gene  1 1865 32 1.0654473885398326 0 7279.0 0.0 1
gene  1 22 1866 1.0 0 7280.0 0.0 1
gene  1 1866 26 -0.8853447786938764 0 7281.0 0.0 1
gene  1 1090 1877 1.0 0 7321.0 0.0 0
gene  1 1877 24 1.9984107658146633 0 7322.0 0.0 1
gene  1 449 1890 1.0 0 7379.0 0.0 0
gene  1 1890 355 1.1406736985867385 0 7380.0 0.0 1
gene  1 32 1896 1.0 0 7402.0 0.0 1
gene  1 1896 277 2.2177074487957547 0 7403.0 0.0 1
gene  1 286 1907 1.0 0 7432.0 0.0 1
gene  1 1907 28 0.025667614407639316 0 7433.0 0.0 1
gene  1 17 1915 1.0 0 7468.0 0.0 1
gene  1 1915 1008 7.4825575616648985 0 7469.0 0.0 1
gene  1 637 1685 -2.5153481219374294 0 7498.0 -2.5153481219374294 1
gene  1 15 1934 1.0 0 7548.0 0.0 0
gene  1 1934 286 6.8571364552870655 0 7549.0 0.0 1
gene  1 2 1497 8.638643556654372 0 7564.0 8.638643556654372 1
gene  1 684 236 3.0109735905410417 0 7626.0 3.0109735905410417 1
gene  1 1524 69 8.57582385521156 0 7650.0 8.57582385521156 1
gene  1 1685 1896 -7.037739337804707 0 7671.0 -7.037739337804707 1
gene  1 817 650 6.903945433219435 0 7711.0 6.903945433219435 1
gene  1 355 1984 1.0 0 7751.0 0.0 0
gene  1 1984 333 -0.9474445607950321 0 7752.0 0.0 1
gene  1 19 1090 -6.200691756673492 0 7782.0 -6.200691756673492 1
gene  1 27 2003 1.0 0 7819.0 0.0 1
gene  1 2003 32 1.0654473885398326 0 7820.0 0.0 1
gene  1 1304 2011 1.0 0 7854.0 0.0 1
gene  1 2011 449 -9.66342426761149 0 7855.0 0.0 1
gene  1 1417 277 -9.95907511707764 0 7878.0 -9.95907511707764 1
gene  1 1 2034 1.0 0 7942.0 0.0 1
gene  1 2034 24 0.6836074841519658 0 7943.0 0.0 1
gene  1 502 242 -8.642650812192652 0 7973.0 -8.642650812192652 1
gene  1 10 2054 1.0 0 8014.0 0.0 1
gene  1 2054 519 1.0 0 8015.0 0.0 1
gene  1 6 2058 1.0 0 8033.0 0.0 1
gene  1 2058 236 2.9830221849150504 0 8034.0 0.0 1
gene  1 14 30 2.274634961132346 0 8068.0 2.274634961132346 1
gene  1 4 2076 1.0 0 8102.0 0.0 1
gene  1 2076 26 -0.5462351900443294 0 8103.0 0.0 1
gene  1 1890 1497 -8.319110760919996 0 8145.0 -8.319110760919996 1
gene  1 1533 28 6.341247671949871 0 8172.0 6.341247671949871 1
gene  1 1360 1102 -0.276247595827942 0 8196.0 -0.276247595827942 1
gene  1 1915 103 -3.5169964005088428 0 8217.0 -3.5169964005088428 1
gene  1 16 1743 4.856788480375943 0 8258.0 4.856788480375943 1
gene  1 1125 1934 -6.580335327911161 0 8291.0 -6.580335327911161 1
gene  1 8 1598 7.174686974380408 0 8321.0 7.174686974380408 1
gene  1 1367 295 9.718997249257962 0 8345.0 9.718997249257962 1
gene  1 11 1360 -6.306963093412331 0 8420.0 -6.306963093412331 1
gene  1 1865 2003 -2.344067325053536 0 8452.0 -2.344067325053536 1
gene  1 15 2167 1.0 0 8486.0 0.0 1
gene  1 2167 1360 1.5066331925294723 0 8487.0 0.0 1
gene  1 19 1482 -1.1150630292144026 0 8513.0 -1.1150630292144026 1
gene  1 310 236 -5.48581923113059 0 8537.0 -5.48581923113059 1
gene  1 295 2188 1.0 0 8571.0 0.0 1
gene  1 2188 26 -0.6328061547708835 0 8572.0 0.0 1
gene  1 1090 492 -7.734199305965046 0 8605.0 -7.734199305965046 1
gene  1 502 1497 8.283606409932386 0 8638.0 8.283606409932386 1
gene  1 984 1569 1.0415173991229587 0 8682.0 1.0415173991229587 1
gene  1 1314 2223 1.0 0 8707.0 0.0 1
gene  1 2223 333 -1.5154503933520993 0 8708.0 0.0 1
gene  1 984 2230 1.0 0 8729.0 0.0 1
gene  1 2230 1569 1.0415173991229587 0 8730.0 0.0 1
gene  1 2 1866 -7.1495877839039075 0 8769.0 -7.1495877839039075 1
gene  1 242 1314 6.890747424321458 0 8796.0 6.890747424321458 1
gene  1 877 984 -3.4060172230402497 0 8820.0 -3.4060172230402497 1
gene  1 2230 1598 1.799427943859091 0 8872.0 1.799427943859091 1
gene  1 984 1410 -2.4391756788146735 0 8911.0 -2.4391756788146735 1
gene  1 1865 69 8.919069152697292 0 8939.0 8.919069152697292 1
gene  1 492 1896 6.72432497473385 0 8965.0 6.72432497473385 1
gene  1 26 2301 1.0 0 9000.0 0.0 1
gene  1 2301 28 -1.8871519098029614 0 9001.0 0.0 1
gene  1 967 236 -9.455812814239602 0 9036.0 -9.455812814239602 1
gene  1 1062 2167 -6.2737955208441685 0 9061.0 -6.2737955208441685 1
gene  1 32 2329 1.0 0 9108.0 0.0 1
gene  1 2329 277 2.2177074487957547 0 9109.0 0.0 1
gene  1 1090 2335 1.0 0 9132.0 0.0 1
gene  1 2335 1877 1.0 0 9133.0 0.0 1
gene  1 1890 1877 -2.1427185332330554 0 9162.0 -2.1427185332330554 1
gene  1 449 2353 1.0 0 9206.0 0.0 1
gene  1 2353 1890 1.0 0 9207.0 0.0 1
gene  1 16 2329 2.4436932513372045 0 9220.0 2.4436932513372045 1
gene  1 24 1639 8.091797745479525 0 9252.0 8.091797745479525 1
gene  1 1314 1795 -4.68007512057906 0 9289.0 -4.68007512057906 1
gene  1 99 2382 1.0 0 9319.0 0.0 1
gene  1 2382 967 -3.0131111743463714 0 9320.0 0.0 1
gene  1 2076 2389 1.0 0 9339.0 0.0 1
gene  1 2389 26 -0.5462351900443294 0 9340.0 0.0 1
gene  1 333 2301 5.8757579064912075 0 9373.0 5.8757579064912075 1
gene  1 12 2407 1.0 0 9407.0 0.0 1
gene  1 2407 1685 1.0 0 9408.0 0.0 1
gene  1 99 1877 9.57234934574043 0 9424.0 9.57234934574043 1
gene  1 18 2329 -3.839180196113338 0 9471.0 -3.839180196113338 1
gene  1 333 1866 -0.5201911446176843 0 9492.0 -0.5201911446176843 1
gene  1 2 2438 1.0 0 9533.0 0.0 1
gene  1 2438 355 -0.6544197900779483 0 9534.0 0.0 1
gene  1 69 2444 1.0 0 9550.0 0.0 1
gene  1 2444 26 2.7645682336002895 0 9551.0 0.0 1
gene  1 19 1877 9.080943856431254 0 9594.0 9.080943856431254 1
gene  1 2382 458 -7.106069739696947 0 9643.0 -7.106069739696947 1
gene  1 2335 1459 -6.605783615331249 0 9650.0 -6.605783615331249 1
gene  1 7 1685 0.47230509146169664 0 9695.0 0.47230509146169664 1
gene  1 12 2497 1.0 0 9733.0 0.0 1
gene  1 2497 1459 0.3626243331208577 0 9734.0 0.0 1
gene  1 1360 949 -4.324543390346158 0 9775.0 -4.324543390346158 1
gene  1 5 2517 1.0 0 9818.0 0.0 1
gene  1 2517 27 0.9853093818432086 0 9819.0 0.0 1
gene  1 1821 1852 4.386562991880069 0 9847.0 4.386562991880069 1
gene  1 16 2543 1.0 0 9901.0 0.0 1
gene  1 2543 236 -0.9082556621137352 0 9902.0 0.0 1
gene  1 458 780 -7.1272585077748705 0 9949.0 -7.1272585077748705 1
gene  1 3 2571 1.0 0 9998.0 0.0 1
gene  1 2571 24 2.231101296592862 0 9999.0 0.0 1
gene  1 4 1497 -4.133610523238879 0 10022.0 -4.133610523238879 1
gene  1 1497 1865 1.700922782219958 0 10066.0 1.700922782219958 1
gene  1 15 2593 1.0 0 10081.0 0.0 1
gene  1 2593 1934 1.0 0 10082.0 0.0 1
gene  1 2230 684 9.136828740312 0 10127.0 9.136828740312 1
gene  1 2076 2615 1.0 0 10160.0 0.0 1
gene  1 2615 26 -0.5462351900443294 0 10161.0 0.0 1
gene  1 355 2628 1.0 0 10202.0 0.0 1
gene  1 2628 1984 1.0 0 10203.0 0.0 1
gene  1 449 2643 1.0 0 10251.0 0.0 1
gene  1 2643 2353 1.0 0 10252.0 0.0 1
gene  1 20 2646 1.0 0 10261.0 0.0 1
gene  1 2646 25 -0.17530964326477716 0 10262.0 0.0 1
gene  1 9 519 -6.299361362394293 0 10297.0 -6.299361362394293 1
gene  1 1852 2389 -9.7580767401609 0 10406.0 -9.7580767401609 1
gene  1 17 967 -6.839298372365777 0 10505.0 -6.839298372365777 1
gene  1 150 26 6.282236246323706 0 10530.0 6.282236246323706 1
gene  1 877 2011 8.747509880690602 0 10560.0 8.747509880690602 1
gene  1 26 2731 1.0 0 10586.0 0.0 1
gene  1 2731 277 -7.6139893460096895 0 10587.0 0.0 1
gene  1 650 2741 1.0 0 10622.0 0.0 1
gene  1 2741 780 3.1321547879450895 0 10623.0 0.0 1
gene  1 1029 1291 -6.375137219150808 0 10653.0 -6.375137219150808 1
gene  1 1795 801 -4.604298148577412 0 10702.0 -4.604298148577412 1
gene  1 1934 2731 -9.194144573889934 0 10724.0 -9.194144573889934 1
gene  1 837 1821 9.809568702186803 0 10747.0 9.809568702186803 1
gene  1 2497 1482 8.765867945282494 0 10796.0 8.765867945282494 1
gene  1 1487 1877 -6.382670409170132 0 10830.0 -6.382670409170132 1
gene  1 519 684 -8.846453903316364 0 10863.0 -8.846453903316364 1
gene  1 684 780 1.5502378864280775 0 10892.0 1.5502378864280775 1
gene  1 3 2819 1.0 0 10926.0 0.0 1
gene  1 2819 25 2.689302679798512 0 10927.0 0.0 1
gene  1 1593 1029 -7.2311052342795055 0 10937.0 -7.2311052342795055 1
gene  1 1698 2167 5.681385882792704 0 10980.0 5.681385882792704 1
genomeend 0
/* Organism # 001 Fitness:  0,000 Error:  0,000                      */
genomestart  1
trait 1 0.15906958955964612 0.29105188460910975 0.0 0.0 0.0 0.0 0.0 0.0 
node 1 1 1 1
node 2 1 1 1
node 3 1 1 1
node 4 1 1 1
node 5 1 1 1
node 6 1 1 1
node 7 1 1 1
node 8 1 1 1
node 9 1 1 1
node 10 1 1 1
node 11 1 1 1
node 12 1 1 1
node 13 1 1 1
node 14 1 1 1
node 15 1 1 1
node 16 1 1 1
node 17 1 1 1
node 18 1 1 1
node 19 1 1 1
node 20 1 1 1
node 21 1 1 1
node 22 1 1 1
node 23 1 1 3
node 24 1 0 0
node 25 1 0 0
node 26 1 0 0
node 27 1 0 0
node 28 1 0 2
node 29 1 0 2
node 30 1 0 2
node 31 1 0 2
node 32 1 0 2
node 41 1 0 0
node 69 1 0 0
node 99 1 0 0
node 103 1 0 0
node 110 1 0 0
node 128 1 0 0
node 150 1 0 0
node 191 1 0 0
node 236 1 0 0
node 242 1 0 0
node 277 1 0 0
node 286 1 0 0
node 295 1 0 0
node 310 1 0 0
node 333 1 0 0
node 355 1 0 0
node 361 1 0 0
node 390 1 0 0
node 419 1 0 0
node 449 1 0 0
node 458 1 0 0
node 492 1 0 0
node 502 1 0 0
node 519 1 0 0
node 550 1 0 0
node 613 1 0 0
node 637 1 0 0
node 650 1 0 0
node 684 1 0 0
node 693 1 0 0
node 762 1 0 0
node 780 1 0 0
node 801 1 0 0
node 817 1 0 0
node 833 1 0 0
node 837 1 0 0
node 877 1 0 0
node 949 1 0 0
node 953 1 0 0
node 967 1 0 0
node 984 1 0 0
node 1008 1 0 0
node 1029 1 0 0
node 1062 1 0 0
node 1090 1 0 0
node 1102 1 0 0
node 1125 1 0 0
node 1134 1 0 0
node 1274 1 0 0
node 1291 1 0 0
node 1304 1 0 0
node 1314 1 0 0
node 1321 1 0 0
node 1327 1 0 0
node 1346 1 0 0
node 1360 1 0 0
node 1367 1 0 0
node 1410 1 0 0
node 1417 1 0 0
node 1459 1 0 0
node 1482 1 0 0
node 1487 1 0 0
node 1497 1 0 0
node 1505 1 0 0
node 1524 1 0 0
node 1533 1 0 0
node 1569 1 0 0
node 1584 1 0 0
node 1593 1 0 0
node 1598 1 0 0
node 1620 1 0 0
node 1639 1 0 0
node 1685 1 0 0
node 1698 1 0 0
node 1712 1 0 0
node 1743 1 0 0
node 1795 1 0 0
node 1821 1 0 0
node 1852 1 0 0
node 1865 1 0 0
node 1866 1 0 0
node 1877 1 0 0
node 1890 1 0 0
node 1896 1 0 0
node 1907 1 0 0
node 1915 1 0 0
node 1934 1 0 0
node 1984 1 0 0
node 2003 1 0 0
node 2011 1 0 0
node 2034 1 0 0
node 2054 1 0 0
node 2058 1 0 0
node 2076 1 0 0
node 2167 1 0 0
node 2188 1 0 0
node 2223 1 0 0
node 2230 1 0 0
node 2301 1 0 0
node 2329 1 0 0
node 2335 1 0 0
node 2353 1 0 0
node 2382 1 0 0
node 2389 1 0 0
node 2407 1 0 0
node 2438 1 0 0
node 2444 1 0 0
node 2497 1 0 0
node 2517 1 0 0
node 2543 1 0 0
node 2571 1 0 0
node 2593 1 0 0
node 2615 1 0 0
node 2628 1 0 0
node 2643 1 0 0
node 2646 1 0 0
node 2731 1 0 0
node 2741 1 0 0
node 2819 1 0 0
gene  1 1 24 0.6836074841519658 0 1.0 0.6836074841519658 1
gene  1 2 24 -1.8705693089305897 0 2.0 -1.8705693089305897 1
gene  1 3 24 1.1712450946284048 0 3.0 1.1712450946284048 1
gene  1 4 24 0.9556610100756193 0 4.0 0.9556610100756193 1
gene  1 5 24 -1.9683208846839226 0 5.0 -1.9683208846839226 1
gene  1 6 24 0.7195006857147026 0 6.0 0.7195006857147026 1
gene  1 7 24 -0.6632373714736616 0 7.0 -0.6632373714736616 1
gene  1 8 24 -1.1786407631101534 0 8.0 -1.1786407631101534 1
gene  1 9 24 -0.7066333308112773 0 9.0 -0.7066333308112773 1
gene  1 10 24 -1.1719300977343856 0 10.0 -1.1719300977343856 1
gene  1 11 24 -1.0309562171876667 0 11.0 -1.0309562171876667 1
gene  1 12 24 0.8583742075344225 0 12.0 0.8583742075344225 1
gene  1 13 24 0.15119511013894327 0 13.0 0.15119511013894327 1
gene  1 14 24 -4.692811910427478 0 14.0 -4.692811910427478 1
gene  1 15 24 -0.21948186362801408 0 15.0 -0.21948186362801408 1
gene  1 16 24 -0.9752552372642816 0 16.0 -0.9752552372642816 1
gene  1 17 24 0.10885669682168242 0 17.0 0.10885669682168242 1
gene  1 18 24 0.8276438319291759 0 18.0 0.8276438319291759 1
gene  1 19 24 -1.0284098321878543 0 19.0 -1.0284098321878543 1
gene  1 20 24 0.3567329611234929 0 20.0 0.3567329611234929 1
gene  1 21 24 0.8200173769502468 0 21.0 0.8200173769502468 1
gene  1 22 24 3.9219829011525302 0 22.0 3.9219829011525302 1
gene  1 23 24 -0.3561495391411518 0 23.0 -0.3561495391411518 1
gene  1 1 25 -1.952913711018068 0 24.0 -1.952913711018068 1
gene  1 2 25 -4.983993330384793 0 25.0 -4.983993330384793 1
gene  1 3 25 4.678289376766075 0 26.0 4.678289376766075 0
gene  1 4 25 -1.1400277724033394 0 27.0 -1.1400277724033394 1
gene  1 5 25 0.5860595875609703 0 28.0 0.5860595875609703 1
gene  1 6 25 -2.476668035694677 0 29.0 -2.476668035694677 1
gene  1 7 25 0.03598487493818836 0 30.0 0.03598487493818836 1
gene  1 8 25 0.6820333012763719 0 31.0 0.6820333012763719 1
gene  1 9 25 0.8086502855605016 0 32.0 0.8086502855605016 1
gene  1 10 25 1.5346426633043866 0 33.0 1.5346426633043866 1
gene  1 11 25 1.6169332535610315 0 34.0 1.6169332535610315 1
gene  1 12 25 1.284841956725147 0 35.0 1.284841956725147 1
gene  1 13 25 2.1530373873217377 0 36.0 2.1530373873217377 1
gene  1 14 25 -0.6033783790982012 0 37.0 -0.6033783790982012 1
gene  1 15 25 -1.3059963432256165 0 38.0 -1.3059963432256165 1
gene  1 16 25 2.1466583797074223 0 39.0 2.1466583797074223 1
gene  1 17 25 2.132491297928266 0 40.0 2.132491297928266 1
gene  1 18 25 -2.3428320395704847 0 41.0 -2.3428320395704847 1
gene  1 19 25 -3.9047954438328265 0 42.0 -3.9047954438328265 1
gene  1 20 25 0.9163418047034146 0 43.0 0.9163418047034146 1
gene  1 21 25 -4.316243850517353 0 44.0 -4.316243850517353 1
gene  1 22 25 0.4847843781308996 0 45.0 0.4847843781308996 1
gene  1 23 25 2.787261893639757 0 46.0 2.787261893639757 1
gene  1 1 26 0.9107087556822094 0 47.0 0.9107087556822094 1
gene  1 2 26 3.1673162587393486 0 48.0 3.1673162587393486 1
gene  1 3 26 -2.66798873440371 0 49.0 -2.66798873440371 1
gene  1 4 26 -0.5462351900443294 0 50.0 -0.5462351900443294 1
gene  1 5 26 1.7036504458132842 0 51.0 1.7036504458132842 1
gene  1 6 26 -0.5294491930825351 0 52.0 -0.5294491930825351 1
gene  1 7 26 2.147856380965951 0 53.0 2.147856380965951 1
gene  1 8 26 -0.09157590385127423 0 54.0 -0.09157590385127423 1
gene  1 9 26 -1.0805880564196901 0 55.0 -1.0805880564196901 1
gene  1 10 26 1.0646712423027913 0 56.0 1.0646712423027913 1
gene  1 11 26 1.0544831830272923 0 57.0 1.0544831830272923 1
gene  1 12 26 -0.1624832748714795 0 58.0 -0.1624832748714795 1
gene  1 13 26 1.9573036617168098 0 59.0 1.9573036617168098 1
gene  1 14 26 0.5314563357225026 0 60.0 0.5314563357225026 1
gene  1 15 26 1.5587910169474735 0 61.0 1.5587910169474735 1
gene  1 16 26 -3.374830454072303 0 62.0 -3.374830454072303 1
gene  1 17 26 -0.6658234717228073 0 63.0 -0.6658234717228073 1
gene  1 18 26 3.2511700526523315 0 64.0 3.2511700526523315 1
gene  1 19 26 2.2008352204213804 0 65.0 2.2008352204213804 1
gene  1 20 26 0.17199595240486087 0 66.0 0.17199595240486087 1
gene  1 21 26 -3.0739483612397973 0 67.0 -3.0739483612397973 1
gene  1 22 26 -0.13180147259314234 0 68.0 -0.13180147259314234 1
gene  1 23 26 0.3066292747634844 0 69.0 0.3066292747634844 1
gene  1 1 27 -0.7960915498502279 0 70.0 -0.7960915498502279 1
gene  1 2 27 -3.8100126994802523 0 71.0 -3.8100126994802523 1
gene  1 3 27 -1.3038789584498414 0 72.0 -1.3038789584498414 1
gene  1 4 27 -2.277556838913606 0 73.0 -2.277556838913606 1
gene  1 5 27 0.9853093818432086 0 74.0 0.9853093818432086 1
gene  1 6 27 -0.6440621900578101 0 75.0 -0.6440621900578101 1
gene  1 7 27 -2.8286627532625674 0 76.0 -2.8286627532625674 1
gene  1 8 27 -2.2635008834400567 0 77.0 -2.2635008834400567 1
gene  1 9 27 -4.8342028177755605 0 78.0 -4.8342028177755605 1
gene  1 10 27 1.0500543383969196 0 79.0 1.0500543383969196 1
gene  1 11 27 -0.6446340619066404 0 80.0 -0.6446340619066404 1
gene  1 12 27 2.0194659787646483 0 81.0 2.0194659787646483 1
gene  1 13 27 -3.29794013327734 0 82.0 -3.29794013327734 1
gene  1 14 27 -2.6231332844454207 0 83.0 -2.6231332844454207 1
gene  1 15 27 0.17742974563557135 0 84.0 0.17742974563557135 1
gene  1 16 27 -0.10011243518527158 0 85.0 -0.10011243518527158 1
gene  1 17 27 2.030128829484454 0 86.0 2.030128829484454 1
gene  1 18 27 -3.3306869836875284 0 87.0 -3.3306869836875284 1
gene  1 19 27 1.102598430878 0 88.0 1.102598430878 1
gene  1 20 27 -2.6135239422208834 0 89.0 -2.6135239422208834 1
gene  1 21 27 -0.7755638488717428 0 90.0 -0.7755638488717428 1
gene  1 22 27 0.8767926220559804 0 91.0 0.8767926220559804 1
gene  1 23 27 -3.077036421246501 0 92.0 -3.077036421246501 1
gene  1 23 28 1.5848602771388673 0 93.0 1.5848602771388673 1
gene  1 24 28 -0.29292942302287894 0 94.0 -0.29292942302287894 1
gene  1 25 28 -0.3031818876540482 0 95.0 -0.3031818876540482 1
gene  1 26 28 -1.8871519098029614 0 96.0 -1.8871519098029614 1
gene  1 27 28 -2.94071724509635 0 97.0 -2.94071724509635 1
gene  1 23 29 0.16443435255521255 0 98.0 0.16443435255521255 1
gene  1 24 29 0.3605200958403439 0 99.0 0.3605200958403439 1
gene  1 25 29 3.409824715966521 0 100.0 3.409824715966521 1
gene  1 26 29 -2.1187446864817643 0 101.0 -2.1187446864817643 1
gene  1 27 29 -1.554127340753407 0 102.0 -1.554127340753407 1
gene  1 23 30 -0.46961213683028635 0 103.0 -0.46961213683028635 1
gene  1 24 30 0.3847222154010963 0 104.0 0.3847222154010963 1
gene  1 25 30 -1.2920807825192417 0 105.0 -1.2920807825192417 1
gene  1 26 30 0.5267159629174221 0 106.0 0.5267159629174221 1
gene  1 27 30 1.6817114242339157 0 107.0 1.6817114242339157 1
gene  1 23 31 -0.06880237458003685 0 108.0 -0.06880237458003685 1
gene  1 24 31 2.4521584448887364 0 109.0 2.4521584448887364 1
gene  1 25 31 -3.8160628169996604 0 110.0 -3.8160628169996604 1
gene  1 26 31 -0.5005562085550395 0 111.0 -0.5005562085550395 1
gene  1 27 31 -4.032833061149724 0 112.0 -4.032833061149724 1
gene  1 23 32 0.2387466967188525 0 113.0 0.2387466967188525 1
gene  1 24 32 -0.9189162641133548 0 114.0 -0.9189162641133548 1
gene  1 25 32 0.09875229648472295 0 115.0 0.09875229648472295 1
gene  1 26 32 -0.2604847518040827 0 116.0 -0.2604847518040827 1
gene  1 27 32 1.763010444835146 0 117.0 1.763010444835146 1
gene  1 15 28 4.692698241567128 0 145.0 4.692698241567128 1
gene  1 24 41 0.00922997708054174 0 162.0 0.00922997708054174 1
gene  1 41 29 -1.0245988335527534 0 163.0 -1.0245988335527534 1
gene  1 11 28 7.4064539490052965 0 192.0 7.4064539490052965 1
gene  1 8 29 -3.1140230752742606 0 252.0 -3.1140230752742606 1
gene  1 8 69 2.289145487945153 0 286.0 2.289145487945153 1
gene  1 69 26 3.5358858700472866 0 287.0 3.5358858700472866 1
gene  1 14 28 -0.21454897768332593 0 325.0 -0.21454897768332593 1
gene  1 10 28 4.561700536875561 0 337.0 4.561700536875561 1
gene  1 15 32 6.727940868771267 0 371.0 6.727940868771267 1
gene  1 20 99 0.5899337758621028 0 420.0 0.5899337758621028 1
gene  1 99 27 -2.8094737854649665 0 421.0 -2.8094737854649665 1
gene  1 5 103 1.415328590575763 0 442.0 1.415328590575763 1
gene  1 103 24 1.099341592753159 0 443.0 1.099341592753159 1
gene  1 3 110 -0.5325995578159091 0 466.0 -0.5325995578159091 1
gene  1 110 26 -0.8386877140441902 0 467.0 -0.8386877140441902 1
gene  1 17 99 6.307463354399017 0 517.0 6.307463354399017 1
gene  1 16 128 0.8309097872516733 0 542.0 0.8309097872516733 1
gene  1 128 25 0.9994540831785222 0 543.0 0.9994540831785222 1
gene  1 22 103 -3.3519688098183837 0 584.0 -3.3519688098183837 1
gene  1 24 150 -1.8731785136223538 0 612.0 -1.8731785136223538 1
gene  1 150 29 2.752632580305052 0 613.0 2.752632580305052 1
gene  1 6 128 9.540489250380414 0 659.0 9.540489250380414 1
gene  1 150 69 6.680237350857931 0 697.0 6.680237350857931 1
gene  1 31 32 -1.2043128960120917 0 712.0 -1.2043128960120917 1
gene  1 26 41 -6.786402564468655 0 740.0 -6.786402564468655 1
gene  1 7 191 1.7831299059290964 0 774.0 1.7831299059290964 1
gene  1 191 26 -1.761494471050715 0 775.0 -1.761494471050715 1
gene  1 103 26 0.5190236351016729 0 816.0 0.5190236351016729 1
gene  1 9 29 -5.980022400228384 0 851.0 -5.980022400228384 1
gene  1 11 99 -5.338796288012384 0 864.0 -5.338796288012384 1
gene  1 12 99 0.3747616167738385 0 920.0 0.3747616167738385 1
gene  1 26 236 1.0937477049071753 0 945.0 1.0937477049071753 1
gene  1 236 28 -0.687902233988408 0 946.0 -0.687902233988408 1
gene  1 22 242 -1.1121813446132927 0 964.0 -1.1121813446132927 1
gene  1 242 24 -0.15792090983453644 0 965.0 -0.15792090983453644 1
gene  1 15 99 10.373929654705686 0 1027.0 10.373929654705686 1
gene  1 191 69 0.17921697978766904 0 1052.0 0.17921697978766904 1
gene  1 15 277 2.280335929293989 0 1090.0 2.280335929293989 1
gene  1 277 28 2.0430562787605977 0 1091.0 2.0430562787605977 1
gene  1 27 286 -0.5777160432760743 0 1116.0 -0.5777160432760743 1
gene  1 286 28 -0.31084909144079265 0 1117.0 -0.31084909144079265 1
gene  1 191 295 -0.31834400718341066 0 1142.0 -0.31834400718341066 1
gene  1 295 26 -0.9889010700413612 0 1143.0 -0.9889010700413612 1
gene  1 22 128 -1.0250667747941542 0 1174.0 -1.0250667747941542 1
gene  1 19 310 2.9740775310672727 0 1209.0 2.9740775310672727 1
gene  1 310 24 -0.8008196372748921 0 1210.0 -0.8008196372748921 1
gene  1 242 103 9.573361222839441 0 1238.0 9.573361222839441 1
gene  1 16 236 -2.424569682643587 0 1287.0 -2.424569682643587 1
gene  1 20 333 2.425502153897909 0 1305.0 2.425502153897909 1
gene  1 333 24 1.8194568805162195 0 1306.0 1.8194568805162195 1
gene  1 14 277 -7.28693760209914 0 1364.0 -7.28693760209914 1
gene  1 2 355 -0.5855801086674108 0 1395.0 -0.5855801086674108 1
gene  1 355 27 -2.1713583775927114 0 1396.0 -2.1713583775927114 1
gene  1 69 361 1.8016056471664577 0 1416.0 1.8016056471664577 1
gene  1 361 26 0.5590109320581396 0 1417.0 0.5590109320581396 1
gene  1 9 32 -3.270909044946261 0 1466.0 -3.270909044946261 1
gene  1 14 333 -2.5006810346897836 0 1482.0 -2.5006810346897836 1
gene  1 32 277 3.3850323827387454 0 1522.0 3.3850323827387454 1
gene  1 3 390 3.0043575182317412 0 1547.0 3.0043575182317412 1
gene  1 390 26 4.73035650457649 0 1548.0 4.73035650457649 1
gene  1 286 236 1.883358990648014 0 1594.0 1.883358990648014 1
gene  1 20 419 3.320695551568024 0 1638.0 3.320695551568024 1
gene  1 419 27 0.3486861003646369 0 1639.0 0.3486861003646369 1
gene  1 17 355 2.4338414901318597 0 1648.0 2.4338414901318597 1
gene  1 8 150 1.9280528571858804 0 1688.0 1.9280528571858804 1
gene  1 355 310 -7.914923533398668 0 1725.0 -7.914923533398668 1
gene  1 2 449 1.2260491901197572 0 1757.0 1.2260491901197572 1
gene  1 449 355 -0.521302505135188 0 1758.0 -0.521302505135188 1
gene  1 10 458 0.5482760354162257 0 1789.0 0.5482760354162257 1
gene  1 458 26 1.8886359495842366 0 1790.0 1.8886359495842366 1
gene  1 286 242 0.23636418649825436 0 1819.0 0.23636418649825436 1
gene  1 103 361 -4.9883334421462635 0 1881.0 -4.9883334421462635 1
gene  1 22 492 0.1113246530787575 0 1911.0 0.1113246530787575 1
gene  1 492 128 0.47233297098327853 0 1912.0 0.47233297098327853 1
gene  1 14 502 2.1406405238097856 0 1950.0 2.1406405238097856 1
gene  1 502 25 -1.5796015054244326 0 1951.0 -1.5796015054244326 1
gene  1 10 519 0.2801847073674917 0 2010.0 0.2801847073674917 1
gene  1 519 25 -0.17189156630235153 0 2011.0 -0.17189156630235153 1
gene  1 103 333 -2.5993781067847763 0 2033.0 -2.5993781067847763 1
gene  1 7 242 -8.815315900108834 0 2047.0 -8.815315900108834 1
gene  1 361 30 -4.89920326057565 0 2081.0 -4.89920326057565 1
gene  1 286 550 0.6444191603321342 0 2139.0 0.6444191603321342 1
gene  1 550 28 -2.277881925522697 0 2140.0 -2.277881925522697 1
gene  1 16 449 -7.1556497602643505 0 2207.0 -7.1556497602643505 1
gene  1 22 99 -2.805021694326193 0 2256.0 -2.805021694326193 1
gene  1 519 191 5.204802151040553 0 2286.0 5.204802151040553 1
gene  1 41 277 -10.430611702487239 0 2326.0 -10.430611702487239 1
gene  1 19 613 -1.3372634611479493 0 2370.0 -1.3372634611479493 1
gene  1 613 24 0.2223147525879975 0 2371.0 0.2223147525879975 1
gene  1 19 361 -0.16193156679944365 0 2386.0 -0.16193156679944365 1
gene  1 150 519 5.556672884610851 0 2419.0 5.556672884610851 1
gene  1 8 637 1.9899850944612734 0 2459.0 1.9899850944612734 1
gene  1 637 69 -1.1629732059631535 0 2460.0 -1.1629732059631535 1
gene  1 99 41 -2.3345253767179526 0 2491.0 -2.3345253767179526 1
gene  1 14 650 1.5536372857041316 0 2525.0 1.5536372857041316 1
gene  1 650 26 -2.670142313027601 0 2526.0 -2.670142313027601 1
gene  1 99 449 -1.8271148581166283 0 2574.0 -1.8271148581166283 1
gene  1 128 650 -4.580871677621468 0 2611.0 -4.580871677621468 1
gene  1 242 613 -5.126578153185584 0 2631.0 -5.126578153185584 1
gene  1 26 684 1.449790598746356 0 2651.0 1.449790598746356 1
gene  1 684 41 -7.321625014833415 0 2652.0 -7.321625014833415 1
gene  1 7 693 1.0081324113786094 0 2686.0 1.0081324113786094 1
gene  1 693 27 -0.7796956558493446 0 2687.0 -0.7796956558493446 1
gene  1 693 637 -10.277340700902908 0 2741.0 -10.277340700902908 1
gene  1 21 28 0.7591255036370057 0 2763.0 0.7591255036370057 1
gene  1 458 103 6.990132780657515 0 2802.0 6.990132780657515 1
gene  1 286 41 1.8208123938631144 0 2819.0 1.8208123938631144 1
gene  1 502 390 -7.243061382743644 0 2870.0 -7.243061382743644 1
gene  1 333 32 -2.390025574399262 0 2893.0 -2.390025574399262 1
gene  1 30 236 -1.2832449114602051 0 2925.0 -1.2832449114602051 1
gene  1 9 762 -0.15642191159980068 0 2965.0 -0.15642191159980068 1
gene  1 762 26 0.6546436927040353 0 2966.0 0.6546436927040353 1
gene  1 16 613 4.714984472759864 0 2985.0 4.714984472759864 1
gene  1 25 780 -0.8070586107568984 0 3029.0 -0.8070586107568984 1
gene  1 780 28 0.4847672646136805 0 3030.0 0.4847672646136805 1
gene  1 502 69 4.952525704691684 0 3080.0 4.952525704691684 1
gene  1 2 801 3.028875505570815 0 3114.0 3.028875505570815 1
gene  1 801 26 -1.228789588376257 0 3115.0 -1.228789588376257 1
gene  1 550 310 1.3119361209909666 0 3126.0 1.3119361209909666 1
gene  1 550 817 -0.7165830310813353 0 3162.0 -0.7165830310813353 1
gene  1 817 28 -0.9909174537067272 0 3163.0 -0.9909174537067272 1
gene  1 103 833 0.2766730811535386 0 3220.0 0.2766730811535386 1
gene  1 833 24 1.270125515857389 0 3221.0 1.270125515857389 1
gene  1 14 837 0.12305803132303939 0 3236.0 0.12305803132303939 1
gene  1 837 333 -3.4168091317565423 0 3237.0 -3.4168091317565423 1
gene  1 21 150 -1.5807570275226819 0 3282.0 -1.5807570275226819 1
gene  1 650 780 3.1321547879450895 0 3314.0 3.1321547879450895 1
gene  1 15 837 -7.9996824013237156 0 3364.0 -7.9996824013237156 1
gene  1 20 877 1.5402854939504338 0 3407.0 1.5402854939504338 1
gene  1 877 99 3.8887338328076995 0 3408.0 3.8887338328076995 1
gene  1 16 333 -8.602756544673838 0 3491.0 -8.602756544673838 1
gene  1 4 361 6.6703610652513365 0 3557.0 6.6703610652513365 1
gene  1 17 150 -6.332162956026258 0 3601.0 -6.332162956026258 1
gene  1 15 419 6.303357064919105 0 3630.0 6.303357064919105 1
gene  1 27 236 -9.183117112089807 0 3680.0 -9.183117112089807 1
gene  1 242 949 2.3566905465946215 0 3697.0 2.3566905465946215 1
gene  1 949 24 2.3131421355857253 0 3698.0 2.3131421355857253 1
gene  1 21 953 2.440429173323607 0 3730.0 2.440429173323607 1
gene  1 953 26 1.5527722750979764 0 3731.0 1.5527722750979764 1
gene  1 21 967 -0.38292019779914477 0 3782.0 -0.38292019779914477 1
gene  1 967 27 -0.8719694454185549 0 3783.0 -0.8719694454185549 1
gene  1 295 41 -8.50132429966337 0 3812.0 -8.50132429966337 1
gene  1 1 984 -0.10779270170685584 0 3857.0 -0.10779270170685584 1
gene  1 984 27 0.25784123678345344 0 3858.0 0.25784123678345344 1
gene  1 502 355 -6.572042400899333 0 3916.0 -6.572042400899333 1
gene  1 877 110 9.214643827008299 0 3933.0 9.214643827008299 1
gene  1 24 1008 -0.5169824737563893 0 3947.0 -0.5169824737563893 1
gene  1 1008 150 1.9511889085692085 0 3948.0 1.9511889085692085 1
gene  1 4 492 -8.457524817301785 0 3998.0 -8.457524817301785 1
gene  1 20 1029 1.7505597349403268 0 4022.0 1.7505597349403268 1
gene  1 1029 25 -0.0013064167639095792 0 4023.0 -0.0013064167639095792 1
gene  1 103 801 -3.96373059746644 0 4066.0 -3.96373059746644 1
gene  1 984 492 6.227143757200039 0 4110.0 6.227143757200039 1
gene  1 693 550 -0.3055966438361801 0 4127.0 -0.3055966438361801 1
gene  1 550 1062 -1.1871606830075656 0 4155.0 -1.1871606830075656 1
gene  1 1062 310 3.0556856223519486 0 4156.0 3.0556856223519486 1
gene  1 502 984 5.470518397290968 0 4187.0 5.470518397290968 1
gene  1 833 613 -0.7812447023892483 0 4214.0 -0.7812447023892483 1
gene  1 4 1090 0.9024954056869199 0 4251.0 0.9024954056869199 1
gene  1 1090 24 0.1418895979722843 0 4252.0 0.1418895979722843 1
gene  1 191 1102 1.4498755297694188 0 4284.0 1.4498755297694188 1
gene  1 1102 295 1.3283856316513423 0 4285.0 1.3283856316513423 1
gene  1 984 449 -10.46245226715053 0 4326.0 -10.46245226715053 1
gene  1 15 1125 -0.7819293703010302 0 4368.0 -0.7819293703010302 1
gene  1 1125 27 0.8854793246663014 0 4369.0 0.8854793246663014 1
gene  1 4 1134 -1.1837267559802163 0 4401.0 -1.1837267559802163 1
gene  1 1134 27 1.1708684235672138 0 4402.0 1.1708684235672138 1
gene  1 12 449 0.9698724464461537 0 4445.0 0.9698724464461537 1
gene  1 9 242 10.092945218016842 0 4467.0 10.092945218016842 1
gene  1 41 30 -9.558833783600912 0 4490.0 -9.558833783600912 1
gene  1 458 1125 8.389077427046669 0 4529.0 8.389077427046669 1
gene  1 762 1008 -4.392604303834901 0 4582.0 -4.392604303834901 1
gene  1 984 1062 -3.7055101572547926 0 4623.0 -3.7055101572547926 1
gene  1 1029 1134 7.728168768204 0 4653.0 7.728168768204 1
gene  1 1029 277 9.14698390660799 0 4681.0 9.14698390660799 1
gene  1 22 286 -8.174332213124558 0 4716.0 -8.174332213124558 1
gene  1 355 333 0.062332527365456525 0 4740.0 0.062332527365456525 1
gene  1 550 333 -3.1618839701869788 0 4777.0 -3.1618839701869788 1
gene  1 99 967 -3.8931411026609855 0 4792.0 -3.8931411026609855 0
gene  1 9 286 -2.802669535220658 0 4832.0 -2.802669535220658 1
gene  1 150 30 0.05503104753063981 0 4880.0 0.05503104753063981 1
gene  1 19 1274 0.8499213918967896 0 4895.0 0.8499213918967896 1
gene  1 1274 310 -1.2095394852219492 0 4896.0 -1.2095394852219492 1
gene  1 18 128 2.0917252150379424 0 4928.0 2.0917252150379424 1
gene  1 984 1291 -1.8095852905512824 0 4965.0 -1.8095852905512824 1
gene  1 1291 27 0.9265287276704782 0 4966.0 0.9265287276704782 1
gene  1 817 191 -0.07605982286308888 0 4986.0 -0.07605982286308888 1
gene  1 984 1304 0.16325225987776776 0 5012.0 0.16325225987776776 1
gene  1 1304 449 -8.467298603529702 0 5013.0 -8.467298603529702 1
gene  1 14 1314 1.0 0 5061.0 1.0 1
gene  1 1314 333 -1.164724462728292 0 5062.0 -1.164724462728292 1
gene  1 286 1321 -1.015041772101102 0 5086.0 -1.015041772101102 1
gene  1 1321 28 1.1416154846989175 0 5087.0 1.1416154846989175 1
gene  1 2 1327 3.473098565234374 0 5110.0 3.473098565234374 1
gene  1 1327 355 -0.049874768191870755 0 5111.0 -0.049874768191870755 1
gene  1 1134 1304 5.926753150899585 0 5151.0 5.926753150899585 1
gene  1 4 1346 2.0779081387976603 0 5175.0 2.0779081387976603 1
gene  1 1346 24 -1.2541127548348583 0 5176.0 -1.2541127548348583 1
gene  1 15 1360 -1.2478685224396306 0 5223.0 -1.2478685224396306 1
gene  1 1360 837 -1.1503535224328671 0 5224.0 -1.1503535224328671 1
gene  1 19 1367 -0.7177255160485652 0 5258.0 -0.7177255160485652 1
gene  1 1367 1274 -0.3270315335017422 0 5259.0 -0.3270315335017422 1
gene  1 637 1102 -7.987072237478704 0 5285.0 -7.987072237478704 1
gene  1 5 1274 -0.3887721251059508 0 5333.0 -0.3887721251059508 1
gene  1 1102 650 -2.0628571000747753 0 5336.0 -2.0628571000747753 1
gene  1 1367 492 -1.9223439102991904 0 5372.0 -1.9223439102991904 1
gene  1 236 32 -2.731505403829562 0 5410.0 -2.731505403829562 1
gene  1 24 1410 1.6604494802479144 0 5435.0 1.6604494802479144 1
gene  1 1410 1008 1.0 0 5436.0 1.0 1
gene  1 1102 1417 0.9017239740386829 0 5466.0 0.9017239740386829 1
gene  1 1417 295 3.212803907124677 0 5467.0 3.212803907124677 1
gene  1 295 361 -4.080158545153583 0 5516.0 -4.080158545153583 1
gene  1 801 949 1.7428383520036919 0 5526.0 1.7428383520036919 1
gene  1 1134 99 -2.551106680200538 0 5559.0 -2.551106680200538 1
gene  1 6 236 2.271262415865741 0 5608.0 2.271262415865741 1
gene  1 12 1459 0.6058011723824559 0 5634.0 0.6058011723824559 1
gene  1 1459 25 0.10670965589800491 0 5635.0 0.10670965589800491 1
gene  1 502 519 3.6868077549627154 0 5675.0 3.6868077549627154 1
gene  1 242 1482 -2.100875461137102 0 5706.0 -2.100875461137102 1
gene  1 1482 24 -1.5787778479153516 0 5707.0 -1.5787778479153516 1
gene  1 10 1487 -2.4551183231581004 0 5733.0 -2.4551183231581004 1
gene  1 1487 458 1.9898886086607201 0 5734.0 1.9898886086607201 1
gene  1 9 1497 0.24238367910546732 0 5774.0 0.24238367910546732 1
gene  1 1497 286 -0.22994847032725696 0 5775.0 -0.22994847032725696 1
gene  1 1304 1505 0.8229793816546929 0 5802.0 0.8229793816546929 1
gene  1 1505 449 -8.014315013367208 0 5803.0 -8.014315013367208 1
gene  1 13 1274 2.0411713976556087 0 5813.0 2.0411713976556087 1
gene  1 550 1274 5.733792852373958 0 5865.0 5.733792852373958 1
gene  1 817 1524 1.0 0 5874.0 1.0 1
gene  1 1524 191 -0.406479029982014 0 5875.0 -0.406479029982014 1
gene  1 6 1533 2.0389386594195167 0 5912.0 2.0389386594195167 1
gene  1 1533 26 -0.5319924078236866 0 5913.0 -0.5319924078236866 1
gene  1 1459 242 -1.805711896975304 0 5962.0 -1.805711896975304 1
gene  1 762 984 -4.248438874065848 0 6000.0 -4.248438874065848 1
gene  1 12 1569 3.039253637181 0 6043.0 3.039253637181 1
gene  1 1569 26 -0.15029040193479726 0 6044.0 -0.15029040193479726 1
gene  1 613 1524 -0.09974584826191268 0 6051.0 -0.09974584826191268 1
gene  1 17 1008 1.7604916533517503 0 6083.0 1.7604916533517503 1
gene  1 12 1584 1.674052918630554 0 6101.0 1.674052918630554 1
gene  1 1584 25 0.04145222421168998 0 6102.0 0.04145222421168998 1
gene  1 17 1593 -1.3434748094612727 0 6140.0 -1.3434748094612727 1
gene  1 1593 99 9.673927958097991 0 6141.0 9.673927958097991 1
gene  1 492 1593 2.3590897471152865 0 6165.0 2.3590897471152865 1
gene  1 17 1598 -1.3902916433344052 0 6171.0 -1.3902916433344052 1
gene  1 1598 355 -0.016429527718539727 0 6172.0 -0.016429527718539727 1
gene  1 11 1620 0.08436933175742056 0 6236.0 0.08436933175742056 1
gene  1 1620 25 0.3904422615593208 0 6237.0 0.3904422615593208 1
gene  1 693 26 8.355633439210646 0 6249.0 8.355633439210646 1
gene  1 1505 1327 0.20665200644605597 0 6276.0 0.20665200644605597 1
gene  1 361 1639 1.0 0 6328.0 1.0 1
gene  1 1639 26 2.2562028671527017 0 6329.0 2.2562028671527017 1
gene  1 1 30 -5.503395436180943 0 6336.0 -5.503395436180943 1
gene  1 15 286 -2.0142278056716885 0 6391.0 -2.0142278056716885 1
gene  1 26 277 -8.018649634342752 0 6402.0 -8.018649634342752 0
gene  1 984 333 -2.208990606267851 0 6442.0 -2.208990606267851 1
gene  1 12 1685 1.293147318372637 0 6503.0 1.293147318372637 1
gene  1 1685 24 2.2767167022448165 0 6504.0 2.2767167022448165 1
gene  1 4 1321 -1.3501292007379073 0 6517.0 -1.3501292007379073 1
gene  1 1367 1698 0.27568399324297527 0 6564.0 0.27568399324297527 1
gene  1 1698 492 -11.289134760104021 0 6565.0 -11.289134760104021 1
gene  1 984 242 -0.4722766331996293 0 6574.0 -0.4722766331996293 1
gene  1 17 1487 1.3429072983805963 0 6598.0 1.3429072983805963 1
gene  1 780 1712 -0.2382294448413444 0 6635.0 -0.2382294448413444 1
gene  1 1712 28 1.9170953542856597 0 6636.0 1.9170953542856597 1
gene  1 1497 128 7.700327310807302 0 6681.0 7.700327310807302 1
gene  1 110 355 -9.1206131420467 0 6710.0 -9.1206131420467 1
gene  1 25 1321 -0.07821576089655391 0 6737.0 -0.07821576089655391 1
gene  1 24 1743 2.2423549686062403 0 6773.0 2.2423549686062403 1
gene  1 1743 41 0.28218245084675075 0 6774.0 0.28218245084675075 1
gene  1 502 286 8.388512077164243 0 6813.0 8.388512077164243 1
gene  1 23 103 -1.8750959751322747 0 6846.0 -1.8750959751322747 1
gene  1 650 277 0.5115173091707457 0 6864.0 0.5115173091707457 1
gene  1 99 1125 1.33877057580695 0 6890.0 1.33877057580695 1
gene  1 27 1795 1.7181151392954919 0 6981.0 1.7181151392954919 1
gene  1 1795 236 2.0875907993101004 0 6982.0 2.0875907993101004 1
gene  1 762 295 8.415525697565347 0 6998.0 8.415525697565347 1
gene  1 613 1712 -7.7693367196728484 0 7044.0 -7.7693367196728484 1
gene  1 637 519 9.817433979089973 0 7074.0 9.817433979089973 1
gene  1 10 1821 2.799536870311479 0 7084.0 2.799536870311479 1
gene  1 1821 25 0.6158468918198692 0 7085.0 0.6158468918198692 1
gene  1 3 877 7.389456132096724 0 7137.0 7.389456132096724 1
gene  1 242 1639 -4.961985091941337 0 7158.0 -4.961985091941337 1
gene  1 21 1367 -1.3044821604971526 0 7187.0 -1.3044821604971526 1
gene  1 110 1852 2.490020933312171 0 7224.0 2.490020933312171 1
gene  1 1852 26 -0.5806749001050631 0 7225.0 -0.5806749001050631 1
gene  1 27 1865 1.4662895713587503 0 7278.0 1.4662895713587503 1
gene  1 1865 32 -1.0838216076432996 0 7279.0 -1.0838216076432996 1
gene  1 22 1866 1.4992053100357148 0 7280.0 1.4992053100357148 1
gene  1 1866 26 -1.117837448465968 0 7281.0 -1.117837448465968 1
gene  1 1090 1877 -0.10879561502202373 0 7321.0 -0.10879561502202373 0
gene  1 1877 24 0.8123770314170999 0 7322.0 0.8123770314170999 1
gene  1 449 1890 -0.4188892256682636 0 7379.0 -0.4188892256682636 0
gene  1 1890 355 -0.3760652784543925 0 7380.0 -0.3760652784543925 1
gene  1 32 1896 2.4254442245927823 0 7402.0 2.4254442245927823 1
gene  1 1896 277 3.0529720774790845 0 7403.0 3.0529720774790845 1
gene  1 286 1907 2.0868416105668435 0 7432.0 2.0868416105668435 1
gene  1 1907 28 -2.3270589832423196 0 7433.0 -2.3270589832423196 1
gene  1 17 1915 3.289530867227624 0 7468.0 3.289530867227624 1
gene  1 1915 1008 5.1625741799576215 0 7469.0 5.1625741799576215 1
gene  1 637 1685 -3.8396957548149633 0 7498.0 -3.8396957548149633 1
gene  1 15 1934 1.0 0 7548.0 1.0 0
gene  1 1934 286 6.8571364552870655 0 7549.0 6.8571364552870655 1
gene  1 2 1497 8.638643556654372 0 7564.0 8.638643556654372 1
gene  1 684 236 -0.08910516571063759 0 7626.0 -0.08910516571063759 1
gene  1 1524 69 10.928033423618869 0 7650.0 10.928033423618869 1
gene  1 1685 1896 -8.913747947246643 0 7671.0 -8.913747947246643 1
gene  1 817 650 5.785329659902104 0 7711.0 5.785329659902104 1
gene  1 355 1984 2.0188852344543697 0 7751.0 2.0188852344543697 0
gene  1 1984 333 0.09794423250586082 0 7752.0 0.09794423250586082 1
gene  1 19 1090 -4.505748199429689 0 7782.0 -4.505748199429689 1
gene  1 27 2003 -0.40551727528589065 0 7819.0 -0.40551727528589065 1
gene  1 2003 32 1.0654473885398326 0 7820.0 1.0654473885398326 1
gene  1 1304 2011 0.6755397701881642 0 7854.0 0.6755397701881642 1
gene  1 2011 449 -10.385638588907605 0 7855.0 -10.385638588907605 1
gene  1 1417 277 -11.541622309922856 0 7878.0 -11.541622309922856 1
gene  1 1 2034 3.3387136952219016 0 7942.0 3.3387136952219016 1
gene  1 2034 24 0.4096803649695195 0 7943.0 0.4096803649695195 1
gene  1 502 242 -9.222042809122884 0 7973.0 -9.222042809122884 1
gene  1 10 2054 2.003943853629966 0 8014.0 2.003943853629966 1
gene  1 2054 519 2.8236806413612467 0 8015.0 2.8236806413612467 1
gene  1 6 2058 -0.2322494403372397 0 8033.0 -0.2322494403372397 1
gene  1 2058 236 -0.641349341411144 0 8034.0 -0.641349341411144 1
gene  1 14 30 2.274634961132346 0 8068.0 2.274634961132346 1
gene  1 4 2076 -0.2274690104677144 0 8102.0 -0.2274690104677144 1
gene  1 2076 26 -2.13464655604866 0 8103.0 -2.13464655604866 1
gene  1 1890 1497 -8.319110760919996 0 8145.0 -8.319110760919996 1
gene  1 1533 28 5.923048971480067 0 8172.0 5.923048971480067 1
gene  1 1360 1102 -1.839127051236876 0 8196.0 -1.839127051236876 1
gene  1 1915 103 -3.5169964005088428 0 8217.0 -3.5169964005088428 1
gene  1 16 1743 -2.0180388298430616 0 8258.0 -2.0180388298430616 1
gene  1 1125 1934 -8.205939775329279 0 8291.0 -8.205939775329279 1
gene  1 8 1598 -0.8436318167597756 0 8321.0 -0.8436318167597756 1
gene  1 1367 295 9.28098504916748 0 8345.0 9.28098504916748 1
gene  1 11 1360 0.26403284830129964 0 8420.0 0.26403284830129964 1
gene  1 1865 2003 -3.1488393236719494 0 8452.0 -3.1488393236719494 1
gene  1 15 2167 2.797344041674948 0 8486.0 2.797344041674948 1
gene  1 2167 1360 1.100512662597801 0 8487.0 1.100512662597801 1
gene  1 19 1482 1.6816209677065914 0 8513.0 1.6816209677065914 1
gene  1 310 236 -2.2508643716226286 0 8537.0 -2.2508643716226286 1
gene  1 295 2188 0.5069887805296264 0 8571.0 0.5069887805296264 1
gene  1 2188 26 1.4011497652859797 0 8572.0 1.4011497652859797 1
gene  1 1090 492 -9.804512667811249 0 8605.0 -9.804512667811249 1
gene  1 502 1497 8.081807762943088 0 8638.0 8.081807762943088 1
gene  1 984 1569 1.0415173991229587 0 8682.0 1.0415173991229587 1
gene  1 1314 2223 2.158673550587271 0 8707.0 2.158673550587271 1
gene  1 2223 333 -0.575261074696832 0 8708.0 -0.575261074696832 1
gene  1 984 2230 2.5975973137966806 0 8729.0 2.5975973137966806 1
gene  1 2230 1569 2.210604560495053 0 8730.0 2.210604560495053 1
gene  1 2 1866 -6.502975528645296 0 8769.0 -6.502975528645296 1
gene  1 242 1314 6.723905591537627 0 8796.0 6.723905591537627 1
gene  1 877 984 -2.436946244779402 0 8820.0 -2.436946244779402 1
gene  1 2230 1598 1.9302937016264534 0 8872.0 1.9302937016264534 1
gene  1 984 1410 -2.214946365273214 0 8911.0 -2.214946365273214 1
gene  1 1865 69 8.919069152697292 0 8939.0 8.919069152697292 1
gene  1 492 1896 8.052858353822414 0 8965.0 8.052858353822414 1
gene  1 26 2301 2.477887789467113 0 9000.0 2.477887789467113 1
gene  1 2301 28 -3.246792523050866 0 9001.0 -3.246792523050866 1
gene  1 967 236 -10.251008720684384 0 9036.0 -10.251008720684384 1
gene  1 1062 2167 -4.534452160750581 0 9061.0 -4.534452160750581 1
gene  1 32 2329 -1.151159227036417 0 9108.0 -1.151159227036417 1
gene  1 2329 277 4.681958111040602 0 9109.0 4.681958111040602 1
gene  1 1090 2335 0.3912672727884938 0 9132.0 0.3912672727884938 1
gene  1 2335 1877 3.1446796438497278 0 9133.0 3.1446796438497278 1
gene  1 1890 1877 1.9077018238668388 0 9162.0 1.9077018238668388 1
gene  1 449 2353 -0.2673551902924225 0 9206.0 -0.2673551902924225 1
gene  1 2353 1890 1.2728482997796788 0 9207.0 1.2728482997796788 1
gene  1 16 2329 0.5603684078569544 0 9220.0 0.5603684078569544 1
gene  1 24 1639 10.202562397860078 0 9252.0 10.202562397860078 1
gene  1 1314 1795 -5.447004636359795 0 9289.0 -5.447004636359795 1
gene  1 99 2382 -1.6723371699242908 0 9319.0 -1.6723371699242908 1
gene  1 2382 967 1.1196575968983467 0 9320.0 1.1196575968983467 1
gene  1 2076 2389 1.0 0 9339.0 1.0 1
gene  1 2389 26 -2.0544422578626698 0 9340.0 -2.0544422578626698 1
gene  1 333 2301 4.927330970211061 0 9373.0 4.927330970211061 1
gene  1 12 2407 2.463899112455457 0 9407.0 2.463899112455457 1
gene  1 2407 1685 1.0 0 9408.0 1.0 1
gene  1 99 1877 8.189870341161152 0 9424.0 8.189870341161152 1
gene  1 18 2329 -2.3911775821592767 0 9471.0 -2.3911775821592767 1
gene  1 333 1866 -0.5201911446176843 0 9492.0 -0.5201911446176843 1
gene  1 2 2438 1.9288038998411179 0 9533.0 1.9288038998411179 1
gene  1 2438 355 -0.26727394416784145 0 9534.0 -0.26727394416784145 1
gene  1 69 2444 -0.19578815664775018 0 9550.0 -0.19578815664775018 1
gene  1 2444 26 0.5581861581955314 0 9551.0 0.5581861581955314 1
gene  1 19 1877 7.042584663798987 0 9594.0 7.042584663798987 1
gene  1 2382 458 -7.517383268747496 0 9643.0 -7.517383268747496 1
gene  1 2335 1459 -2.082814112924333 0 9650.0 -2.082814112924333 1
gene  1 7 1685 -0.21554573057257165 0 9695.0 -0.21554573057257165 1
gene  1 12 2497 -0.47615675441474625 0 9733.0 -0.47615675441474625 1
gene  1 2497 1459 -0.7899856719998011 0 9734.0 -0.7899856719998011 1
gene  1 1360 949 -3.6168828521065572 0 9775.0 -3.6168828521065572 1
gene  1 5 2517 1.0 0 9818.0 1.0 1
gene  1 2517 27 -0.06999258919938622 0 9819.0 -0.06999258919938622 1
gene  1 1821 1852 5.761986438115997 0 9847.0 5.761986438115997 1
gene  1 16 2543 -0.9017139404979213 0 9901.0 -0.9017139404979213 1
gene  1 2543 236 -0.09359563865618004 0 9902.0 -0.09359563865618004 1
gene  1 458 780 -7.745737811163255 0 9949.0 -7.745737811163255 1
gene  1 3 2571 1.0 0 9998.0 1.0 1
gene  1 2571 24 1.082526984811564 0 9999.0 1.082526984811564 1
gene  1 4 1497 -3.3521501893650028 0 10022.0 -3.3521501893650028 1
gene  1 1497 1865 1.700922782219958 0 10066.0 1.700922782219958 1
gene  1 15 2593 1.2890369567825433 0 10081.0 1.2890369567825433 1
gene  1 2593 1934 -0.32213005477849777 0 10082.0 -0.32213005477849777 1
gene  1 2230 684 9.136828740312 0 10127.0 9.136828740312 1
gene  1 2076 2615 1.9637097742312213 0 10160.0 1.9637097742312213 1
gene  1 2615 26 0.12657197318428481 0 10161.0 0.12657197318428481 1
gene  1 355 2628 -1.071947747351211 0 10202.0 -1.071947747351211 1
gene  1 2628 1984 0.4885378986869729 0 10203.0 0.4885378986869729 1
gene  1 449 2643 1.0 0 10251.0 1.0 1
gene  1 2643 2353 1.0279620694021379 0 10252.0 1.0279620694021379 1
gene  1 20 2646 1.0 0 10261.0 1.0 1
gene  1 2646 25 -2.65194184106803 0 10262.0 -2.65194184106803 1
gene  1 9 519 -5.873677139756932 0 10297.0 -5.873677139756932 1
gene  1 1852 2389 2.4246477844385423 0 10406.0 2.4246477844385423 1
gene  1 17 967 -5.969611502775811 0 10505.0 -5.969611502775811 1
gene  1 150 26 5.7496791041218245 0 10530.0 5.7496791041218245 1
gene  1 877 2011 -1.473338050333917 0 10560.0 -1.473338050333917 1
gene  1 26 2731 1.8834267002680272 0 10586.0 1.8834267002680272 1
gene  1 2731 277 -8.717940055231963 0 10587.0 -8.717940055231963 1
gene  1 650 2741 0.4517062462742061 0 10622.0 0.4517062462742061 1
gene  1 2741 780 3.1321547879450895 0 10623.0 3.1321547879450895 1
gene  1 1029 1291 -4.583621973690669 0 10653.0 -4.583621973690669 1
gene  1 1795 801 -5.083089490100174 0 10702.0 -5.083089490100174 1
gene  1 1934 2731 -10.00320444986103 0 10724.0 -10.00320444986103 1
gene  1 837 1821 1.274532180687363 0 10747.0 1.274532180687363 1
gene  1 2497 1482 7.290081695405005 0 10796.0 7.290081695405005 1
gene  1 1487 1877 -7.712328861786723 0 10830.0 -7.712328861786723 1
gene  1 519 684 -8.846453903316364 0 10863.0 -8.846453903316364 1
gene  1 684 780 1.5502378864280775 0 10892.0 1.5502378864280775 1
gene  1 3 2819 1.0014571596642785 0 10926.0 1.0014571596642785 1
gene  1 2819 25 1.7011232453654952 0 10927.0 1.7011232453654952 1
gene  1 1593 1029 -7.9142614857773745 0 10937.0 -7.9142614857773745 1
genomeend 1
/*-------------------------------------------------------------------*/
/* Species # 179         : (size= 003) (AvfFit= 1093,333) (Age= 20,000)  */
/*-------------------------------------------------------------------*/
/* Organism # 002 Fitness:  0,000 Error:  0,000                      */
genomestart  2
trait 1 0.15906958955964612 0.29105188460910975 0.0 0.0 0.0 0.0 0.0 0.0 
node 1 1 1 1
node 2 1 1 1
node 3 1 1 1
node 4 1 1 1
node 5 1 1 1
node 6 1 1 1
node 7 1 1 1
node 8 1 1 1
node 9 1 1 1
node 10 1 1 1
node 11 1 1 1
node 12 1 1 1
node 13 1 1 1
node 14 1 1 1
node 15 1 1 1
node 16 1 1 1
node 17 1 1 1
node 18 1 1 1
node 19 1 1 1
node 20 1 1 1
node 21 1 1 1
node 22 1 1 1
node 23 1 1 3
node 24 1 0 0
node 25 1 0 0
node 26 1 0 0
node 27 1 0 0
node 28 1 0 2
node 29 1 0 2
node 30 1 0 2
node 31 1 0 2
node 32 1 0 2
node 41 1 0 0
node 69 1 0 0
node 99 1 0 0
node 103 1 0 0
node 110 1 0 0
node 128 1 0 0
node 150 1 0 0
node 191 1 0 0
node 236 1 0 0
node 242 1 0 0
node 277 1 0 0
node 286 1 0 0
node 295 1 0 0
node 310 1 0 0
node 333 1 0 0
node 355 1 0 0
node 361 1 0 0
node 390 1 0 0
node 419 1 0 0
node 449 1 0 0
node 458 1 0 0
node 492 1 0 0
node 502 1 0 0
node 519 1 0 0
node 550 1 0 0
node 613 1 0 0
node 637 1 0 0
node 650 1 0 0
node 684 1 0 0
node 693 1 0 0
node 762 1 0 0
node 780 1 0 0
node 801 1 0 0
node 817 1 0 0
node 833 1 0 0
node 837 1 0 0
node 877 1 0 0
node 949 1 0 0
node 953 1 0 0
node 967 1 0 0
node 984 1 0 0
node 1008 1 0 0
node 1029 1 0 0
node 1062 1 0 0
node 1090 1 0 0
node 1102 1 0 0
node 1125 1 0 0
node 1134 1 0 0
node 1274 1 0 0
node 1291 1 0 0
node 1304 1 0 0
node 1314 1 0 0
node 1321 1 0 0
node 1327 1 0 0
node 1346 1 0 0
node 1360 1 0 0
node 1367 1 0 0
node 1410 1 0 0
node 1417 1 0 0
node 1459 1 0 0
node 1482 1 0 0
node 1487 1 0 0
node 1497 1 0 0
node 1505 1 0 0
node 1524 1 0 0
node 1533 1 0 0
node 1569 1 0 0
node 1584 1 0 0
node 1593 1 0 0
node 1598 1 0 0
node 1620 1 0 0
node 1639 1 0 0
node 1685 1 0 0
node 1698 1 0 0
node 1712 1 0 0
node 1743 1 0 0
node 1795 1 0 0
node 1821 1 0 0
node 1852 1 0 0
node 1865 1 0 0
node 1866 1 0 0
node 1877 1 0 0
node 1890 1 0 0
node 1896 1 0 0
node 1907 1 0 0
node 1915 1 0 0
node 1934 1 0 0
node 1984 1 0 0
node 2003 1 0 0
node 2011 1 0 0
node 2034 1 0 0
node 2054 1 0 0
node 2058 1 0 0
node 2076 1 0 0
node 2167 1 0 0
node 2188 1 0 0
node 2223 1 0 0
node 2230 1 0 0
node 2301 1 0 0
node 2329 1 0 0
node 2335 1 0 0
node 2353 1 0 0
node 2382 1 0 0
node 2389 1 0 0
node 2407 1 0 0
node 2438 1 0 0
node 2444 1 0 0
node 2497 1 0 0
node 2517 1 0 0
node 2543 1 0 0
node 2571 1 0 0
node 2593 1 0 0
node 2615 1 0 0
node 2628 1 0 0
node 2643 1 0 0
node 2646 1 0 0
node 2675 1 0 0
node 2677 1 0 0
node 2691 1 0 0
node 2701 1 0 0
node 2779 1 0 0
node 2783 1 0 0
node 2791 1 0 0
node 2829 1 0 0
gene  1 1 24 0.6836074841519658 0 1.0 0.6836074841519658 1
gene  1 2 24 0.2418349725060388 0 2.0 0.2418349725060388 1
gene  1 3 24 2.231101296592862 0 3.0 2.231101296592862 1
gene  1 4 24 1.9984107658146633 0 4.0 1.9984107658146633 1
gene  1 5 24 -1.295047861402809 0 5.0 -1.295047861402809 1
gene  1 6 24 -0.46614332725808727 0 6.0 -0.46614332725808727 1
gene  1 7 24 -0.6632373714736616 0 7.0 -0.6632373714736616 1
gene  1 8 24 -1.1786407631101534 0 8.0 -1.1786407631101534 1
gene  1 9 24 0.7083499676735852 0 9.0 0.7083499676735852 1
gene  1 10 24 1.8287682424176324 0 10.0 1.8287682424176324 1
gene  1 11 24 0.13114292736241406 0 11.0 0.13114292736241406 1
gene  1 12 24 0.20129052057887642 0 12.0 0.20129052057887642 1
gene  1 13 24 0.15119511013894327 0 13.0 0.15119511013894327 1
gene  1 14 24 -2.305494291515135 0 14.0 -2.305494291515135 1
gene  1 15 24 1.7866237942300476 0 15.0 1.7866237942300476 1
gene  1 16 24 0.4609847206181178 0 16.0 0.4609847206181178 1
gene  1 17 24 1.1367228621818093 0 17.0 1.1367228621818093 1
gene  1 18 24 1.0832013029571876 0 18.0 1.0832013029571876 1
gene  1 19 24 1.1167443914792334 0 19.0 1.1167443914792334 1
gene  1 20 24 0.07414205454090883 0 20.0 0.07414205454090883 1
gene  1 21 24 0.5418885079930811 0 21.0 0.5418885079930811 1
gene  1 22 24 2.484950267181405 0 22.0 2.484950267181405 1
gene  1 23 24 0.425929415896056 0 23.0 0.425929415896056 1
gene  1 1 25 0.6154095691625152 0 24.0 0.6154095691625152 1
gene  1 2 25 -2.8755165268856366 0 25.0 -2.8755165268856366 1
gene  1 3 25 2.689302679798512 0 26.0 2.689302679798512 1
gene  1 4 25 -0.7614296740576152 0 27.0 -0.7614296740576152 1
gene  1 5 25 -0.12017325232786724 0 28.0 -0.12017325232786724 1
gene  1 6 25 -0.8995478796312145 0 29.0 -0.8995478796312145 1
gene  1 7 25 -0.012654369140360444 0 30.0 -0.012654369140360444 1
gene  1 8 25 1.3910890901314834 0 31.0 1.3910890901314834 1
gene  1 9 25 0.3584175622867064 0 32.0 0.3584175622867064 1
gene  1 10 25 0.2779443092033518 0 33.0 0.2779443092033518 1
gene  1 11 25 1.142465146794125 0 34.0 1.142465146794125 1
gene  1 12 25 0.9036541395774667 0 35.0 0.9036541395774667 1
gene  1 13 25 -1.2351814578924105 0 36.0 -1.2351814578924105 0
gene  1 14 25 -2.406576236033213 0 37.0 -2.406576236033213 1
gene  1 15 25 -1.3059963432256165 0 38.0 -1.3059963432256165 1
gene  1 16 25 -0.07279068140327355 0 39.0 -0.07279068140327355 1
gene  1 17 25 2.1463068148221858 0 40.0 2.1463068148221858 1
gene  1 18 25 -0.8147305052695352 0 41.0 -0.8147305052695352 1
gene  1 19 25 -1.8963916370755176 0 42.0 -1.8963916370755176 1
gene  1 20 25 -0.17530964326477716 0 43.0 -0.17530964326477716 0
gene  1 21 25 -2.1615664960138625 0 44.0 -2.1615664960138625 1
gene  1 22 25 -0.5353496319643707 0 45.0 -0.5353496319643707 1
gene  1 23 25 2.211182550883856 0 46.0 2.211182550883856 1
gene  1 1 26 -0.1813538282281052 0 47.0 -0.1813538282281052 1
gene  1 2 26 1.0348232233393615 0 48.0 1.0348232233393615 1
gene  1 3 26 -0.26852393576716355 0 49.0 -0.26852393576716355 1
gene  1 4 26 -0.5462351900443294 0 50.0 -0.5462351900443294 1
gene  1 5 26 1.841798679175527 0 51.0 1.841798679175527 1
gene  1 6 26 0.9246057866887103 0 52.0 0.9246057866887103 1
gene  1 7 26 2.961718684201993 0 53.0 2.961718684201993 1
gene  1 8 26 1.3531921659176516 0 54.0 1.3531921659176516 1
gene  1 9 26 -1.7276248866576271 0 55.0 -1.7276248866576271 1
gene  1 10 26 2.0139802487278704 0 56.0 2.0139802487278704 1
gene  1 11 26 1.528778550886252 0 57.0 1.528778550886252 1
gene  1 12 26 -0.5785609867130133 0 58.0 -0.5785609867130133 1
gene  1 13 26 -2.6797800697851013 0 59.0 -2.6797800697851013 1
gene  1 14 26 -0.5697240976550146 0 60.0 -0.5697240976550146 1
gene  1 15 26 -0.6337731619541322 0 61.0 -0.6337731619541322 0
gene  1 16 26 -3.0562620734655126 0 62.0 -3.0562620734655126 1
gene  1 17 26 -0.6658234717228073 0 63.0 -0.6658234717228073 1
gene  1 18 26 3.3403867808578074 0 64.0 3.3403867808578074 1
gene  1 19 26 0.7776803632315288 0 65.0 0.7776803632315288 1
gene  1 20 26 -0.7243609006292111 0 66.0 -0.7243609006292111 1
gene  1 21 26 -3.0739483612397973 0 67.0 -3.0739483612397973 1
gene  1 22 26 -0.8853447786938764 0 68.0 -0.8853447786938764 1
gene  1 23 26 -1.392668583310223 0 69.0 -1.392668583310223 1
gene  1 1 27 0.1950912962028929 0 70.0 0.1950912962028929 1
gene  1 2 27 -2.3849842766314993 0 71.0 -2.3849842766314993 1
gene  1 3 27 -1.4510293084069832 0 72.0 -1.4510293084069832 1
gene  1 4 27 -2.108078397682316 0 73.0 -2.108078397682316 1
gene  1 5 27 0.9853093818432086 0 74.0 0.9853093818432086 1
gene  1 6 27 1.9012442085109171 0 75.0 1.9012442085109171 1
gene  1 7 27 -1.1359514906506512 0 76.0 -1.1359514906506512 1
gene  1 8 27 1.3588260773815568 0 77.0 1.3588260773815568 1
gene  1 9 27 -2.8086161361721667 0 78.0 -2.8086161361721667 1
gene  1 10 27 0.6822866399342444 0 79.0 0.6822866399342444 1
gene  1 11 27 -1.4192574802827127 0 80.0 -1.4192574802827127 1
gene  1 12 27 2.0194659787646483 0 81.0 2.0194659787646483 1
gene  1 13 27 -3.29794013327734 0 82.0 -3.29794013327734 1
gene  1 14 27 -1.0273223382155723 0 83.0 -1.0273223382155723 1
gene  1 15 27 0.8854793246663014 0 84.0 0.8854793246663014 1
gene  1 16 27 -2.4100030796377325 0 85.0 -2.4100030796377325 1
gene  1 17 27 1.1641354279973304 0 86.0 1.1641354279973304 1
gene  1 18 27 -1.5657621004727782 0 87.0 -1.5657621004727782 1
gene  1 19 27 0.9635940309111093 0 88.0 0.9635940309111093 1
gene  1 20 27 -1.5141808232294682 0 89.0 -1.5141808232294682 1
gene  1 21 27 -1.6098739089238192 0 90.0 -1.6098739089238192 1
gene  1 22 27 -0.20721715934182405 0 91.0 -0.20721715934182405 1
gene  1 23 27 -2.7987944125960222 0 92.0 -2.7987944125960222 1
gene  1 23 28 1.3272888213665466 0 93.0 1.3272888213665466 1
gene  1 24 28 1.3820786340802313 0 94.0 1.3820786340802313 1
gene  1 25 28 0.8152174332290762 0 95.0 0.8152174332290762 1
gene  1 26 28 -1.8871519098029614 0 96.0 -1.8871519098029614 1
gene  1 27 28 -1.0416194194378714 0 97.0 -1.0416194194378714 1
gene  1 23 29 1.712662646035409 0 98.0 1.712662646035409 1
gene  1 24 29 0.3750308964985809 0 99.0 0.3750308964985809 1
gene  1 25 29 2.0081239104076944 0 100.0 2.0081239104076944 1
gene  1 26 29 -1.8177506182944394 0 101.0 -1.8177506182944394 1
gene  1 27 29 0.24578722111506612 0 102.0 0.24578722111506612 1
gene  1 23 30 -0.9792201881248785 0 103.0 -0.9792201881248785 1
gene  1 24 30 0.3847222154010963 0 104.0 0.3847222154010963 1
gene  1 25 30 1.8066113481737804 0 105.0 1.8066113481737804 1
gene  1 26 30 0.2284221571408082 0 106.0 0.2284221571408082 1
gene  1 27 30 2.7779870153214823 0 107.0 2.7779870153214823 1
gene  1 23 31 0.4191893547743016 0 108.0 0.4191893547743016 1
gene  1 24 31 0.77248384192597 0 109.0 0.77248384192597 1
gene  1 25 31 -2.4322039769326436 0 110.0 -2.4322039769326436 1
gene  1 26 31 1.9221518817702068 0 111.0 1.9221518817702068 1
gene  1 27 31 -1.706516430146761 0 112.0 -1.706516430146761 1
gene  1 23 32 -1.20797389976055 0 113.0 -1.20797389976055 1
gene  1 24 32 0.41904467590066785 0 114.0 0.41904467590066785 1
gene  1 25 32 -1.5085101012937148 0 115.0 -1.5085101012937148 1
gene  1 26 32 -0.2604847518040827 0 116.0 -0.2604847518040827 1
gene  1 27 32 1.0654473885398326 0 117.0 1.0654473885398326 1
gene  1 15 28 4.70782994343627 0 145.0 4.70782994343627 1
gene  1 24 41 0.7041611002973363 0 162.0 0.7041611002973363 1
gene  1 41 29 -0.7849467345565301 0 163.0 -0.7849467345565301 1
gene  1 11 28 9.218883268875562 0 192.0 9.218883268875562 1
gene  1 8 29 -2.176334847719313 0 252.0 -2.176334847719313 1
gene  1 8 69 0.6109648487557431 0 286.0 0.6109648487557431 1
gene  1 69 26 2.7645682336002895 0 287.0 2.7645682336002895 1
gene  1 14 28 8.721990907806568 0 325.0 8.721990907806568 1
gene  1 10 28 4.561700536875561 0 337.0 4.561700536875561 0
gene  1 15 32 6.306243292515637 0 371.0 6.306243292515637 1
gene  1 20 99 2.16353396511089 0 420.0 2.16353396511089 1
gene  1 99 27 -2.8094737854649665 0 421.0 -2.8094737854649665 1
gene  1 5 103 -1.0264695869117828 0 442.0 -1.0264695869117828 1
gene  1 103 24 1.3671339875182222 0 443.0 1.3671339875182222 1
gene  1 3 110 -1.3192452305966889 0 466.0 -1.3192452305966889 1
gene  1 110 26 0.17226926783242408 0 467.0 0.17226926783242408 1
gene  1 17 99 8.667263408509712 0 517.0 8.667263408509712 1
gene  1 16 128 -1.1029401447466332 0 542.0 -1.1029401447466332 1
gene  1 128 25 1.5541036770496022 0 543.0 1.5541036770496022 1
gene  1 22 103 -3.6589079271917693 0 584.0 -3.6589079271917693 1
gene  1 24 150 -0.4951572804097779 0 612.0 -0.4951572804097779 1
gene  1 150 29 1.760461199179113 0 613.0 1.760461199179113 1
gene  1 6 128 7.989030214491342 0 659.0 7.989030214491342 1
gene  1 150 69 7.977677494161361 0 697.0 7.977677494161361 1
gene  1 31 32 -7.223103554147636 0 712.0 -7.223103554147636 1
gene  1 26 41 -6.934677827942377 0 740.0 -6.934677827942377 1
gene  1 7 191 2.7026679260086692 0 774.0 2.7026679260086692 1
gene  1 191 26 2.8964560025688257 0 775.0 2.8964560025688257 1
gene  1 103 26 0.9890079923258703 0 816.0 0.9890079923258703 1
gene  1 9 29 -5.980022400228384 0 851.0 -5.980022400228384 1
gene  1 11 99 -3.9682740919211192 0 864.0 -3.9682740919211192 1
gene  1 12 99 -10.457000068568073 0 920.0 -10.457000068568073 1
gene  1 26 236 2.413153052333878 0 945.0 2.413153052333878 1
gene  1 236 28 -0.39879288095864707 0 946.0 -0.39879288095864707 1
gene  1 22 242 0.9659975009029367 0 964.0 0.9659975009029367 1
gene  1 242 24 1.9563221533460138 0 965.0 1.9563221533460138 1
gene  1 15 99 9.470992938607854 0 1027.0 9.470992938607854 1
gene  1 191 69 2.1652779438076055 0 1052.0 2.1652779438076055 1
gene  1 15 277 0.9471773128246486 0 1090.0 0.9471773128246486 1
gene  1 277 28 2.35561451715437 0 1091.0 2.35561451715437 1
gene  1 27 286 -0.12275845610281455 0 1116.0 -0.12275845610281455 1
gene  1 286 28 0.025667614407639316 0 1117.0 0.025667614407639316 1
gene  1 191 295 1.462792961073816 0 1142.0 1.462792961073816 1
gene  1 295 26 -0.6328061547708835 0 1143.0 -0.6328061547708835 1
gene  1 22 128 0.47233297098327853 0 1174.0 0.47233297098327853 1
gene  1 19 310 2.4856618195935347 0 1209.0 2.4856618195935347 1
gene  1 310 24 -1.6364077796782248 0 1210.0 -1.6364077796782248 1
gene  1 242 103 8.287160315783602 0 1238.0 8.287160315783602 1
gene  1 16 236 -0.9082556621137352 0 1287.0 -0.9082556621137352 1
gene  1 20 333 1.0 0 1305.0 1.0 1
gene  1 333 24 -0.43803176646816433 0 1306.0 -0.43803176646816433 1
gene  1 14 277 -7.3398616412898825 0 1364.0 -7.3398616412898825 1
gene  1 2 355 -0.6544197900779483 0 1395.0 -0.6544197900779483 1
gene  1 355 27 0.057231611804800075 0 1396.0 0.057231611804800075 1
gene  1 69 361 -0.018934202235794118 0 1416.0 -0.018934202235794118 1
gene  1 361 26 2.638823677941647 0 1417.0 2.638823677941647 1
gene  1 9 32 -4.24720604900855 0 1466.0 -4.24720604900855 1
gene  1 14 333 -3.785843903385777 0 1482.0 -3.785843903385777 1
gene  1 32 277 2.2177074487957547 0 1522.0 2.2177074487957547 1
gene  1 3 390 1.0 0 1547.0 1.0 1
gene  1 390 26 2.717639197728152 0 1548.0 2.717639197728152 1
gene  1 286 236 0.7913139280449974 0 1594.0 0.7913139280449974 1
gene  1 20 419 1.0 0 1638.0 1.0 1
gene  1 419 27 2.372046399786742 0 1639.0 2.372046399786742 1
gene  1 17 355 -3.941543941741722 0 1648.0 -3.941543941741722 1
gene  1 8 150 0.9703385552652399 0 1688.0 0.9703385552652399 1
gene  1 355 310 -5.568152431032543 0 1725.0 -5.568152431032543 1
gene  1 2 449 2.715246405901041 0 1757.0 2.715246405901041 1
gene  1 449 355 1.1406736985867385 0 1758.0 1.1406736985867385 1
gene  1 10 458 1.0 0 1789.0 1.0 1
gene  1 458 26 0.8334553162957417 0 1790.0 0.8334553162957417 1
gene  1 286 242 0.0177850674950375 0 1819.0 0.0177850674950375 1
gene  1 103 361 -4.425782843693852 0 1881.0 -4.425782843693852 1
gene  1 22 492 1.0 0 1911.0 0.0 1
gene  1 492 128 0.47233297098327853 0 1912.0 0.0 1
gene  1 14 502 1.0 0 1950.0 0.0 1
gene  1 502 25 -2.406576236033213 0 1951.0 0.0 1
gene  1 10 519 1.0 0 2010.0 0.0 1
gene  1 519 25 0.2779443092033518 0 2011.0 0.0 1
gene  1 103 333 -4.925490828342904 0 2033.0 -4.925490828342904 1
gene  1 7 242 -8.589149608783572 0 2047.0 -8.589149608783572 1
gene  1 361 30 -3.364430012547958 0 2081.0 -3.364430012547958 1
gene  1 286 550 1.0 0 2139.0 0.0 1
gene  1 550 28 0.025667614407639316 0 2140.0 0.0 1
gene  1 16 449 -4.819583852973205 0 2207.0 -4.819583852973205 1
gene  1 22 99 -2.805021694326193 0 2256.0 -2.805021694326193 1
gene  1 519 191 5.4862128461960324 0 2286.0 5.4862128461960324 1
gene  1 41 277 -9.127596344581471 0 2326.0 -9.127596344581471 1
gene  1 19 613 1.0 0 2370.0 0.0 1
gene  1 613 24 1.1167443914792334 0 2371.0 0.0 1
gene  1 19 361 -0.9731171545944906 0 2386.0 -0.9731171545944906 1
gene  1 150 519 6.419898397957137 0 2419.0 6.419898397957137 1
gene  1 8 637 1.0 0 2459.0 0.0 1
gene  1 637 69 0.6109648487557431 0 2460.0 0.0 1
gene  1 99 41 -5.8512602291313005 0 2491.0 -5.8512602291313005 1
gene  1 14 650 1.0 0 2525.0 0.0 1
gene  1 650 26 -0.5697240976550146 0 2526.0 0.0 1
gene  1 99 449 9.692660829861735 0 2574.0 9.692660829861735 1
gene  1 128 650 -5.0758949069195305 0 2611.0 -5.0758949069195305 1
gene  1 242 613 -5.126578153185584 0 2631.0 -5.126578153185584 1
gene  1 26 684 1.0 0 2651.0 0.0 1
gene  1 684 41 -6.934677827942377 0 2652.0 0.0 1
gene  1 7 693 1.0 0 2686.0 0.0 1
gene  1 693 27 -1.1359514906506512 0 2687.0 0.0 1
gene  1 693 637 -8.665673205969714 0 2741.0 -8.665673205969714 1
gene  1 21 28 0.06671616490239618 0 2763.0 0.06671616490239618 1
gene  1 458 103 8.611347731799743 0 2802.0 8.611347731799743 1
gene  1 286 41 -0.3004047542578181 0 2819.0 -0.3004047542578181 1
gene  1 502 390 -8.194380204004723 0 2870.0 -8.194380204004723 1
gene  1 333 32 -7.464997288507407 0 2893.0 -7.464997288507407 1
gene  1 30 236 5.775671236113728 0 2925.0 5.775671236113728 1
gene  1 9 762 1.0 0 2965.0 0.0 1
gene  1 762 26 -1.7276248866576271 0 2966.0 0.0 1
gene  1 16 613 4.007700359226538 0 2985.0 4.007700359226538 1
gene  1 25 780 1.0 0 3029.0 0.0 1
gene  1 780 28 0.8152174332290762 0 3030.0 0.0 1
gene  1 502 69 2.7969092830649056 0 3080.0 2.7969092830649056 1
gene  1 2 801 1.0 0 3114.0 0.0 1
gene  1 801 26 1.0348232233393615 0 3115.0 0.0 1
gene  1 550 310 4.349619558396177 0 3126.0 4.349619558396177 1
gene  1 550 817 1.0 0 3162.0 0.0 1
gene  1 817 28 0.025667614407639316 0 3163.0 0.0 1
gene  1 103 833 1.0 0 3220.0 0.0 1
gene  1 833 24 1.3671339875182222 0 3221.0 0.0 1
gene  1 14 837 1.0 0 3236.0 0.0 1
gene  1 837 333 -3.785843903385777 0 3237.0 0.0 1
gene  1 21 150 0.37578412308161835 0 3282.0 0.37578412308161835 1
gene  1 650 780 3.1321547879450895 0 3314.0 3.1321547879450895 1
gene  1 15 837 -8.001033582604686 0 3364.0 -8.001033582604686 1
gene  1 20 877 1.0 0 3407.0 0.0 1
gene  1 877 99 2.16353396511089 0 3408.0 0.0 1
gene  1 16 333 -7.684474477005092 0 3491.0 -7.684474477005092 1
gene  1 4 361 9.048045139790645 0 3557.0 9.048045139790645 1
gene  1 17 150 -7.317512515918627 0 3601.0 -7.317512515918627 1
gene  1 15 419 5.649248767407083 0 3630.0 5.649248767407083 1
gene  1 27 236 -9.040006261993026 0 3680.0 -9.040006261993026 1
gene  1 242 949 3.3662321042402796 0 3697.0 3.3662321042402796 1
gene  1 949 24 3.8116774944575287 0 3698.0 3.8116774944575287 1
gene  1 21 953 2.5292206917901323 0 3730.0 2.5292206917901323 1
gene  1 953 26 -1.2197036145979476 0 3731.0 -1.2197036145979476 1
gene  1 21 967 3.0625718517917258 0 3782.0 3.0625718517917258 1
gene  1 967 27 -0.27134919075746433 0 3783.0 -0.27134919075746433 1
gene  1 295 41 -10.899442624756027 0 3812.0 -10.899442624756027 1
gene  1 1 984 3.0588149560433946 0 3857.0 3.0588149560433946 1
gene  1 984 27 0.9220611605752725 0 3858.0 0.9220611605752725 1
gene  1 502 355 -7.562691398700864 0 3916.0 -7.562691398700864 1
gene  1 877 110 8.564311350220738 0 3933.0 8.564311350220738 1
gene  1 24 1008 2.8312249102472684 0 3947.0 2.8312249102472684 1
gene  1 1008 150 -2.2872613098107935 0 3948.0 -2.2872613098107935 1
gene  1 4 492 -7.731225644805901 0 3998.0 -7.731225644805901 1
gene  1 20 1029 -1.469919738734212 0 4022.0 -1.469919738734212 1
gene  1 1029 25 -2.3508303715804537 0 4023.0 -2.3508303715804537 1
gene  1 103 801 -0.48554031784573914 0 4066.0 -0.48554031784573914 1
gene  1 984 492 5.987212006348747 0 4110.0 5.987212006348747 1
gene  1 693 550 -2.521896314737047 0 4127.0 -2.521896314737047 1
gene  1 550 1062 0.9212713533972463 0 4155.0 0.9212713533972463 1
gene  1 1062 310 3.8609158948325613 0 4156.0 3.8609158948325613 1
gene  1 502 984 3.8187437483230187 0 4187.0 3.8187437483230187 1
gene  1 833 613 -0.5800246342629606 0 4214.0 -0.5800246342629606 1
gene  1 4 1090 1.961668565925164 0 4251.0 1.961668565925164 1
gene  1 1090 24 2.956676217029036 0 4252.0 2.956676217029036 1
gene  1 191 1102 -0.12637097292289745 0 4284.0 -0.12637097292289745 1
gene  1 1102 295 2.6950523941114204 0 4285.0 2.6950523941114204 1
gene  1 984 449 -6.860808822448517 0 4326.0 -6.860808822448517 1
gene  1 15 1125 1.1607498393698046 0 4368.0 1.1607498393698046 1
gene  1 1125 27 0.15518243386976438 0 4369.0 0.15518243386976438 1
gene  1 4 1134 2.584616888090907 0 4401.0 2.584616888090907 1
gene  1 1134 27 -0.7846480153170099 0 4402.0 -0.7846480153170099 1
gene  1 12 449 1.0889149585453557 0 4445.0 1.0889149585453557 1
gene  1 9 242 10.837480381058917 0 4467.0 10.837480381058917 1
gene  1 41 30 -6.323693340904495 0 4490.0 -6.323693340904495 1
gene  1 458 1125 8.798383368487286 0 4529.0 8.798383368487286 1
gene  1 762 1008 -0.055078033926179604 0 4582.0 -0.055078033926179604 1
gene  1 984 1062 -0.6973655857942926 0 4623.0 -0.6973655857942926 1
gene  1 1029 1134 6.698797415152298 0 4653.0 6.698797415152298 1
gene  1 1029 277 7.935081577052172 0 4681.0 7.935081577052172 1
gene  1 22 286 -5.2996763930043125 0 4716.0 -5.2996763930043125 1
gene  1 355 333 -1.6576048279068307 0 4740.0 -1.6576048279068307 1
gene  1 550 333 -4.431312191365845 0 4777.0 -4.431312191365845 1
gene  1 99 967 -4.386455180571584 0 4792.0 -4.386455180571584 1
gene  1 9 286 0.4925363352766239 0 4832.0 0.4925363352766239 1
gene  1 150 30 -6.401415915211882 0 4880.0 -6.401415915211882 1
gene  1 19 1274 1.1866899282463068 0 4895.0 1.1866899282463068 1
gene  1 1274 310 4.442657523829048 0 4896.0 4.442657523829048 1
gene  1 18 128 -9.311023879118705 0 4928.0 -9.311023879118705 1
gene  1 984 1291 0.9523479823356475 0 4965.0 0.9523479823356475 1
gene  1 1291 27 -0.6093263360235844 0 4966.0 -0.6093263360235844 1
gene  1 817 191 -3.566918636885272 0 4986.0 -3.566918636885272 1
gene  1 984 1304 -2.1520268329262393 0 5012.0 -2.1520268329262393 1
gene  1 1304 449 -10.342989270686145 0 5013.0 -10.342989270686145 1
gene  1 14 1314 2.5043709914825416 0 5061.0 2.5043709914825416 1
gene  1 1314 333 -0.84984448111659 0 5062.0 -0.84984448111659 1
gene  1 286 1321 0.44172854732376593 0 5086.0 0.44172854732376593 1
gene  1 1321 28 1.3762612972477226 0 5087.0 1.3762612972477226 1
gene  1 2 1327 2.5093325194561293 0 5110.0 2.5093325194561293 1
gene  1 1327 355 -2.9068215575137595 0 5111.0 -2.9068215575137595 1
gene  1 1134 1304 7.5930475654933804 0 5151.0 7.5930475654933804 1
gene  1 4 1346 2.1637472071868835 0 5175.0 2.1637472071868835 1
gene  1 1346 24 3.917874225415147 0 5176.0 3.917874225415147 1
gene  1 15 1360 0.4366812325434004 0 5223.0 0.4366812325434004 1
gene  1 1360 837 -9.126389407006052 0 5224.0 -9.126389407006052 1
gene  1 19 1367 0.5220622526030982 0 5258.0 0.5220622526030982 1
gene  1 1367 1274 -0.20619584464935992 0 5259.0 -0.20619584464935992 1
gene  1 637 1102 -9.754507386525159 0 5285.0 -9.754507386525159 1
gene  1 5 1274 1.7842832527567225 0 5333.0 1.7842832527567225 1
gene  1 1102 650 7.718569220124885 0 5336.0 7.718569220124885 1
gene  1 1367 492 -9.286037609617729 0 5372.0 -9.286037609617729 1
gene  1 236 32 -2.8399338679268835 0 5410.0 -2.8399338679268835 1
gene  1 24 1410 0.6939462151975384 0 5435.0 0.6939462151975384 1
gene  1 1410 1008 1.3646526751279136 0 5436.0 1.3646526751279136 1
gene  1 1102 1417 0.006955879021144029 0 5466.0 0.006955879021144029 1
gene  1 1417 295 -0.745039017294657 0 5467.0 -0.745039017294657 1
gene  1 295 361 -1.408484883249565 0 5516.0 -1.408484883249565 1
gene  1 801 949 -8.981164997624202 0 5526.0 -8.981164997624202 1
gene  1 1134 99 1.9108223983985217 0 5559.0 1.9108223983985217 1
gene  1 6 236 3.9965697163108116 0 5608.0 3.9965697163108116 1
gene  1 12 1459 -0.7446049341491399 0 5634.0 -0.7446049341491399 1
gene  1 1459 25 -1.0760947241034262 0 5635.0 -1.0760947241034262 1
gene  1 502 519 3.4853928289300216 0 5675.0 3.4853928289300216 1
gene  1 242 1482 2.281355897382456 0 5706.0 2.281355897382456 1
gene  1 1482 24 4.776765614444185 0 5707.0 4.776765614444185 1
gene  1 10 1487 1.2570236013793497 0 5733.0 1.2570236013793497 1
gene  1 1487 458 0.5703731805825176 0 5734.0 0.5703731805825176 1
gene  1 9 1497 0.6881685134777703 0 5774.0 0.6881685134777703 1
gene  1 1497 286 -2.3744554878426234 0 5775.0 -2.3744554878426234 1
gene  1 1304 1505 1.1746867165901753 0 5802.0 1.1746867165901753 1
gene  1 1505 449 -7.582203577437977 0 5803.0 -7.582203577437977 1
gene  1 13 1274 9.308988663012638 0 5813.0 9.308988663012638 1
gene  1 550 1274 5.184585411893989 0 5865.0 5.184585411893989 1
gene  1 817 1524 1.6170337467769091 0 5874.0 1.6170337467769091 1
gene  1 1524 191 -1.3706565392656547 0 5875.0 -1.3706565392656547 1
gene  1 6 1533 -0.7181751462998698 0 5912.0 -0.7181751462998698 1
gene  1 1533 26 1.6587025314766635 0 5913.0 1.6587025314766635 1
gene  1 1459 242 5.671529983437326 0 5962.0 5.671529983437326 1
gene  1 762 984 -8.665255602063496 0 6000.0 -8.665255602063496 1
gene  1 12 1569 2.610470095941048 0 6043.0 2.610470095941048 1
gene  1 1569 26 -3.438284584336954 0 6044.0 -3.438284584336954 1
gene  1 613 1524 1.125855839796495 0 6051.0 1.125855839796495 1
gene  1 17 1008 8.17826381654911 0 6083.0 8.17826381654911 1
gene  1 12 1584 -0.9850999916275998 0 6101.0 -0.9850999916275998 1
gene  1 1584 25 1.0441070640125343 0 6102.0 1.0441070640125343 1
gene  1 17 1593 3.335120061558977 0 6140.0 3.335120061558977 1
gene  1 1593 99 10.176115224233031 0 6141.0 10.176115224233031 1
gene  1 492 1593 -7.513164433781614 0 6165.0 -7.513164433781614 1
gene  1 17 1598 0.8014876182192221 0 6171.0 0.8014876182192221 1
gene  1 1598 355 -2.4243129250987687 0 6172.0 -2.4243129250987687 1
gene  1 11 1620 1.2653358663686776 0 6236.0 1.2653358663686776 1
gene  1 1620 25 2.4558390729190673 0 6237.0 2.4558390729190673 1
gene  1 693 26 7.481485926246712 0 6249.0 7.481485926246712 1
gene  1 1505 1327 2.8513065933659414 0 6276.0 2.8513065933659414 1
gene  1 361 1639 2.7770833254824483 0 6328.0 2.7770833254824483 1
gene  1 1639 26 3.1609526519438367 0 6329.0 3.1609526519438367 1
gene  1 1 30 -3.0288430237123403 0 6336.0 -3.0288430237123403 1
gene  1 15 286 8.751904082009343 0 6391.0 8.751904082009343 1
gene  1 26 277 -7.497223717080747 0 6402.0 -7.497223717080747 1
gene  1 984 333 0.8353911448515183 0 6442.0 0.8353911448515183 0
gene  1 12 1685 -0.5438138492905082 0 6503.0 -0.5438138492905082 0
gene  1 1685 24 1.0936839269825172 0 6504.0 1.0936839269825172 1
gene  1 4 1321 -3.451557416690436 0 6517.0 -3.451557416690436 1
gene  1 1367 1698 -1.1722709344310127 0 6564.0 -1.1722709344310127 1
gene  1 1698 492 -11.689433003581446 0 6565.0 -11.689433003581446 1
gene  1 984 242 2.163824016267121 0 6574.0 2.163824016267121 1
gene  1 17 1487 -0.5055048192439265 0 6598.0 -0.5055048192439265 1
gene  1 780 1712 2.8126190264391266 0 6635.0 2.8126190264391266 1
gene  1 1712 28 -0.19130385451682086 0 6636.0 -0.19130385451682086 1
gene  1 1497 128 8.764671958757258 0 6681.0 8.764671958757258 1
gene  1 110 355 -11.604239428586666 0 6710.0 -11.604239428586666 1
gene  1 25 1321 8.748416345738859 0 6737.0 8.748416345738859 1
gene  1 24 1743 0.2902856995726446 0 6773.0 0.2902856995726446 1
gene  1 1743 41 0.9660812879708216 0 6774.0 0.9660812879708216 1
gene  1 502 286 9.685464902099577 0 6813.0 9.685464902099577 1
gene  1 23 103 -0.5208275254505781 0 6846.0 -0.5208275254505781 1
gene  1 650 277 -0.6537736262886955 0 6864.0 -0.6537736262886955 1
gene  1 99 1125 -0.6608391025781484 0 6890.0 -0.6608391025781484 1
gene  1 27 1795 1.7419620379406084 0 6981.0 1.7419620379406084 1
gene  1 1795 236 -8.62301132218609 0 6982.0 -8.62301132218609 1
gene  1 762 295 11.908015106280757 0 6998.0 11.908015106280757 1
gene  1 613 1712 -9.04515147227764 0 7044.0 -9.04515147227764 1
gene  1 637 519 8.341073129948764 0 7074.0 8.341073129948764 1
gene  1 10 1821 1.392829338450592 0 7084.0 1.392829338450592 1
gene  1 1821 25 -0.37514336260934367 0 7085.0 -0.37514336260934367 1
gene  1 3 877 6.880376219662633 0 7137.0 6.880376219662633 1
gene  1 242 1639 -8.402314783221037 0 7158.0 -8.402314783221037 1
gene  1 21 1367 1.6589838222077935 0 7187.0 1.6589838222077935 1
gene  1 110 1852 3.1905797277526 0 7224.0 3.1905797277526 1
gene  1 1852 26 -0.27479279474228496 0 7225.0 -0.27479279474228496 1
gene  1 27 1865 3.126737891168817 0 7278.0 3.126737891168817 1
gene  1 1865 32 1.5978196846955748 0 7279.0 1.5978196846955748 1
gene  1 22 1866 0.32719798784140186 0 7280.0 0.32719798784140186 1
gene  1 1866 26 -1.729806288899946 0 7281.0 -1.729806288899946 1
gene  1 1090 1877 1.3633155472032754 0 7321.0 1.3633155472032754 1
gene  1 1877 24 3.19204772838746 0 7322.0 3.19204772838746 1
gene  1 449 1890 -1.3645681875560802 0 7379.0 -1.3645681875560802 1
gene  1 1890 355 2.60800531678282 0 7380.0 2.60800531678282 1
gene  1 32 1896 -0.4002895074579236 0 7402.0 -0.4002895074579236 1
gene  1 1896 277 1.967325963295523 0 7403.0 1.967325963295523 1
gene  1 286 1907 2.7554924862450236 0 7432.0 2.7554924862450236 1
gene  1 1907 28 -0.7727815072730595 0 7433.0 -0.7727815072730595 1
gene  1 17 1915 3.436058811524326 0 7468.0 3.436058811524326 1
gene  1 1915 1008 8.384322377365564 0 7469.0 8.384322377365564 1
gene  1 637 1685 -0.5123116031987887 0 7498.0 -0.5123116031987887 1
gene  1 15 1934 -1.3506881501463237 0 7548.0 -1.3506881501463237 1
