/* Species # 001         : (size= 001) (AvfFit= 450,000) (Age= 42,000)  */
/*-------------------------------------------------------------------*/
/* Organism # 000 Fitness:  0,000 Error:  0,000                      */
genomestart  0
trait 1 0.0 0.0 0.0 0.0 0.0 0.0 0.0 0.0 
node 1 1 1 1
node 2 1 1 1
node 3 1 1 1
node 4 1 1 1
node 5 1 1 1
node 6 1 1 1
node 7 1 1 1
node 8 1 1 1
node 9 1 1 1
node 10 1 1 1
node 11 1 1 1
node 12 1 1 1
node 13 1 1 1
node 14 1 1 1
node 15 1 1 1
node 16 1 1 1
node 17 1 1 1
node 18 1 1 1
node 19 1 1 1
node 20 1 1 1
node 21 1 1 1
node 22 1 1 1
node 23 1 1 3
node 24 1 0 0
node 25 1 0 0
node 26 1 0 0
node 27 1 0 0
node 28 1 0 2
node 29 1 0 2
node 30 1 0 2
node 31 1 0 2
node 32 1 0 2
node 58 1 0 0
node 70 1 0 0
node 88 1 0 0
node 105 1 0 0
node 113 1 0 0
node 125 1 0 0
node 146 1 0 0
node 169 1 0 0
node 196 1 0 0
node 253 1 0 0
node 265 1 0 0
node 275 1 0 0
node 300 1 0 0
node 319 1 0 0
node 325 1 0 0
gene  1 1 24 0.3083134860013634 0 1.0 0.3083134860013634 1
gene  1 2 24 2.4120865099483035 0 2.0 2.4120865099483035 1
gene  1 3 24 0.36047354691371547 0 3.0 0.36047354691371547 1
gene  1 4 24 2.425827153308789 0 4.0 2.425827153308789 1
gene  1 5 24 -3.8619545531799906 0 5.0 -3.8619545531799906 1
gene  1 6 24 -2.625080895097677 0 6.0 -2.625080895097677 1
gene  1 7 24 1.6664159402117966 0 7.0 1.6664159402117966 1
gene  1 8 24 1.8686573006973493 0 8.0 1.8686573006973493 1
gene  1 9 24 -2.007845861169455 0 9.0 -2.007845861169455 1
gene  1 10 24 -3.0192016299385287 0 10.0 -3.0192016299385287 1
gene  1 11 24 -1.7091088720224634 0 11.0 -1.7091088720224634 1
gene  1 12 24 -0.1183922165056478 0 12.0 -0.1183922165056478 1
gene  1 13 24 1.6110996875374028 0 13.0 1.6110996875374028 1
gene  1 14 24 -2.2167666083665836 0 14.0 -2.2167666083665836 1
gene  1 15 24 -2.0577018492383914 0 15.0 -2.0577018492383914 1
gene  1 16 24 0.30960336017048906 0 16.0 0.30960336017048906 1
gene  1 17 24 -0.4442802183131648 0 17.0 -0.4442802183131648 0
gene  1 18 24 -1.1624457537191777 0 18.0 -1.1624457537191777 1
gene  1 19 24 -0.39261414740873746 0 19.0 -0.39261414740873746 1
gene  1 20 24 -3.753425790841297 0 20.0 -3.753425790841297 1
gene  1 21 24 3.4871600690779947 0 21.0 3.4871600690779947 1
gene  1 22 24 -4.852980476261403 0 22.0 -4.852980476261403 1
gene  1 23 24 -0.774361187132566 0 23.0 -0.774361187132566 1
gene  1 1 25 2.7009861910819586 0 24.0 2.7009861910819586 1
gene  1 2 25 1.5129996912805859 0 25.0 1.5129996912805859 1
gene  1 3 25 5.404978889327092 0 26.0 5.404978889327092 1
gene  1 4 25 -1.9416624752456673 0 27.0 -1.9416624752456673 1
gene  1 5 25 -1.835612483397917 0 28.0 -1.835612483397917 1
gene  1 6 25 0.07438203482040717 0 29.0 0.07438203482040717 1
gene  1 7 25 2.148642636320747 0 30.0 2.148642636320747 1
gene  1 8 25 -0.9560417934800725 0 31.0 -0.9560417934800725 1
gene  1 9 25 -1.0456694521245509 0 32.0 -1.0456694521245509 1
gene  1 10 25 -2.3585726358665253 0 33.0 -2.3585726358665253 1
gene  1 11 25 -1.3788908905879247 0 34.0 -1.3788908905879247 1
gene  1 12 25 2.4584462941769347 0 35.0 2.4584462941769347 1
gene  1 13 25 2.4784024587390725 0 36.0 2.4784024587390725 1
gene  1 14 25 2.450364981911219 0 37.0 2.450364981911219 1
gene  1 15 25 -1.4065961396675535 0 38.0 -1.4065961396675535 1
gene  1 16 25 0.8269592188596597 0 39.0 0.8269592188596597 1
gene  1 17 25 0.9279521605138357 0 40.0 0.9279521605138357 1
gene  1 18 25 -0.07605684368643256 0 41.0 -0.07605684368643256 1
gene  1 19 25 0.09581331607245391 0 42.0 0.09581331607245391 1
gene  1 20 25 -1.7550504236561641 0 43.0 -1.7550504236561641 1
gene  1 21 25 3.0851765358827743 0 44.0 3.0851765358827743 1
gene  1 22 25 -0.3988647392975819 0 45.0 -0.3988647392975819 1
gene  1 23 25 -1.560114910095407 0 46.0 -1.560114910095407 1
gene  1 1 26 -2.2194897629790504 0 47.0 -2.2194897629790504 1
gene  1 2 26 1.0962618690693728 0 48.0 1.0962618690693728 1
gene  1 3 26 -0.3244510965666638 0 49.0 -0.3244510965666638 1
gene  1 4 26 -3.344276496388353 0 50.0 -3.344276496388353 1
gene  1 5 26 -4.225670306336326 0 51.0 -4.225670306336326 1
gene  1 6 26 -0.5451640010709019 0 52.0 -0.5451640010709019 1
gene  1 7 26 -0.5127266425009913 0 53.0 -0.5127266425009913 1
gene  1 8 26 0.18099563979100108 0 54.0 0.18099563979100108 1
gene  1 9 26 0.9560442611508013 0 55.0 0.9560442611508013 1
gene  1 10 26 0.8511221466638508 0 56.0 0.8511221466638508 1
gene  1 11 26 -4.449447894773183 0 57.0 -4.449447894773183 1
gene  1 12 26 -1.0083316443893262 0 58.0 -1.0083316443893262 1
gene  1 13 26 3.715099739119981 0 59.0 3.715099739119981 1
gene  1 14 26 4.9375206549101005 0 60.0 4.9375206549101005 1
gene  1 15 26 -1.0452800525637103 0 61.0 -1.0452800525637103 1
gene  1 16 26 -2.4654299245254814 0 62.0 -2.4654299245254814 1
gene  1 17 26 2.1383916383807264 0 63.0 2.1383916383807264 1
gene  1 18 26 -3.4736370584580807 0 64.0 -3.4736370584580807 1
gene  1 19 26 -1.6831519782666091 0 65.0 -1.6831519782666091 1
gene  1 20 26 0.9084443295192778 0 66.0 0.9084443295192778 1
gene  1 21 26 2.489188650010999 0 67.0 2.489188650010999 1
gene  1 22 26 -1.918971737251272 0 68.0 -1.918971737251272 1
gene  1 23 26 5.180229103209617 0 69.0 5.180229103209617 1
gene  1 1 27 4.840323234501941 0 70.0 4.840323234501941 1
gene  1 2 27 1.676832228534197 0 71.0 1.676832228534197 1
gene  1 3 27 -2.318821934945017 0 72.0 -2.318821934945017 1
gene  1 4 27 -0.11917185290977933 0 73.0 -0.11917185290977933 1
gene  1 5 27 -1.7968118186147437 0 74.0 -1.7968118186147437 1
gene  1 6 27 0.01394292081210946 0 75.0 0.01394292081210946 1
gene  1 7 27 0.44232254240340874 0 76.0 0.44232254240340874 0
gene  1 8 27 0.9828463031396171 0 77.0 0.9828463031396171 1
gene  1 9 27 3.7283454511832783 0 78.0 3.7283454511832783 1
gene  1 10 27 -0.2551634354770563 0 79.0 -0.2551634354770563 1
gene  1 11 27 1.3542743744205485 0 80.0 1.3542743744205485 1
gene  1 12 27 1.3255954445791953 0 81.0 1.3255954445791953 1
gene  1 13 27 0.5909578205578061 0 82.0 0.5909578205578061 1
gene  1 14 27 0.6197360802161107 0 83.0 0.6197360802161107 1
gene  1 15 27 -5.511088947469855 0 84.0 -5.511088947469855 1
gene  1 16 27 -0.7032926034464232 0 85.0 -0.7032926034464232 1
gene  1 17 27 0.10548523425826184 0 86.0 0.10548523425826184 1
gene  1 18 27 -2.5558782168903926 0 87.0 -2.5558782168903926 1
gene  1 19 27 -1.3299907086718439 0 88.0 -1.3299907086718439 1
gene  1 20 27 0.13850053084894087 0 89.0 0.13850053084894087 1
gene  1 21 27 0.3524086085134752 0 90.0 0.3524086085134752 1
gene  1 22 27 -0.504138041612282 0 91.0 -0.504138041612282 1
gene  1 23 27 0.5095887870091822 0 92.0 0.5095887870091822 1
gene  1 23 28 -0.24792143395917576 0 93.0 -0.24792143395917576 1
gene  1 24 28 0.9085142816849348 0 94.0 0.9085142816849348 1
gene  1 25 28 1.3130251361671832 0 95.0 1.3130251361671832 1
gene  1 26 28 -0.2493206793873909 0 96.0 -0.2493206793873909 1
gene  1 27 28 -0.5860863896388224 0 97.0 -0.5860863896388224 1
gene  1 23 29 -3.269176021028266 0 98.0 -3.269176021028266 1
gene  1 24 29 4.716047049887978 0 99.0 4.716047049887978 1
gene  1 25 29 0.49368174500654755 0 100.0 0.49368174500654755 1
gene  1 26 29 6.406052411015454 0 101.0 6.406052411015454 1
gene  1 27 29 3.0525744659922007 0 102.0 3.0525744659922007 1
gene  1 23 30 -2.7301597959124617 0 103.0 -2.7301597959124617 1
gene  1 24 30 1.2625162524461118 0 104.0 1.2625162524461118 1
gene  1 25 30 -2.4229738709781854 0 105.0 -2.4229738709781854 1
gene  1 26 30 -4.357711873813114 0 106.0 -4.357711873813114 1
gene  1 27 30 0.9685562725234806 0 107.0 0.9685562725234806 1
gene  1 23 31 2.4467652733249716 0 108.0 2.4467652733249716 1
gene  1 24 31 0.7478361094811885 0 109.0 0.7478361094811885 1
gene  1 25 31 -0.3205832486595639 0 110.0 -0.3205832486595639 1
gene  1 26 31 3.0752173817007202 0 111.0 3.0752173817007202 1
gene  1 27 31 -0.08266073661361029 0 112.0 -0.08266073661361029 1
gene  1 23 32 -2.1707242327609686 0 113.0 -2.1707242327609686 1
gene  1 24 32 1.3331812348607457 0 114.0 1.3331812348607457 1
gene  1 25 32 -3.0740899606102956 0 115.0 -3.0740899606102956 1
gene  1 26 32 2.6482137125189635 0 116.0 2.6482137125189635 1
gene  1 27 32 -0.14555752613557765 0 117.0 -0.14555752613557765 1
gene  1 1 32 2.2851987232934547 0 131.0 2.2851987232934547 1
gene  1 24 26 4.223670346125229 0 158.0 4.223670346125229 1
gene  1 11 28 4.702925440628079 0 192.0 4.702925440628079 0
gene  1 13 58 1.2042653336110958 0 227.0 1.2042653336110958 1
gene  1 58 24 1.7489632186330015 0 228.0 1.7489632186330015 1
gene  1 58 26 0.9122932058879178 0 263.0 0.9122932058879178 1
gene  1 8 70 1.2764191397540248 0 295.0 1.2764191397540248 1
gene  1 70 24 1.7465036825916829 0 296.0 1.7465036825916829 1
gene  1 16 70 -0.8615419818513528 0 328.0 -0.8615419818513528 1
gene  1 4 28 2.381917987172902 0 360.0 2.381917987172902 1
gene  1 16 88 1.0074238119759675 0 387.0 1.0074238119759675 1
gene  1 88 26 0.15423339469879427 0 388.0 0.15423339469879427 1
gene  1 1 29 -0.047928478210490066 0 409.0 -0.047928478210490066 1
gene  1 1 105 -2.4730067273362675 0 454.0 -2.4730067273362675 1
gene  1 105 26 5.240687574288955 0 455.0 5.240687574288955 1
gene  1 8 113 3.066542140645064 0 485.0 3.066542140645064 1
gene  1 113 24 3.263616045582788 0 486.0 3.263616045582788 1
gene  1 18 28 2.932001354324958 0 490.0 2.932001354324958 1
gene  1 8 125 -3.19109659728199 0 531.0 -3.19109659728199 1
gene  1 125 25 1.1757212349829411 0 532.0 1.1757212349829411 1
gene  1 3 28 -0.869453558505416 0 585.0 -0.869453558505416 1
gene  1 19 146 -0.284354333069761 0 603.0 -0.284354333069761 1
gene  1 146 27 0.11119050029030886 0 604.0 0.11119050029030886 1
gene  1 21 105 -4.950448666906878 0 645.0 -4.950448666906878 1
gene  1 22 169 3.6989191882324337 0 683.0 3.6989191882324337 1
gene  1 169 24 1.4760821672060147 0 684.0 1.4760821672060147 1
gene  1 5 169 0.46611166726945125 0 713.0 0.46611166726945125 1
gene  1 21 196 1.3344025708962999 0 791.0 1.3344025708962999 1
gene  1 196 24 -1.7732009522434977 0 792.0 -1.7732009522434977 1
gene  1 18 88 4.288406798821448 0 827.0 4.288406798821448 1
gene  1 16 113 1.1635988844564689 0 922.0 1.1635988844564689 1
gene  1 11 253 2.8737980908733736 0 999.0 2.8737980908733736 1
gene  1 253 28 4.693000077836671 0 1000.0 4.693000077836671 1
gene  1 4 265 -0.2444762379622527 0 1037.0 -0.2444762379622527 1
gene  1 265 28 4.468363317384632 0 1038.0 4.468363317384632 1
gene  1 11 275 1.0 0 1070.0 1.0 1
gene  1 275 24 0.16967642609662414 0 1071.0 0.16967642609662414 1
gene  1 13 30 2.2916629069655774 0 1085.0 2.2916629069655774 1
gene  1 17 300 1.0 0 1165.0 0.0 1
gene  1 300 24 -0.4442802183131648 0 1166.0 0.0 1
gene  1 16 30 8.69849182961001 0 1198.0 8.69849182961001 1
gene  1 70 319 1.0 0 1235.0 0.0 1
gene  1 319 24 1.7465036825916829 0 1236.0 0.0 1
gene  1 7 325 1.0 0 1267.0 0.0 1
gene  1 325 27 0.44232254240340874 0 1268.0 0.0 1
gene  1 275 88 9.732504043111586 0 1303.0 9.732504043111586 1
gene  1 24 105 0.8805946137917386 0 1342.0 0.8805946137917386 1
gene  1 19 319 6.396330617104031 0 1372.0 6.396330617104031 1
gene  1 32 28 -3.673672277296104 0 1405.0 -3.673672277296104 1
gene  1 319 300 9.836302805617201 0 1438.0 9.836302805617201 1
genomeend 0
/*-------------------------------------------------------------------*/
/* Species # 012         : (size= 003) (AvfFit= 592,500) (Age= 34,000)  */
/*-------------------------------------------------------------------*/
/* Organism # 001 Fitness:  0,000 Error:  0,000                      */
genomestart  1
trait 1 0.0 0.0 0.0 0.5880285187278544 0.0 0.0 0.0 0.0 
node 1 1 1 1
node 2 1 1 1
node 3 1 1 1
node 4 1 1 1
node 5 1 1 1
node 6 1 1 1
node 7 1 1 1
node 8 1 1 1
node 9 1 1 1
node 10 1 1 1
node 11 1 1 1
node 12 1 1 1
node 13 1 1 1
node 14 1 1 1
node 15 1 1 1
node 16 1 1 1
node 17 1 1 1
node 18 1 1 1
node 19 1 1 1
node 20 1 1 1
node 21 1 1 1
node 22 1 1 1
node 23 1 1 3
node 24 1 0 0
node 25 1 0 0
node 26 1 0 0
node 27 1 0 0
node 28 1 0 2
node 29 1 0 2
node 30 1 0 2
node 31 1 0 2
node 32 1 0 2
node 37 1 0 0
node 59 1 0 0
node 76 1 0 0
node 81 1 0 0
node 161 1 0 0
node 187 1 0 0
node 260 1 0 0
node 273 1 0 0
node 276 1 0 0
node 317 1 0 0
gene  1 1 24 0.05147004284049361 0 1.0 0.05147004284049361 1
gene  1 2 24 -0.4517039899152153 0 2.0 -0.4517039899152153 1
gene  1 3 24 -0.018797129411093294 0 3.0 -0.018797129411093294 1
gene  1 4 24 1.2829363046622348 0 4.0 1.2829363046622348 1
gene  1 5 24 1.9987032262780913 0 5.0 1.9987032262780913 1
gene  1 6 24 3.7743617293062783 0 6.0 3.7743617293062783 1
gene  1 7 24 2.0371192248229653 0 7.0 2.0371192248229653 1
gene  1 8 24 -1.4385645989866267 0 8.0 -1.4385645989866267 1
gene  1 9 24 -2.548691508520208 0 9.0 -2.548691508520208 1
gene  1 10 24 1.0683205303809271 0 10.0 1.0683205303809271 1
gene  1 11 24 2.2501100876994 0 11.0 2.2501100876994 1
gene  1 12 24 3.1458940486476497 0 12.0 3.1458940486476497 1
gene  1 13 24 4.169546585280726 0 13.0 4.169546585280726 1
gene  1 14 24 -0.14358623836019518 0 14.0 -0.14358623836019518 1
gene  1 15 24 -0.8530035187932956 0 15.0 -0.8530035187932956 1
gene  1 16 24 2.5259618851316556 0 16.0 2.5259618851316556 1
gene  1 17 24 1.5858428742289967 0 17.0 1.5858428742289967 1
gene  1 18 24 -2.412743885187229 0 18.0 -2.412743885187229 1
gene  1 19 24 -1.4554070369203322 0 19.0 -1.4554070369203322 1
gene  1 20 24 3.305616903175971 0 20.0 3.305616903175971 1
gene  1 21 24 -3.4604797655577357 0 21.0 -3.4604797655577357 1
gene  1 22 24 4.616964891448762 0 22.0 4.616964891448762 1
gene  1 23 24 3.8472703283578444 0 23.0 3.8472703283578444 1
gene  1 1 25 1.3017803630996565 0 24.0 1.3017803630996565 1
gene  1 2 25 2.8425817325491924 0 25.0 2.8425817325491924 1
gene  1 3 25 2.558741823350111 0 26.0 2.558741823350111 1
gene  1 4 25 -2.9663642522288782 0 27.0 -2.9663642522288782 1
gene  1 5 25 1.7582341332649507 0 28.0 1.7582341332649507 1
gene  1 6 25 -0.8136282596388483 0 29.0 -0.8136282596388483 1
gene  1 7 25 3.3799915406350265 0 30.0 3.3799915406350265 1
gene  1 8 25 -1.974320882992607 0 31.0 -1.974320882992607 1
gene  1 9 25 -3.895067537016887 0 32.0 -3.895067537016887 1
gene  1 10 25 0.36316411540794735 0 33.0 0.36316411540794735 1
gene  1 11 25 -1.3795428368285405 0 34.0 -1.3795428368285405 1
gene  1 12 25 -0.9982227582415324 0 35.0 -0.9982227582415324 1
gene  1 13 25 -0.5272500927031901 0 36.0 -0.5272500927031901 1
gene  1 14 25 1.1962562414897049 0 37.0 1.1962562414897049 1
gene  1 15 25 1.9279510289578439 0 38.0 1.9279510289578439 1
gene  1 16 25 -3.0102896253721756 0 39.0 -3.0102896253721756 1
gene  1 17 25 0.10685763139210974 0 40.0 0.10685763139210974 1
gene  1 18 25 7.247304841669157 0 41.0 7.247304841669157 1
gene  1 19 25 0.3931706995138038 0 42.0 0.3931706995138038 1
gene  1 20 25 3.197547235023438 0 43.0 3.197547235023438 1
gene  1 21 25 0.9465324968269404 0 44.0 0.9465324968269404 1
gene  1 22 25 -0.8367259230598528 0 45.0 -0.8367259230598528 1
gene  1 23 25 -2.8533524065725917 0 46.0 -2.8533524065725917 1
gene  1 1 26 0.28872130438584354 0 47.0 0.28872130438584354 1
gene  1 2 26 -1.0355062861373723 0 48.0 -1.0355062861373723 1
gene  1 3 26 -2.3449218943057057 0 49.0 -2.3449218943057057 1
gene  1 4 26 -0.11601168547331997 0 50.0 -0.11601168547331997 0
gene  1 5 26 2.4502133450287884 0 51.0 2.4502133450287884 1
gene  1 6 26 -2.182584489291811 0 52.0 -2.182584489291811 1
gene  1 7 26 1.1026061477137248 0 53.0 1.1026061477137248 1
gene  1 8 26 -0.36824031403756424 0 54.0 -0.36824031403756424 1
gene  1 9 26 -1.5155203587279809 0 55.0 -1.5155203587279809 1
gene  1 10 26 1.4601092869596606 0 56.0 1.4601092869596606 1
gene  1 11 26 -2.51699364544315 0 57.0 -2.51699364544315 1
gene  1 12 26 -2.1391822044808246 0 58.0 -2.1391822044808246 1
gene  1 13 26 1.2151331111290582 0 59.0 1.2151331111290582 1
gene  1 14 26 -3.6058282492871796 0 60.0 -3.6058282492871796 1
gene  1 15 26 2.8530931490546143 0 61.0 2.8530931490546143 1
gene  1 16 26 -2.2782143977265963 0 62.0 -2.2782143977265963 1
gene  1 17 26 -0.7377046027214502 0 63.0 -0.7377046027214502 1
gene  1 18 26 4.239680966234522 0 64.0 4.239680966234522 1
gene  1 19 26 0.3660125761241373 0 65.0 0.3660125761241373 1
gene  1 20 26 -0.5250727407232223 0 66.0 -0.5250727407232223 1
gene  1 21 26 1.2651878535970704 0 67.0 1.2651878535970704 1
gene  1 22 26 -2.3635031841569765 0 68.0 -2.3635031841569765 1
gene  1 23 26 -4.296483444331522 0 69.0 -4.296483444331522 1
gene  1 1 27 -3.0173807071991803 0 70.0 -3.0173807071991803 1
gene  1 2 27 -0.5562448595003708 0 71.0 -0.5562448595003708 1
gene  1 3 27 1.2330217675724562 0 72.0 1.2330217675724562 1
gene  1 4 27 -1.235890741583494 0 73.0 -1.235890741583494 1
gene  1 5 27 0.39511018997167113 0 74.0 0.39511018997167113 1
gene  1 6 27 -1.914298844844661 0 75.0 -1.914298844844661 1
gene  1 7 27 0.1280702290458574 0 76.0 0.1280702290458574 1
gene  1 8 27 5.101552397113165 0 77.0 5.101552397113165 1
gene  1 9 27 -1.3270361599594385 0 78.0 -1.3270361599594385 1
gene  1 10 27 -2.501167089334829 0 79.0 -2.501167089334829 1
gene  1 11 27 1.1279787727634447 0 80.0 1.1279787727634447 1
gene  1 12 27 1.0394585729206909 0 81.0 1.0394585729206909 1
gene  1 13 27 -4.385883320372943 0 82.0 -4.385883320372943 1
gene  1 14 27 5.123821859922039 0 83.0 5.123821859922039 1
gene  1 15 27 -5.414065370561467 0 84.0 -5.414065370561467 1
gene  1 16 27 1.538947466653129 0 85.0 1.538947466653129 1
gene  1 17 27 2.306004676188291 0 86.0 2.306004676188291 1
gene  1 18 27 -0.6668096682666429 0 87.0 -0.6668096682666429 1
gene  1 19 27 -1.013947074642479 0 88.0 -1.013947074642479 1
gene  1 20 27 -1.0579403661501097 0 89.0 -1.0579403661501097 1
gene  1 21 27 -2.0888203073255376 0 90.0 -2.0888203073255376 1
gene  1 22 27 -0.4307647407183257 0 91.0 -0.4307647407183257 1
gene  1 23 27 0.4447213226305759 0 92.0 0.4447213226305759 1
gene  1 23 28 0.28007857327100116 0 93.0 0.28007857327100116 1
gene  1 24 28 0.9226522912682333 0 94.0 0.9226522912682333 1
gene  1 25 28 0.9285102487996435 0 95.0 0.9285102487996435 1
gene  1 26 28 -0.7198267671209189 0 96.0 -0.7198267671209189 1
gene  1 27 28 2.4619941425967404 0 97.0 2.4619941425967404 1
gene  1 23 29 3.6918429262513257 0 98.0 3.6918429262513257 1
gene  1 24 29 5.608115084473834 0 99.0 5.608115084473834 1
gene  1 25 29 1.0987685366782378 0 100.0 1.0987685366782378 1
gene  1 26 29 -2.219801829464019 0 101.0 -2.219801829464019 1
gene  1 27 29 1.788717727997782 0 102.0 1.788717727997782 1
gene  1 23 30 1.8795014742455471 0 103.0 1.8795014742455471 1
gene  1 24 30 0.8596212445309597 0 104.0 0.8596212445309597 1
gene  1 25 30 0.5266198265435815 0 105.0 0.5266198265435815 1
gene  1 26 30 1.7892989590643291 0 106.0 1.7892989590643291 1
gene  1 27 30 -1.2552868230546959 0 107.0 -1.2552868230546959 1
gene  1 23 31 2.280149886728196 0 108.0 2.280149886728196 1
gene  1 24 31 -0.07779187750822314 0 109.0 -0.07779187750822314 1
gene  1 25 31 -0.928751803972374 0 110.0 -0.928751803972374 1
gene  1 26 31 -1.1990735115203084 0 111.0 -1.1990735115203084 1
gene  1 27 31 -1.5925875044191238 0 112.0 -1.5925875044191238 1
gene  1 23 32 -3.9186224143839743 0 113.0 -3.9186224143839743 1
gene  1 24 32 2.212691218463653 0 114.0 2.212691218463653 1
gene  1 25 32 3.4122343154580506 0 115.0 3.4122343154580506 1
gene  1 26 32 1.6803194169376274 0 116.0 1.6803194169376274 1
gene  1 27 32 0.9304521777058978 0 117.0 0.9304521777058978 1
gene  1 7 30 -1.5863430227519069 0 119.0 -1.5863430227519069 1
gene  1 3 37 -0.30505770746204286 0 148.0 -0.30505770746204286 1
gene  1 37 26 -2.92819491833811 0 149.0 -2.92819491833811 1
gene  1 26 59 3.124124134291281 0 230.0 3.124124134291281 1
gene  1 59 28 1.916991037073964 0 231.0 1.916991037073964 1
gene  1 1 31 0.15733266753669317 0 240.0 0.15733266753669317 1
gene  1 18 32 -5.559815515693596 0 289.0 -5.559815515693596 1
gene  1 24 76 -0.5612422590803801 0 322.0 -0.5612422590803801 1
gene  1 76 31 2.1056114554435306 0 323.0 2.1056114554435306 1
gene  1 20 81 0.5309783626113826 0 351.0 0.5309783626113826 1
gene  1 81 24 2.3161128006300684 0 352.0 2.3161128006300684 1
gene  1 15 30 -4.449046714511185 0 384.0 -4.449046714511185 1
gene  1 9 81 0.9487681822365743 0 403.0 0.9487681822365743 1
gene  1 22 37 4.6286691191689435 0 452.0 4.6286691191689435 1
gene  1 22 31 5.546711248437358 0 481.0 5.546711248437358 1
gene  1 20 76 -1.306067666718282 0 505.0 -1.306067666718282 1
gene  1 22 32 -7.350071751077446 0 540.0 -7.350071751077446 1
gene  1 15 81 0.5274373280307876 0 571.0 0.5274373280307876 1
gene  1 18 30 -1.006049871055856 0 624.0 -1.006049871055856 1
gene  1 17 161 2.2683812890356565 0 655.0 2.2683812890356565 1
gene  1 161 25 -0.8468160465620913 0 656.0 -0.8468160465620913 1
gene  1 2 81 -4.456394410516609 0 699.0 -4.456394410516609 1
gene  1 10 81 9.5230933976808 0 730.0 9.5230933976808 1
gene  1 29 59 0.03589510372624366 0 746.0 0.03589510372624366 1
gene  1 14 187 0.8859660421952387 0 762.0 0.8859660421952387 1
gene  1 187 24 -1.246628307555616 0 763.0 -1.246628307555616 1
gene  1 18 76 1.0184503150036508 0 807.0 1.0184503150036508 1
gene  1 22 161 7.587201984162628 0 841.0 7.587201984162628 1
gene  1 9 32 1.6315873940375831 0 862.0 1.6315873940375831 1
gene  1 19 161 -0.37434770760050945 0 944.0 -0.37434770760050945 1
gene  1 25 26 2.3567355754797434 0 981.0 2.3567355754797434 1
gene  1 4 260 2.593670389925821 0 1023.0 2.593670389925821 1
gene  1 260 26 -1.7321723149346882 0 1024.0 -1.7321723149346882 1
gene  1 22 273 1.1974068925195926 0 1064.0 1.1974068925195926 1
gene  1 273 25 -0.3818853853497186 0 1065.0 -0.3818853853497186 1
gene  1 9 276 1.2315759331773781 0 1080.0 1.2315759331773781 1
gene  1 276 81 -1.2567378956110797 0 1081.0 -1.2567378956110797 1
gene  1 17 31 8.960817910477932 0 1130.0 8.960817910477932 1
gene  1 16 37 -8.556227506894686 0 1192.0 -8.556227506894686 1
gene  1 4 317 1.0 0 1230.0 0.0 1
gene  1 317 26 -0.11601168547331997 0 1231.0 0.0 1
gene  1 18 29 -0.7896421647953322 0 1254.0 -0.7896421647953322 1
gene  1 3 28 -2.7996051792452192 0 1295.0 -2.7996051792452192 1
gene  1 22 81 -3.3979231642237453 0 1316.0 -3.3979231642237453 1
gene  1 2 30 3.3364552772586666 0 1362.0 3.3364552772586666 1
gene  1 11 31 -7.001977108612209 0 1375.0 -7.001977108612209 1
gene  1 276 317 1.3318580300998573 0 1419.0 1.3318580300998573 1
genomeend 1
/* Organism # 002 Fitness:  0,000 Error:  0,000                      */
genomestart  2
trait 1 0.0 0.0 0.0 0.5880285187278544 0.0 0.0 0.0 0.0 
node 1 1 1 1
node 2 1 1 1
node 3 1 1 1
node 4 1 1 1
node 5 1 1 1
node 6 1 1 1
node 7 1 1 1
node 8 1 1 1
node 9 1 1 1
node 10 1 1 1
node 11 1 1 1
node 12 1 1 1
node 13 1 1 1
node 14 1 1 1
node 15 1 1 1
node 16 1 1 1
node 17 1 1 1
node 18 1 1 1
node 19 1 1 1
node 20 1 1 1
node 21 1 1 1
node 22 1 1 1
node 23 1 1 3
node 24 1 0 0
node 25 1 0 0
node 26 1 0 0
node 27 1 0 0
node 28 1 0 2
node 29 1 0 2
node 30 1 0 2
node 31 1 0 2
node 32 1 0 2
node 37 1 0 0
node 59 1 0 0
node 76 1 0 0
node 81 1 0 0
node 161 1 0 0
node 187 1 0 0
node 260 1 0 0
node 273 1 0 0
node 276 1 0 0
node 317 1 0 0
node 362 1 0 0
gene  1 1 24 0.05147004284049361 0 1.0 0.05147004284049361 1
gene  1 2 24 -0.4517039899152153 0 2.0 -0.4517039899152153 1
gene  1 3 24 -0.018797129411093294 0 3.0 -0.018797129411093294 1
gene  1 4 24 1.2829363046622348 0 4.0 1.2829363046622348 1
gene  1 5 24 1.9987032262780913 0 5.0 1.9987032262780913 1
gene  1 6 24 3.7743617293062783 0 6.0 3.7743617293062783 1
gene  1 7 24 2.0371192248229653 0 7.0 2.0371192248229653 1
gene  1 8 24 -1.4385645989866267 0 8.0 -1.4385645989866267 1
gene  1 9 24 -2.548691508520208 0 9.0 -2.548691508520208 1
gene  1 10 24 1.0683205303809271 0 10.0 1.0683205303809271 1
gene  1 11 24 2.2501100876994 0 11.0 2.2501100876994 1
gene  1 12 24 3.1458940486476497 0 12.0 3.1458940486476497 1
gene  1 13 24 4.169546585280726 0 13.0 4.169546585280726 1
gene  1 14 24 -0.14358623836019518 0 14.0 -0.14358623836019518 1
gene  1 15 24 -0.8530035187932956 0 15.0 -0.8530035187932956 1
gene  1 16 24 2.5259618851316556 0 16.0 2.5259618851316556 1
gene  1 17 24 1.5858428742289967 0 17.0 1.5858428742289967 1
gene  1 18 24 -2.412743885187229 0 18.0 -2.412743885187229 1
gene  1 19 24 -1.4554070369203322 0 19.0 -1.4554070369203322 1
gene  1 20 24 3.305616903175971 0 20.0 3.305616903175971 1
gene  1 21 24 -3.4604797655577357 0 21.0 -3.4604797655577357 1
gene  1 22 24 4.616964891448762 0 22.0 4.616964891448762 1
gene  1 23 24 3.8472703283578444 0 23.0 3.8472703283578444 1
gene  1 1 25 1.3017803630996565 0 24.0 1.3017803630996565 1
gene  1 2 25 2.8425817325491924 0 25.0 2.8425817325491924 1
gene  1 3 25 2.558741823350111 0 26.0 2.558741823350111 1
gene  1 4 25 -2.9663642522288782 0 27.0 -2.9663642522288782 1
gene  1 5 25 1.7582341332649507 0 28.0 1.7582341332649507 1
gene  1 6 25 -0.8136282596388483 0 29.0 -0.8136282596388483 1
gene  1 7 25 3.3799915406350265 0 30.0 3.3799915406350265 1
gene  1 8 25 -1.974320882992607 0 31.0 -1.974320882992607 1
gene  1 9 25 -3.895067537016887 0 32.0 -3.895067537016887 1
gene  1 10 25 0.36316411540794735 0 33.0 0.36316411540794735 1
gene  1 11 25 -1.3795428368285405 0 34.0 -1.3795428368285405 1
gene  1 12 25 -0.9982227582415324 0 35.0 -0.9982227582415324 1
gene  1 13 25 -0.5272500927031901 0 36.0 -0.5272500927031901 1
gene  1 14 25 1.1962562414897049 0 37.0 1.1962562414897049 1
gene  1 15 25 1.9279510289578439 0 38.0 1.9279510289578439 1
gene  1 16 25 -3.0102896253721756 0 39.0 -3.0102896253721756 1
gene  1 17 25 0.10685763139210974 0 40.0 0.10685763139210974 1
gene  1 18 25 7.247304841669157 0 41.0 7.247304841669157 1
gene  1 19 25 0.3931706995138038 0 42.0 0.3931706995138038 1
gene  1 20 25 3.197547235023438 0 43.0 3.197547235023438 1
gene  1 21 25 0.9465324968269404 0 44.0 0.9465324968269404 1
gene  1 22 25 -0.8367259230598528 0 45.0 -0.8367259230598528 1
gene  1 23 25 -2.8533524065725917 0 46.0 -2.8533524065725917 1
gene  1 1 26 0.28872130438584354 0 47.0 0.28872130438584354 1
gene  1 2 26 -1.0355062861373723 0 48.0 -1.0355062861373723 1
gene  1 3 26 -2.3449218943057057 0 49.0 -2.3449218943057057 1
gene  1 4 26 -0.11601168547331997 0 50.0 -0.11601168547331997 0
gene  1 5 26 2.4502133450287884 0 51.0 2.4502133450287884 1
gene  1 6 26 -2.182584489291811 0 52.0 -2.182584489291811 1
gene  1 7 26 1.1026061477137248 0 53.0 1.1026061477137248 1
gene  1 8 26 -0.36824031403756424 0 54.0 -0.36824031403756424 1
gene  1 9 26 -1.5155203587279809 0 55.0 -1.5155203587279809 1
gene  1 10 26 1.4601092869596606 0 56.0 1.4601092869596606 1
gene  1 11 26 -2.51699364544315 0 57.0 -2.51699364544315 1
gene  1 12 26 -2.1391822044808246 0 58.0 -2.1391822044808246 1
gene  1 13 26 1.2151331111290582 0 59.0 1.2151331111290582 1
gene  1 14 26 -3.6058282492871796 0 60.0 -3.6058282492871796 1
gene  1 15 26 2.8530931490546143 0 61.0 2.8530931490546143 1
gene  1 16 26 -2.2782143977265963 0 62.0 -2.2782143977265963 1
gene  1 17 26 -0.7377046027214502 0 63.0 -0.7377046027214502 1
gene  1 18 26 4.239680966234522 0 64.0 4.239680966234522 1
gene  1 19 26 0.3660125761241373 0 65.0 0.3660125761241373 1
gene  1 20 26 -0.5250727407232223 0 66.0 -0.5250727407232223 1
gene  1 21 26 1.2651878535970704 0 67.0 1.2651878535970704 1
gene  1 22 26 -2.3635031841569765 0 68.0 -2.3635031841569765 1
gene  1 23 26 -4.296483444331522 0 69.0 -4.296483444331522 1
gene  1 1 27 -3.0173807071991803 0 70.0 -3.0173807071991803 1
gene  1 2 27 -0.5562448595003708 0 71.0 -0.5562448595003708 1
gene  1 3 27 1.2330217675724562 0 72.0 1.2330217675724562 1
gene  1 4 27 -1.235890741583494 0 73.0 -1.235890741583494 1
gene  1 5 27 0.39511018997167113 0 74.0 0.39511018997167113 1
gene  1 6 27 -1.914298844844661 0 75.0 -1.914298844844661 0
gene  1 7 27 0.1280702290458574 0 76.0 0.1280702290458574 1
gene  1 8 27 5.101552397113165 0 77.0 5.101552397113165 1
gene  1 9 27 -1.3270361599594385 0 78.0 -1.3270361599594385 1
gene  1 10 27 -2.501167089334829 0 79.0 -2.501167089334829 1
gene  1 11 27 1.1279787727634447 0 80.0 1.1279787727634447 1
gene  1 12 27 1.0394585729206909 0 81.0 1.0394585729206909 1
gene  1 13 27 -4.385883320372943 0 82.0 -4.385883320372943 1
gene  1 14 27 5.123821859922039 0 83.0 5.123821859922039 1
gene  1 15 27 -5.414065370561467 0 84.0 -5.414065370561467 1
gene  1 16 27 1.538947466653129 0 85.0 1.538947466653129 1
gene  1 17 27 2.306004676188291 0 86.0 2.306004676188291 1
gene  1 18 27 -0.6668096682666429 0 87.0 -0.6668096682666429 1
gene  1 19 27 -1.013947074642479 0 88.0 -1.013947074642479 1
gene  1 20 27 -1.0579403661501097 0 89.0 -1.0579403661501097 1
gene  1 21 27 -2.0888203073255376 0 90.0 -2.0888203073255376 1
gene  1 22 27 -0.4307647407183257 0 91.0 -0.4307647407183257 1
gene  1 23 27 0.4447213226305759 0 92.0 0.4447213226305759 1
gene  1 23 28 0.28007857327100116 0 93.0 0.28007857327100116 1
gene  1 24 28 0.9226522912682333 0 94.0 0.9226522912682333 1
gene  1 25 28 0.9285102487996435 0 95.0 0.9285102487996435 1
gene  1 26 28 -0.7198267671209189 0 96.0 -0.7198267671209189 0
gene  1 27 28 2.4619941425967404 0 97.0 2.4619941425967404 1
gene  1 23 29 3.6918429262513257 0 98.0 3.6918429262513257 1
gene  1 24 29 5.608115084473834 0 99.0 5.608115084473834 1
gene  1 25 29 1.0987685366782378 0 100.0 1.0987685366782378 1
gene  1 26 29 -2.219801829464019 0 101.0 -2.219801829464019 1
gene  1 27 29 1.788717727997782 0 102.0 1.788717727997782 1
gene  1 23 30 1.8795014742455471 0 103.0 1.8795014742455471 1
gene  1 24 30 0.8596212445309597 0 104.0 0.8596212445309597 1
gene  1 25 30 0.5266198265435815 0 105.0 0.5266198265435815 1
gene  1 26 30 1.7892989590643291 0 106.0 1.7892989590643291 1
gene  1 27 30 -1.2552868230546959 0 107.0 -1.2552868230546959 1
gene  1 23 31 2.280149886728196 0 108.0 2.280149886728196 1
gene  1 24 31 -0.07779187750822314 0 109.0 -0.07779187750822314 1
gene  1 25 31 -0.928751803972374 0 110.0 -0.928751803972374 1
gene  1 26 31 -1.1990735115203084 0 111.0 -1.1990735115203084 1
gene  1 27 31 -1.5925875044191238 0 112.0 -1.5925875044191238 1
gene  1 23 32 -3.9186224143839743 0 113.0 -3.9186224143839743 1
gene  1 24 32 2.212691218463653 0 114.0 2.212691218463653 1
gene  1 25 32 3.4122343154580506 0 115.0 3.4122343154580506 1
gene  1 26 32 1.6803194169376274 0 116.0 1.6803194169376274 1
gene  1 27 32 0.9304521777058978 0 117.0 0.9304521777058978 1
gene  1 7 30 -1.5863430227519069 0 119.0 -1.5863430227519069 1
gene  1 3 37 -0.30505770746204286 0 148.0 -0.30505770746204286 1
gene  1 37 26 -2.92819491833811 0 149.0 -2.92819491833811 1
gene  1 26 59 3.124124134291281 0 230.0 3.124124134291281 1
gene  1 59 28 1.916991037073964 0 231.0 1.916991037073964 1
gene  1 1 31 0.15733266753669317 0 240.0 0.15733266753669317 1
gene  1 18 32 -5.559815515693596 0 289.0 -5.559815515693596 1
gene  1 24 76 -0.5612422590803801 0 322.0 -0.5612422590803801 1
gene  1 76 31 2.1056114554435306 0 323.0 2.1056114554435306 1
gene  1 20 81 0.5309783626113826 0 351.0 0.5309783626113826 1
gene  1 81 24 2.3161128006300684 0 352.0 2.3161128006300684 1
gene  1 15 30 -4.449046714511185 0 384.0 -4.449046714511185 1
gene  1 9 81 0.9487681822365743 0 403.0 0.9487681822365743 1
gene  1 22 37 4.6286691191689435 0 452.0 4.6286691191689435 1
gene  1 22 31 5.546711248437358 0 481.0 5.546711248437358 1
gene  1 20 76 -1.306067666718282 0 505.0 -1.306067666718282 1
gene  1 22 32 -7.350071751077446 0 540.0 -7.350071751077446 1
gene  1 15 81 0.5274373280307876 0 571.0 0.5274373280307876 1
gene  1 18 30 -1.006049871055856 0 624.0 -1.006049871055856 1
gene  1 17 161 2.2683812890356565 0 655.0 2.2683812890356565 1
gene  1 161 25 -0.8468160465620913 0 656.0 -0.8468160465620913 1
gene  1 2 81 -4.456394410516609 0 699.0 -4.456394410516609 1
gene  1 10 81 9.5230933976808 0 730.0 9.5230933976808 1
gene  1 29 59 0.03589510372624366 0 746.0 0.03589510372624366 1
gene  1 14 187 0.8859660421952387 0 762.0 0.8859660421952387 1
gene  1 187 24 -1.246628307555616 0 763.0 -1.246628307555616 1
gene  1 18 76 1.0184503150036508 0 807.0 1.0184503150036508 1
gene  1 22 161 7.587201984162628 0 841.0 7.587201984162628 1
gene  1 9 32 1.6315873940375831 0 862.0 1.6315873940375831 1
gene  1 19 161 -0.37434770760050945 0 944.0 -0.37434770760050945 1
gene  1 25 26 2.3567355754797434 0 981.0 2.3567355754797434 1
gene  1 4 260 2.593670389925821 0 1023.0 2.593670389925821 1
gene  1 260 26 -1.7321723149346882 0 1024.0 -1.7321723149346882 1
gene  1 22 273 1.1974068925195926 0 1064.0 1.1974068925195926 1
gene  1 273 25 -0.3818853853497186 0 1065.0 -0.3818853853497186 1
gene  1 9 276 1.2315759331773781 0 1080.0 1.2315759331773781 1
gene  1 276 81 -1.2567378956110797 0 1081.0 -1.2567378956110797 1
gene  1 17 31 8.960817910477932 0 1130.0 8.960817910477932 1
gene  1 16 37 -8.556227506894686 0 1192.0 -8.556227506894686 1
gene  1 4 317 1.0 0 1230.0 0.0 1
gene  1 317 26 -0.11601168547331997 0 1231.0 0.0 1
gene  1 18 29 -0.7896421647953322 0 1254.0 -0.7896421647953322 1
gene  1 3 28 -2.7996051792452192 0 1295.0 -2.7996051792452192 1
gene  1 22 81 -3.3979231642237453 0 1316.0 -3.3979231642237453 1
gene  1 2 30 3.3364552772586666 0 1362.0 3.3364552772586666 1
gene  1 11 31 -7.001977108612209 0 1375.0 -7.001977108612209 1
gene  1 6 362 1.0 0 1420.0 0.0 1
gene  1 362 27 -1.914298844844661 0 1421.0 0.0 1
genomeend 2
/* Organism # 003 Fitness:  0,000 Error:  0,000                      */
genomestart  3
trait 1 0.0 0.0 0.0 0.5880285187278544 0.0 0.0 0.0 0.0 
node 1 1 1 1
node 2 1 1 1
node 3 1 1 1
node 4 1 1 1
node 5 1 1 1
node 6 1 1 1
node 7 1 1 1
node 8 1 1 1
node 9 1 1 1
node 10 1 1 1
node 11 1 1 1
node 12 1 1 1
node 13 1 1 1
node 14 1 1 1
node 15 1 1 1
node 16 1 1 1
node 17 1 1 1
node 18 1 1 1
node 19 1 1 1
node 20 1 1 1
node 21 1 1 1
node 22 1 1 1
node 23 1 1 3
node 24 1 0 0
node 25 1 0 0
node 26 1 0 0
node 27 1 0 0
node 28 1 0 2
node 29 1 0 2
node 30 1 0 2
node 31 1 0 2
node 32 1 0 2
node 37 1 0 0
node 59 1 0 0
node 76 1 0 0
node 81 1 0 0
node 161 1 0 0
node 187 1 0 0
node 260 1 0 0
node 273 1 0 0
node 276 1 0 0
node 317 1 0 0
gene  1 1 24 0.05147004284049361 0 1.0 0.05147004284049361 1
gene  1 2 24 -0.4517039899152153 0 2.0 -0.4517039899152153 1
gene  1 3 24 -0.018797129411093294 0 3.0 -0.018797129411093294 1
gene  1 4 24 1.2829363046622348 0 4.0 1.2829363046622348 1
gene  1 5 24 1.9987032262780913 0 5.0 1.9987032262780913 1
gene  1 6 24 3.7743617293062783 0 6.0 3.7743617293062783 1
gene  1 7 24 2.0371192248229653 0 7.0 2.0371192248229653 1
gene  1 8 24 -1.4385645989866267 0 8.0 -1.4385645989866267 1
gene  1 9 24 -2.548691508520208 0 9.0 -2.548691508520208 1
gene  1 10 24 1.0683205303809271 0 10.0 1.0683205303809271 1
gene  1 11 24 2.2501100876994 0 11.0 2.2501100876994 1
gene  1 12 24 3.1458940486476497 0 12.0 3.1458940486476497 1
gene  1 13 24 4.169546585280726 0 13.0 4.169546585280726 1
gene  1 14 24 -0.14358623836019518 0 14.0 -0.14358623836019518 1
gene  1 15 24 -0.8530035187932956 0 15.0 -0.8530035187932956 1
gene  1 16 24 2.5259618851316556 0 16.0 2.5259618851316556 1
gene  1 17 24 1.5858428742289967 0 17.0 1.5858428742289967 1
gene  1 18 24 -2.412743885187229 0 18.0 -2.412743885187229 1
gene  1 19 24 -1.4554070369203322 0 19.0 -1.4554070369203322 1
gene  1 20 24 3.305616903175971 0 20.0 3.305616903175971 1
gene  1 21 24 -3.4604797655577357 0 21.0 -3.4604797655577357 1
gene  1 22 24 4.616964891448762 0 22.0 4.616964891448762 1
gene  1 23 24 3.8472703283578444 0 23.0 3.8472703283578444 1
gene  1 1 25 1.3017803630996565 0 24.0 1.3017803630996565 1
gene  1 2 25 2.8425817325491924 0 25.0 2.8425817325491924 1
gene  1 3 25 2.558741823350111 0 26.0 2.558741823350111 1
gene  1 4 25 -2.9663642522288782 0 27.0 -2.9663642522288782 1
gene  1 5 25 1.7582341332649507 0 28.0 1.7582341332649507 1
gene  1 6 25 -0.8136282596388483 0 29.0 -0.8136282596388483 1
gene  1 7 25 3.3799915406350265 0 30.0 3.3799915406350265 1
gene  1 8 25 -1.974320882992607 0 31.0 -1.974320882992607 1
gene  1 9 25 -3.895067537016887 0 32.0 -3.895067537016887 1
gene  1 10 25 0.36316411540794735 0 33.0 0.36316411540794735 1
gene  1 11 25 -1.3795428368285405 0 34.0 -1.3795428368285405 1
gene  1 12 25 -0.9982227582415324 0 35.0 -0.9982227582415324 1
gene  1 13 25 -0.5272500927031901 0 36.0 -0.5272500927031901 1
gene  1 14 25 1.1962562414897049 0 37.0 1.1962562414897049 1
gene  1 15 25 1.9279510289578439 0 38.0 1.9279510289578439 1
gene  1 16 25 -3.0102896253721756 0 39.0 -3.0102896253721756 1
gene  1 17 25 0.10685763139210974 0 40.0 0.10685763139210974 1
gene  1 18 25 7.247304841669157 0 41.0 7.247304841669157 1
gene  1 19 25 0.3931706995138038 0 42.0 0.3931706995138038 1
gene  1 20 25 3.197547235023438 0 43.0 3.197547235023438 1
gene  1 21 25 0.9465324968269404 0 44.0 0.9465324968269404 1
gene  1 22 25 -0.8367259230598528 0 45.0 -0.8367259230598528 1
gene  1 23 25 -2.8533524065725917 0 46.0 -2.8533524065725917 1
gene  1 1 26 0.28872130438584354 0 47.0 0.28872130438584354 1
gene  1 2 26 -1.0355062861373723 0 48.0 -1.0355062861373723 1
gene  1 3 26 -2.3449218943057057 0 49.0 -2.3449218943057057 1
gene  1 4 26 -0.11601168547331997 0 50.0 -0.11601168547331997 0
gene  1 5 26 2.4502133450287884 0 51.0 2.4502133450287884 1
gene  1 6 26 -2.182584489291811 0 52.0 -2.182584489291811 1
gene  1 7 26 1.1026061477137248 0 53.0 1.1026061477137248 1
gene  1 8 26 -0.36824031403756424 0 54.0 -0.36824031403756424 1
gene  1 9 26 -1.5155203587279809 0 55.0 -1.5155203587279809 1
gene  1 10 26 1.4601092869596606 0 56.0 1.4601092869596606 1
gene  1 11 26 -2.51699364544315 0 57.0 -2.51699364544315 1
gene  1 12 26 -2.1391822044808246 0 58.0 -2.1391822044808246 1
gene  1 13 26 1.2151331111290582 0 59.0 1.2151331111290582 1
gene  1 14 26 -3.6058282492871796 0 60.0 -3.6058282492871796 1
gene  1 15 26 2.8530931490546143 0 61.0 2.8530931490546143 1
gene  1 16 26 -2.2782143977265963 0 62.0 -2.2782143977265963 1
gene  1 17 26 -0.7377046027214502 0 63.0 -0.7377046027214502 1
gene  1 18 26 4.239680966234522 0 64.0 4.239680966234522 1
gene  1 19 26 0.3660125761241373 0 65.0 0.3660125761241373 1
gene  1 20 26 -0.5250727407232223 0 66.0 -0.5250727407232223 1
gene  1 21 26 1.2651878535970704 0 67.0 1.2651878535970704 1
gene  1 22 26 -2.3635031841569765 0 68.0 -2.3635031841569765 1
gene  1 23 26 -4.296483444331522 0 69.0 -4.296483444331522 1
gene  1 1 27 -3.0173807071991803 0 70.0 -3.0173807071991803 1
gene  1 2 27 -0.5562448595003708 0 71.0 -0.5562448595003708 1
gene  1 3 27 1.2330217675724562 0 72.0 1.2330217675724562 1
gene  1 4 27 -1.235890741583494 0 73.0 -1.235890741583494 1
gene  1 5 27 0.39511018997167113 0 74.0 0.39511018997167113 1
gene  1 6 27 -1.914298844844661 0 75.0 -1.914298844844661 1
gene  1 7 27 0.1280702290458574 0 76.0 0.1280702290458574 1
gene  1 8 27 5.101552397113165 0 77.0 5.101552397113165 1
gene  1 9 27 -1.3270361599594385 0 78.0 -1.3270361599594385 1
gene  1 10 27 -2.501167089334829 0 79.0 -2.501167089334829 1
gene  1 11 27 1.1279787727634447 0 80.0 1.1279787727634447 1
gene  1 12 27 1.0394585729206909 0 81.0 1.0394585729206909 1
gene  1 13 27 -4.385883320372943 0 82.0 -4.385883320372943 1
gene  1 14 27 5.123821859922039 0 83.0 5.123821859922039 1
gene  1 15 27 -5.414065370561467 0 84.0 -5.414065370561467 1
gene  1 16 27 1.538947466653129 0 85.0 1.538947466653129 1
gene  1 17 27 2.306004676188291 0 86.0 2.306004676188291 1
gene  1 18 27 -0.6668096682666429 0 87.0 -0.6668096682666429 1
gene  1 19 27 -1.013947074642479 0 88.0 -1.013947074642479 1
gene  1 20 27 -1.0579403661501097 0 89.0 -1.0579403661501097 1
gene  1 21 27 -2.0888203073255376 0 90.0 -2.0888203073255376 1
gene  1 22 27 -0.4307647407183257 0 91.0 -0.4307647407183257 1
gene  1 23 27 0.4447213226305759 0 92.0 0.4447213226305759 1
gene  1 23 28 0.28007857327100116 0 93.0 0.28007857327100116 1
gene  1 24 28 0.9226522912682333 0 94.0 0.9226522912682333 1
gene  1 25 28 0.9285102487996435 0 95.0 0.9285102487996435 1
gene  1 26 28 -0.7198267671209189 0 96.0 -0.7198267671209189 0
gene  1 27 28 2.4619941425967404 0 97.0 2.4619941425967404 1
gene  1 23 29 3.6918429262513257 0 98.0 3.6918429262513257 1
gene  1 24 29 5.608115084473834 0 99.0 5.608115084473834 1
gene  1 25 29 1.0987685366782378 0 100.0 1.0987685366782378 1
gene  1 26 29 -2.219801829464019 0 101.0 -2.219801829464019 1
gene  1 27 29 1.788717727997782 0 102.0 1.788717727997782 1
gene  1 23 30 1.8795014742455471 0 103.0 1.8795014742455471 1
gene  1 24 30 0.8596212445309597 0 104.0 0.8596212445309597 1
gene  1 25 30 0.5266198265435815 0 105.0 0.5266198265435815 1
gene  1 26 30 1.7892989590643291 0 106.0 1.7892989590643291 1
gene  1 27 30 -1.2552868230546959 0 107.0 -1.2552868230546959 1
gene  1 23 31 2.280149886728196 0 108.0 2.280149886728196 1
gene  1 24 31 -0.07779187750822314 0 109.0 -0.07779187750822314 1
gene  1 25 31 -0.928751803972374 0 110.0 -0.928751803972374 1
gene  1 26 31 -1.1990735115203084 0 111.0 -1.1990735115203084 1
gene  1 27 31 -1.5925875044191238 0 112.0 -1.5925875044191238 1
gene  1 23 32 -3.9186224143839743 0 113.0 -3.9186224143839743 1
gene  1 24 32 2.212691218463653 0 114.0 2.212691218463653 1
gene  1 25 32 3.4122343154580506 0 115.0 3.4122343154580506 1
gene  1 26 32 1.6803194169376274 0 116.0 1.6803194169376274 1
gene  1 27 32 0.9304521777058978 0 117.0 0.9304521777058978 1
gene  1 7 30 -1.5863430227519069 0 119.0 -1.5863430227519069 1
gene  1 3 37 -0.30505770746204286 0 148.0 -0.30505770746204286 1
gene  1 37 26 -2.92819491833811 0 149.0 -2.92819491833811 1
gene  1 26 59 3.124124134291281 0 230.0 3.124124134291281 1
gene  1 59 28 1.916991037073964 0 231.0 1.916991037073964 1
gene  1 1 31 0.15733266753669317 0 240.0 0.15733266753669317 1
gene  1 18 32 -5.559815515693596 0 289.0 -5.559815515693596 1
gene  1 24 76 -0.5612422590803801 0 322.0 -0.5612422590803801 1
gene  1 76 31 2.1056114554435306 0 323.0 2.1056114554435306 1
gene  1 20 81 0.5309783626113826 0 351.0 0.5309783626113826 1
gene  1 81 24 2.3161128006300684 0 352.0 2.3161128006300684 1
gene  1 15 30 -4.449046714511185 0 384.0 -4.449046714511185 1
gene  1 9 81 0.9487681822365743 0 403.0 0.9487681822365743 1
gene  1 22 37 4.6286691191689435 0 452.0 4.6286691191689435 1
gene  1 22 31 5.546711248437358 0 481.0 5.546711248437358 1
gene  1 20 76 -1.306067666718282 0 505.0 -1.306067666718282 1
gene  1 22 32 -7.350071751077446 0 540.0 -7.350071751077446 1
gene  1 15 81 0.5274373280307876 0 571.0 0.5274373280307876 1
gene  1 18 30 -1.006049871055856 0 624.0 -1.006049871055856 1
gene  1 17 161 2.2683812890356565 0 655.0 2.2683812890356565 1
gene  1 161 25 -0.8468160465620913 0 656.0 -0.8468160465620913 1
gene  1 2 81 -4.456394410516609 0 699.0 -4.456394410516609 1
gene  1 10 81 9.5230933976808 0 730.0 9.5230933976808 1
gene  1 29 59 0.03589510372624366 0 746.0 0.03589510372624366 1
gene  1 14 187 0.8859660421952387 0 762.0 0.8859660421952387 1
gene  1 187 24 -1.246628307555616 0 763.0 -1.246628307555616 1
gene  1 18 76 1.0184503150036508 0 807.0 1.0184503150036508 1
gene  1 22 161 7.587201984162628 0 841.0 7.587201984162628 1
gene  1 9 32 1.6315873940375831 0 862.0 1.6315873940375831 1
gene  1 19 161 -0.37434770760050945 0 944.0 -0.37434770760050945 1
gene  1 25 26 2.3567355754797434 0 981.0 2.3567355754797434 1
gene  1 4 260 2.593670389925821 0 1023.0 2.593670389925821 1
gene  1 260 26 -1.7321723149346882 0 1024.0 -1.7321723149346882 1
gene  1 22 273 1.1974068925195926 0 1064.0 1.1974068925195926 1
gene  1 273 25 -0.3818853853497186 0 1065.0 -0.3818853853497186 1
gene  1 9 276 1.2315759331773781 0 1080.0 1.2315759331773781 1
gene  1 276 81 -1.2567378956110797 0 1081.0 -1.2567378956110797 1
gene  1 17 31 8.960817910477932 0 1130.0 8.960817910477932 1
gene  1 16 37 -8.556227506894686 0 1192.0 -8.556227506894686 1
gene  1 4 317 1.0 0 1230.0 0.0 1
gene  1 317 26 -0.11601168547331997 0 1231.0 0.0 1
gene  1 18 29 -0.7896421647953322 0 1254.0 -0.7896421647953322 1
gene  1 3 28 -2.7996051792452192 0 1295.0 -2.7996051792452192 1
gene  1 22 81 -3.3979231642237453 0 1316.0 -3.3979231642237453 1
gene  1 2 30 3.3364552772586666 0 1362.0 3.3364552772586666 1
gene  1 11 31 -7.001977108612209 0 1375.0 -7.001977108612209 1
gene  1 32 28 7.1528272047487595 0 1422.0 7.1528272047487595 1
genomeend 3
/*-------------------------------------------------------------------*/
/* Species # 015         : (size= 002) (AvfFit= 480,000) (Age= 30,000)  */
/*-------------------------------------------------------------------*/
/* Organism # 004 Fitness:  0,000 Error:  0,000                      */
genomestart  4
trait 1 0.0 0.0 0.0 0.0 0.0 0.0 0.0 0.0 
node 1 1 1 1
node 2 1 1 1
node 3 1 1 1
node 4 1 1 1
node 5 1 1 1
node 6 1 1 1
node 7 1 1 1
node 8 1 1 1
node 9 1 1 1
node 10 1 1 1
node 11 1 1 1
node 12 1 1 1
node 13 1 1 1
node 14 1 1 1
node 15 1 1 1
node 16 1 1 1
node 17 1 1 1
node 18 1 1 1
node 19 1 1 1
node 20 1 1 1
node 21 1 1 1
node 22 1 1 1
node 23 1 1 3
node 24 1 0 0
node 25 1 0 0
node 26 1 0 0
node 27 1 0 0
node 28 1 0 2
node 29 1 0 2
node 30 1 0 2
node 31 1 0 2
node 32 1 0 2
node 40 1 0 0
node 56 1 0 0
node 90 1 0 0
node 121 1 0 0
node 147 1 0 0
node 183 1 0 0
node 204 1 0 0
node 234 1 0 0
node 246 1 0 0
node 259 1 0 0
node 323 1 0 0
node 356 1 0 0
gene  1 1 24 1.7200841907950584 0 1.0 1.7200841907950584 1
gene  1 2 24 0.6372218267226002 0 2.0 0.6372218267226002 1
gene  1 3 24 -0.7297819644688879 0 3.0 -0.7297819644688879 1
gene  1 4 24 0.3394658514276736 0 4.0 0.3394658514276736 1
gene  1 5 24 1.3128098880229058 0 5.0 1.3128098880229058 1
gene  1 6 24 -0.7778665360979969 0 6.0 -0.7778665360979969 1
gene  1 7 24 -0.08433329387297755 0 7.0 -0.08433329387297755 1
gene  1 8 24 -2.156429631446946 0 8.0 -2.156429631446946 1
gene  1 9 24 -1.7660606874873581 0 9.0 -1.7660606874873581 1
gene  1 10 24 0.40317550276744785 0 10.0 0.40317550276744785 1
gene  1 11 24 -1.4019969951578406 0 11.0 -1.4019969951578406 0
gene  1 12 24 -1.631005813891 0 12.0 -1.631005813891 1
gene  1 13 24 -1.0600409297143523 0 13.0 -1.0600409297143523 1
gene  1 14 24 -1.2384347792088994 0 14.0 -1.2384347792088994 1
gene  1 15 24 -2.121280046957567 0 15.0 -2.121280046957567 1
gene  1 16 24 -3.5822471139975 0 16.0 -3.5822471139975 1
gene  1 17 24 -1.096820575004378 0 17.0 -1.096820575004378 1
gene  1 18 24 -0.7831972410462301 0 18.0 -0.7831972410462301 1
gene  1 19 24 -2.903307732065579 0 19.0 -2.903307732065579 1
gene  1 20 24 0.13299954747954862 0 20.0 0.13299954747954862 1
gene  1 21 24 2.2022013768519275 0 21.0 2.2022013768519275 1
gene  1 22 24 2.0683844893831385 0 22.0 2.0683844893831385 1
gene  1 23 24 -1.3669395919076162 0 23.0 -1.3669395919076162 1
gene  1 1 25 -0.02226923685360649 0 24.0 -0.02226923685360649 1
gene  1 2 25 2.469330072683688 0 25.0 2.469330072683688 1
gene  1 3 25 3.1207986045192877 0 26.0 3.1207986045192877 1
gene  1 4 25 -0.7665110263214012 0 27.0 -0.7665110263214012 1
gene  1 5 25 3.2545935232531233 0 28.0 3.2545935232531233 1
gene  1 6 25 0.45580253578400365 0 29.0 0.45580253578400365 1
gene  1 7 25 -0.012128444330380628 0 30.0 -0.012128444330380628 1
gene  1 8 25 0.9372656818146743 0 31.0 0.9372656818146743 1
gene  1 9 25 0.8890716451627201 0 32.0 0.8890716451627201 0
gene  1 10 25 -0.38898681521650524 0 33.0 -0.38898681521650524 1
gene  1 11 25 -1.9060661461362702 0 34.0 -1.9060661461362702 1
gene  1 12 25 -0.07694483444927647 0 35.0 -0.07694483444927647 1
gene  1 13 25 0.02852866641734475 0 36.0 0.02852866641734475 1
gene  1 14 25 0.692437693162389 0 37.0 0.692437693162389 1
gene  1 15 25 0.3226539851174527 0 38.0 0.3226539851174527 1
gene  1 16 25 1.6225843478874342 0 39.0 1.6225843478874342 1
gene  1 17 25 1.4055288749193162 0 40.0 1.4055288749193162 1
gene  1 18 25 -0.23630963776253205 0 41.0 -0.23630963776253205 1
gene  1 19 25 -0.1869643098242445 0 42.0 -0.1869643098242445 1
gene  1 20 25 1.2997627917829973 0 43.0 1.2997627917829973 1
gene  1 21 25 2.277794477453469 0 44.0 2.277794477453469 1
gene  1 22 25 -0.532966711862892 0 45.0 -0.532966711862892 1
gene  1 23 25 0.0687951742741566 0 46.0 0.0687951742741566 1
gene  1 1 26 1.6454653518614122 0 47.0 1.6454653518614122 1
gene  1 2 26 1.5138984044883617 0 48.0 1.5138984044883617 1
gene  1 3 26 0.1525284213423186 0 49.0 0.1525284213423186 1
gene  1 4 26 -1.5247099177897274 0 50.0 -1.5247099177897274 1
gene  1 5 26 -0.879839532647718 0 51.0 -0.879839532647718 1
gene  1 6 26 -1.950835765781739 0 52.0 -1.950835765781739 1
gene  1 7 26 -1.0068026409808069 0 53.0 -1.0068026409808069 0
gene  1 8 26 1.6002914597009248 0 54.0 1.6002914597009248 1
gene  1 9 26 -1.5462838667478973 0 55.0 -1.5462838667478973 1
gene  1 10 26 1.4569615549076407 0 56.0 1.4569615549076407 0
gene  1 11 26 1.5613111803589192 0 57.0 1.5613111803589192 1
gene  1 12 26 2.0004608418337386 0 58.0 2.0004608418337386 1
gene  1 13 26 -2.3509957272056514 0 59.0 -2.3509957272056514 1
gene  1 14 26 -0.3627583288198066 0 60.0 -0.3627583288198066 1
gene  1 15 26 -0.25559420568022917 0 61.0 -0.25559420568022917 1
gene  1 16 26 -3.009039785261682 0 62.0 -3.009039785261682 1
gene  1 17 26 -1.0406592566402593 0 63.0 -1.0406592566402593 1
gene  1 18 26 2.2719273429073263 0 64.0 2.2719273429073263 1
gene  1 19 26 0.4600697795641112 0 65.0 0.4600697795641112 1
gene  1 20 26 -1.560895946386724 0 66.0 -1.560895946386724 1
gene  1 21 26 1.0425953123276681 0 67.0 1.0425953123276681 1
gene  1 22 26 -1.868134425300131 0 68.0 -1.868134425300131 1
gene  1 23 26 1.9209458426736985 0 69.0 1.9209458426736985 1
gene  1 1 27 -1.3570158893971638 0 70.0 -1.3570158893971638 1
gene  1 2 27 0.8621895788118278 0 71.0 0.8621895788118278 1
gene  1 3 27 0.9883997075544659 0 72.0 0.9883997075544659 1
gene  1 4 27 -1.941770444956725 0 73.0 -1.941770444956725 0
gene  1 5 27 1.7714814495102027 0 74.0 1.7714814495102027 1
gene  1 6 27 0.35954050444388486 0 75.0 0.35954050444388486 1
gene  1 7 27 -2.097694205776439 0 76.0 -2.097694205776439 1
gene  1 8 27 1.4127795081382324 0 77.0 1.4127795081382324 1
gene  1 9 27 -1.9666573743078286 0 78.0 -1.9666573743078286 1
gene  1 10 27 1.8426118646354885 0 79.0 1.8426118646354885 1
gene  1 11 27 -1.1210502128102888 0 80.0 -1.1210502128102888 1
gene  1 12 27 3.4118009890808825 0 81.0 3.4118009890808825 1
gene  1 13 27 -0.15797932858788966 0 82.0 -0.15797932858788966 1
gene  1 14 27 -1.8490175565247124 0 83.0 -1.8490175565247124 1
gene  1 15 27 2.3702128372833577 0 84.0 2.3702128372833577 1
gene  1 16 27 1.6629311806370768 0 85.0 1.6629311806370768 1
gene  1 17 27 2.3851363704508035 0 86.0 2.3851363704508035 1
gene  1 18 27 1.666445018426372 0 87.0 1.666445018426372 1
gene  1 19 27 -0.16997043439988568 0 88.0 -0.16997043439988568 1
gene  1 20 27 -3.5765967999994617 0 89.0 -3.5765967999994617 1
gene  1 21 27 -2.012152594999304 0 90.0 -2.012152594999304 1
gene  1 22 27 0.4684603669558135 0 91.0 0.4684603669558135 1
gene  1 23 27 -1.2537744287633057 0 92.0 -1.2537744287633057 1
gene  1 23 28 3.286106578109424 0 93.0 3.286106578109424 1
gene  1 24 28 -0.8013526131328439 0 94.0 -0.8013526131328439 1
gene  1 25 28 1.8845925723168455 0 95.0 1.8845925723168455 1
gene  1 26 28 -0.5011863505052079 0 96.0 -0.5011863505052079 1
gene  1 27 28 1.1237999358415072 0 97.0 1.1237999358415072 1
gene  1 23 29 1.5122480681364523 0 98.0 1.5122480681364523 1
gene  1 24 29 1.1836069971029182 0 99.0 1.1836069971029182 1
gene  1 25 29 0.20764224603116777 0 100.0 0.20764224603116777 1
gene  1 26 29 -0.8099087439514374 0 101.0 -0.8099087439514374 1
gene  1 27 29 0.6093282483290006 0 102.0 0.6093282483290006 1
gene  1 23 30 0.4781309721236965 0 103.0 0.4781309721236965 1
gene  1 24 30 -1.3085539291012656 0 104.0 -1.3085539291012656 1
gene  1 25 30 1.5430074277339145 0 105.0 1.5430074277339145 1
gene  1 26 30 -1.0352780041241534 0 106.0 -1.0352780041241534 1
gene  1 27 30 1.3969653725401199 0 107.0 1.3969653725401199 1
gene  1 23 31 -2.3559825233125093 0 108.0 -2.3559825233125093 1
gene  1 24 31 -0.32928756255117403 0 109.0 -0.32928756255117403 1
gene  1 25 31 -2.9445236229813987 0 110.0 -2.9445236229813987 1
gene  1 26 31 2.7777065573898696 0 111.0 2.7777065573898696 1
gene  1 27 31 -0.17944237183508316 0 112.0 -0.17944237183508316 1
gene  1 23 32 0.7561045411864218 0 113.0 0.7561045411864218 1
gene  1 24 32 1.0692168496966334 0 114.0 1.0692168496966334 1
gene  1 25 32 -0.4560667518982373 0 115.0 -0.4560667518982373 1
gene  1 26 32 -1.5779481724378603 0 116.0 -1.5779481724378603 1
gene  1 27 32 -1.2086772069145335 0 117.0 -1.2086772069145335 1
gene  1 5 28 -0.3231853610683364 0 141.0 -0.3231853610683364 1
gene  1 12 40 1.0 0 160.0 1.0 1
gene  1 40 24 -2.3399345560595006 0 161.0 -2.3399345560595006 1
gene  1 10 56 1.8043905488349368 0 223.0 1.8043905488349368 1
gene  1 56 26 -1.491348289984904 0 224.0 -1.491348289984904 1
gene  1 7 32 -7.05575466179261 0 245.0 -7.05575466179261 1
gene  1 11 32 8.148907172653667 0 277.0 8.148907172653667 1
gene  1 6 30 -0.7626697777342684 0 307.0 -0.7626697777342684 1
gene  1 22 56 -2.9691080343930008 0 365.0 -2.9691080343930008 1
gene  1 6 90 0.9757734146501392 0 391.0 0.9757734146501392 1
gene  1 90 27 -0.9399846060372885 0 392.0 -0.9399846060372885 1
gene  1 9 31 -1.4404414287146172 0 434.0 -1.4404414287146172 1
gene  1 25 90 9.88522884079302 0 478.0 9.88522884079302 1
gene  1 20 121 1.0602419053309697 0 523.0 1.0602419053309697 1
gene  1 121 27 -1.4065463690942281 0 524.0 -1.4065463690942281 1
gene  1 29 32 -0.06822494085521047 0 558.0 -0.06822494085521047 1
gene  1 16 40 2.1144410444056683 0 573.0 2.1144410444056683 0
gene  1 7 147 1.8746159861308485 0 605.0 1.8746159861308485 1
gene  1 147 26 -1.645141698725514 0 606.0 -1.645141698725514 1
gene  1 22 32 7.458449355808606 0 641.0 7.458449355808606 1
gene  1 27 56 0.33133341548544926 0 677.0 0.33133341548544926 1
gene  1 40 183 2.8810999372639396 0 741.0 2.8810999372639396 1
gene  1 183 24 -1.4578089773243077 0 742.0 -1.4578089773243077 1
gene  1 17 32 -1.4052355528725227 0 794.0 -1.4052355528725227 1
gene  1 16 204 -0.5238680031119397 0 824.0 -0.5238680031119397 1
gene  1 204 40 6.701606713714321 0 825.0 6.701606713714321 1
gene  1 147 56 -7.7394178634160085 0 833.0 -7.7394178634160085 1
gene  1 17 121 -9.859417229061261 0 874.0 -9.859417229061261 1
gene  1 11 56 3.045868322910347 0 896.0 3.045868322910347 1
gene  1 12 234 3.0500104418720437 0 938.0 3.0500104418720437 1
gene  1 234 25 -2.4529460199214395 0 939.0 -2.4529460199214395 1
gene  1 4 246 -0.32389428071704485 0 974.0 -0.32389428071704485 1
gene  1 246 27 -1.1138608199534403 0 975.0 -1.1138608199534403 1
gene  1 10 259 2.353764426328663 0 1020.0 2.353764426328663 1
gene  1 259 26 1.6769029374782245 0 1021.0 1.6769029374782245 1
gene  1 1 30 -0.9007656830563138 0 1088.0 -0.9007656830563138 1
gene  1 204 31 3.264198727822709 0 1155.0 3.264198727822709 1
gene  1 21 259 -9.284693684418773 0 1186.0 -9.284693684418773 1
gene  1 18 29 9.759295797588617 0 1206.0 0.0 1
gene  1 11 323 1.0 0 1260.0 0.0 1
gene  1 323 24 -1.4019969951578406 0 1261.0 0.0 1
gene  1 15 31 -0.2214398644376392 0 1291.0 -0.2214398644376392 1
gene  1 90 121 -6.060044143415401 0 1338.0 -6.060044143415401 1
gene  1 56 30 2.150803865341927 0 1367.0 2.150803865341927 1
gene  1 9 356 1.0 0 1400.0 0.0 1
gene  1 356 25 0.8890716451627201 0 1401.0 0.0 1
gene  1 8 40 8.824590296087047 0 1426.0 8.824590296087047 1
genomeend 4
/* Organism # 005 Fitness:  0,000 Error:  0,000                      */
genomestart  5
trait 1 0.0 0.0 0.0 0.0 0.0 0.0 0.0 0.0 
node 1 1 1 1
node 2 1 1 1
node 3 1 1 1
node 4 1 1 1
node 5 1 1 1
node 6 1 1 1
node 7 1 1 1
node 8 1 1 1
node 9 1 1 1
node 10 1 1 1
node 11 1 1 1
node 12 1 1 1
node 13 1 1 1
node 14 1 1 1
node 15 1 1 1
node 16 1 1 1
node 17 1 1 1
node 18 1 1 1
node 19 1 1 1
node 20 1 1 1
node 21 1 1 1
node 22 1 1 1
node 23 1 1 3
node 24 1 0 0
node 25 1 0 0
node 26 1 0 0
node 27 1 0 0
node 28 1 0 2
node 29 1 0 2
node 30 1 0 2
node 31 1 0 2
node 32 1 0 2
node 40 1 0 0
node 56 1 0 0
node 90 1 0 0
node 121 1 0 0
node 147 1 0 0
node 183 1 0 0
node 204 1 0 0
node 234 1 0 0
node 246 1 0 0
node 259 1 0 0
node 323 1 0 0
node 356 1 0 0
node 363 1 0 0
gene  1 1 24 1.7200841907950584 0 1.0 1.7200841907950584 1
gene  1 2 24 0.6372218267226002 0 2.0 0.6372218267226002 1
gene  1 3 24 -0.7297819644688879 0 3.0 -0.7297819644688879 1
gene  1 4 24 0.3394658514276736 0 4.0 0.3394658514276736 1
gene  1 5 24 1.3128098880229058 0 5.0 1.3128098880229058 1
gene  1 6 24 -0.7778665360979969 0 6.0 -0.7778665360979969 1
gene  1 7 24 -0.08433329387297755 0 7.0 -0.08433329387297755 1
gene  1 8 24 -2.156429631446946 0 8.0 -2.156429631446946 1
gene  1 9 24 -1.7660606874873581 0 9.0 -1.7660606874873581 1
gene  1 10 24 0.40317550276744785 0 10.0 0.40317550276744785 1
gene  1 11 24 -1.4019969951578406 0 11.0 -1.4019969951578406 0
gene  1 12 24 -1.631005813891 0 12.0 -1.631005813891 1
gene  1 13 24 -1.0600409297143523 0 13.0 -1.0600409297143523 1
gene  1 14 24 -1.2384347792088994 0 14.0 -1.2384347792088994 1
gene  1 15 24 -2.121280046957567 0 15.0 -2.121280046957567 1
gene  1 16 24 -3.5822471139975 0 16.0 -3.5822471139975 1
gene  1 17 24 -1.096820575004378 0 17.0 -1.096820575004378 1
gene  1 18 24 -0.7831972410462301 0 18.0 -0.7831972410462301 1
gene  1 19 24 -2.903307732065579 0 19.0 -2.903307732065579 1
gene  1 20 24 0.13299954747954862 0 20.0 0.13299954747954862 1
gene  1 21 24 2.2022013768519275 0 21.0 2.2022013768519275 1
gene  1 22 24 2.0683844893831385 0 22.0 2.0683844893831385 1
gene  1 23 24 -1.3669395919076162 0 23.0 -1.3669395919076162 1
gene  1 1 25 -0.02226923685360649 0 24.0 -0.02226923685360649 1
gene  1 2 25 2.469330072683688 0 25.0 2.469330072683688 1
gene  1 3 25 3.1207986045192877 0 26.0 3.1207986045192877 1
gene  1 4 25 -0.7665110263214012 0 27.0 -0.7665110263214012 1
gene  1 5 25 3.2545935232531233 0 28.0 3.2545935232531233 1
gene  1 6 25 0.45580253578400365 0 29.0 0.45580253578400365 1
gene  1 7 25 -0.012128444330380628 0 30.0 -0.012128444330380628 1
gene  1 8 25 0.9372656818146743 0 31.0 0.9372656818146743 1
gene  1 9 25 0.8890716451627201 0 32.0 0.8890716451627201 0
gene  1 10 25 -0.38898681521650524 0 33.0 -0.38898681521650524 1
gene  1 11 25 -1.9060661461362702 0 34.0 -1.9060661461362702 1
gene  1 12 25 -0.07694483444927647 0 35.0 -0.07694483444927647 1
gene  1 13 25 0.02852866641734475 0 36.0 0.02852866641734475 1
gene  1 14 25 0.692437693162389 0 37.0 0.692437693162389 1
gene  1 15 25 0.3226539851174527 0 38.0 0.3226539851174527 1
gene  1 16 25 1.6225843478874342 0 39.0 1.6225843478874342 1
gene  1 17 25 1.4055288749193162 0 40.0 1.4055288749193162 1
gene  1 18 25 -0.23630963776253205 0 41.0 -0.23630963776253205 1
gene  1 19 25 -0.1869643098242445 0 42.0 -0.1869643098242445 1
gene  1 20 25 1.2997627917829973 0 43.0 1.2997627917829973 1
gene  1 21 25 2.277794477453469 0 44.0 2.277794477453469 1
gene  1 22 25 -0.532966711862892 0 45.0 -0.532966711862892 1
gene  1 23 25 0.0687951742741566 0 46.0 0.0687951742741566 1
gene  1 1 26 1.6454653518614122 0 47.0 1.6454653518614122 1
gene  1 2 26 1.5138984044883617 0 48.0 1.5138984044883617 1
gene  1 3 26 0.1525284213423186 0 49.0 0.1525284213423186 1
gene  1 4 26 -1.5247099177897274 0 50.0 -1.5247099177897274 1
gene  1 5 26 -0.879839532647718 0 51.0 -0.879839532647718 1
gene  1 6 26 -1.950835765781739 0 52.0 -1.950835765781739 1
gene  1 7 26 -1.0068026409808069 0 53.0 -1.0068026409808069 0
gene  1 8 26 1.6002914597009248 0 54.0 1.6002914597009248 1
gene  1 9 26 -1.5462838667478973 0 55.0 -1.5462838667478973 1
gene  1 10 26 1.4569615549076407 0 56.0 1.4569615549076407 0
gene  1 11 26 1.5613111803589192 0 57.0 1.5613111803589192 1
gene  1 12 26 2.0004608418337386 0 58.0 2.0004608418337386 1
gene  1 13 26 -2.3509957272056514 0 59.0 -2.3509957272056514 1
gene  1 14 26 -0.3627583288198066 0 60.0 -0.3627583288198066 1
gene  1 15 26 -0.25559420568022917 0 61.0 -0.25559420568022917 1
gene  1 16 26 -3.009039785261682 0 62.0 -3.009039785261682 1
gene  1 17 26 -1.0406592566402593 0 63.0 -1.0406592566402593 1
gene  1 18 26 2.2719273429073263 0 64.0 2.2719273429073263 1
gene  1 19 26 0.4600697795641112 0 65.0 0.4600697795641112 1
gene  1 20 26 -1.560895946386724 0 66.0 -1.560895946386724 1
gene  1 21 26 1.0425953123276681 0 67.0 1.0425953123276681 1
gene  1 22 26 -1.868134425300131 0 68.0 -1.868134425300131 1
gene  1 23 26 1.9209458426736985 0 69.0 1.9209458426736985 1
gene  1 1 27 -1.3570158893971638 0 70.0 -1.3570158893971638 1
gene  1 2 27 0.8621895788118278 0 71.0 0.8621895788118278 1
gene  1 3 27 0.9883997075544659 0 72.0 0.9883997075544659 1
gene  1 4 27 -1.941770444956725 0 73.0 -1.941770444956725 0
gene  1 5 27 1.7714814495102027 0 74.0 1.7714814495102027 1
gene  1 6 27 0.35954050444388486 0 75.0 0.35954050444388486 1
gene  1 7 27 -2.097694205776439 0 76.0 -2.097694205776439 1
gene  1 8 27 1.4127795081382324 0 77.0 1.4127795081382324 1
gene  1 9 27 -1.9666573743078286 0 78.0 -1.9666573743078286 1
gene  1 10 27 1.8426118646354885 0 79.0 1.8426118646354885 1
gene  1 11 27 -1.1210502128102888 0 80.0 -1.1210502128102888 1
gene  1 12 27 3.4118009890808825 0 81.0 3.4118009890808825 1
gene  1 13 27 -0.15797932858788966 0 82.0 -0.15797932858788966 1
gene  1 14 27 -1.8490175565247124 0 83.0 -1.8490175565247124 1
gene  1 15 27 2.3702128372833577 0 84.0 2.3702128372833577 1
gene  1 16 27 1.6629311806370768 0 85.0 1.6629311806370768 1
gene  1 17 27 2.3851363704508035 0 86.0 2.3851363704508035 1
gene  1 18 27 1.666445018426372 0 87.0 1.666445018426372 1
gene  1 19 27 -0.16997043439988568 0 88.0 -0.16997043439988568 1
gene  1 20 27 -3.5765967999994617 0 89.0 -3.5765967999994617 0
gene  1 21 27 -2.012152594999304 0 90.0 -2.012152594999304 1
gene  1 22 27 0.4684603669558135 0 91.0 0.4684603669558135 1
gene  1 23 27 -1.2537744287633057 0 92.0 -1.2537744287633057 1
gene  1 23 28 3.286106578109424 0 93.0 3.286106578109424 1
gene  1 24 28 -0.8013526131328439 0 94.0 -0.8013526131328439 1
gene  1 25 28 1.8845925723168455 0 95.0 1.8845925723168455 1
gene  1 26 28 -0.5011863505052079 0 96.0 -0.5011863505052079 1
gene  1 27 28 1.1237999358415072 0 97.0 1.1237999358415072 1
gene  1 23 29 1.5122480681364523 0 98.0 1.5122480681364523 1
gene  1 24 29 1.1836069971029182 0 99.0 1.1836069971029182 1
gene  1 25 29 0.20764224603116777 0 100.0 0.20764224603116777 1
gene  1 26 29 -0.8099087439514374 0 101.0 -0.8099087439514374 1
gene  1 27 29 0.6093282483290006 0 102.0 0.6093282483290006 1
gene  1 23 30 0.4781309721236965 0 103.0 0.4781309721236965 1
gene  1 24 30 -1.3085539291012656 0 104.0 -1.3085539291012656 1
gene  1 25 30 1.5430074277339145 0 105.0 1.5430074277339145 1
gene  1 26 30 -1.0352780041241534 0 106.0 -1.0352780041241534 1
gene  1 27 30 1.3969653725401199 0 107.0 1.3969653725401199 1
gene  1 23 31 -2.3559825233125093 0 108.0 -2.3559825233125093 1
gene  1 24 31 -0.32928756255117403 0 109.0 -0.32928756255117403 1
gene  1 25 31 -2.9445236229813987 0 110.0 -2.9445236229813987 1
gene  1 26 31 2.7777065573898696 0 111.0 2.7777065573898696 1
gene  1 27 31 -0.17944237183508316 0 112.0 -0.17944237183508316 1
gene  1 23 32 0.7561045411864218 0 113.0 0.7561045411864218 1
gene  1 24 32 1.0692168496966334 0 114.0 1.0692168496966334 1
gene  1 25 32 -0.4560667518982373 0 115.0 -0.4560667518982373 1
gene  1 26 32 -1.5779481724378603 0 116.0 -1.5779481724378603 1
gene  1 27 32 -1.2086772069145335 0 117.0 -1.2086772069145335 1
gene  1 5 28 -0.3231853610683364 0 141.0 -0.3231853610683364 1
gene  1 12 40 1.0 0 160.0 1.0 1
gene  1 40 24 -2.3399345560595006 0 161.0 -2.3399345560595006 1
gene  1 10 56 1.8043905488349368 0 223.0 1.8043905488349368 1
gene  1 56 26 -1.491348289984904 0 224.0 -1.491348289984904 1
gene  1 7 32 -7.05575466179261 0 245.0 -7.05575466179261 1
gene  1 11 32 8.148907172653667 0 277.0 8.148907172653667 1
gene  1 6 30 -0.7626697777342684 0 307.0 -0.7626697777342684 1
gene  1 22 56 -2.9691080343930008 0 365.0 -2.9691080343930008 1
gene  1 6 90 0.9757734146501392 0 391.0 0.9757734146501392 1
gene  1 90 27 -0.9399846060372885 0 392.0 -0.9399846060372885 1
gene  1 9 31 -1.4404414287146172 0 434.0 -1.4404414287146172 1
gene  1 25 90 9.88522884079302 0 478.0 9.88522884079302 1
gene  1 20 121 1.0602419053309697 0 523.0 1.0602419053309697 1
gene  1 121 27 -1.4065463690942281 0 524.0 -1.4065463690942281 1
gene  1 29 32 -0.06822494085521047 0 558.0 -0.06822494085521047 1
gene  1 16 40 2.1144410444056683 0 573.0 2.1144410444056683 0
gene  1 7 147 1.8746159861308485 0 605.0 1.8746159861308485 1
gene  1 147 26 -1.645141698725514 0 606.0 -1.645141698725514 1
gene  1 22 32 7.458449355808606 0 641.0 7.458449355808606 1
gene  1 27 56 0.33133341548544926 0 677.0 0.33133341548544926 1
gene  1 40 183 2.8810999372639396 0 741.0 2.8810999372639396 1
gene  1 183 24 -1.4578089773243077 0 742.0 -1.4578089773243077 1
gene  1 17 32 -1.4052355528725227 0 794.0 -1.4052355528725227 1
gene  1 16 204 -0.5238680031119397 0 824.0 -0.5238680031119397 1
gene  1 204 40 6.701606713714321 0 825.0 6.701606713714321 1
gene  1 147 56 -7.7394178634160085 0 833.0 -7.7394178634160085 1
gene  1 17 121 -9.859417229061261 0 874.0 -9.859417229061261 1
gene  1 11 56 3.045868322910347 0 896.0 3.045868322910347 1
gene  1 12 234 3.0500104418720437 0 938.0 3.0500104418720437 1
gene  1 234 25 -2.4529460199214395 0 939.0 -2.4529460199214395 1
gene  1 4 246 -0.32389428071704485 0 974.0 -0.32389428071704485 1
gene  1 246 27 -1.1138608199534403 0 975.0 -1.1138608199534403 1
gene  1 10 259 2.353764426328663 0 1020.0 2.353764426328663 1
gene  1 259 26 1.6769029374782245 0 1021.0 1.6769029374782245 1
gene  1 1 30 -0.9007656830563138 0 1088.0 -0.9007656830563138 1
gene  1 204 31 3.264198727822709 0 1155.0 3.264198727822709 1
gene  1 21 259 -9.284693684418773 0 1186.0 -9.284693684418773 1
gene  1 18 29 9.759295797588617 0 1206.0 0.0 1
gene  1 11 323 1.0 0 1260.0 0.0 1
gene  1 323 24 -1.4019969951578406 0 1261.0 0.0 1
gene  1 15 31 -0.2214398644376392 0 1291.0 -0.2214398644376392 1
gene  1 90 121 -6.060044143415401 0 1338.0 -6.060044143415401 1
gene  1 56 30 2.150803865341927 0 1367.0 2.150803865341927 1
gene  1 9 356 1.0 0 1400.0 0.0 1
gene  1 356 25 0.8890716451627201 0 1401.0 0.0 1
gene  1 20 363 1.0 0 1427.0 0.0 1
gene  1 363 27 -3.5765967999994617 0 1428.0 0.0 1
genomeend 5
/*-------------------------------------------------------------------*/
/* Species # 016         : (size= 002) (AvfFit= 575,000) (Age= 29,000)  */
/*-------------------------------------------------------------------*/
/* Organism # 006 Fitness:  0,000 Error:  0,000                      */
genomestart  6
trait 1 0.0 0.0 0.0 0.0 0.0 0.0 0.0 0.0 
node 1 1 1 1
node 2 1 1 1
node 3 1 1 1
node 4 1 1 1
node 5 1 1 1
node 6 1 1 1
node 7 1 1 1
node 8 1 1 1
node 9 1 1 1
node 10 1 1 1
node 11 1 1 1
node 12 1 1 1
node 13 1 1 1
node 14 1 1 1
node 15 1 1 1
node 16 1 1 1
node 17 1 1 1
node 18 1 1 1
node 19 1 1 1
node 20 1 1 1
node 21 1 1 1
node 22 1 1 1
node 23 1 1 3
node 24 1 0 0
node 25 1 0 0
node 26 1 0 0
node 27 1 0 0
node 28 1 0 2
node 29 1 0 2
node 30 1 0 2
node 31 1 0 2
node 32 1 0 2
node 41 1 0 0
node 69 1 0 0
node 99 1 0 0
node 103 1 0 0
node 110 1 0 0
node 128 1 0 0
node 150 1 0 0
node 191 1 0 0
node 263 1 0 0
node 278 1 0 0
node 285 1 0 0
node 298 1 0 0
node 340 1 0 0
gene  1 1 24 1.2312165486196132 0 1.0 1.2312165486196132 1
gene  1 2 24 0.2943417703893493 0 2.0 0.2943417703893493 1
gene  1 3 24 0.9768730828026307 0 3.0 0.9768730828026307 1
gene  1 4 24 0.7190938738133004 0 4.0 0.7190938738133004 1
gene  1 5 24 0.2193871465817846 0 5.0 0.2193871465817846 1
gene  1 6 24 -1.2190229282840368 0 6.0 -1.2190229282840368 1
gene  1 7 24 -0.5142050575864869 0 7.0 -0.5142050575864869 1
gene  1 8 24 -0.22314417003607223 0 8.0 -0.22314417003607223 0
gene  1 9 24 -1.2774801206737818 0 9.0 -1.2774801206737818 1
gene  1 10 24 -0.061981137291826416 0 10.0 -0.061981137291826416 1
gene  1 11 24 -1.8754683064771336 0 11.0 -1.8754683064771336 1
gene  1 12 24 -0.8352780737920857 0 12.0 -0.8352780737920857 1
gene  1 13 24 0.3786865890716914 0 13.0 0.3786865890716914 1
gene  1 14 24 -1.2996289593588346 0 14.0 -1.2996289593588346 1
gene  1 15 24 -0.4394419827094279 0 15.0 -0.4394419827094279 1
gene  1 16 24 -0.9828005786152946 0 16.0 -0.9828005786152946 0
gene  1 17 24 0.8439302873292484 0 17.0 0.8439302873292484 1
gene  1 18 24 -0.5003228008237368 0 18.0 -0.5003228008237368 1
gene  1 19 24 0.42906791099393093 0 19.0 0.42906791099393093 1
gene  1 20 24 -0.279050255056314 0 20.0 -0.279050255056314 1
gene  1 21 24 0.7971477858202961 0 21.0 0.7971477858202961 1
gene  1 22 24 0.44437368780243347 0 22.0 0.44437368780243347 1
gene  1 23 24 0.26161789908998523 0 23.0 0.26161789908998523 1
gene  1 1 25 0.10054008097120759 0 24.0 0.10054008097120759 1
gene  1 2 25 -0.7878487289820982 0 25.0 -0.7878487289820982 1
gene  1 3 25 0.3178900122792382 0 26.0 0.3178900122792382 1
gene  1 4 25 1.6053589222054816 0 27.0 1.6053589222054816 1
gene  1 5 25 0.6655940683000792 0 28.0 0.6655940683000792 1
gene  1 6 25 0.6713920698456602 0 29.0 0.6713920698456602 1
gene  1 7 25 1.3277615461432168 0 30.0 1.3277615461432168 1
gene  1 8 25 0.36520320551942587 0 31.0 0.36520320551942587 1
gene  1 9 25 0.03163230903441061 0 32.0 0.03163230903441061 1
gene  1 10 25 -0.32363480882475815 0 33.0 -0.32363480882475815 1
gene  1 11 25 -0.14811838172030833 0 34.0 -0.14811838172030833 1
gene  1 12 25 -0.8279337408449059 0 35.0 -0.8279337408449059 1
gene  1 13 25 0.9032761352275851 0 36.0 0.9032761352275851 1
gene  1 14 25 -0.7252077211755625 0 37.0 -0.7252077211755625 1
gene  1 15 25 0.513846377852861 0 38.0 0.513846377852861 1
gene  1 16 25 0.24619408517709418 0 39.0 0.24619408517709418 0
gene  1 17 25 0.26918302126451565 0 40.0 0.26918302126451565 1
gene  1 18 25 0.13758136667140886 0 41.0 0.13758136667140886 1
gene  1 19 25 -1.09002239413288 0 42.0 -1.09002239413288 1
gene  1 20 25 -0.14370295320725146 0 43.0 -0.14370295320725146 1
gene  1 21 25 0.026107610571694195 0 44.0 0.026107610571694195 1
gene  1 22 25 0.6375280702565544 0 45.0 0.6375280702565544 0
gene  1 23 25 -0.1535055845213147 0 46.0 -0.1535055845213147 1
gene  1 1 26 0.8142807796554197 0 47.0 0.8142807796554197 1
gene  1 2 26 -0.39390293855829195 0 48.0 -0.39390293855829195 1
gene  1 3 26 0.2192327042112956 0 49.0 0.2192327042112956 0
gene  1 4 26 -0.039536585646890776 0 50.0 -0.039536585646890776 1
gene  1 5 26 0.15845520107731348 0 51.0 0.15845520107731348 1
gene  1 6 26 0.4934168506036096 0 52.0 0.4934168506036096 1
gene  1 7 26 0.4652367928451112 0 53.0 0.4652367928451112 1
gene  1 8 26 1.0425486853004693 0 54.0 1.0425486853004693 0
gene  1 9 26 -0.09817687332785252 0 55.0 -0.09817687332785252 1
gene  1 10 26 0.32665065714753583 0 56.0 0.32665065714753583 1
gene  1 11 26 -0.15122594935712041 0 57.0 -0.15122594935712041 1
gene  1 12 26 -1.2380680297106355 0 58.0 -1.2380680297106355 1
gene  1 13 26 -1.1497147342250744 0 59.0 -1.1497147342250744 1
gene  1 14 26 0.12161071262796341 0 60.0 0.12161071262796341 1
gene  1 15 26 -0.17680893641803608 0 61.0 -0.17680893641803608 1
gene  1 16 26 -0.791386169792078 0 62.0 -0.791386169792078 1
gene  1 17 26 -1.8741289752294499 0 63.0 -1.8741289752294499 1
gene  1 18 26 1.383833449305893 0 64.0 1.383833449305893 1
gene  1 19 26 -0.6732585382207215 0 65.0 -0.6732585382207215 1
gene  1 20 26 -1.5322371811975914 0 66.0 -1.5322371811975914 1
gene  1 21 26 -0.6011943406814789 0 67.0 -0.6011943406814789 1
gene  1 22 26 -0.49269467837624203 0 68.0 -0.49269467837624203 1
gene  1 23 26 0.8063967284496234 0 69.0 0.8063967284496234 1
gene  1 1 27 0.8888809161788437 0 70.0 0.8888809161788437 1
gene  1 2 27 0.057231611804800075 0 71.0 0.057231611804800075 1
gene  1 3 27 -0.7537579524589648 0 72.0 -0.7537579524589648 1
gene  1 4 27 -0.9146103866804254 0 73.0 -0.9146103866804254 1
gene  1 5 27 0.6171496058674454 0 74.0 0.6171496058674454 1
gene  1 6 27 0.3801129243519664 0 75.0 0.3801129243519664 1
gene  1 7 27 -0.7640275931549552 0 76.0 -0.7640275931549552 1
gene  1 8 27 -0.18813295835071364 0 77.0 -0.18813295835071364 1
gene  1 9 27 -1.9187213097045306 0 78.0 -1.9187213097045306 1
gene  1 10 27 -0.1290302600119101 0 79.0 -0.1290302600119101 1
gene  1 11 27 0.9976973640981855 0 80.0 0.9976973640981855 1
gene  1 12 27 0.899246905429198 0 81.0 0.899246905429198 1
gene  1 13 27 -1.388211834895136 0 82.0 -1.388211834895136 1
gene  1 14 27 -0.7717304869244548 0 83.0 -0.7717304869244548 1
gene  1 15 27 0.22240849919840733 0 84.0 0.22240849919840733 1
gene  1 16 27 -0.05943808509335313 0 85.0 -0.05943808509335313 1
gene  1 17 27 -0.12842472365656687 0 86.0 -0.12842472365656687 1
gene  1 18 27 -1.302705171792284 0 87.0 -1.302705171792284 1
gene  1 19 27 -0.14638372952830747 0 88.0 -0.14638372952830747 1
gene  1 20 27 -0.5906148961905668 0 89.0 -0.5906148961905668 0
gene  1 21 27 -0.17964977582173292 0 90.0 -0.17964977582173292 1
gene  1 22 27 -0.949361293601554 0 91.0 -0.949361293601554 1
gene  1 23 27 -0.4681839293419573 0 92.0 -0.4681839293419573 1
gene  1 23 28 0.8033044629612648 0 93.0 0.8033044629612648 1
gene  1 24 28 -0.7890399336314475 0 94.0 -0.7890399336314475 1
gene  1 25 28 1.8262758060165305 0 95.0 1.8262758060165305 1
gene  1 26 28 0.17501160774252855 0 96.0 0.17501160774252855 1
gene  1 27 28 0.025667614407639316 0 97.0 0.025667614407639316 1
gene  1 23 29 0.7153214047980212 0 98.0 0.7153214047980212 1
gene  1 24 29 0.2719297805451669 0 99.0 0.2719297805451669 0
gene  1 25 29 1.4043718483637888 0 100.0 1.4043718483637888 1
gene  1 26 29 0.4097104276707447 0 101.0 0.4097104276707447 1
gene  1 27 29 -0.6385734633319076 0 102.0 -0.6385734633319076 1
gene  1 23 30 -0.6882265393106782 0 103.0 -0.6882265393106782 1
gene  1 24 30 0.6067332817364671 0 104.0 0.6067332817364671 1
gene  1 25 30 1.4556598615122032 0 105.0 1.4556598615122032 1
gene  1 26 30 0.12126895369514501 0 106.0 0.12126895369514501 1
gene  1 27 30 1.5617013094816454 0 107.0 1.5617013094816454 1
gene  1 23 31 0.1310098095354194 0 108.0 0.1310098095354194 1
gene  1 24 31 -0.3722719413644936 0 109.0 -0.3722719413644936 0
gene  1 25 31 -1.124311163632509 0 110.0 -1.124311163632509 1
gene  1 26 31 1.2311397290855202 0 111.0 1.2311397290855202 1
gene  1 27 31 -0.17944237183508316 0 112.0 -0.17944237183508316 1
gene  1 23 32 -0.5146658738841081 0 113.0 -0.5146658738841081 1
gene  1 24 32 -0.09084391994955765 0 114.0 -0.09084391994955765 1
gene  1 25 32 -0.6136031702466314 0 115.0 -0.6136031702466314 1
gene  1 26 32 -0.9650914252775176 0 116.0 -0.9650914252775176 1
gene  1 27 32 0.022760341376820814 0 117.0 0.022760341376820814 1
gene  1 15 28 4.137678267967808 0 145.0 4.137678267967808 1
gene  1 24 41 1.0 0 162.0 0.0 1
gene  1 41 29 0.2719297805451669 0 163.0 0.0 1
gene  1 11 28 7.348383131584669 0 192.0 0.0 1
gene  1 8 29 -2.253143443278205 0 252.0 -2.253143443278205 1
gene  1 8 69 1.0 0 286.0 0.0 1
gene  1 69 26 1.0425486853004693 0 287.0 0.0 1
gene  1 14 28 7.953163020421822 0 325.0 7.953163020421822 1
gene  1 10 28 4.102639358731029 0 337.0 4.102639358731029 1
gene  1 15 32 4.441621118279169 0 371.0 4.441621118279169 1
gene  1 20 99 1.0 0 420.0 0.0 1
gene  1 99 27 -0.5906148961905668 0 421.0 0.0 1
gene  1 5 103 1.0 0 442.0 0.0 1
gene  1 103 24 0.2193871465817846 0 443.0 0.0 1
gene  1 3 110 1.0 0 466.0 0.0 1
gene  1 110 26 0.2192327042112956 0 467.0 0.0 1
gene  1 17 99 7.412882754326548 0 517.0 7.412882754326548 1
gene  1 16 128 1.0 0 542.0 0.0 1
gene  1 128 25 0.24619408517709418 0 543.0 0.0 1
gene  1 22 103 -4.72923175036907 0 584.0 -4.72923175036907 1
gene  1 24 150 1.0 0 612.0 0.0 1
gene  1 150 29 0.2719297805451669 0 613.0 0.0 1
gene  1 6 128 9.010114553132977 0 659.0 9.010114553132977 1
gene  1 150 69 7.109775961771797 0 697.0 7.109775961771797 1
gene  1 31 32 -4.91736596221802 0 712.0 -4.91736596221802 1
gene  1 26 41 -8.723759970328503 0 740.0 -8.723759970328503 1
gene  1 7 191 1.0 0 774.0 0.0 1
gene  1 191 26 0.4652367928451112 0 775.0 0.0 1
gene  1 103 26 3.013667548702056 0 816.0 3.013667548702056 1
gene  1 9 29 -3.84257763156337 0 851.0 -3.84257763156337 1
gene  1 11 99 -2.9535572253408815 0 864.0 -2.9535572253408815 1
gene  1 12 99 -9.51140941664397 0 920.0 -9.51140941664397 1
gene  1 9 41 -4.487522604488952 0 947.0 -4.487522604488952 1
gene  1 8 263 1.0 0 1033.0 0.0 0
gene  1 263 24 -0.22314417003607223 0 1034.0 0.0 1
gene  1 17 150 -7.1707433078313905 0 1068.0 -7.1707433078313905 1
gene  1 22 278 1.0 0 1093.0 0.0 1
gene  1 278 25 0.6375280702565544 0 1094.0 0.0 1
gene  1 16 285 1.0 0 1114.0 0.0 1
gene  1 285 24 -0.9828005786152946 0 1115.0 0.0 1
gene  1 24 298 1.0 0 1159.0 0.0 1
gene  1 298 31 -0.3722719413644936 0 1160.0 0.0 1
gene  1 3 32 -0.94405284003235 0 1185.0 -0.94405284003235 1
gene  1 11 128 -0.08017697175842664 0 1227.0 -0.08017697175842664 1
gene  1 6 31 8.194933706314755 0 1264.0 8.194933706314755 1
gene  1 16 30 -6.017859631186376 0 1293.0 -6.017859631186376 1
gene  1 8 340 1.0 0 1331.0 0.0 1
gene  1 340 263 1.0 0 1332.0 0.0 1
gene  1 5 32 -3.6022503677663176 0 1365.0 -3.6022503677663176 1
gene  1 278 27 5.0803653789292715 0 1399.0 5.0803653789292715 1
gene  1 103 30 -9.789445002767781 0 1433.0 -9.789445002767781 1
genomeend 6
/* Organism # 007 Fitness:  0,000 Error:  0,000                      */
genomestart  7
trait 1 0.0 0.0 0.0 0.0 0.0 0.0 0.0 0.0 
node 1 1 1 1
node 2 1 1 1
node 3 1 1 1
node 4 1 1 1
node 5 1 1 1
node 6 1 1 1
node 7 1 1 1
node 8 1 1 1
node 9 1 1 1
node 10 1 1 1
node 11 1 1 1
node 12 1 1 1
node 13 1 1 1
node 14 1 1 1
node 15 1 1 1
node 16 1 1 1
node 17 1 1 1
node 18 1 1 1
node 19 1 1 1
node 20 1 1 1
node 21 1 1 1
node 22 1 1 1
node 23 1 1 3
node 24 1 0 0
node 25 1 0 0
node 26 1 0 0
node 27 1 0 0
node 28 1 0 2
node 29 1 0 2
node 30 1 0 2
node 31 1 0 2
node 32 1 0 2
node 41 1 0 0
node 69 1 0 0
node 99 1 0 0
node 103 1 0 0
node 110 1 0 0
node 128 1 0 0
node 150 1 0 0
node 191 1 0 0
node 263 1 0 0
node 278 1 0 0
node 285 1 0 0
node 298 1 0 0
node 340 1 0 0
gene  1 1 24 1.2312165486196132 0 1.0 1.2312165486196132 1
gene  1 2 24 0.2943417703893493 0 2.0 0.2943417703893493 1
gene  1 3 24 0.9768730828026307 0 3.0 0.9768730828026307 1
gene  1 4 24 0.7190938738133004 0 4.0 0.7190938738133004 1
gene  1 5 24 0.2193871465817846 0 5.0 0.2193871465817846 1
gene  1 6 24 -1.2190229282840368 0 6.0 -1.2190229282840368 1
gene  1 7 24 -0.5142050575864869 0 7.0 -0.5142050575864869 1
gene  1 8 24 -0.22314417003607223 0 8.0 -0.22314417003607223 0
gene  1 9 24 -1.2774801206737818 0 9.0 -1.2774801206737818 1
gene  1 10 24 -0.061981137291826416 0 10.0 -0.061981137291826416 1
gene  1 11 24 -1.8754683064771336 0 11.0 -1.8754683064771336 1
gene  1 12 24 -0.8352780737920857 0 12.0 -0.8352780737920857 1
gene  1 13 24 0.3786865890716914 0 13.0 0.3786865890716914 1
gene  1 14 24 -1.2996289593588346 0 14.0 -1.2996289593588346 1
gene  1 15 24 -0.4394419827094279 0 15.0 -0.4394419827094279 1
gene  1 16 24 -0.9828005786152946 0 16.0 -0.9828005786152946 0
gene  1 17 24 0.8439302873292484 0 17.0 0.8439302873292484 1
gene  1 18 24 -0.5003228008237368 0 18.0 -0.5003228008237368 1
gene  1 19 24 0.42906791099393093 0 19.0 0.42906791099393093 1
gene  1 20 24 -0.279050255056314 0 20.0 -0.279050255056314 1
gene  1 21 24 0.7971477858202961 0 21.0 0.7971477858202961 1
gene  1 22 24 0.44437368780243347 0 22.0 0.44437368780243347 1
gene  1 23 24 0.26161789908998523 0 23.0 0.26161789908998523 1
gene  1 1 25 0.10054008097120759 0 24.0 0.10054008097120759 1
gene  1 2 25 -0.7878487289820982 0 25.0 -0.7878487289820982 1
gene  1 3 25 0.3178900122792382 0 26.0 0.3178900122792382 1
gene  1 4 25 1.6053589222054816 0 27.0 1.6053589222054816 1
gene  1 5 25 0.6655940683000792 0 28.0 0.6655940683000792 1
gene  1 6 25 0.6713920698456602 0 29.0 0.6713920698456602 1
gene  1 7 25 1.3277615461432168 0 30.0 1.3277615461432168 1
gene  1 8 25 0.36520320551942587 0 31.0 0.36520320551942587 1
gene  1 9 25 0.03163230903441061 0 32.0 0.03163230903441061 1
gene  1 10 25 -0.32363480882475815 0 33.0 -0.32363480882475815 1
gene  1 11 25 -0.14811838172030833 0 34.0 -0.14811838172030833 1
gene  1 12 25 -0.8279337408449059 0 35.0 -0.8279337408449059 1
gene  1 13 25 0.9032761352275851 0 36.0 0.9032761352275851 1
gene  1 14 25 -0.7252077211755625 0 37.0 -0.7252077211755625 1
gene  1 15 25 0.513846377852861 0 38.0 0.513846377852861 1
gene  1 16 25 0.24619408517709418 0 39.0 0.24619408517709418 0
gene  1 17 25 0.26918302126451565 0 40.0 0.26918302126451565 1
gene  1 18 25 0.13758136667140886 0 41.0 0.13758136667140886 1
gene  1 19 25 -1.09002239413288 0 42.0 -1.09002239413288 1
gene  1 20 25 -0.14370295320725146 0 43.0 -0.14370295320725146 1
gene  1 21 25 0.026107610571694195 0 44.0 0.026107610571694195 1
gene  1 22 25 0.6375280702565544 0 45.0 0.6375280702565544 0
gene  1 23 25 -0.1535055845213147 0 46.0 -0.1535055845213147 1
gene  1 1 26 0.8142807796554197 0 47.0 0.8142807796554197 1
gene  1 2 26 -0.39390293855829195 0 48.0 -0.39390293855829195 1
gene  1 3 26 0.2192327042112956 0 49.0 0.2192327042112956 0
gene  1 4 26 -0.039536585646890776 0 50.0 -0.039536585646890776 1
gene  1 5 26 0.15845520107731348 0 51.0 0.15845520107731348 1
gene  1 6 26 0.4934168506036096 0 52.0 0.4934168506036096 1
gene  1 7 26 0.4652367928451112 0 53.0 0.4652367928451112 1
gene  1 8 26 1.0425486853004693 0 54.0 1.0425486853004693 0
gene  1 9 26 -0.09817687332785252 0 55.0 -0.09817687332785252 1
gene  1 10 26 0.32665065714753583 0 56.0 0.32665065714753583 1
gene  1 11 26 -0.15122594935712041 0 57.0 -0.15122594935712041 1
gene  1 12 26 -1.2380680297106355 0 58.0 -1.2380680297106355 1
gene  1 13 26 -1.1497147342250744 0 59.0 -1.1497147342250744 1
gene  1 14 26 0.12161071262796341 0 60.0 0.12161071262796341 1
gene  1 15 26 -0.17680893641803608 0 61.0 -0.17680893641803608 1
gene  1 16 26 -0.791386169792078 0 62.0 -0.791386169792078 1
gene  1 17 26 -1.8741289752294499 0 63.0 -1.8741289752294499 1
gene  1 18 26 1.383833449305893 0 64.0 1.383833449305893 1
gene  1 19 26 -0.6732585382207215 0 65.0 -0.6732585382207215 1
gene  1 20 26 -1.5322371811975914 0 66.0 -1.5322371811975914 1
gene  1 21 26 -0.6011943406814789 0 67.0 -0.6011943406814789 1
gene  1 22 26 -0.49269467837624203 0 68.0 -0.49269467837624203 1
gene  1 23 26 0.8063967284496234 0 69.0 0.8063967284496234 1
gene  1 1 27 0.8888809161788437 0 70.0 0.8888809161788437 1
gene  1 2 27 0.057231611804800075 0 71.0 0.057231611804800075 1
gene  1 3 27 -0.7537579524589648 0 72.0 -0.7537579524589648 1
gene  1 4 27 -0.9146103866804254 0 73.0 -0.9146103866804254 1
gene  1 5 27 0.6171496058674454 0 74.0 0.6171496058674454 1
gene  1 6 27 0.3801129243519664 0 75.0 0.3801129243519664 1
gene  1 7 27 -0.7640275931549552 0 76.0 -0.7640275931549552 1
gene  1 8 27 -0.18813295835071364 0 77.0 -0.18813295835071364 1
gene  1 9 27 -1.9187213097045306 0 78.0 -1.9187213097045306 1
gene  1 10 27 -0.1290302600119101 0 79.0 -0.1290302600119101 1
gene  1 11 27 0.9976973640981855 0 80.0 0.9976973640981855 1
gene  1 12 27 0.899246905429198 0 81.0 0.899246905429198 1
gene  1 13 27 -1.388211834895136 0 82.0 -1.388211834895136 1
gene  1 14 27 -0.7717304869244548 0 83.0 -0.7717304869244548 1
gene  1 15 27 0.22240849919840733 0 84.0 0.22240849919840733 1
gene  1 16 27 -0.05943808509335313 0 85.0 -0.05943808509335313 1
gene  1 17 27 -0.12842472365656687 0 86.0 -0.12842472365656687 1
gene  1 18 27 -1.302705171792284 0 87.0 -1.302705171792284 1
gene  1 19 27 -0.14638372952830747 0 88.0 -0.14638372952830747 1
gene  1 20 27 -0.5906148961905668 0 89.0 -0.5906148961905668 1
gene  1 21 27 -0.17964977582173292 0 90.0 -0.17964977582173292 1
gene  1 22 27 -0.949361293601554 0 91.0 -0.949361293601554 1
gene  1 23 27 -0.4681839293419573 0 92.0 -0.4681839293419573 1
gene  1 23 28 0.8033044629612648 0 93.0 0.8033044629612648 1
gene  1 24 28 -0.7890399336314475 0 94.0 -0.7890399336314475 1
gene  1 25 28 1.8262758060165305 0 95.0 1.8262758060165305 1
gene  1 26 28 0.17501160774252855 0 96.0 0.17501160774252855 1
gene  1 27 28 0.025667614407639316 0 97.0 0.025667614407639316 1
gene  1 23 29 0.7153214047980212 0 98.0 0.7153214047980212 1
gene  1 24 29 0.2719297805451669 0 99.0 0.2719297805451669 0
gene  1 25 29 1.4043718483637888 0 100.0 1.4043718483637888 1
gene  1 26 29 0.4097104276707447 0 101.0 0.4097104276707447 1
gene  1 27 29 -0.6385734633319076 0 102.0 -0.6385734633319076 1
gene  1 23 30 -0.6882265393106782 0 103.0 -0.6882265393106782 1
gene  1 24 30 0.6067332817364671 0 104.0 0.6067332817364671 1
gene  1 25 30 1.4556598615122032 0 105.0 1.4556598615122032 1
gene  1 26 30 0.12126895369514501 0 106.0 0.12126895369514501 1
gene  1 27 30 1.5617013094816454 0 107.0 1.5617013094816454 1
gene  1 23 31 0.1310098095354194 0 108.0 0.1310098095354194 1
gene  1 24 31 -0.3722719413644936 0 109.0 -0.3722719413644936 0
gene  1 25 31 -1.124311163632509 0 110.0 -1.124311163632509 1
gene  1 26 31 1.2311397290855202 0 111.0 1.2311397290855202 1
gene  1 27 31 -0.17944237183508316 0 112.0 -0.17944237183508316 1
gene  1 23 32 -0.5146658738841081 0 113.0 -0.5146658738841081 1
gene  1 24 32 -0.09084391994955765 0 114.0 -0.09084391994955765 1
gene  1 25 32 -0.6136031702466314 0 115.0 -0.6136031702466314 1
gene  1 26 32 -0.9650914252775176 0 116.0 -0.9650914252775176 1
gene  1 27 32 0.022760341376820814 0 117.0 0.022760341376820814 1
gene  1 15 28 4.137678267967808 0 145.0 4.137678267967808 1
gene  1 24 41 1.0 0 162.0 0.0 1
gene  1 41 29 0.2719297805451669 0 163.0 0.0 1
gene  1 11 28 7.348383131584669 0 192.0 0.0 1
gene  1 8 29 -2.253143443278205 0 252.0 -2.253143443278205 1
gene  1 8 69 1.0 0 286.0 0.0 1
gene  1 69 26 1.0425486853004693 0 287.0 0.0 1
gene  1 14 28 7.953163020421822 0 325.0 7.953163020421822 1
gene  1 10 28 4.102639358731029 0 337.0 4.102639358731029 1
gene  1 15 32 4.441621118279169 0 371.0 4.441621118279169 1
gene  1 20 99 1.0 0 420.0 0.0 1
gene  1 99 27 -0.5906148961905668 0 421.0 0.0 1
gene  1 5 103 1.0 0 442.0 0.0 1
gene  1 103 24 0.2193871465817846 0 443.0 0.0 1
gene  1 3 110 1.0 0 466.0 0.0 1
gene  1 110 26 0.2192327042112956 0 467.0 0.0 1
gene  1 17 99 7.412882754326548 0 517.0 7.412882754326548 1
gene  1 16 128 1.0 0 542.0 0.0 1
gene  1 128 25 0.24619408517709418 0 543.0 0.0 1
gene  1 22 103 -4.72923175036907 0 584.0 -4.72923175036907 1
gene  1 24 150 1.0 0 612.0 0.0 1
gene  1 150 29 0.2719297805451669 0 613.0 0.0 1
gene  1 6 128 9.010114553132977 0 659.0 9.010114553132977 1
gene  1 150 69 7.109775961771797 0 697.0 7.109775961771797 1
gene  1 31 32 -4.91736596221802 0 712.0 -4.91736596221802 1
gene  1 26 41 -8.723759970328503 0 740.0 -8.723759970328503 1
gene  1 7 191 1.0 0 774.0 0.0 1
gene  1 191 26 0.4652367928451112 0 775.0 0.0 1
gene  1 103 26 3.013667548702056 0 816.0 3.013667548702056 1
gene  1 9 29 -3.84257763156337 0 851.0 -3.84257763156337 1
gene  1 11 99 -2.9535572253408815 0 864.0 -2.9535572253408815 1
gene  1 12 99 -9.51140941664397 0 920.0 -9.51140941664397 1
gene  1 9 41 -4.487522604488952 0 947.0 -4.487522604488952 1
gene  1 8 263 1.0 0 1033.0 0.0 0
gene  1 263 24 -0.22314417003607223 0 1034.0 0.0 1
gene  1 17 150 -7.1707433078313905 0 1068.0 -7.1707433078313905 1
gene  1 22 278 1.0 0 1093.0 0.0 1
gene  1 278 25 0.6375280702565544 0 1094.0 0.0 1
gene  1 16 285 1.0 0 1114.0 0.0 1
gene  1 285 24 -0.9828005786152946 0 1115.0 0.0 1
gene  1 24 298 1.0 0 1159.0 0.0 1
gene  1 298 31 -0.3722719413644936 0 1160.0 0.0 1
gene  1 3 32 -0.94405284003235 0 1185.0 -0.94405284003235 1
gene  1 11 128 -0.08017697175842664 0 1227.0 -0.08017697175842664 1
gene  1 6 31 8.194933706314755 0 1264.0 8.194933706314755 1
gene  1 16 30 -6.017859631186376 0 1293.0 -6.017859631186376 1
gene  1 8 340 1.0 0 1331.0 0.0 1
gene  1 340 263 1.0 0 1332.0 0.0 1
gene  1 5 32 -3.6022503677663176 0 1365.0 -3.6022503677663176 1
gene  1 278 27 5.0803653789292715 0 1399.0 5.0803653789292715 1
gene  1 278 26 -6.17989444497184 0 1434.0 -6.17989444497184 1
genomeend 7
/*-------------------------------------------------------------------*/
/* Species # 020         : (size= 003) (AvfFit= 740,000) (Age= 14,000)  */
/*-------------------------------------------------------------------*/
/* Organism # 008 Fitness:  0,000 Error:  0,000                      */
genomestart  8
trait 1 0.0 0.0 0.0 0.0 0.0 0.0 0.0 0.0 
node 1 1 1 1
node 2 1 1 1
node 3 1 1 1
node 4 1 1 1
node 5 1 1 1
node 6 1 1 1
node 7 1 1 1
node 8 1 1 1
node 9 1 1 1
node 10 1 1 1
node 11 1 1 1
node 12 1 1 1
node 13 1 1 1
node 14 1 1 1
node 15 1 1 1
node 16 1 1 1
node 17 1 1 1
node 18 1 1 1
node 19 1 1 1
node 20 1 1 1
node 21 1 1 1
node 22 1 1 1
node 23 1 1 3
node 24 1 0 0
node 25 1 0 0
node 26 1 0 0
node 27 1 0 0
node 28 1 0 2
node 29 1 0 2
node 30 1 0 2
node 31 1 0 2
node 32 1 0 2
node 41 1 0 0
node 69 1 0 0
node 99 1 0 0
node 103 1 0 0
node 110 1 0 0
node 128 1 0 0
node 150 1 0 0
node 191 1 0 0
node 236 1 0 0
node 242 1 0 0
node 277 1 0 0
node 286 1 0 0
node 295 1 0 0
gene  1 1 24 1.2312165486196132 0 1.0 1.2312165486196132 1
gene  1 2 24 0.2943417703893493 0 2.0 0.2943417703893493 1
gene  1 3 24 0.9768730828026307 0 3.0 0.9768730828026307 1
gene  1 4 24 0.7190938738133004 0 4.0 0.7190938738133004 1
gene  1 5 24 0.2193871465817846 0 5.0 0.2193871465817846 1
gene  1 6 24 -1.2190229282840368 0 6.0 -1.2190229282840368 1
gene  1 7 24 -0.5142050575864869 0 7.0 -0.5142050575864869 1
gene  1 8 24 -0.22314417003607223 0 8.0 -0.22314417003607223 1
gene  1 9 24 -1.2774801206737818 0 9.0 -1.2774801206737818 1
gene  1 10 24 -0.061981137291826416 0 10.0 -0.061981137291826416 1
gene  1 11 24 -1.8754683064771336 0 11.0 -1.8754683064771336 1
gene  1 12 24 -0.8352780737920857 0 12.0 -0.8352780737920857 1
gene  1 13 24 0.3786865890716914 0 13.0 0.3786865890716914 1
gene  1 14 24 -1.2996289593588346 0 14.0 -1.2996289593588346 1
gene  1 15 24 -0.4394419827094279 0 15.0 -0.4394419827094279 1
gene  1 16 24 -0.9828005786152946 0 16.0 -0.9828005786152946 1
gene  1 17 24 0.8439302873292484 0 17.0 0.8439302873292484 1
gene  1 18 24 -0.5003228008237368 0 18.0 -0.5003228008237368 1
gene  1 19 24 0.42906791099393093 0 19.0 0.42906791099393093 1
gene  1 20 24 -0.279050255056314 0 20.0 -0.279050255056314 1
gene  1 21 24 0.7971477858202961 0 21.0 0.7971477858202961 1
gene  1 22 24 0.44437368780243347 0 22.0 0.44437368780243347 1
gene  1 23 24 0.26161789908998523 0 23.0 0.26161789908998523 1
gene  1 1 25 0.10054008097120759 0 24.0 0.10054008097120759 1
gene  1 2 25 -0.7878487289820982 0 25.0 -0.7878487289820982 1
gene  1 3 25 0.3178900122792382 0 26.0 0.3178900122792382 1
gene  1 4 25 1.6053589222054816 0 27.0 1.6053589222054816 1
gene  1 5 25 0.6655940683000792 0 28.0 0.6655940683000792 1
gene  1 6 25 0.6713920698456602 0 29.0 0.6713920698456602 1
gene  1 7 25 1.3277615461432168 0 30.0 1.3277615461432168 1
gene  1 8 25 0.36520320551942587 0 31.0 0.36520320551942587 1
gene  1 9 25 0.03163230903441061 0 32.0 0.03163230903441061 1
gene  1 10 25 -0.32363480882475815 0 33.0 -0.32363480882475815 1
gene  1 11 25 -0.14811838172030833 0 34.0 -0.14811838172030833 1
gene  1 12 25 -0.8279337408449059 0 35.0 -0.8279337408449059 1
gene  1 13 25 0.9032761352275851 0 36.0 0.9032761352275851 1
gene  1 14 25 -0.7252077211755625 0 37.0 -0.7252077211755625 1
gene  1 15 25 0.513846377852861 0 38.0 0.513846377852861 1
gene  1 16 25 0.24619408517709418 0 39.0 0.24619408517709418 0
gene  1 17 25 0.26918302126451565 0 40.0 0.26918302126451565 1
gene  1 18 25 0.13758136667140886 0 41.0 0.13758136667140886 1
gene  1 19 25 -1.09002239413288 0 42.0 -1.09002239413288 1
gene  1 20 25 -0.14370295320725146 0 43.0 -0.14370295320725146 1
gene  1 21 25 0.026107610571694195 0 44.0 0.026107610571694195 1
gene  1 22 25 0.6375280702565544 0 45.0 0.6375280702565544 1
gene  1 23 25 -0.1535055845213147 0 46.0 -0.1535055845213147 1
gene  1 1 26 0.8142807796554197 0 47.0 0.8142807796554197 1
gene  1 2 26 -0.39390293855829195 0 48.0 -0.39390293855829195 1
gene  1 3 26 0.2192327042112956 0 49.0 0.2192327042112956 0
gene  1 4 26 -0.039536585646890776 0 50.0 -0.039536585646890776 1
gene  1 5 26 0.15845520107731348 0 51.0 0.15845520107731348 1
gene  1 6 26 0.4934168506036096 0 52.0 0.4934168506036096 1
gene  1 7 26 0.4652367928451112 0 53.0 0.4652367928451112 0
gene  1 8 26 1.0425486853004693 0 54.0 1.0425486853004693 0
gene  1 9 26 -0.09817687332785252 0 55.0 -0.09817687332785252 1
gene  1 10 26 0.32665065714753583 0 56.0 0.32665065714753583 1
gene  1 11 26 -0.15122594935712041 0 57.0 -0.15122594935712041 1
gene  1 12 26 -1.2380680297106355 0 58.0 -1.2380680297106355 1
gene  1 13 26 -1.1497147342250744 0 59.0 -1.1497147342250744 1
gene  1 14 26 0.12161071262796341 0 60.0 0.12161071262796341 1
gene  1 15 26 -0.17680893641803608 0 61.0 -0.17680893641803608 1
gene  1 16 26 -0.791386169792078 0 62.0 -0.791386169792078 1
gene  1 17 26 -1.8741289752294499 0 63.0 -1.8741289752294499 1
gene  1 18 26 1.383833449305893 0 64.0 1.383833449305893 1
gene  1 19 26 -0.6732585382207215 0 65.0 -0.6732585382207215 1
gene  1 20 26 -1.5322371811975914 0 66.0 -1.5322371811975914 1
gene  1 21 26 -0.6011943406814789 0 67.0 -0.6011943406814789 1
gene  1 22 26 -0.49269467837624203 0 68.0 -0.49269467837624203 1
gene  1 23 26 0.8063967284496234 0 69.0 0.8063967284496234 1
gene  1 1 27 0.8888809161788437 0 70.0 0.8888809161788437 1
gene  1 2 27 0.057231611804800075 0 71.0 0.057231611804800075 1
gene  1 3 27 -0.7537579524589648 0 72.0 -0.7537579524589648 1
gene  1 4 27 -0.9146103866804254 0 73.0 -0.9146103866804254 1
gene  1 5 27 0.6171496058674454 0 74.0 0.6171496058674454 1
gene  1 6 27 0.3801129243519664 0 75.0 0.3801129243519664 1
gene  1 7 27 -0.7640275931549552 0 76.0 -0.7640275931549552 1
gene  1 8 27 -0.18813295835071364 0 77.0 -0.18813295835071364 1
gene  1 9 27 -1.9187213097045306 0 78.0 -1.9187213097045306 1
gene  1 10 27 -0.1290302600119101 0 79.0 -0.1290302600119101 1
gene  1 11 27 0.9976973640981855 0 80.0 0.9976973640981855 1
gene  1 12 27 0.899246905429198 0 81.0 0.899246905429198 1
gene  1 13 27 -1.388211834895136 0 82.0 -1.388211834895136 1
gene  1 14 27 -0.7717304869244548 0 83.0 -0.7717304869244548 1
gene  1 15 27 0.22240849919840733 0 84.0 0.22240849919840733 1
gene  1 16 27 -0.05943808509335313 0 85.0 -0.05943808509335313 1
gene  1 17 27 -0.12842472365656687 0 86.0 -0.12842472365656687 1
gene  1 18 27 -1.302705171792284 0 87.0 -1.302705171792284 1
gene  1 19 27 -0.14638372952830747 0 88.0 -0.14638372952830747 1
gene  1 20 27 -0.5906148961905668 0 89.0 -0.5906148961905668 0
gene  1 21 27 -0.17964977582173292 0 90.0 -0.17964977582173292 1
gene  1 22 27 -0.949361293601554 0 91.0 -0.949361293601554 1
gene  1 23 27 -0.4681839293419573 0 92.0 -0.4681839293419573 1
gene  1 23 28 0.8033044629612648 0 93.0 0.8033044629612648 1
gene  1 24 28 -0.7890399336314475 0 94.0 -0.7890399336314475 1
gene  1 25 28 1.8262758060165305 0 95.0 1.8262758060165305 1
gene  1 26 28 0.17501160774252855 0 96.0 0.17501160774252855 0
gene  1 27 28 0.025667614407639316 0 97.0 0.025667614407639316 0
gene  1 23 29 0.7153214047980212 0 98.0 0.7153214047980212 1
gene  1 24 29 0.2719297805451669 0 99.0 0.2719297805451669 0
gene  1 25 29 1.4043718483637888 0 100.0 1.4043718483637888 1
gene  1 26 29 0.4097104276707447 0 101.0 0.4097104276707447 1
gene  1 27 29 -0.6385734633319076 0 102.0 -0.6385734633319076 1
gene  1 23 30 -0.6882265393106782 0 103.0 -0.6882265393106782 1
gene  1 24 30 0.6067332817364671 0 104.0 0.6067332817364671 1
gene  1 25 30 1.4556598615122032 0 105.0 1.4556598615122032 1
gene  1 26 30 0.12126895369514501 0 106.0 0.12126895369514501 1
gene  1 27 30 1.5617013094816454 0 107.0 1.5617013094816454 1
gene  1 23 31 0.1310098095354194 0 108.0 0.1310098095354194 1
gene  1 24 31 -0.3722719413644936 0 109.0 -0.3722719413644936 1
gene  1 25 31 -1.124311163632509 0 110.0 -1.124311163632509 1
gene  1 26 31 1.2311397290855202 0 111.0 1.2311397290855202 1
gene  1 27 31 -0.17944237183508316 0 112.0 -0.17944237183508316 1
gene  1 23 32 -0.5146658738841081 0 113.0 -0.5146658738841081 1
gene  1 24 32 -0.09084391994955765 0 114.0 -0.09084391994955765 1
gene  1 25 32 -0.6136031702466314 0 115.0 -0.6136031702466314 1
gene  1 26 32 -0.9650914252775176 0 116.0 -0.9650914252775176 1
gene  1 27 32 0.022760341376820814 0 117.0 0.022760341376820814 1
gene  1 15 28 4.137678267967808 0 145.0 4.137678267967808 0
gene  1 24 41 1.0 0 162.0 0.0 1
gene  1 41 29 0.2719297805451669 0 163.0 0.0 1
gene  1 11 28 7.348383131584669 0 192.0 0.0 1
gene  1 8 29 -2.253143443278205 0 252.0 -2.253143443278205 1
gene  1 8 69 1.0 0 286.0 0.0 1
gene  1 69 26 1.0425486853004693 0 287.0 0.0 1
gene  1 14 28 7.953163020421822 0 325.0 7.953163020421822 1
gene  1 10 28 4.102639358731029 0 337.0 4.102639358731029 1
gene  1 15 32 4.441621118279169 0 371.0 4.441621118279169 1
gene  1 20 99 1.0 0 420.0 0.0 1
gene  1 99 27 -0.5906148961905668 0 421.0 0.0 1
gene  1 5 103 1.0 0 442.0 0.0 1
gene  1 103 24 0.2193871465817846 0 443.0 0.0 1
gene  1 3 110 1.0 0 466.0 0.0 1
gene  1 110 26 0.2192327042112956 0 467.0 0.0 1
gene  1 17 99 7.412882754326548 0 517.0 7.412882754326548 1
gene  1 16 128 1.0 0 542.0 0.0 1
gene  1 128 25 0.24619408517709418 0 543.0 0.0 1
gene  1 22 103 -4.72923175036907 0 584.0 -4.72923175036907 1
gene  1 24 150 1.0 0 612.0 0.0 1
gene  1 150 29 0.2719297805451669 0 613.0 0.0 1
gene  1 6 128 9.010114553132977 0 659.0 9.010114553132977 1
gene  1 150 69 7.109775961771797 0 697.0 7.109775961771797 1
gene  1 31 32 -4.91736596221802 0 712.0 -4.91736596221802 1
gene  1 26 41 -8.723759970328503 0 740.0 -8.723759970328503 1
gene  1 7 191 1.0 0 774.0 0.0 1
gene  1 191 26 0.4652367928451112 0 775.0 0.0 0
gene  1 103 26 3.013667548702056 0 816.0 3.013667548702056 1
gene  1 9 29 -3.84257763156337 0 851.0 -3.84257763156337 1
gene  1 11 99 -2.9535572253408815 0 864.0 -2.9535572253408815 1
gene  1 12 99 -9.51140941664397 0 920.0 -9.51140941664397 1
gene  1 26 236 1.0 0 945.0 0.0 1
gene  1 236 28 0.17501160774252855 0 946.0 0.0 1
gene  1 22 242 1.0 0 964.0 0.0 1
gene  1 242 24 0.44437368780243347 0 965.0 0.0 1
gene  1 15 99 7.701450414217954 0 1027.0 7.701450414217954 1
gene  1 191 69 1.9379245025034608 0 1052.0 1.9379245025034608 1
gene  1 15 277 1.0 0 1090.0 0.0 1
gene  1 277 28 4.137678267967808 0 1091.0 0.0 1
gene  1 27 286 1.0 0 1116.0 0.0 1
gene  1 286 28 0.025667614407639316 0 1117.0 0.0 1
gene  1 191 295 1.0 0 1142.0 0.0 1
gene  1 295 26 0.4652367928451112 0 1143.0 0.0 1
gene  1 22 128 -2.007090236821627 0 1174.0 -2.007090236821627 1
gene  1 16 150 -3.304997279026219 0 1240.0 -3.304997279026219 1
gene  1 12 31 4.503211613086048 0 1284.0 4.503211613086048 1
gene  1 27 24 -6.805870777418631 0 1327.0 -6.805870777418631 1
gene  1 19 41 9.278176273732145 0 1355.0 9.278176273732145 1
gene  1 2 236 4.968730980050127 0 1384.0 4.968730980050127 1
gene  1 21 69 -5.853757736406172 0 1423.0 -5.853757736406172 1
genomeend 8
/* Organism # 009 Fitness:  0,000 Error:  0,000                      */
genomestart  9
trait 1 0.0 0.0 0.0 0.0 0.0 0.0 0.0 0.0 
node 1 1 1 1
node 2 1 1 1
node 3 1 1 1
node 4 1 1 1
node 5 1 1 1
node 6 1 1 1
node 7 1 1 1
node 8 1 1 1
node 9 1 1 1
node 10 1 1 1
node 11 1 1 1
node 12 1 1 1
node 13 1 1 1
node 14 1 1 1
node 15 1 1 1
node 16 1 1 1
node 17 1 1 1
node 18 1 1 1
node 19 1 1 1
node 20 1 1 1
node 21 1 1 1
node 22 1 1 1
node 23 1 1 3
node 24 1 0 0
node 25 1 0 0
node 26 1 0 0
node 27 1 0 0
node 28 1 0 2
node 29 1 0 2
node 30 1 0 2
node 31 1 0 2
node 32 1 0 2
node 41 1 0 0
node 69 1 0 0
node 99 1 0 0
node 103 1 0 0
node 110 1 0 0
node 128 1 0 0
node 150 1 0 0
node 191 1 0 0
node 236 1 0 0
node 242 1 0 0
node 277 1 0 0
node 286 1 0 0
node 295 1 0 0
gene  1 1 24 1.2312165486196132 0 1.0 1.2312165486196132 1
gene  1 2 24 0.2943417703893493 0 2.0 0.2943417703893493 1
gene  1 3 24 0.9768730828026307 0 3.0 0.9768730828026307 1
gene  1 4 24 0.7190938738133004 0 4.0 0.7190938738133004 1
gene  1 5 24 0.2193871465817846 0 5.0 0.2193871465817846 1
gene  1 6 24 -1.2190229282840368 0 6.0 -1.2190229282840368 1
gene  1 7 24 -0.5142050575864869 0 7.0 -0.5142050575864869 1
gene  1 8 24 -0.22314417003607223 0 8.0 -0.22314417003607223 1
gene  1 9 24 -1.2774801206737818 0 9.0 -1.2774801206737818 1
gene  1 10 24 -0.061981137291826416 0 10.0 -0.061981137291826416 1
gene  1 11 24 -1.8754683064771336 0 11.0 -1.8754683064771336 1
gene  1 12 24 -0.8352780737920857 0 12.0 -0.8352780737920857 1
gene  1 13 24 0.3786865890716914 0 13.0 0.3786865890716914 1
gene  1 14 24 -1.2996289593588346 0 14.0 -1.2996289593588346 1
gene  1 15 24 -0.4394419827094279 0 15.0 -0.4394419827094279 1
gene  1 16 24 -0.9828005786152946 0 16.0 -0.9828005786152946 1
gene  1 17 24 0.8439302873292484 0 17.0 0.8439302873292484 1
gene  1 18 24 -0.5003228008237368 0 18.0 -0.5003228008237368 1
gene  1 19 24 0.42906791099393093 0 19.0 0.42906791099393093 1
gene  1 20 24 -0.279050255056314 0 20.0 -0.279050255056314 1
