/* Species # 001         : (size= 003) (AvfFit= 985,000) (Age= 18,000)  */
/*-------------------------------------------------------------------*/
/* Organism # 000 Fitness:  0,000 Error:  0,000                      */
genomestart  0
trait 1 0.0 0.0 0.0 0.0 0.0 0.0 0.0 0.0 
node 1 1 1 1
node 2 1 1 1
node 3 1 1 1
node 4 1 1 1
node 5 1 1 1
node 6 1 1 1
node 7 1 1 1
node 8 1 1 1
node 9 1 1 1
node 10 1 1 1
node 11 1 1 1
node 12 1 1 1
node 13 1 1 1
node 14 1 1 1
node 15 1 1 1
node 16 1 1 1
node 17 1 1 1
node 18 1 1 1
node 19 1 1 1
node 20 1 1 1
node 21 1 1 1
node 22 1 1 1
node 23 1 1 3
node 24 1 0 0
node 25 1 0 0
node 26 1 0 0
node 27 1 0 0
node 28 1 0 2
node 29 1 0 2
node 30 1 0 2
node 31 1 0 2
node 32 1 0 2
node 58 1 0 0
node 70 1 0 0
node 88 1 0 0
node 105 1 0 0
node 113 1 0 0
node 125 1 0 0
gene  1 1 24 1.0246691390966052 0 1.0 1.0246691390966052 1
gene  1 2 24 0.5229966515841511 0 2.0 0.5229966515841511 1
gene  1 3 24 0.31048497492053695 0 3.0 0.31048497492053695 1
gene  1 4 24 0.8257350328510474 0 4.0 0.8257350328510474 1
gene  1 5 24 -0.12269129815583343 0 5.0 -0.12269129815583343 1
gene  1 6 24 -1.1905249794273218 0 6.0 -1.1905249794273218 1
gene  1 7 24 -0.6228916333129049 0 7.0 -0.6228916333129049 1
gene  1 8 24 -0.4142929870666684 0 8.0 -0.4142929870666684 0
gene  1 9 24 -1.0556759803811495 0 9.0 -1.0556759803811495 1
gene  1 10 24 -0.08199939935125267 0 10.0 -0.08199939935125267 1
gene  1 11 24 -1.736939670540849 0 11.0 -1.736939670540849 1
gene  1 12 24 -0.4202815796365783 0 12.0 -0.4202815796365783 1
gene  1 13 24 0.5414695382431101 0 13.0 0.5414695382431101 0
gene  1 14 24 -1.0534989252001385 0 14.0 -1.0534989252001385 1
gene  1 15 24 -0.19912206935622762 0 15.0 -0.19912206935622762 1
gene  1 16 24 -0.4788955373893792 0 16.0 -0.4788955373893792 1
gene  1 17 24 0.9253612011921519 0 17.0 0.9253612011921519 1
gene  1 18 24 -0.02109368771292852 0 18.0 -0.02109368771292852 1
gene  1 19 24 0.3495849056088878 0 19.0 0.3495849056088878 1
gene  1 20 24 -0.02862030254988246 0 20.0 -0.02862030254988246 1
gene  1 21 24 0.3740132205962158 0 21.0 0.3740132205962158 1
gene  1 22 24 0.4555311123527429 0 22.0 0.4555311123527429 1
gene  1 23 24 0.48423025609165976 0 23.0 0.48423025609165976 1
gene  1 1 25 0.017095251005673717 0 24.0 0.017095251005673717 1
gene  1 2 25 -0.7508777159005335 0 25.0 -0.7508777159005335 1
gene  1 3 25 0.44786508423254784 0 26.0 0.44786508423254784 1
gene  1 4 25 1.3309962523712067 0 27.0 1.3309962523712067 1
gene  1 5 25 0.5441928316169953 0 28.0 0.5441928316169953 1
gene  1 6 25 0.6337293816587621 0 29.0 0.6337293816587621 1
gene  1 7 25 1.2399388620649532 0 30.0 1.2399388620649532 1
gene  1 8 25 0.21086637654488408 0 31.0 0.21086637654488408 0
gene  1 9 25 -0.03276269557933534 0 32.0 -0.03276269557933534 1
gene  1 10 25 -0.1426513692329401 0 33.0 -0.1426513692329401 1
gene  1 11 25 -0.09541636317100224 0 34.0 -0.09541636317100224 1
gene  1 12 25 -0.8752046046829016 0 35.0 -0.8752046046829016 1
gene  1 13 25 0.9602254659862433 0 36.0 0.9602254659862433 1
gene  1 14 25 -0.638980611663241 0 37.0 -0.638980611663241 1
gene  1 15 25 0.3990854915215093 0 38.0 0.3990854915215093 1
gene  1 16 25 0.5991526875839748 0 39.0 0.5991526875839748 1
gene  1 17 25 0.36656293228758663 0 40.0 0.36656293228758663 1
gene  1 18 25 -0.0022482175454554 0 41.0 -0.0022482175454554 1
gene  1 19 25 -0.892074190957157 0 42.0 -0.892074190957157 1
gene  1 20 25 -0.09606402814428272 0 43.0 -0.09606402814428272 1
gene  1 21 25 -0.051593050968516685 0 44.0 -0.051593050968516685 1
gene  1 22 25 0.5366279929227279 0 45.0 0.5366279929227279 1
gene  1 23 25 0.017637427888739177 0 46.0 0.017637427888739177 1
gene  1 1 26 0.9591303395231123 0 47.0 0.9591303395231123 0
gene  1 2 26 -0.41938133422829327 0 48.0 -0.41938133422829327 1
gene  1 3 26 0.4002125145808624 0 49.0 0.4002125145808624 1
gene  1 4 26 0.17352306454807676 0 50.0 0.17352306454807676 1
gene  1 5 26 0.11474353065972787 0 51.0 0.11474353065972787 1
gene  1 6 26 0.3579643700947862 0 52.0 0.3579643700947862 1
gene  1 7 26 0.35767375762819426 0 53.0 0.35767375762819426 1
gene  1 8 26 0.6781982402131159 0 54.0 0.6781982402131159 1
gene  1 9 26 -0.1889146216089634 0 55.0 -0.1889146216089634 1
gene  1 10 26 0.27251219900058044 0 56.0 0.27251219900058044 1
gene  1 11 26 -0.18459753811898777 0 57.0 -0.18459753811898777 1
gene  1 12 26 -0.8927235126673374 0 58.0 -0.8927235126673374 1
gene  1 13 26 -0.7637617863636981 0 59.0 -0.7637617863636981 1
gene  1 14 26 0.04429500994655286 0 60.0 0.04429500994655286 1
gene  1 15 26 -0.06858252839337434 0 61.0 -0.06858252839337434 1
gene  1 16 26 -0.6253558298370026 0 62.0 -0.6253558298370026 0
gene  1 17 26 -1.426384370438879 0 63.0 -1.426384370438879 1
gene  1 18 26 1.4297634781507345 0 64.0 1.4297634781507345 1
gene  1 19 26 -0.44358912222150493 0 65.0 -0.44358912222150493 1
gene  1 20 26 -1.5325412628650532 0 66.0 -1.5325412628650532 1
gene  1 21 26 -0.3303331864485004 0 67.0 -0.3303331864485004 1
gene  1 22 26 -0.46176065820400075 0 68.0 -0.46176065820400075 1
gene  1 23 26 0.36461769801761856 0 69.0 0.36461769801761856 1
gene  1 1 27 0.8912598420947622 0 70.0 0.8912598420947622 1
gene  1 2 27 -0.22562322808021512 0 71.0 -0.22562322808021512 1
gene  1 3 27 -0.7249907488734223 0 72.0 -0.7249907488734223 1
gene  1 4 27 -0.714827143784901 0 73.0 -0.714827143784901 1
gene  1 5 27 0.6417598573812868 0 74.0 0.6417598573812868 1
gene  1 6 27 0.26828422811185 0 75.0 0.26828422811185 1
gene  1 7 27 -0.4963919540098093 0 76.0 -0.4963919540098093 1
gene  1 8 27 -0.09257610139741129 0 77.0 -0.09257610139741129 1
gene  1 9 27 -1.7626536715337942 0 78.0 -1.7626536715337942 1
gene  1 10 27 -0.15145992434328148 0 79.0 -0.15145992434328148 1
gene  1 11 27 0.5300467621340728 0 80.0 0.5300467621340728 1
gene  1 12 27 0.8102952507979496 0 81.0 0.8102952507979496 1
gene  1 13 27 -1.4938987877563914 0 82.0 -1.4938987877563914 1
gene  1 14 27 -0.7736234036156577 0 83.0 -0.7736234036156577 1
gene  1 15 27 0.20759847302683693 0 84.0 0.20759847302683693 1
gene  1 16 27 -0.11014169112946659 0 85.0 -0.11014169112946659 1
gene  1 17 27 0.09683260857850728 0 86.0 0.09683260857850728 1
gene  1 18 27 -1.2022374503589153 0 87.0 -1.2022374503589153 1
gene  1 19 27 -0.05889091136648525 0 88.0 -0.05889091136648525 1
gene  1 20 27 -0.011068544102370237 0 89.0 -0.011068544102370237 1
gene  1 21 27 0.03061653958346655 0 90.0 0.03061653958346655 1
gene  1 22 27 -1.067833293846456 0 91.0 -1.067833293846456 1
gene  1 23 27 -0.46710189944550756 0 92.0 -0.46710189944550756 1
gene  1 23 28 0.6918150208198452 0 93.0 0.6918150208198452 1
gene  1 24 28 -0.79826382553463 0 94.0 -0.79826382553463 1
gene  1 25 28 1.4401814136158868 0 95.0 1.4401814136158868 1
gene  1 26 28 0.3154677118025595 0 96.0 0.3154677118025595 1
gene  1 27 28 0.08764599194877584 0 97.0 0.08764599194877584 1
gene  1 23 29 0.6463020362055296 0 98.0 0.6463020362055296 1
gene  1 24 29 0.24733557415668841 0 99.0 0.24733557415668841 1
gene  1 25 29 1.224844493042706 0 100.0 1.224844493042706 1
gene  1 26 29 0.228220201554694 0 101.0 0.228220201554694 1
gene  1 27 29 -0.5556005427497747 0 102.0 -0.5556005427497747 1
gene  1 23 30 -0.40323479523890904 0 103.0 -0.40323479523890904 1
gene  1 24 30 0.3727448546102047 0 104.0 0.3727448546102047 1
gene  1 25 30 1.2499188852399459 0 105.0 1.2499188852399459 1
gene  1 26 30 -0.10130768447941577 0 106.0 -0.10130768447941577 1
gene  1 27 30 0.947278947377804 0 107.0 0.947278947377804 1
gene  1 23 31 -0.0035082955435231655 0 108.0 -0.0035082955435231655 1
gene  1 24 31 -0.15724508982692925 0 109.0 -0.15724508982692925 1
gene  1 25 31 -0.7741634536417736 0 110.0 -0.7741634536417736 1
gene  1 26 31 1.078893332407139 0 111.0 1.078893332407139 1
gene  1 27 31 -0.1570505579498585 0 112.0 -0.1570505579498585 1
gene  1 23 32 -0.4847620077050663 0 113.0 -0.4847620077050663 1
gene  1 24 32 -0.04529053255728063 0 114.0 -0.04529053255728063 1
gene  1 25 32 -0.3585712495828074 0 115.0 -0.3585712495828074 1
gene  1 26 32 -0.7182662232031993 0 116.0 -0.7182662232031993 1
gene  1 27 32 -0.10383809139461556 0 117.0 -0.10383809139461556 1
gene  1 1 32 0.1851445453341627 0 131.0 0.1851445453341627 1
gene  1 24 26 -2.7358913673367558 0 158.0 -2.7358913673367558 1
gene  1 11 28 7.348383131584669 0 192.0 7.348383131584669 1
gene  1 13 58 1.0 0 227.0 0.0 1
gene  1 58 24 0.5414695382431101 0 228.0 0.0 1
gene  1 58 26 2.2091589267106837 0 263.0 2.2091589267106837 1
gene  1 8 70 1.0 0 295.0 0.0 1
gene  1 70 24 -0.4142929870666684 0 296.0 0.0 1
gene  1 16 70 -7.433187728282969 0 328.0 -7.433187728282969 1
gene  1 4 28 3.8376944607556664 0 360.0 3.8376944607556664 1
gene  1 16 88 1.0 0 387.0 0.0 1
gene  1 88 26 -0.6253558298370026 0 388.0 0.0 1
gene  1 1 29 -1.8303849007255324 0 409.0 -1.8303849007255324 1
gene  1 1 105 1.0 0 454.0 0.0 1
gene  1 105 26 0.9591303395231123 0 455.0 0.0 1
gene  1 8 113 1.0 0 485.0 0.0 1
gene  1 113 24 -0.4142929870666684 0 486.0 0.0 1
gene  1 18 28 1.7014195947318211 0 490.0 0.0 1
gene  1 8 125 1.0 0 531.0 0.0 1
gene  1 125 25 0.21086637654488408 0 532.0 0.0 1
gene  1 3 28 -3.7584273010104106 0 585.0 -3.7584273010104106 1
gene  1 13 29 -7.95771823452448 0 601.0 -7.95771823452448 1
genomeend 0
/* Organism # 001 Fitness:  0,000 Error:  0,000                      */
genomestart  1
trait 1 0.0 0.0 0.0 0.0 0.0 0.0 0.0 0.0 
node 1 1 1 1
node 2 1 1 1
node 3 1 1 1
node 4 1 1 1
node 5 1 1 1
node 6 1 1 1
node 7 1 1 1
node 8 1 1 1
node 9 1 1 1
node 10 1 1 1
node 11 1 1 1
node 12 1 1 1
node 13 1 1 1
node 14 1 1 1
node 15 1 1 1
node 16 1 1 1
node 17 1 1 1
node 18 1 1 1
node 19 1 1 1
node 20 1 1 1
node 21 1 1 1
node 22 1 1 1
node 23 1 1 3
node 24 1 0 0
node 25 1 0 0
node 26 1 0 0
node 27 1 0 0
node 28 1 0 2
node 29 1 0 2
node 30 1 0 2
node 31 1 0 2
node 32 1 0 2
node 58 1 0 0
node 70 1 0 0
node 88 1 0 0
node 105 1 0 0
node 113 1 0 0
node 125 1 0 0
gene  1 1 24 1.0246691390966052 0 1.0 1.0246691390966052 1
gene  1 2 24 0.5229966515841511 0 2.0 0.5229966515841511 1
gene  1 3 24 0.31048497492053695 0 3.0 0.31048497492053695 1
gene  1 4 24 0.8257350328510474 0 4.0 0.8257350328510474 1
gene  1 5 24 -0.12269129815583343 0 5.0 -0.12269129815583343 1
gene  1 6 24 -1.1905249794273218 0 6.0 -1.1905249794273218 1
gene  1 7 24 -0.6228916333129049 0 7.0 -0.6228916333129049 1
gene  1 8 24 -0.4142929870666684 0 8.0 -0.4142929870666684 0
gene  1 9 24 -1.0556759803811495 0 9.0 -1.0556759803811495 1
gene  1 10 24 -0.08199939935125267 0 10.0 -0.08199939935125267 1
gene  1 11 24 -1.736939670540849 0 11.0 -1.736939670540849 1
gene  1 12 24 -0.4202815796365783 0 12.0 -0.4202815796365783 1
gene  1 13 24 0.5414695382431101 0 13.0 0.5414695382431101 1
gene  1 14 24 -1.0534989252001385 0 14.0 -1.0534989252001385 1
gene  1 15 24 -0.19912206935622762 0 15.0 -0.19912206935622762 1
gene  1 16 24 -0.4788955373893792 0 16.0 -0.4788955373893792 1
gene  1 17 24 0.9253612011921519 0 17.0 0.9253612011921519 1
gene  1 18 24 -0.02109368771292852 0 18.0 -0.02109368771292852 1
gene  1 19 24 0.3495849056088878 0 19.0 0.3495849056088878 1
gene  1 20 24 -0.02862030254988246 0 20.0 -0.02862030254988246 1
gene  1 21 24 0.3740132205962158 0 21.0 0.3740132205962158 1
gene  1 22 24 0.4555311123527429 0 22.0 0.4555311123527429 1
gene  1 23 24 0.48423025609165976 0 23.0 0.48423025609165976 1
gene  1 1 25 0.017095251005673717 0 24.0 0.017095251005673717 1
gene  1 2 25 -0.7508777159005335 0 25.0 -0.7508777159005335 1
gene  1 3 25 0.44786508423254784 0 26.0 0.44786508423254784 1
gene  1 4 25 1.3309962523712067 0 27.0 1.3309962523712067 1
gene  1 5 25 0.5441928316169953 0 28.0 0.5441928316169953 1
gene  1 6 25 0.6337293816587621 0 29.0 0.6337293816587621 1
gene  1 7 25 1.2399388620649532 0 30.0 1.2399388620649532 1
gene  1 8 25 0.21086637654488408 0 31.0 0.21086637654488408 0
gene  1 9 25 -0.03276269557933534 0 32.0 -0.03276269557933534 1
gene  1 10 25 -0.1426513692329401 0 33.0 -0.1426513692329401 1
gene  1 11 25 -0.09541636317100224 0 34.0 -0.09541636317100224 1
gene  1 12 25 -0.8752046046829016 0 35.0 -0.8752046046829016 1
gene  1 13 25 0.9602254659862433 0 36.0 0.9602254659862433 1
gene  1 14 25 -0.638980611663241 0 37.0 -0.638980611663241 1
gene  1 15 25 0.3990854915215093 0 38.0 0.3990854915215093 1
gene  1 16 25 0.5991526875839748 0 39.0 0.5991526875839748 1
gene  1 17 25 0.36656293228758663 0 40.0 0.36656293228758663 1
gene  1 18 25 -0.0022482175454554 0 41.0 -0.0022482175454554 1
gene  1 19 25 -0.892074190957157 0 42.0 -0.892074190957157 1
gene  1 20 25 -0.09606402814428272 0 43.0 -0.09606402814428272 1
gene  1 21 25 -0.051593050968516685 0 44.0 -0.051593050968516685 1
gene  1 22 25 0.5366279929227279 0 45.0 0.5366279929227279 1
gene  1 23 25 0.017637427888739177 0 46.0 0.017637427888739177 1
gene  1 1 26 0.9591303395231123 0 47.0 0.9591303395231123 1
gene  1 2 26 -0.41938133422829327 0 48.0 -0.41938133422829327 1
gene  1 3 26 0.4002125145808624 0 49.0 0.4002125145808624 1
gene  1 4 26 0.17352306454807676 0 50.0 0.17352306454807676 1
gene  1 5 26 0.11474353065972787 0 51.0 0.11474353065972787 1
gene  1 6 26 0.3579643700947862 0 52.0 0.3579643700947862 1
gene  1 7 26 0.35767375762819426 0 53.0 0.35767375762819426 1
gene  1 8 26 0.6781982402131159 0 54.0 0.6781982402131159 1
gene  1 9 26 -0.1889146216089634 0 55.0 -0.1889146216089634 1
gene  1 10 26 0.27251219900058044 0 56.0 0.27251219900058044 1
gene  1 11 26 -0.18459753811898777 0 57.0 -0.18459753811898777 1
gene  1 12 26 -0.8927235126673374 0 58.0 -0.8927235126673374 1
gene  1 13 26 -0.7637617863636981 0 59.0 -0.7637617863636981 1
gene  1 14 26 0.04429500994655286 0 60.0 0.04429500994655286 1
gene  1 15 26 -0.06858252839337434 0 61.0 -0.06858252839337434 1
gene  1 16 26 -0.6253558298370026 0 62.0 -0.6253558298370026 1
gene  1 17 26 -1.426384370438879 0 63.0 -1.426384370438879 1
gene  1 18 26 1.4297634781507345 0 64.0 1.4297634781507345 1
gene  1 19 26 -0.44358912222150493 0 65.0 -0.44358912222150493 1
gene  1 20 26 -1.5325412628650532 0 66.0 -1.5325412628650532 1
gene  1 21 26 -0.3303331864485004 0 67.0 -0.3303331864485004 1
gene  1 22 26 -0.46176065820400075 0 68.0 -0.46176065820400075 1
gene  1 23 26 0.36461769801761856 0 69.0 0.36461769801761856 1
gene  1 1 27 0.8912598420947622 0 70.0 0.8912598420947622 1
gene  1 2 27 -0.22562322808021512 0 71.0 -0.22562322808021512 1
gene  1 3 27 -0.7249907488734223 0 72.0 -0.7249907488734223 1
gene  1 4 27 -0.714827143784901 0 73.0 -0.714827143784901 1
gene  1 5 27 0.6417598573812868 0 74.0 0.6417598573812868 1
gene  1 6 27 0.26828422811185 0 75.0 0.26828422811185 1
gene  1 7 27 -0.4963919540098093 0 76.0 -0.4963919540098093 1
gene  1 8 27 -0.09257610139741129 0 77.0 -0.09257610139741129 1
gene  1 9 27 -1.7626536715337942 0 78.0 -1.7626536715337942 1
gene  1 10 27 -0.15145992434328148 0 79.0 -0.15145992434328148 1
gene  1 11 27 0.5300467621340728 0 80.0 0.5300467621340728 1
gene  1 12 27 0.8102952507979496 0 81.0 0.8102952507979496 1
gene  1 13 27 -1.4938987877563914 0 82.0 -1.4938987877563914 1
gene  1 14 27 -0.7736234036156577 0 83.0 -0.7736234036156577 1
gene  1 15 27 0.20759847302683693 0 84.0 0.20759847302683693 1
gene  1 16 27 -0.11014169112946659 0 85.0 -0.11014169112946659 1
gene  1 17 27 0.09683260857850728 0 86.0 0.09683260857850728 1
gene  1 18 27 -1.2022374503589153 0 87.0 -1.2022374503589153 1
gene  1 19 27 -0.05889091136648525 0 88.0 -0.05889091136648525 1
gene  1 20 27 -0.011068544102370237 0 89.0 -0.011068544102370237 1
gene  1 21 27 0.03061653958346655 0 90.0 0.03061653958346655 1
gene  1 22 27 -1.067833293846456 0 91.0 -1.067833293846456 1
gene  1 23 27 -0.46710189944550756 0 92.0 -0.46710189944550756 1
gene  1 23 28 0.6918150208198452 0 93.0 0.6918150208198452 1
gene  1 24 28 -0.79826382553463 0 94.0 -0.79826382553463 1
gene  1 25 28 1.4401814136158868 0 95.0 1.4401814136158868 1
gene  1 26 28 0.3154677118025595 0 96.0 0.3154677118025595 1
gene  1 27 28 0.08764599194877584 0 97.0 0.08764599194877584 1
gene  1 23 29 0.6463020362055296 0 98.0 0.6463020362055296 1
gene  1 24 29 0.24733557415668841 0 99.0 0.24733557415668841 1
gene  1 25 29 1.224844493042706 0 100.0 1.224844493042706 1
gene  1 26 29 0.228220201554694 0 101.0 0.228220201554694 1
gene  1 27 29 -0.5556005427497747 0 102.0 -0.5556005427497747 1
gene  1 23 30 -0.40323479523890904 0 103.0 -0.40323479523890904 1
gene  1 24 30 0.3727448546102047 0 104.0 0.3727448546102047 1
gene  1 25 30 1.2499188852399459 0 105.0 1.2499188852399459 1
gene  1 26 30 -0.10130768447941577 0 106.0 -0.10130768447941577 1
gene  1 27 30 0.947278947377804 0 107.0 0.947278947377804 1
gene  1 23 31 -0.0035082955435231655 0 108.0 -0.0035082955435231655 1
gene  1 24 31 -0.15724508982692925 0 109.0 -0.15724508982692925 1
gene  1 25 31 -0.7741634536417736 0 110.0 -0.7741634536417736 1
gene  1 26 31 1.078893332407139 0 111.0 1.078893332407139 1
gene  1 27 31 -0.1570505579498585 0 112.0 -0.1570505579498585 1
gene  1 23 32 -0.4847620077050663 0 113.0 -0.4847620077050663 1
gene  1 24 32 -0.04529053255728063 0 114.0 -0.04529053255728063 1
gene  1 25 32 -0.3585712495828074 0 115.0 -0.3585712495828074 1
gene  1 26 32 -0.7182662232031993 0 116.0 -0.7182662232031993 1
gene  1 27 32 -0.10383809139461556 0 117.0 -0.10383809139461556 1
gene  1 1 32 0.1851445453341627 0 131.0 0.1851445453341627 1
gene  1 24 26 -2.7358913673367558 0 158.0 -2.7358913673367558 1
gene  1 11 28 7.348383131584669 0 192.0 7.348383131584669 1
gene  1 13 58 1.0 0 227.0 0.0 1
gene  1 58 24 0.5414695382431101 0 228.0 0.0 1
gene  1 58 26 2.2091589267106837 0 263.0 2.2091589267106837 1
gene  1 8 70 1.0 0 295.0 0.0 1
gene  1 70 24 -0.4142929870666684 0 296.0 0.0 1
gene  1 16 70 -7.433187728282969 0 328.0 -7.433187728282969 1
gene  1 4 28 3.8376944607556664 0 360.0 3.8376944607556664 1
gene  1 16 88 1.0 0 387.0 0.0 1
gene  1 88 26 -0.6253558298370026 0 388.0 0.0 1
gene  1 1 29 -1.8303849007255324 0 409.0 -1.8303849007255324 1
gene  1 1 105 1.0 0 454.0 0.0 1
gene  1 105 26 0.9591303395231123 0 455.0 0.0 1
gene  1 8 113 1.0 0 485.0 0.0 1
gene  1 113 24 -0.4142929870666684 0 486.0 0.0 1
gene  1 18 28 1.7014195947318211 0 490.0 0.0 1
gene  1 8 125 1.0 0 531.0 0.0 1
gene  1 125 25 0.21086637654488408 0 532.0 0.0 1
gene  1 3 28 -3.7584273010104106 0 585.0 -3.7584273010104106 1
gene  1 1 113 -6.009731551216124 0 602.0 -6.009731551216124 1
genomeend 1
/* Organism # 002 Fitness:  0,000 Error:  0,000                      */
genomestart  2
trait 1 0.0 0.0 0.0 0.0 0.0 0.0 0.0 0.0 
node 1 1 1 1
node 2 1 1 1
node 3 1 1 1
node 4 1 1 1
node 5 1 1 1
node 6 1 1 1
node 7 1 1 1
node 8 1 1 1
node 9 1 1 1
node 10 1 1 1
node 11 1 1 1
node 12 1 1 1
node 13 1 1 1
node 14 1 1 1
node 15 1 1 1
node 16 1 1 1
node 17 1 1 1
node 18 1 1 1
node 19 1 1 1
node 20 1 1 1
node 21 1 1 1
node 22 1 1 1
node 23 1 1 3
node 24 1 0 0
node 25 1 0 0
node 26 1 0 0
node 27 1 0 0
node 28 1 0 2
node 29 1 0 2
node 30 1 0 2
node 31 1 0 2
node 32 1 0 2
node 58 1 0 0
node 70 1 0 0
node 88 1 0 0
node 105 1 0 0
node 113 1 0 0
node 125 1 0 0
node 146 1 0 0
gene  1 1 24 1.0246691390966052 0 1.0 1.0246691390966052 1
gene  1 2 24 0.5229966515841511 0 2.0 0.5229966515841511 1
gene  1 3 24 0.31048497492053695 0 3.0 0.31048497492053695 1
gene  1 4 24 0.8257350328510474 0 4.0 0.8257350328510474 1
gene  1 5 24 -0.12269129815583343 0 5.0 -0.12269129815583343 1
gene  1 6 24 -1.1905249794273218 0 6.0 -1.1905249794273218 1
gene  1 7 24 -0.6228916333129049 0 7.0 -0.6228916333129049 1
gene  1 8 24 -0.4142929870666684 0 8.0 -0.4142929870666684 0
gene  1 9 24 -1.0556759803811495 0 9.0 -1.0556759803811495 1
gene  1 10 24 -0.08199939935125267 0 10.0 -0.08199939935125267 1
gene  1 11 24 -1.736939670540849 0 11.0 -1.736939670540849 1
gene  1 12 24 -0.4202815796365783 0 12.0 -0.4202815796365783 1
gene  1 13 24 0.5414695382431101 0 13.0 0.5414695382431101 0
gene  1 14 24 -1.0534989252001385 0 14.0 -1.0534989252001385 1
gene  1 15 24 -0.19912206935622762 0 15.0 -0.19912206935622762 1
gene  1 16 24 -0.4788955373893792 0 16.0 -0.4788955373893792 1
gene  1 17 24 0.9253612011921519 0 17.0 0.9253612011921519 1
gene  1 18 24 -0.02109368771292852 0 18.0 -0.02109368771292852 1
gene  1 19 24 0.3495849056088878 0 19.0 0.3495849056088878 1
gene  1 20 24 -0.02862030254988246 0 20.0 -0.02862030254988246 1
gene  1 21 24 0.3740132205962158 0 21.0 0.3740132205962158 1
gene  1 22 24 0.4555311123527429 0 22.0 0.4555311123527429 1
gene  1 23 24 0.48423025609165976 0 23.0 0.48423025609165976 1
gene  1 1 25 0.017095251005673717 0 24.0 0.017095251005673717 1
gene  1 2 25 -0.7508777159005335 0 25.0 -0.7508777159005335 1
gene  1 3 25 0.44786508423254784 0 26.0 0.44786508423254784 1
gene  1 4 25 1.3309962523712067 0 27.0 1.3309962523712067 1
gene  1 5 25 0.5441928316169953 0 28.0 0.5441928316169953 1
gene  1 6 25 0.6337293816587621 0 29.0 0.6337293816587621 1
gene  1 7 25 1.2399388620649532 0 30.0 1.2399388620649532 1
gene  1 8 25 0.21086637654488408 0 31.0 0.21086637654488408 0
gene  1 9 25 -0.03276269557933534 0 32.0 -0.03276269557933534 1
gene  1 10 25 -0.1426513692329401 0 33.0 -0.1426513692329401 1
gene  1 11 25 -0.09541636317100224 0 34.0 -0.09541636317100224 1
gene  1 12 25 -0.8752046046829016 0 35.0 -0.8752046046829016 1
gene  1 13 25 0.9602254659862433 0 36.0 0.9602254659862433 1
gene  1 14 25 -0.638980611663241 0 37.0 -0.638980611663241 1
gene  1 15 25 0.3990854915215093 0 38.0 0.3990854915215093 1
gene  1 16 25 0.5991526875839748 0 39.0 0.5991526875839748 1
gene  1 17 25 0.36656293228758663 0 40.0 0.36656293228758663 1
gene  1 18 25 -0.0022482175454554 0 41.0 -0.0022482175454554 1
gene  1 19 25 -0.892074190957157 0 42.0 -0.892074190957157 1
gene  1 20 25 -0.09606402814428272 0 43.0 -0.09606402814428272 1
gene  1 21 25 -0.051593050968516685 0 44.0 -0.051593050968516685 1
gene  1 22 25 0.5366279929227279 0 45.0 0.5366279929227279 1
gene  1 23 25 0.017637427888739177 0 46.0 0.017637427888739177 1
gene  1 1 26 0.9591303395231123 0 47.0 0.9591303395231123 0
gene  1 2 26 -0.41938133422829327 0 48.0 -0.41938133422829327 1
gene  1 3 26 0.4002125145808624 0 49.0 0.4002125145808624 1
gene  1 4 26 0.17352306454807676 0 50.0 0.17352306454807676 1
gene  1 5 26 0.11474353065972787 0 51.0 0.11474353065972787 1
gene  1 6 26 0.3579643700947862 0 52.0 0.3579643700947862 1
gene  1 7 26 0.35767375762819426 0 53.0 0.35767375762819426 1
gene  1 8 26 0.6781982402131159 0 54.0 0.6781982402131159 1
gene  1 9 26 -0.1889146216089634 0 55.0 -0.1889146216089634 1
gene  1 10 26 0.27251219900058044 0 56.0 0.27251219900058044 1
gene  1 11 26 -0.18459753811898777 0 57.0 -0.18459753811898777 1
gene  1 12 26 -0.8927235126673374 0 58.0 -0.8927235126673374 1
gene  1 13 26 -0.7637617863636981 0 59.0 -0.7637617863636981 1
gene  1 14 26 0.04429500994655286 0 60.0 0.04429500994655286 1
gene  1 15 26 -0.06858252839337434 0 61.0 -0.06858252839337434 1
gene  1 16 26 -0.6253558298370026 0 62.0 -0.6253558298370026 0
gene  1 17 26 -1.426384370438879 0 63.0 -1.426384370438879 1
gene  1 18 26 1.4297634781507345 0 64.0 1.4297634781507345 1
gene  1 19 26 -0.44358912222150493 0 65.0 -0.44358912222150493 1
gene  1 20 26 -1.5325412628650532 0 66.0 -1.5325412628650532 1
gene  1 21 26 -0.3303331864485004 0 67.0 -0.3303331864485004 1
gene  1 22 26 -0.46176065820400075 0 68.0 -0.46176065820400075 1
gene  1 23 26 0.36461769801761856 0 69.0 0.36461769801761856 1
gene  1 1 27 0.8912598420947622 0 70.0 0.8912598420947622 1
gene  1 2 27 -0.22562322808021512 0 71.0 -0.22562322808021512 1
gene  1 3 27 -0.7249907488734223 0 72.0 -0.7249907488734223 1
gene  1 4 27 -0.714827143784901 0 73.0 -0.714827143784901 1
gene  1 5 27 0.6417598573812868 0 74.0 0.6417598573812868 1
gene  1 6 27 0.26828422811185 0 75.0 0.26828422811185 1
gene  1 7 27 -0.4963919540098093 0 76.0 -0.4963919540098093 1
gene  1 8 27 -0.09257610139741129 0 77.0 -0.09257610139741129 1
gene  1 9 27 -1.7626536715337942 0 78.0 -1.7626536715337942 1
gene  1 10 27 -0.15145992434328148 0 79.0 -0.15145992434328148 1
gene  1 11 27 0.5300467621340728 0 80.0 0.5300467621340728 1
gene  1 12 27 0.8102952507979496 0 81.0 0.8102952507979496 1
gene  1 13 27 -1.4938987877563914 0 82.0 -1.4938987877563914 1
gene  1 14 27 -0.7736234036156577 0 83.0 -0.7736234036156577 1
gene  1 15 27 0.20759847302683693 0 84.0 0.20759847302683693 1
gene  1 16 27 -0.11014169112946659 0 85.0 -0.11014169112946659 1
gene  1 17 27 0.09683260857850728 0 86.0 0.09683260857850728 1
gene  1 18 27 -1.2022374503589153 0 87.0 -1.2022374503589153 1
gene  1 19 27 -0.05889091136648525 0 88.0 -0.05889091136648525 0
gene  1 20 27 -0.011068544102370237 0 89.0 -0.011068544102370237 1
gene  1 21 27 0.03061653958346655 0 90.0 0.03061653958346655 1
gene  1 22 27 -1.067833293846456 0 91.0 -1.067833293846456 1
gene  1 23 27 -0.46710189944550756 0 92.0 -0.46710189944550756 1
gene  1 23 28 0.6918150208198452 0 93.0 0.6918150208198452 1
gene  1 24 28 -0.79826382553463 0 94.0 -0.79826382553463 1
gene  1 25 28 1.4401814136158868 0 95.0 1.4401814136158868 1
gene  1 26 28 0.3154677118025595 0 96.0 0.3154677118025595 1
gene  1 27 28 0.08764599194877584 0 97.0 0.08764599194877584 1
gene  1 23 29 0.6463020362055296 0 98.0 0.6463020362055296 1
gene  1 24 29 0.24733557415668841 0 99.0 0.24733557415668841 1
gene  1 25 29 1.224844493042706 0 100.0 1.224844493042706 1
gene  1 26 29 0.228220201554694 0 101.0 0.228220201554694 1
gene  1 27 29 -0.5556005427497747 0 102.0 -0.5556005427497747 1
gene  1 23 30 -0.40323479523890904 0 103.0 -0.40323479523890904 1
gene  1 24 30 0.3727448546102047 0 104.0 0.3727448546102047 1
gene  1 25 30 1.2499188852399459 0 105.0 1.2499188852399459 1
gene  1 26 30 -0.10130768447941577 0 106.0 -0.10130768447941577 1
gene  1 27 30 0.947278947377804 0 107.0 0.947278947377804 1
gene  1 23 31 -0.0035082955435231655 0 108.0 -0.0035082955435231655 1
gene  1 24 31 -0.15724508982692925 0 109.0 -0.15724508982692925 1
gene  1 25 31 -0.7741634536417736 0 110.0 -0.7741634536417736 1
gene  1 26 31 1.078893332407139 0 111.0 1.078893332407139 1
gene  1 27 31 -0.1570505579498585 0 112.0 -0.1570505579498585 1
gene  1 23 32 -0.4847620077050663 0 113.0 -0.4847620077050663 1
gene  1 24 32 -0.04529053255728063 0 114.0 -0.04529053255728063 1
gene  1 25 32 -0.3585712495828074 0 115.0 -0.3585712495828074 1
gene  1 26 32 -0.7182662232031993 0 116.0 -0.7182662232031993 1
gene  1 27 32 -0.10383809139461556 0 117.0 -0.10383809139461556 1
gene  1 1 32 0.1851445453341627 0 131.0 0.1851445453341627 1
gene  1 24 26 -2.7358913673367558 0 158.0 -2.7358913673367558 1
gene  1 11 28 7.348383131584669 0 192.0 7.348383131584669 1
gene  1 13 58 1.0 0 227.0 0.0 1
gene  1 58 24 0.5414695382431101 0 228.0 0.0 1
gene  1 58 26 2.2091589267106837 0 263.0 2.2091589267106837 1
gene  1 8 70 1.0 0 295.0 0.0 1
gene  1 70 24 -0.4142929870666684 0 296.0 0.0 1
gene  1 16 70 -7.433187728282969 0 328.0 -7.433187728282969 1
gene  1 4 28 3.8376944607556664 0 360.0 3.8376944607556664 1
gene  1 16 88 1.0 0 387.0 0.0 1
gene  1 88 26 -0.6253558298370026 0 388.0 0.0 1
gene  1 1 29 -1.8303849007255324 0 409.0 -1.8303849007255324 1
gene  1 1 105 1.0 0 454.0 0.0 1
gene  1 105 26 0.9591303395231123 0 455.0 0.0 1
gene  1 8 113 1.0 0 485.0 0.0 1
gene  1 113 24 -0.4142929870666684 0 486.0 0.0 1
gene  1 18 28 1.7014195947318211 0 490.0 0.0 1
gene  1 8 125 1.0 0 531.0 0.0 1
gene  1 125 25 0.21086637654488408 0 532.0 0.0 1
gene  1 3 28 -3.7584273010104106 0 585.0 -3.7584273010104106 1
gene  1 19 146 1.0 0 603.0 0.0 1
gene  1 146 27 -0.05889091136648525 0 604.0 0.0 1
genomeend 2
/*-------------------------------------------------------------------*/
/* Species # 003         : (size= 003) (AvfFit= 725,000) (Age= 16,000)  */
/*-------------------------------------------------------------------*/
/* Organism # 003 Fitness:  0,000 Error:  0,000                      */
genomestart  3
trait 1 0.0 0.0 0.0 0.5880285187278544 0.0 0.0 0.0 0.0 
node 1 1 1 1
node 2 1 1 1
node 3 1 1 1
node 4 1 1 1
node 5 1 1 1
node 6 1 1 1
node 7 1 1 1
node 8 1 1 1
node 9 1 1 1
node 10 1 1 1
node 11 1 1 1
node 12 1 1 1
node 13 1 1 1
node 14 1 1 1
node 15 1 1 1
node 16 1 1 1
node 17 1 1 1
node 18 1 1 1
node 19 1 1 1
node 20 1 1 1
node 21 1 1 1
node 22 1 1 1
node 23 1 1 3
node 24 1 0 0
node 25 1 0 0
node 26 1 0 0
node 27 1 0 0
node 28 1 0 2
node 29 1 0 2
node 30 1 0 2
node 31 1 0 2
node 32 1 0 2
node 37 1 0 0
node 60 1 0 0
node 84 1 0 0
node 96 1 0 0
node 118 1 0 0
node 127 1 0 0
node 138 1 0 0
node 151 1 0 0
gene  1 1 24 0.5344584225327565 0 1.0 0.5344584225327565 1
gene  1 2 24 3.7154913810866015 0 2.0 3.7154913810866015 1
gene  1 3 24 0.04023868774870909 0 3.0 0.04023868774870909 1
gene  1 4 24 1.2829363046622348 0 4.0 1.2829363046622348 1
gene  1 5 24 -0.039924423331352266 0 5.0 -0.039924423331352266 1
gene  1 6 24 2.4472354211644785 0 6.0 2.4472354211644785 1
gene  1 7 24 1.3257483165840125 0 7.0 1.3257483165840125 1
gene  1 8 24 0.5080188594528512 0 8.0 0.5080188594528512 1
gene  1 9 24 -0.4913482602182785 0 9.0 -0.4913482602182785 1
gene  1 10 24 1.335357540583393 0 10.0 1.335357540583393 1
gene  1 11 24 0.5749181139356492 0 11.0 0.5749181139356492 1
gene  1 12 24 1.7712883794433378 0 12.0 1.7712883794433378 1
gene  1 13 24 1.8661669837895243 0 13.0 1.8661669837895243 1
gene  1 14 24 -1.3762239110451353 0 14.0 -1.3762239110451353 1
gene  1 15 24 -0.26926074802161115 0 15.0 -0.26926074802161115 1
gene  1 16 24 0.5103324430681042 0 16.0 0.5103324430681042 1
gene  1 17 24 -0.7266833221007302 0 17.0 -0.7266833221007302 1
gene  1 18 24 -3.2086329730691188 0 18.0 -3.2086329730691188 1
gene  1 19 24 0.21011382277239354 0 19.0 0.21011382277239354 1
gene  1 20 24 2.1537752672170267 0 20.0 2.1537752672170267 1
gene  1 21 24 -2.4070557058599364 0 21.0 -2.4070557058599364 1
gene  1 22 24 3.2218709963311256 0 22.0 3.2218709963311256 1
gene  1 23 24 3.8472703283578444 0 23.0 3.8472703283578444 1
gene  1 1 25 2.002084661305637 0 24.0 2.002084661305637 1
gene  1 2 25 1.7214030548899324 0 25.0 1.7214030548899324 1
gene  1 3 25 1.1307219600218543 0 26.0 1.1307219600218543 1
gene  1 4 25 -0.7303063592287937 0 27.0 -0.7303063592287937 1
gene  1 5 25 2.7384966843394816 0 28.0 2.7384966843394816 1
gene  1 6 25 -0.8136282596388483 0 29.0 -0.8136282596388483 1
gene  1 7 25 1.6557400467041843 0 30.0 1.6557400467041843 1
gene  1 8 25 -0.10272216665437695 0 31.0 -0.10272216665437695 1
gene  1 9 25 -2.599582686708667 0 32.0 -2.599582686708667 0
gene  1 10 25 3.2318100928708824 0 33.0 3.2318100928708824 1
gene  1 11 25 -3.6068903319156176 0 34.0 -3.6068903319156176 1
gene  1 12 25 1.0931496925318682 0 35.0 1.0931496925318682 1
gene  1 13 25 -1.4524331055447313 0 36.0 -1.4524331055447313 1
gene  1 14 25 1.1962562414897049 0 37.0 1.1962562414897049 1
gene  1 15 25 1.3574593939704622 0 38.0 1.3574593939704622 1
gene  1 16 25 -0.7435723543371915 0 39.0 -0.7435723543371915 1
gene  1 17 25 0.10685763139210974 0 40.0 0.10685763139210974 1
gene  1 18 25 4.859230771984192 0 41.0 4.859230771984192 1
gene  1 19 25 -1.1615384274489577 0 42.0 -1.1615384274489577 1
gene  1 20 25 0.7699435570164137 0 43.0 0.7699435570164137 1
gene  1 21 25 1.5914245540589198 0 44.0 1.5914245540589198 1
gene  1 22 25 -1.2781255177909756 0 45.0 -1.2781255177909756 0
gene  1 23 25 -0.7513501945215515 0 46.0 -0.7513501945215515 1
gene  1 1 26 0.28872130438584354 0 47.0 0.28872130438584354 1
gene  1 2 26 -0.7558887490225221 0 48.0 -0.7558887490225221 1
gene  1 3 26 -1.9717009661055054 0 49.0 -1.9717009661055054 0
gene  1 4 26 -0.11601168547331997 0 50.0 -0.11601168547331997 1
gene  1 5 26 1.8070669877944332 0 51.0 1.8070669877944332 1
gene  1 6 26 -2.5736805405446255 0 52.0 -2.5736805405446255 0
gene  1 7 26 -0.6481459266648264 0 53.0 -0.6481459266648264 1
gene  1 8 26 -1.3111862509668493 0 54.0 -1.3111862509668493 1
gene  1 9 26 -0.39817909768716137 0 55.0 -0.39817909768716137 1
gene  1 10 26 0.864232505987978 0 56.0 0.864232505987978 1
gene  1 11 26 -0.9354654075527169 0 57.0 -0.9354654075527169 1
gene  1 12 26 -0.4713324273984612 0 58.0 -0.4713324273984612 1
gene  1 13 26 -0.46068200714099383 0 59.0 -0.46068200714099383 1
gene  1 14 26 -1.2149041798350178 0 60.0 -1.2149041798350178 1
gene  1 15 26 2.010179077298028 0 61.0 2.010179077298028 1
gene  1 16 26 1.2511368844215491 0 62.0 1.2511368844215491 1
gene  1 17 26 1.7569894201505865 0 63.0 1.7569894201505865 0
gene  1 18 26 3.6757837936151825 0 64.0 3.6757837936151825 1
gene  1 19 26 1.1499459596536665 0 65.0 1.1499459596536665 1
gene  1 20 26 -1.3363477460380702 0 66.0 -1.3363477460380702 1
gene  1 21 26 0.2468050944708864 0 67.0 0.2468050944708864 1
gene  1 22 26 1.7163726845848144 0 68.0 1.7163726845848144 1
gene  1 23 26 -2.0426484898477586 0 69.0 -2.0426484898477586 1
gene  1 1 27 -2.651710328240366 0 70.0 -2.651710328240366 1
gene  1 2 27 -0.4365861182073474 0 71.0 -0.4365861182073474 1
gene  1 3 27 -0.3446372216133187 0 72.0 -0.3446372216133187 1
gene  1 4 27 -0.985427536497237 0 73.0 -0.985427536497237 1
gene  1 5 27 2.6454025277354143 0 74.0 2.6454025277354143 1
gene  1 6 27 0.4587801134824314 0 75.0 0.4587801134824314 1
gene  1 7 27 0.05698883912582303 0 76.0 0.05698883912582303 1
gene  1 8 27 3.0849547719636705 0 77.0 3.0849547719636705 1
gene  1 9 27 -2.3134350012819693 0 78.0 -2.3134350012819693 1
gene  1 10 27 -1.5774119858597113 0 79.0 -1.5774119858597113 1
gene  1 11 27 -0.7337209344533269 0 80.0 -0.7337209344533269 1
gene  1 12 27 -1.278896851862501 0 81.0 -1.278896851862501 1
gene  1 13 27 -1.8944229468691027 0 82.0 -1.8944229468691027 1
gene  1 14 27 3.543869955004485 0 83.0 3.543869955004485 1
gene  1 15 27 -4.752314867773299 0 84.0 -4.752314867773299 1
gene  1 16 27 -1.9431593841144812 0 85.0 -1.9431593841144812 1
gene  1 17 27 1.2009148472295488 0 86.0 1.2009148472295488 1
gene  1 18 27 -0.676836998541397 0 87.0 -0.676836998541397 1
gene  1 19 27 -1.6401687274760122 0 88.0 -1.6401687274760122 1
gene  1 20 27 -0.882919479838151 0 89.0 -0.882919479838151 1
gene  1 21 27 -1.5593762137800158 0 90.0 -1.5593762137800158 1
gene  1 22 27 1.4631734715360554 0 91.0 1.4631734715360554 1
gene  1 23 27 0.3254464799101324 0 92.0 0.3254464799101324 1
gene  1 23 28 1.786537520018461 0 93.0 1.786537520018461 1
gene  1 24 28 1.5921428065902368 0 94.0 1.5921428065902368 1
gene  1 25 28 -0.05538910175020978 0 95.0 -0.05538910175020978 1
gene  1 26 28 -1.3279961804113336 0 96.0 -1.3279961804113336 1
gene  1 27 28 1.9006190683455888 0 97.0 1.9006190683455888 1
gene  1 23 29 1.745456101284244 0 98.0 1.745456101284244 1
gene  1 24 29 4.217064496446083 0 99.0 4.217064496446083 1
gene  1 25 29 1.0987685366782378 0 100.0 1.0987685366782378 1
gene  1 26 29 -0.08675537476178602 0 101.0 -0.08675537476178602 1
gene  1 27 29 2.0267987734301776 0 102.0 2.0267987734301776 1
gene  1 23 30 -1.215519258006093 0 103.0 -1.215519258006093 1
gene  1 24 30 2.4024542224114205 0 104.0 2.4024542224114205 1
gene  1 25 30 -0.8030212602218609 0 105.0 -0.8030212602218609 1
gene  1 26 30 0.108758532186424 0 106.0 0.108758532186424 1
gene  1 27 30 0.3896738036060575 0 107.0 0.3896738036060575 1
gene  1 23 31 -0.23475641995885144 0 108.0 -0.23475641995885144 1
gene  1 24 31 4.234015049298904 0 109.0 4.234015049298904 1
gene  1 25 31 -0.9528153654193499 0 110.0 -0.9528153654193499 1
gene  1 26 31 -1.7294069357683477 0 111.0 -1.7294069357683477 1
gene  1 27 31 -0.6246539629317833 0 112.0 -0.6246539629317833 1
gene  1 23 32 -3.4356321625634902 0 113.0 -3.4356321625634902 1
gene  1 24 32 0.45840606448091875 0 114.0 0.45840606448091875 1
gene  1 25 32 1.9775568992889845 0 115.0 1.9775568992889845 1
gene  1 26 32 2.2947778471090032 0 116.0 2.2947778471090032 1
gene  1 27 32 0.9304521777058978 0 117.0 0.9304521777058978 1
gene  1 7 30 -3.4295113625098 0 119.0 -3.4295113625098 1
gene  1 3 37 -1.1209052353995475 0 148.0 -1.1209052353995475 1
gene  1 37 26 -1.2841086552490235 0 149.0 -1.2841086552490235 1
gene  1 29 30 0.858434751915611 0 234.0 0.858434751915611 1
gene  1 6 60 1.0 0 243.0 0.0 1
gene  1 60 26 -2.5736805405446255 0 244.0 0.0 1
gene  1 7 60 0.3536047383216434 0 275.0 0.3536047383216434 1
gene  1 9 32 -3.7586797287122486 0 300.0 -3.7586797287122486 1
gene  1 1 28 3.358987685464289 0 339.0 3.358987685464289 1
gene  1 26 84 1.0 0 373.0 0.0 1
gene  1 84 29 -0.08675537476178602 0 374.0 0.0 1
gene  1 17 96 1.0 0 410.0 0.0 1
gene  1 96 26 1.7569894201505865 0 411.0 0.0 1
gene  1 25 60 8.711808837357589 0 432.0 8.711808837357589 1
gene  1 20 30 6.633821440057087 0 475.0 6.633821440057087 1
gene  1 9 118 1.0 0 511.0 0.0 1
gene  1 118 25 -2.599582686708667 0 512.0 0.0 1
gene  1 1 127 1.0 0 537.0 0.0 1
gene  1 127 27 -2.651710328240366 0 538.0 0.0 1
gene  1 26 138 1.0 0 575.0 0.0 1
gene  1 138 32 2.2947778471090032 0 576.0 0.0 1
gene  1 22 151 1.0 0 618.0 0.0 1
gene  1 151 25 -1.2781255177909756 0 619.0 0.0 1
genomeend 3
/* Organism # 004 Fitness:  0,000 Error:  0,000                      */
genomestart  4
trait 1 0.0 0.0 0.0 0.5880285187278544 0.0 0.0 0.0 0.0 
node 1 1 1 1
node 2 1 1 1
node 3 1 1 1
node 4 1 1 1
node 5 1 1 1
node 6 1 1 1
node 7 1 1 1
node 8 1 1 1
node 9 1 1 1
node 10 1 1 1
node 11 1 1 1
node 12 1 1 1
node 13 1 1 1
node 14 1 1 1
node 15 1 1 1
node 16 1 1 1
node 17 1 1 1
node 18 1 1 1
node 19 1 1 1
node 20 1 1 1
node 21 1 1 1
node 22 1 1 1
node 23 1 1 3
node 24 1 0 0
node 25 1 0 0
node 26 1 0 0
node 27 1 0 0
node 28 1 0 2
node 29 1 0 2
node 30 1 0 2
node 31 1 0 2
node 32 1 0 2
node 37 1 0 0
node 60 1 0 0
node 84 1 0 0
node 96 1 0 0
node 118 1 0 0
node 127 1 0 0
node 138 1 0 0
gene  1 1 24 0.5344584225327565 0 1.0 0.5344584225327565 1
gene  1 2 24 3.7154913810866015 0 2.0 3.7154913810866015 1
gene  1 3 24 0.04023868774870909 0 3.0 0.04023868774870909 1
gene  1 4 24 1.2829363046622348 0 4.0 1.2829363046622348 1
gene  1 5 24 -0.039924423331352266 0 5.0 -0.039924423331352266 1
gene  1 6 24 2.4472354211644785 0 6.0 2.4472354211644785 1
gene  1 7 24 1.3257483165840125 0 7.0 1.3257483165840125 1
gene  1 8 24 0.5080188594528512 0 8.0 0.5080188594528512 1
gene  1 9 24 -0.4913482602182785 0 9.0 -0.4913482602182785 1
gene  1 10 24 1.335357540583393 0 10.0 1.335357540583393 1
gene  1 11 24 0.5749181139356492 0 11.0 0.5749181139356492 1
gene  1 12 24 1.7712883794433378 0 12.0 1.7712883794433378 1
gene  1 13 24 1.8661669837895243 0 13.0 1.8661669837895243 1
gene  1 14 24 -1.3762239110451353 0 14.0 -1.3762239110451353 1
gene  1 15 24 -0.26926074802161115 0 15.0 -0.26926074802161115 1
gene  1 16 24 0.5103324430681042 0 16.0 0.5103324430681042 1
gene  1 17 24 -0.7266833221007302 0 17.0 -0.7266833221007302 1
gene  1 18 24 -3.2086329730691188 0 18.0 -3.2086329730691188 1
gene  1 19 24 0.21011382277239354 0 19.0 0.21011382277239354 1
gene  1 20 24 2.1537752672170267 0 20.0 2.1537752672170267 1
gene  1 21 24 -2.4070557058599364 0 21.0 -2.4070557058599364 1
gene  1 22 24 3.2218709963311256 0 22.0 3.2218709963311256 1
gene  1 23 24 3.8472703283578444 0 23.0 3.8472703283578444 1
gene  1 1 25 2.002084661305637 0 24.0 2.002084661305637 1
gene  1 2 25 1.7214030548899324 0 25.0 1.7214030548899324 1
gene  1 3 25 1.1307219600218543 0 26.0 1.1307219600218543 1
gene  1 4 25 -0.7303063592287937 0 27.0 -0.7303063592287937 1
gene  1 5 25 2.7384966843394816 0 28.0 2.7384966843394816 1
gene  1 6 25 -0.8136282596388483 0 29.0 -0.8136282596388483 1
gene  1 7 25 1.6557400467041843 0 30.0 1.6557400467041843 1
gene  1 8 25 -0.10272216665437695 0 31.0 -0.10272216665437695 1
gene  1 9 25 -2.599582686708667 0 32.0 -2.599582686708667 0
gene  1 10 25 3.2318100928708824 0 33.0 3.2318100928708824 1
gene  1 11 25 -3.6068903319156176 0 34.0 -3.6068903319156176 1
gene  1 12 25 1.0931496925318682 0 35.0 1.0931496925318682 1
gene  1 13 25 -1.4524331055447313 0 36.0 -1.4524331055447313 1
gene  1 14 25 1.1962562414897049 0 37.0 1.1962562414897049 1
gene  1 15 25 1.3574593939704622 0 38.0 1.3574593939704622 1
gene  1 16 25 -0.7435723543371915 0 39.0 -0.7435723543371915 1
gene  1 17 25 0.10685763139210974 0 40.0 0.10685763139210974 1
gene  1 18 25 4.859230771984192 0 41.0 4.859230771984192 1
gene  1 19 25 -1.1615384274489577 0 42.0 -1.1615384274489577 1
gene  1 20 25 0.7699435570164137 0 43.0 0.7699435570164137 1
gene  1 21 25 1.5914245540589198 0 44.0 1.5914245540589198 1
gene  1 22 25 -1.2781255177909756 0 45.0 -1.2781255177909756 1
gene  1 23 25 -0.7513501945215515 0 46.0 -0.7513501945215515 1
gene  1 1 26 0.28872130438584354 0 47.0 0.28872130438584354 1
gene  1 2 26 -0.7558887490225221 0 48.0 -0.7558887490225221 1
gene  1 3 26 -1.9717009661055054 0 49.0 -1.9717009661055054 0
gene  1 4 26 -0.11601168547331997 0 50.0 -0.11601168547331997 1
gene  1 5 26 1.8070669877944332 0 51.0 1.8070669877944332 1
gene  1 6 26 -2.5736805405446255 0 52.0 -2.5736805405446255 0
gene  1 7 26 -0.6481459266648264 0 53.0 -0.6481459266648264 1
gene  1 8 26 -1.3111862509668493 0 54.0 -1.3111862509668493 1
gene  1 9 26 -0.39817909768716137 0 55.0 -0.39817909768716137 1
gene  1 10 26 0.864232505987978 0 56.0 0.864232505987978 1
gene  1 11 26 -0.9354654075527169 0 57.0 -0.9354654075527169 1
gene  1 12 26 -0.4713324273984612 0 58.0 -0.4713324273984612 1
gene  1 13 26 -0.46068200714099383 0 59.0 -0.46068200714099383 1
gene  1 14 26 -1.2149041798350178 0 60.0 -1.2149041798350178 1
gene  1 15 26 2.010179077298028 0 61.0 2.010179077298028 1
gene  1 16 26 1.2511368844215491 0 62.0 1.2511368844215491 1
gene  1 17 26 1.7569894201505865 0 63.0 1.7569894201505865 0
gene  1 18 26 3.6757837936151825 0 64.0 3.6757837936151825 1
gene  1 19 26 1.1499459596536665 0 65.0 1.1499459596536665 1
gene  1 20 26 -1.3363477460380702 0 66.0 -1.3363477460380702 1
gene  1 21 26 0.2468050944708864 0 67.0 0.2468050944708864 1
gene  1 22 26 1.7163726845848144 0 68.0 1.7163726845848144 1
gene  1 23 26 -2.0426484898477586 0 69.0 -2.0426484898477586 1
gene  1 1 27 -2.651710328240366 0 70.0 -2.651710328240366 0
gene  1 2 27 -0.4365861182073474 0 71.0 -0.4365861182073474 1
gene  1 3 27 -0.3446372216133187 0 72.0 -0.3446372216133187 1
gene  1 4 27 -0.985427536497237 0 73.0 -0.985427536497237 1
gene  1 5 27 2.6454025277354143 0 74.0 2.6454025277354143 1
gene  1 6 27 0.4587801134824314 0 75.0 0.4587801134824314 1
gene  1 7 27 0.05698883912582303 0 76.0 0.05698883912582303 1
gene  1 8 27 3.0849547719636705 0 77.0 3.0849547719636705 1
gene  1 9 27 -2.3134350012819693 0 78.0 -2.3134350012819693 1
gene  1 10 27 -1.5774119858597113 0 79.0 -1.5774119858597113 1
gene  1 11 27 -0.7337209344533269 0 80.0 -0.7337209344533269 1
gene  1 12 27 -1.278896851862501 0 81.0 -1.278896851862501 1
gene  1 13 27 -1.8944229468691027 0 82.0 -1.8944229468691027 1
gene  1 14 27 3.543869955004485 0 83.0 3.543869955004485 1
gene  1 15 27 -4.752314867773299 0 84.0 -4.752314867773299 1
gene  1 16 27 -1.9431593841144812 0 85.0 -1.9431593841144812 1
gene  1 17 27 1.2009148472295488 0 86.0 1.2009148472295488 1
gene  1 18 27 -0.676836998541397 0 87.0 -0.676836998541397 1
gene  1 19 27 -1.6401687274760122 0 88.0 -1.6401687274760122 1
gene  1 20 27 -0.882919479838151 0 89.0 -0.882919479838151 1
gene  1 21 27 -1.5593762137800158 0 90.0 -1.5593762137800158 1
gene  1 22 27 1.4631734715360554 0 91.0 1.4631734715360554 1
gene  1 23 27 0.3254464799101324 0 92.0 0.3254464799101324 1
gene  1 23 28 1.786537520018461 0 93.0 1.786537520018461 1
gene  1 24 28 1.5921428065902368 0 94.0 1.5921428065902368 1
gene  1 25 28 -0.05538910175020978 0 95.0 -0.05538910175020978 1
gene  1 26 28 -1.3279961804113336 0 96.0 -1.3279961804113336 1
gene  1 27 28 1.9006190683455888 0 97.0 1.9006190683455888 1
gene  1 23 29 1.745456101284244 0 98.0 1.745456101284244 1
gene  1 24 29 4.217064496446083 0 99.0 4.217064496446083 1
gene  1 25 29 1.0987685366782378 0 100.0 1.0987685366782378 1
gene  1 26 29 -0.08675537476178602 0 101.0 -0.08675537476178602 0
gene  1 27 29 2.0267987734301776 0 102.0 2.0267987734301776 1
gene  1 23 30 -1.215519258006093 0 103.0 -1.215519258006093 1
gene  1 24 30 2.4024542224114205 0 104.0 2.4024542224114205 1
gene  1 25 30 -0.8030212602218609 0 105.0 -0.8030212602218609 1
gene  1 26 30 0.108758532186424 0 106.0 0.108758532186424 1
gene  1 27 30 0.3896738036060575 0 107.0 0.3896738036060575 1
gene  1 23 31 -0.23475641995885144 0 108.0 -0.23475641995885144 1
gene  1 24 31 4.234015049298904 0 109.0 4.234015049298904 1
gene  1 25 31 -0.9528153654193499 0 110.0 -0.9528153654193499 1
gene  1 26 31 -1.7294069357683477 0 111.0 -1.7294069357683477 1
gene  1 27 31 -0.6246539629317833 0 112.0 -0.6246539629317833 1
gene  1 23 32 -3.4356321625634902 0 113.0 -3.4356321625634902 1
gene  1 24 32 0.45840606448091875 0 114.0 0.45840606448091875 1
gene  1 25 32 1.9775568992889845 0 115.0 1.9775568992889845 1
gene  1 26 32 2.2947778471090032 0 116.0 2.2947778471090032 0
gene  1 27 32 0.9304521777058978 0 117.0 0.9304521777058978 1
gene  1 7 30 -3.4295113625098 0 119.0 -3.4295113625098 1
gene  1 3 37 -1.1209052353995475 0 148.0 -1.1209052353995475 1
gene  1 37 26 -1.2841086552490235 0 149.0 -1.2841086552490235 1
gene  1 29 30 0.858434751915611 0 234.0 0.858434751915611 1
gene  1 6 60 1.0 0 243.0 0.0 1
gene  1 60 26 -2.5736805405446255 0 244.0 0.0 1
gene  1 7 60 0.3536047383216434 0 275.0 0.3536047383216434 1
gene  1 9 32 -3.7586797287122486 0 300.0 -3.7586797287122486 1
gene  1 1 28 3.358987685464289 0 339.0 3.358987685464289 1
gene  1 26 84 1.0 0 373.0 0.0 1
gene  1 84 29 -0.08675537476178602 0 374.0 0.0 1
gene  1 17 96 1.0 0 410.0 0.0 1
gene  1 96 26 1.7569894201505865 0 411.0 0.0 1
gene  1 25 60 8.711808837357589 0 432.0 8.711808837357589 1
gene  1 20 30 6.633821440057087 0 475.0 6.633821440057087 1
gene  1 9 118 1.0 0 511.0 0.0 1
gene  1 118 25 -2.599582686708667 0 512.0 0.0 1
gene  1 1 127 1.0 0 537.0 0.0 1
gene  1 127 27 -2.651710328240366 0 538.0 0.0 1
gene  1 26 138 1.0 0 575.0 0.0 1
gene  1 138 32 2.2947778471090032 0 576.0 0.0 1
gene  1 118 24 8.975935701102376 0 620.0 8.975935701102376 1
genomeend 4
/* Organism # 005 Fitness:  0,000 Error:  0,000                      */
genomestart  5
trait 1 0.0 0.0 0.0 0.5880285187278544 0.0 0.0 0.0 0.0 
node 1 1 1 1
node 2 1 1 1
node 3 1 1 1
node 4 1 1 1
node 5 1 1 1
node 6 1 1 1
node 7 1 1 1
node 8 1 1 1
node 9 1 1 1
node 10 1 1 1
node 11 1 1 1
node 12 1 1 1
node 13 1 1 1
node 14 1 1 1
node 15 1 1 1
node 16 1 1 1
node 17 1 1 1
node 18 1 1 1
node 19 1 1 1
node 20 1 1 1
node 21 1 1 1
node 22 1 1 1
node 23 1 1 3
node 24 1 0 0
node 25 1 0 0
node 26 1 0 0
node 27 1 0 0
node 28 1 0 2
node 29 1 0 2
node 30 1 0 2
node 31 1 0 2
node 32 1 0 2
node 37 1 0 0
node 60 1 0 0
node 84 1 0 0
node 96 1 0 0
node 118 1 0 0
node 127 1 0 0
node 138 1 0 0
gene  1 1 24 0.5344584225327565 0 1.0 0.5344584225327565 1
gene  1 2 24 3.7154913810866015 0 2.0 3.7154913810866015 1
gene  1 3 24 0.04023868774870909 0 3.0 0.04023868774870909 1
gene  1 4 24 1.2829363046622348 0 4.0 1.2829363046622348 1
gene  1 5 24 -0.039924423331352266 0 5.0 -0.039924423331352266 1
gene  1 6 24 2.4472354211644785 0 6.0 2.4472354211644785 1
gene  1 7 24 1.3257483165840125 0 7.0 1.3257483165840125 1
gene  1 8 24 0.5080188594528512 0 8.0 0.5080188594528512 1
gene  1 9 24 -0.4913482602182785 0 9.0 -0.4913482602182785 1
gene  1 10 24 1.335357540583393 0 10.0 1.335357540583393 1
gene  1 11 24 0.5749181139356492 0 11.0 0.5749181139356492 1
gene  1 12 24 1.7712883794433378 0 12.0 1.7712883794433378 1
gene  1 13 24 1.8661669837895243 0 13.0 1.8661669837895243 1
gene  1 14 24 -1.3762239110451353 0 14.0 -1.3762239110451353 1
gene  1 15 24 -0.26926074802161115 0 15.0 -0.26926074802161115 1
gene  1 16 24 0.5103324430681042 0 16.0 0.5103324430681042 1
gene  1 17 24 -0.7266833221007302 0 17.0 -0.7266833221007302 1
gene  1 18 24 -3.2086329730691188 0 18.0 -3.2086329730691188 1
gene  1 19 24 0.21011382277239354 0 19.0 0.21011382277239354 1
gene  1 20 24 2.1537752672170267 0 20.0 2.1537752672170267 1
gene  1 21 24 -2.4070557058599364 0 21.0 -2.4070557058599364 1
gene  1 22 24 3.2218709963311256 0 22.0 3.2218709963311256 1
gene  1 23 24 3.8472703283578444 0 23.0 3.8472703283578444 1
gene  1 1 25 2.002084661305637 0 24.0 2.002084661305637 1
gene  1 2 25 1.7214030548899324 0 25.0 1.7214030548899324 1
gene  1 3 25 1.1307219600218543 0 26.0 1.1307219600218543 1
gene  1 4 25 -0.7303063592287937 0 27.0 -0.7303063592287937 1
gene  1 5 25 2.7384966843394816 0 28.0 2.7384966843394816 1
gene  1 6 25 -0.8136282596388483 0 29.0 -0.8136282596388483 1
gene  1 7 25 1.6557400467041843 0 30.0 1.6557400467041843 1
gene  1 8 25 -0.10272216665437695 0 31.0 -0.10272216665437695 1
gene  1 9 25 -2.599582686708667 0 32.0 -2.599582686708667 0
gene  1 10 25 3.2318100928708824 0 33.0 3.2318100928708824 1
gene  1 11 25 -3.6068903319156176 0 34.0 -3.6068903319156176 1
gene  1 12 25 1.0931496925318682 0 35.0 1.0931496925318682 1
gene  1 13 25 -1.4524331055447313 0 36.0 -1.4524331055447313 1
gene  1 14 25 1.1962562414897049 0 37.0 1.1962562414897049 1
gene  1 15 25 1.3574593939704622 0 38.0 1.3574593939704622 1
gene  1 16 25 -0.7435723543371915 0 39.0 -0.7435723543371915 1
gene  1 17 25 0.10685763139210974 0 40.0 0.10685763139210974 1
gene  1 18 25 4.859230771984192 0 41.0 4.859230771984192 1
gene  1 19 25 -1.1615384274489577 0 42.0 -1.1615384274489577 1
gene  1 20 25 0.7699435570164137 0 43.0 0.7699435570164137 1
gene  1 21 25 1.5914245540589198 0 44.0 1.5914245540589198 1
gene  1 22 25 -1.2781255177909756 0 45.0 -1.2781255177909756 1
gene  1 23 25 -0.7513501945215515 0 46.0 -0.7513501945215515 1
gene  1 1 26 0.28872130438584354 0 47.0 0.28872130438584354 1
gene  1 2 26 -0.7558887490225221 0 48.0 -0.7558887490225221 1
gene  1 3 26 -1.9717009661055054 0 49.0 -1.9717009661055054 0
gene  1 4 26 -0.11601168547331997 0 50.0 -0.11601168547331997 1
gene  1 5 26 1.8070669877944332 0 51.0 1.8070669877944332 1
gene  1 6 26 -2.5736805405446255 0 52.0 -2.5736805405446255 0
gene  1 7 26 -0.6481459266648264 0 53.0 -0.6481459266648264 1
gene  1 8 26 -1.3111862509668493 0 54.0 -1.3111862509668493 1
gene  1 9 26 -0.39817909768716137 0 55.0 -0.39817909768716137 1
gene  1 10 26 0.864232505987978 0 56.0 0.864232505987978 1
gene  1 11 26 -0.9354654075527169 0 57.0 -0.9354654075527169 1
gene  1 12 26 -0.4713324273984612 0 58.0 -0.4713324273984612 1
gene  1 13 26 -0.46068200714099383 0 59.0 -0.46068200714099383 1
gene  1 14 26 -1.2149041798350178 0 60.0 -1.2149041798350178 1
gene  1 15 26 2.010179077298028 0 61.0 2.010179077298028 1
gene  1 16 26 1.2511368844215491 0 62.0 1.2511368844215491 1
gene  1 17 26 1.7569894201505865 0 63.0 1.7569894201505865 0
gene  1 18 26 3.6757837936151825 0 64.0 3.6757837936151825 1
gene  1 19 26 1.1499459596536665 0 65.0 1.1499459596536665 1
gene  1 20 26 -1.3363477460380702 0 66.0 -1.3363477460380702 1
gene  1 21 26 0.2468050944708864 0 67.0 0.2468050944708864 1
gene  1 22 26 1.7163726845848144 0 68.0 1.7163726845848144 1
gene  1 23 26 -2.0426484898477586 0 69.0 -2.0426484898477586 1
gene  1 1 27 -2.651710328240366 0 70.0 -2.651710328240366 0
gene  1 2 27 -0.4365861182073474 0 71.0 -0.4365861182073474 1
gene  1 3 27 -0.3446372216133187 0 72.0 -0.3446372216133187 1
gene  1 4 27 -0.985427536497237 0 73.0 -0.985427536497237 1
gene  1 5 27 2.6454025277354143 0 74.0 2.6454025277354143 1
gene  1 6 27 0.4587801134824314 0 75.0 0.4587801134824314 1
gene  1 7 27 0.05698883912582303 0 76.0 0.05698883912582303 1
gene  1 8 27 3.0849547719636705 0 77.0 3.0849547719636705 1
gene  1 9 27 -2.3134350012819693 0 78.0 -2.3134350012819693 1
gene  1 10 27 -1.5774119858597113 0 79.0 -1.5774119858597113 1
gene  1 11 27 -0.7337209344533269 0 80.0 -0.7337209344533269 1
gene  1 12 27 -1.278896851862501 0 81.0 -1.278896851862501 1
gene  1 13 27 -1.8944229468691027 0 82.0 -1.8944229468691027 1
gene  1 14 27 3.543869955004485 0 83.0 3.543869955004485 1
gene  1 15 27 -4.752314867773299 0 84.0 -4.752314867773299 1
gene  1 16 27 -1.9431593841144812 0 85.0 -1.9431593841144812 1
gene  1 17 27 1.2009148472295488 0 86.0 1.2009148472295488 1
gene  1 18 27 -0.676836998541397 0 87.0 -0.676836998541397 1
gene  1 19 27 -1.6401687274760122 0 88.0 -1.6401687274760122 1
gene  1 20 27 -0.882919479838151 0 89.0 -0.882919479838151 1
gene  1 21 27 -1.5593762137800158 0 90.0 -1.5593762137800158 1
gene  1 22 27 1.4631734715360554 0 91.0 1.4631734715360554 1
gene  1 23 27 0.3254464799101324 0 92.0 0.3254464799101324 1
gene  1 23 28 1.786537520018461 0 93.0 1.786537520018461 1
gene  1 24 28 1.5921428065902368 0 94.0 1.5921428065902368 1
gene  1 25 28 -0.05538910175020978 0 95.0 -0.05538910175020978 1
gene  1 26 28 -1.3279961804113336 0 96.0 -1.3279961804113336 1
gene  1 27 28 1.9006190683455888 0 97.0 1.9006190683455888 1
gene  1 23 29 1.745456101284244 0 98.0 1.745456101284244 1
gene  1 24 29 4.217064496446083 0 99.0 4.217064496446083 1
gene  1 25 29 1.0987685366782378 0 100.0 1.0987685366782378 1
gene  1 26 29 -0.08675537476178602 0 101.0 -0.08675537476178602 0
gene  1 27 29 2.0267987734301776 0 102.0 2.0267987734301776 1
gene  1 23 30 -1.215519258006093 0 103.0 -1.215519258006093 1
gene  1 24 30 2.4024542224114205 0 104.0 2.4024542224114205 1
gene  1 25 30 -0.8030212602218609 0 105.0 -0.8030212602218609 1
gene  1 26 30 0.108758532186424 0 106.0 0.108758532186424 1
gene  1 27 30 0.3896738036060575 0 107.0 0.3896738036060575 1
gene  1 23 31 -0.23475641995885144 0 108.0 -0.23475641995885144 1
gene  1 24 31 4.234015049298904 0 109.0 4.234015049298904 1
gene  1 25 31 -0.9528153654193499 0 110.0 -0.9528153654193499 1
gene  1 26 31 -1.7294069357683477 0 111.0 -1.7294069357683477 1
gene  1 27 31 -0.6246539629317833 0 112.0 -0.6246539629317833 1
gene  1 23 32 -3.4356321625634902 0 113.0 -3.4356321625634902 1
gene  1 24 32 0.45840606448091875 0 114.0 0.45840606448091875 1
gene  1 25 32 1.9775568992889845 0 115.0 1.9775568992889845 1
gene  1 26 32 2.2947778471090032 0 116.0 2.2947778471090032 0
gene  1 27 32 0.9304521777058978 0 117.0 0.9304521777058978 1
gene  1 7 30 -3.4295113625098 0 119.0 -3.4295113625098 1
gene  1 3 37 -1.1209052353995475 0 148.0 -1.1209052353995475 1
gene  1 37 26 -1.2841086552490235 0 149.0 -1.2841086552490235 1
gene  1 29 30 0.858434751915611 0 234.0 0.858434751915611 1
gene  1 6 60 1.0 0 243.0 0.0 1
gene  1 60 26 -2.5736805405446255 0 244.0 0.0 1
gene  1 7 60 0.3536047383216434 0 275.0 0.3536047383216434 1
gene  1 9 32 -3.7586797287122486 0 300.0 -3.7586797287122486 1
gene  1 1 28 3.358987685464289 0 339.0 3.358987685464289 1
gene  1 26 84 1.0 0 373.0 0.0 1
gene  1 84 29 -0.08675537476178602 0 374.0 0.0 1
gene  1 17 96 1.0 0 410.0 0.0 1
gene  1 96 26 1.7569894201505865 0 411.0 0.0 1
gene  1 25 60 8.711808837357589 0 432.0 8.711808837357589 1
gene  1 20 30 6.633821440057087 0 475.0 6.633821440057087 1
gene  1 9 118 1.0 0 511.0 0.0 1
gene  1 118 25 -2.599582686708667 0 512.0 0.0 1
gene  1 1 127 1.0 0 537.0 0.0 1
gene  1 127 27 -2.651710328240366 0 538.0 0.0 1
gene  1 26 138 1.0 0 575.0 0.0 1
gene  1 138 32 2.2947778471090032 0 576.0 0.0 1
gene  1 17 84 0.8355724997958214 0 621.0 0.8355724997958214 1
genomeend 5
/*-------------------------------------------------------------------*/
/* Species # 006         : (size= 002) (AvfFit= 771,667) (Age= 15,000)  */
/*-------------------------------------------------------------------*/
/* Organism # 006 Fitness:  0,000 Error:  0,000                      */
genomestart  6
trait 1 0.0 0.0 0.0 0.0 0.0 0.0 0.0 0.0 
node 1 1 1 1
node 2 1 1 1
node 3 1 1 1
node 4 1 1 1
node 5 1 1 1
node 6 1 1 1
node 7 1 1 1
node 8 1 1 1
node 9 1 1 1
node 10 1 1 1
node 11 1 1 1
node 12 1 1 1
node 13 1 1 1
node 14 1 1 1
node 15 1 1 1
node 16 1 1 1
node 17 1 1 1
node 18 1 1 1
node 19 1 1 1
node 20 1 1 1
node 21 1 1 1
node 22 1 1 1
node 23 1 1 3
node 24 1 0 0
node 25 1 0 0
node 26 1 0 0
node 27 1 0 0
node 28 1 0 2
node 29 1 0 2
node 30 1 0 2
node 31 1 0 2
node 32 1 0 2
node 41 1 0 0
node 64 1 0 0
node 94 1 0 0
node 106 1 0 0
node 115 1 0 0
gene  1 1 24 1.2312165486196132 0 1.0 1.2312165486196132 1
gene  1 2 24 0.2943417703893493 0 2.0 0.2943417703893493 1
gene  1 3 24 0.9768730828026307 0 3.0 0.9768730828026307 1
gene  1 4 24 0.7190938738133004 0 4.0 0.7190938738133004 1
gene  1 5 24 0.2193871465817846 0 5.0 0.2193871465817846 1
gene  1 6 24 -1.2190229282840368 0 6.0 -1.2190229282840368 1
gene  1 7 24 -0.5142050575864869 0 7.0 -0.5142050575864869 1
gene  1 8 24 -0.22314417003607223 0 8.0 -0.22314417003607223 1
gene  1 9 24 -1.2774801206737818 0 9.0 -1.2774801206737818 1
gene  1 10 24 -0.061981137291826416 0 10.0 -0.061981137291826416 1
gene  1 11 24 -1.8754683064771336 0 11.0 -1.8754683064771336 1
gene  1 12 24 -0.8352780737920857 0 12.0 -0.8352780737920857 1
gene  1 13 24 0.3786865890716914 0 13.0 0.3786865890716914 1
gene  1 14 24 -1.2996289593588346 0 14.0 -1.2996289593588346 1
gene  1 15 24 -0.4394419827094279 0 15.0 -0.4394419827094279 1
gene  1 16 24 -0.9828005786152946 0 16.0 -0.9828005786152946 1
gene  1 17 24 0.8439302873292484 0 17.0 0.8439302873292484 1
gene  1 18 24 -0.5003228008237368 0 18.0 -0.5003228008237368 1
gene  1 19 24 0.42906791099393093 0 19.0 0.42906791099393093 1
gene  1 20 24 -0.279050255056314 0 20.0 -0.279050255056314 1
gene  1 21 24 0.7971477858202961 0 21.0 0.7971477858202961 1
gene  1 22 24 0.44437368780243347 0 22.0 0.44437368780243347 1
gene  1 23 24 0.26161789908998523 0 23.0 0.26161789908998523 1
gene  1 1 25 0.10054008097120759 0 24.0 0.10054008097120759 1
gene  1 2 25 -0.7878487289820982 0 25.0 -0.7878487289820982 1
gene  1 3 25 0.3178900122792382 0 26.0 0.3178900122792382 1
gene  1 4 25 1.6053589222054816 0 27.0 1.6053589222054816 1
gene  1 5 25 0.6655940683000792 0 28.0 0.6655940683000792 1
gene  1 6 25 0.6713920698456602 0 29.0 0.6713920698456602 1
gene  1 7 25 1.3277615461432168 0 30.0 1.3277615461432168 1
gene  1 8 25 0.36520320551942587 0 31.0 0.36520320551942587 1
gene  1 9 25 0.03163230903441061 0 32.0 0.03163230903441061 1
gene  1 10 25 -0.32363480882475815 0 33.0 -0.32363480882475815 1
gene  1 11 25 -0.14811838172030833 0 34.0 -0.14811838172030833 1
gene  1 12 25 -0.8279337408449059 0 35.0 -0.8279337408449059 1
gene  1 13 25 0.9032761352275851 0 36.0 0.9032761352275851 0
gene  1 14 25 -0.7252077211755625 0 37.0 -0.7252077211755625 1
gene  1 15 25 0.513846377852861 0 38.0 0.513846377852861 1
gene  1 16 25 0.24619408517709418 0 39.0 0.24619408517709418 1
gene  1 17 25 0.26918302126451565 0 40.0 0.26918302126451565 1
gene  1 18 25 0.13758136667140886 0 41.0 0.13758136667140886 1
gene  1 19 25 -1.09002239413288 0 42.0 -1.09002239413288 1
gene  1 20 25 -0.14370295320725146 0 43.0 -0.14370295320725146 1
gene  1 21 25 0.026107610571694195 0 44.0 0.026107610571694195 1
gene  1 22 25 0.6375280702565544 0 45.0 0.6375280702565544 1
gene  1 23 25 -0.1535055845213147 0 46.0 -0.1535055845213147 1
gene  1 1 26 0.8142807796554197 0 47.0 0.8142807796554197 1
gene  1 2 26 -0.39390293855829195 0 48.0 -0.39390293855829195 1
gene  1 3 26 0.2192327042112956 0 49.0 0.2192327042112956 1
gene  1 4 26 -0.039536585646890776 0 50.0 -0.039536585646890776 1
gene  1 5 26 0.15845520107731348 0 51.0 0.15845520107731348 1
gene  1 6 26 0.4934168506036096 0 52.0 0.4934168506036096 1
gene  1 7 26 0.4652367928451112 0 53.0 0.4652367928451112 1
gene  1 8 26 1.0425486853004693 0 54.0 1.0425486853004693 1
gene  1 9 26 -0.09817687332785252 0 55.0 -0.09817687332785252 1
gene  1 10 26 0.32665065714753583 0 56.0 0.32665065714753583 1
gene  1 11 26 -0.15122594935712041 0 57.0 -0.15122594935712041 1
gene  1 12 26 -1.2380680297106355 0 58.0 -1.2380680297106355 1
gene  1 13 26 -1.1497147342250744 0 59.0 -1.1497147342250744 1
gene  1 14 26 0.12161071262796341 0 60.0 0.12161071262796341 1
gene  1 15 26 -0.17680893641803608 0 61.0 -0.17680893641803608 1
gene  1 16 26 -0.791386169792078 0 62.0 -0.791386169792078 1
gene  1 17 26 -1.8741289752294499 0 63.0 -1.8741289752294499 1
gene  1 18 26 1.383833449305893 0 64.0 1.383833449305893 1
gene  1 19 26 -0.6732585382207215 0 65.0 -0.6732585382207215 1
gene  1 20 26 -1.5322371811975914 0 66.0 -1.5322371811975914 1
gene  1 21 26 -0.6011943406814789 0 67.0 -0.6011943406814789 0
gene  1 22 26 -0.49269467837624203 0 68.0 -0.49269467837624203 1
gene  1 23 26 0.8063967284496234 0 69.0 0.8063967284496234 1
gene  1 1 27 0.8888809161788437 0 70.0 0.8888809161788437 1
gene  1 2 27 0.057231611804800075 0 71.0 0.057231611804800075 1
gene  1 3 27 -0.7537579524589648 0 72.0 -0.7537579524589648 1
gene  1 4 27 -0.9146103866804254 0 73.0 -0.9146103866804254 1
gene  1 5 27 0.6171496058674454 0 74.0 0.6171496058674454 1
gene  1 6 27 0.3801129243519664 0 75.0 0.3801129243519664 1
gene  1 7 27 -0.7640275931549552 0 76.0 -0.7640275931549552 1
gene  1 8 27 -0.18813295835071364 0 77.0 -0.18813295835071364 1
gene  1 9 27 -1.9187213097045306 0 78.0 -1.9187213097045306 1
gene  1 10 27 -0.1290302600119101 0 79.0 -0.1290302600119101 1
gene  1 11 27 0.9976973640981855 0 80.0 0.9976973640981855 1
gene  1 12 27 0.899246905429198 0 81.0 0.899246905429198 1
gene  1 13 27 -1.388211834895136 0 82.0 -1.388211834895136 1
gene  1 14 27 -0.7717304869244548 0 83.0 -0.7717304869244548 1
gene  1 15 27 0.22240849919840733 0 84.0 0.22240849919840733 1
gene  1 16 27 -0.05943808509335313 0 85.0 -0.05943808509335313 1
gene  1 17 27 -0.12842472365656687 0 86.0 -0.12842472365656687 1
gene  1 18 27 -1.302705171792284 0 87.0 -1.302705171792284 1
gene  1 19 27 -0.14638372952830747 0 88.0 -0.14638372952830747 1
gene  1 20 27 -0.5906148961905668 0 89.0 -0.5906148961905668 1
gene  1 21 27 -0.17964977582173292 0 90.0 -0.17964977582173292 1
gene  1 22 27 -0.949361293601554 0 91.0 -0.949361293601554 1
gene  1 23 27 -0.4681839293419573 0 92.0 -0.4681839293419573 1
gene  1 23 28 0.8033044629612648 0 93.0 0.8033044629612648 1
gene  1 24 28 -0.7890399336314475 0 94.0 -0.7890399336314475 1
gene  1 25 28 1.8262758060165305 0 95.0 1.8262758060165305 1
gene  1 26 28 0.17501160774252855 0 96.0 0.17501160774252855 1
gene  1 27 28 0.025667614407639316 0 97.0 0.025667614407639316 1
gene  1 23 29 0.7153214047980212 0 98.0 0.7153214047980212 1
gene  1 24 29 0.2719297805451669 0 99.0 0.2719297805451669 1
gene  1 25 29 1.4043718483637888 0 100.0 1.4043718483637888 1
gene  1 26 29 0.4097104276707447 0 101.0 0.4097104276707447 1
gene  1 27 29 -0.6385734633319076 0 102.0 -0.6385734633319076 1
gene  1 23 30 -0.6882265393106782 0 103.0 -0.6882265393106782 1
gene  1 24 30 0.6067332817364671 0 104.0 0.6067332817364671 1
gene  1 25 30 1.4556598615122032 0 105.0 1.4556598615122032 1
gene  1 26 30 0.12126895369514501 0 106.0 0.12126895369514501 1
gene  1 27 30 1.5617013094816454 0 107.0 1.5617013094816454 1
gene  1 23 31 0.1310098095354194 0 108.0 0.1310098095354194 1
gene  1 24 31 -0.3722719413644936 0 109.0 -0.3722719413644936 1
gene  1 25 31 -1.124311163632509 0 110.0 -1.124311163632509 1
gene  1 26 31 1.2311397290855202 0 111.0 1.2311397290855202 1
gene  1 27 31 -0.17944237183508316 0 112.0 -0.17944237183508316 1
gene  1 23 32 -0.5146658738841081 0 113.0 -0.5146658738841081 1
gene  1 24 32 -0.09084391994955765 0 114.0 -0.09084391994955765 1
gene  1 25 32 -0.6136031702466314 0 115.0 -0.6136031702466314 1
gene  1 26 32 -0.9650914252775176 0 116.0 -0.9650914252775176 1
gene  1 27 32 0.022760341376820814 0 117.0 0.022760341376820814 0
gene  1 15 28 4.137678267967808 0 145.0 4.137678267967808 1
gene  1 24 41 1.0 0 162.0 0.0 1
gene  1 41 29 0.2719297805451669 0 163.0 0.0 1
gene  1 11 28 7.348383131584669 0 192.0 0.0 1
gene  1 27 64 1.0 0 255.0 0.0 1
gene  1 64 32 0.022760341376820814 0 256.0 0.0 1
gene  1 11 41 3.4009995286746255 0 285.0 3.4009995286746255 1
gene  1 16 30 2.1866580192833074 0 316.0 2.1866580192833074 1
gene  1 3 32 5.8549029482121 0 356.0 5.8549029482121 1
gene  1 13 29 4.185615753707877 0 370.0 4.185615753707877 1
gene  1 13 94 1.0 0 401.0 0.0 1
gene  1 94 25 0.9032761352275851 0 402.0 0.0 1
gene  1 5 106 1.0 0 458.0 0.0 1
gene  1 106 27 0.6171496058674454 0 459.0 0.0 1
gene  1 21 115 1.0 0 495.0 0.0 1
gene  1 115 26 -0.6011943406814789 0 496.0 0.0 1
genomeend 6
/* Organism # 007 Fitness:  0,000 Error:  0,000                      */
genomestart  7
trait 1 0.0 0.0 0.0 0.0 0.0 0.0 0.0 0.0 
node 1 1 1 1
node 2 1 1 1
node 3 1 1 1
node 4 1 1 1
node 5 1 1 1
node 6 1 1 1
node 7 1 1 1
node 8 1 1 1
node 9 1 1 1
node 10 1 1 1
node 11 1 1 1
node 12 1 1 1
node 13 1 1 1
node 14 1 1 1
node 15 1 1 1
node 16 1 1 1
node 17 1 1 1
node 18 1 1 1
node 19 1 1 1
node 20 1 1 1
node 21 1 1 1
node 22 1 1 1
node 23 1 1 3
node 24 1 0 0
node 25 1 0 0
node 26 1 0 0
node 27 1 0 0
node 28 1 0 2
node 29 1 0 2
node 30 1 0 2
node 31 1 0 2
node 32 1 0 2
node 41 1 0 0
node 64 1 0 0
node 94 1 0 0
node 106 1 0 0
node 115 1 0 0
node 144 1 0 0
gene  1 1 24 1.2312165486196132 0 1.0 1.2312165486196132 1
gene  1 2 24 0.2943417703893493 0 2.0 0.2943417703893493 1
gene  1 3 24 0.9768730828026307 0 3.0 0.9768730828026307 1
gene  1 4 24 0.7190938738133004 0 4.0 0.7190938738133004 1
gene  1 5 24 0.2193871465817846 0 5.0 0.2193871465817846 1
gene  1 6 24 -1.2190229282840368 0 6.0 -1.2190229282840368 1
gene  1 7 24 -0.5142050575864869 0 7.0 -0.5142050575864869 1
gene  1 8 24 -0.22314417003607223 0 8.0 -0.22314417003607223 1
gene  1 9 24 -1.2774801206737818 0 9.0 -1.2774801206737818 1
gene  1 10 24 -0.061981137291826416 0 10.0 -0.061981137291826416 1
gene  1 11 24 -1.8754683064771336 0 11.0 -1.8754683064771336 1
gene  1 12 24 -0.8352780737920857 0 12.0 -0.8352780737920857 1
gene  1 13 24 0.3786865890716914 0 13.0 0.3786865890716914 1
gene  1 14 24 -1.2996289593588346 0 14.0 -1.2996289593588346 1
gene  1 15 24 -0.4394419827094279 0 15.0 -0.4394419827094279 1
gene  1 16 24 -0.9828005786152946 0 16.0 -0.9828005786152946 1
gene  1 17 24 0.8439302873292484 0 17.0 0.8439302873292484 1
gene  1 18 24 -0.5003228008237368 0 18.0 -0.5003228008237368 1
gene  1 19 24 0.42906791099393093 0 19.0 0.42906791099393093 1
gene  1 20 24 -0.279050255056314 0 20.0 -0.279050255056314 1
gene  1 21 24 0.7971477858202961 0 21.0 0.7971477858202961 1
gene  1 22 24 0.44437368780243347 0 22.0 0.44437368780243347 1
gene  1 23 24 0.26161789908998523 0 23.0 0.26161789908998523 1
gene  1 1 25 0.10054008097120759 0 24.0 0.10054008097120759 1
gene  1 2 25 -0.7878487289820982 0 25.0 -0.7878487289820982 1
gene  1 3 25 0.3178900122792382 0 26.0 0.3178900122792382 1
gene  1 4 25 1.6053589222054816 0 27.0 1.6053589222054816 1
gene  1 5 25 0.6655940683000792 0 28.0 0.6655940683000792 1
gene  1 6 25 0.6713920698456602 0 29.0 0.6713920698456602 1
gene  1 7 25 1.3277615461432168 0 30.0 1.3277615461432168 1
gene  1 8 25 0.36520320551942587 0 31.0 0.36520320551942587 1
gene  1 9 25 0.03163230903441061 0 32.0 0.03163230903441061 1
gene  1 10 25 -0.32363480882475815 0 33.0 -0.32363480882475815 1
gene  1 11 25 -0.14811838172030833 0 34.0 -0.14811838172030833 1
gene  1 12 25 -0.8279337408449059 0 35.0 -0.8279337408449059 1
gene  1 13 25 0.9032761352275851 0 36.0 0.9032761352275851 0
gene  1 14 25 -0.7252077211755625 0 37.0 -0.7252077211755625 1
gene  1 15 25 0.513846377852861 0 38.0 0.513846377852861 1
gene  1 16 25 0.24619408517709418 0 39.0 0.24619408517709418 1
gene  1 17 25 0.26918302126451565 0 40.0 0.26918302126451565 1
gene  1 18 25 0.13758136667140886 0 41.0 0.13758136667140886 1
gene  1 19 25 -1.09002239413288 0 42.0 -1.09002239413288 1
gene  1 20 25 -0.14370295320725146 0 43.0 -0.14370295320725146 1
gene  1 21 25 0.026107610571694195 0 44.0 0.026107610571694195 1
gene  1 22 25 0.6375280702565544 0 45.0 0.6375280702565544 1
gene  1 23 25 -0.1535055845213147 0 46.0 -0.1535055845213147 1
gene  1 1 26 0.8142807796554197 0 47.0 0.8142807796554197 1
gene  1 2 26 -0.39390293855829195 0 48.0 -0.39390293855829195 1
gene  1 3 26 0.2192327042112956 0 49.0 0.2192327042112956 1
gene  1 4 26 -0.039536585646890776 0 50.0 -0.039536585646890776 1
gene  1 5 26 0.15845520107731348 0 51.0 0.15845520107731348 1
gene  1 6 26 0.4934168506036096 0 52.0 0.4934168506036096 1
gene  1 7 26 0.4652367928451112 0 53.0 0.4652367928451112 1
gene  1 8 26 1.0425486853004693 0 54.0 1.0425486853004693 1
gene  1 9 26 -0.09817687332785252 0 55.0 -0.09817687332785252 1
gene  1 10 26 0.32665065714753583 0 56.0 0.32665065714753583 1
gene  1 11 26 -0.15122594935712041 0 57.0 -0.15122594935712041 1
gene  1 12 26 -1.2380680297106355 0 58.0 -1.2380680297106355 1
gene  1 13 26 -1.1497147342250744 0 59.0 -1.1497147342250744 1
gene  1 14 26 0.12161071262796341 0 60.0 0.12161071262796341 1
gene  1 15 26 -0.17680893641803608 0 61.0 -0.17680893641803608 1
gene  1 16 26 -0.791386169792078 0 62.0 -0.791386169792078 1
gene  1 17 26 -1.8741289752294499 0 63.0 -1.8741289752294499 1
gene  1 18 26 1.383833449305893 0 64.0 1.383833449305893 1
gene  1 19 26 -0.6732585382207215 0 65.0 -0.6732585382207215 1
gene  1 20 26 -1.5322371811975914 0 66.0 -1.5322371811975914 1
gene  1 21 26 -0.6011943406814789 0 67.0 -0.6011943406814789 0
gene  1 22 26 -0.49269467837624203 0 68.0 -0.49269467837624203 1
gene  1 23 26 0.8063967284496234 0 69.0 0.8063967284496234 1
gene  1 1 27 0.8888809161788437 0 70.0 0.8888809161788437 1
gene  1 2 27 0.057231611804800075 0 71.0 0.057231611804800075 1
gene  1 3 27 -0.7537579524589648 0 72.0 -0.7537579524589648 1
gene  1 4 27 -0.9146103866804254 0 73.0 -0.9146103866804254 1
gene  1 5 27 0.6171496058674454 0 74.0 0.6171496058674454 1
gene  1 6 27 0.3801129243519664 0 75.0 0.3801129243519664 1
gene  1 7 27 -0.7640275931549552 0 76.0 -0.7640275931549552 1
gene  1 8 27 -0.18813295835071364 0 77.0 -0.18813295835071364 1
gene  1 9 27 -1.9187213097045306 0 78.0 -1.9187213097045306 1
gene  1 10 27 -0.1290302600119101 0 79.0 -0.1290302600119101 1
gene  1 11 27 0.9976973640981855 0 80.0 0.9976973640981855 1
gene  1 12 27 0.899246905429198 0 81.0 0.899246905429198 1
gene  1 13 27 -1.388211834895136 0 82.0 -1.388211834895136 1
gene  1 14 27 -0.7717304869244548 0 83.0 -0.7717304869244548 1
gene  1 15 27 0.22240849919840733 0 84.0 0.22240849919840733 1
gene  1 16 27 -0.05943808509335313 0 85.0 -0.05943808509335313 1
gene  1 17 27 -0.12842472365656687 0 86.0 -0.12842472365656687 1
gene  1 18 27 -1.302705171792284 0 87.0 -1.302705171792284 1
gene  1 19 27 -0.14638372952830747 0 88.0 -0.14638372952830747 1
gene  1 20 27 -0.5906148961905668 0 89.0 -0.5906148961905668 1
gene  1 21 27 -0.17964977582173292 0 90.0 -0.17964977582173292 1
gene  1 22 27 -0.949361293601554 0 91.0 -0.949361293601554 1
gene  1 23 27 -0.4681839293419573 0 92.0 -0.4681839293419573 1
gene  1 23 28 0.8033044629612648 0 93.0 0.8033044629612648 1
gene  1 24 28 -0.7890399336314475 0 94.0 -0.7890399336314475 1
gene  1 25 28 1.8262758060165305 0 95.0 1.8262758060165305 1
gene  1 26 28 0.17501160774252855 0 96.0 0.17501160774252855 1
gene  1 27 28 0.025667614407639316 0 97.0 0.025667614407639316 1
gene  1 23 29 0.7153214047980212 0 98.0 0.7153214047980212 1
gene  1 24 29 0.2719297805451669 0 99.0 0.2719297805451669 1
gene  1 25 29 1.4043718483637888 0 100.0 1.4043718483637888 1
gene  1 26 29 0.4097104276707447 0 101.0 0.4097104276707447 1
gene  1 27 29 -0.6385734633319076 0 102.0 -0.6385734633319076 1
gene  1 23 30 -0.6882265393106782 0 103.0 -0.6882265393106782 1
gene  1 24 30 0.6067332817364671 0 104.0 0.6067332817364671 1
gene  1 25 30 1.4556598615122032 0 105.0 1.4556598615122032 1
gene  1 26 30 0.12126895369514501 0 106.0 0.12126895369514501 1
gene  1 27 30 1.5617013094816454 0 107.0 1.5617013094816454 1
gene  1 23 31 0.1310098095354194 0 108.0 0.1310098095354194 1
gene  1 24 31 -0.3722719413644936 0 109.0 -0.3722719413644936 1
gene  1 25 31 -1.124311163632509 0 110.0 -1.124311163632509 1
gene  1 26 31 1.2311397290855202 0 111.0 1.2311397290855202 1
gene  1 27 31 -0.17944237183508316 0 112.0 -0.17944237183508316 1
gene  1 23 32 -0.5146658738841081 0 113.0 -0.5146658738841081 1
gene  1 24 32 -0.09084391994955765 0 114.0 -0.09084391994955765 1
gene  1 25 32 -0.6136031702466314 0 115.0 -0.6136031702466314 1
gene  1 26 32 -0.9650914252775176 0 116.0 -0.9650914252775176 1
gene  1 27 32 0.022760341376820814 0 117.0 0.022760341376820814 0
gene  1 15 28 4.137678267967808 0 145.0 4.137678267967808 1
gene  1 24 41 1.0 0 162.0 0.0 0
gene  1 41 29 0.2719297805451669 0 163.0 0.0 1
gene  1 11 28 7.348383131584669 0 192.0 0.0 1
gene  1 27 64 1.0 0 255.0 0.0 1
gene  1 64 32 0.022760341376820814 0 256.0 0.0 1
gene  1 11 41 3.4009995286746255 0 285.0 3.4009995286746255 1
gene  1 16 30 2.1866580192833074 0 316.0 2.1866580192833074 1
gene  1 3 32 5.8549029482121 0 356.0 5.8549029482121 1
gene  1 13 29 4.185615753707877 0 370.0 4.185615753707877 1
gene  1 13 94 1.0 0 401.0 0.0 1
gene  1 94 25 0.9032761352275851 0 402.0 0.0 1
gene  1 5 106 1.0 0 458.0 0.0 1
gene  1 106 27 0.6171496058674454 0 459.0 0.0 1
gene  1 21 115 1.0 0 495.0 0.0 1
gene  1 115 26 -0.6011943406814789 0 496.0 0.0 1
gene  1 24 144 1.0 0 597.0 0.0 1
gene  1 144 41 1.0 0 598.0 0.0 1
genomeend 7
/*-------------------------------------------------------------------*/
/* Species # 008         : (size= 003) (AvfFit= 670,000) (Age= 12,000)  */
/*-------------------------------------------------------------------*/
/* Organism # 008 Fitness:  0,000 Error:  0,000                      */
genomestart  8
trait 1 0.0 0.0 0.0 0.5880285187278544 0.0 0.0 0.0 0.0 
node 1 1 1 1
node 2 1 1 1
node 3 1 1 1
node 4 1 1 1
node 5 1 1 1
node 6 1 1 1
node 7 1 1 1
node 8 1 1 1
node 9 1 1 1
node 10 1 1 1
node 11 1 1 1
node 12 1 1 1
node 13 1 1 1
node 14 1 1 1
node 15 1 1 1
node 16 1 1 1
node 17 1 1 1
node 18 1 1 1
node 19 1 1 1
node 20 1 1 1
node 21 1 1 1
node 22 1 1 1
node 23 1 1 3
node 24 1 0 0
node 25 1 0 0
node 26 1 0 0
node 27 1 0 0
node 28 1 0 2
node 29 1 0 2
node 30 1 0 2
node 31 1 0 2
node 32 1 0 2
node 37 1 0 0
node 59 1 0 0
node 98 1 0 0
node 129 1 0 0
node 140 1 0 0
gene  1 1 24 -0.9644502229995874 0 1.0 -0.9644502229995874 1
gene  1 2 24 2.463119997661212 0 2.0 2.463119997661212 1
gene  1 3 24 2.341275803960568 0 3.0 2.341275803960568 1
gene  1 4 24 -1.771190923136118 0 4.0 -1.771190923136118 1
gene  1 5 24 -0.039924423331352266 0 5.0 -0.039924423331352266 1
gene  1 6 24 2.524325530991926 0 6.0 2.524325530991926 1
gene  1 7 24 -0.12857192306911935 0 7.0 -0.12857192306911935 1
gene  1 8 24 -0.15927401203720803 0 8.0 -0.15927401203720803 1
gene  1 9 24 -0.8097930333339205 0 9.0 -0.8097930333339205 1
gene  1 10 24 1.0329274020312007 0 10.0 1.0329274020312007 1
gene  1 11 24 2.3912360447470293 0 11.0 2.3912360447470293 1
gene  1 12 24 0.05596837508803376 0 12.0 0.05596837508803376 1
gene  1 13 24 0.7613767859971285 0 13.0 0.7613767859971285 1
gene  1 14 24 -0.197410244518766 0 14.0 -0.197410244518766 1
gene  1 15 24 0.18777045523341912 0 15.0 0.18777045523341912 1
gene  1 16 24 -0.13403920769072897 0 16.0 -0.13403920769072897 1
gene  1 17 24 -0.8442500350004065 0 17.0 -0.8442500350004065 1
gene  1 18 24 -4.1481696627947 0 18.0 -4.1481696627947 1
gene  1 19 24 0.21011382277239354 0 19.0 0.21011382277239354 1
gene  1 20 24 1.7918484467937958 0 20.0 1.7918484467937958 1
gene  1 21 24 -4.768652841871072 0 21.0 -4.768652841871072 1
gene  1 22 24 3.9689779452447804 0 22.0 3.9689779452447804 1
gene  1 23 24 1.750101787396869 0 23.0 1.750101787396869 1
gene  1 1 25 1.7294874350183713 0 24.0 1.7294874350183713 1
gene  1 2 25 3.2755024300796793 0 25.0 3.2755024300796793 1
gene  1 3 25 1.512403300886903 0 26.0 1.512403300886903 1
gene  1 4 25 -0.7303063592287937 0 27.0 -0.7303063592287937 1
gene  1 5 25 2.8237359072907764 0 28.0 2.8237359072907764 1
gene  1 6 25 -1.7817101304134755 0 29.0 -1.7817101304134755 1
gene  1 7 25 1.4567478982787418 0 30.0 1.4567478982787418 1
gene  1 8 25 -0.8780599438201359 0 31.0 -0.8780599438201359 1
gene  1 9 25 -2.708249604253706 0 32.0 -2.708249604253706 1
gene  1 10 25 5.5361259018106095 0 33.0 5.5361259018106095 1
gene  1 11 25 -2.5181905368277855 0 34.0 -2.5181905368277855 1
gene  1 12 25 -0.25870101958108654 0 35.0 -0.25870101958108654 1
gene  1 13 25 -0.35541876363826996 0 36.0 -0.35541876363826996 1
gene  1 14 25 2.5628141973801464 0 37.0 2.5628141973801464 1
gene  1 15 25 0.1669235300756018 0 38.0 0.1669235300756018 1
gene  1 16 25 0.3996037208854819 0 39.0 0.3996037208854819 1
gene  1 17 25 1.6498060870123596 0 40.0 1.6498060870123596 1
gene  1 18 25 6.0078893406795775 0 41.0 6.0078893406795775 1
gene  1 19 25 -3.3976927856583634 0 42.0 -3.3976927856583634 1
gene  1 20 25 0.7699435570164137 0 43.0 0.7699435570164137 1
gene  1 21 25 -0.512939553623941 0 44.0 -0.512939553623941 1
gene  1 22 25 -1.6756201651183908 0 45.0 -1.6756201651183908 1
gene  1 23 25 0.600116918068401 0 46.0 0.600116918068401 1
gene  1 1 26 0.7240698038742197 0 47.0 0.7240698038742197 1
gene  1 2 26 -2.5672534497802504 0 48.0 -2.5672534497802504 1
gene  1 3 26 -2.506156402312752 0 49.0 -2.506156402312752 1
gene  1 4 26 1.4120275687666823 0 50.0 1.4120275687666823 1
gene  1 5 26 -0.22017966925367327 0 51.0 -0.22017966925367327 1
gene  1 6 26 -0.09029758522610926 0 52.0 -0.09029758522610926 1
gene  1 7 26 0.30167559196337557 0 53.0 0.30167559196337557 1
gene  1 8 26 -0.27052762670656083 0 54.0 -0.27052762670656083 1
gene  1 9 26 2.0473760898150632 0 55.0 2.0473760898150632 1
gene  1 10 26 0.1528901395896537 0 56.0 0.1528901395896537 1
gene  1 11 26 -1.412498449783459 0 57.0 -1.412498449783459 1
gene  1 12 26 0.17264663354623094 0 58.0 0.17264663354623094 1
gene  1 13 26 -0.46068200714099383 0 59.0 -0.46068200714099383 1
gene  1 14 26 -2.403397916380311 0 60.0 -2.403397916380311 1
gene  1 15 26 0.6593035306440416 0 61.0 0.6593035306440416 1
gene  1 16 26 -0.006147712206306721 0 62.0 -0.006147712206306721 1
gene  1 17 26 2.240043900438326 0 63.0 2.240043900438326 1
gene  1 18 26 3.755331976858721 0 64.0 3.755331976858721 1
gene  1 19 26 0.3560111316888048 0 65.0 0.3560111316888048 1
gene  1 20 26 -3.5842856602960724 0 66.0 -3.5842856602960724 1
gene  1 21 26 -1.8894831674462265 0 67.0 -1.8894831674462265 1
gene  1 22 26 1.6286944971661876 0 68.0 1.6286944971661876 1
gene  1 23 26 -2.0426484898477586 0 69.0 -2.0426484898477586 1
gene  1 1 27 -4.1926622366105875 0 70.0 -4.1926622366105875 1
gene  1 2 27 -1.766409134302749 0 71.0 -1.766409134302749 1
gene  1 3 27 -2.5807858324710162 0 72.0 -2.5807858324710162 1
gene  1 4 27 -0.985427536497237 0 73.0 -0.985427536497237 1
gene  1 5 27 4.15283132556321 0 74.0 4.15283132556321 1
gene  1 6 27 2.382465443766284 0 75.0 2.382465443766284 1
gene  1 7 27 -0.6439167265994528 0 76.0 -0.6439167265994528 1
gene  1 8 27 2.639049964268623 0 77.0 2.639049964268623 0
gene  1 9 27 -1.381724766896244 0 78.0 -1.381724766896244 1
gene  1 10 27 -1.5774119858597113 0 79.0 -1.5774119858597113 1
gene  1 11 27 0.22729970851282943 0 80.0 0.22729970851282943 1
gene  1 12 27 -1.5364938963401686 0 81.0 -1.5364938963401686 1
gene  1 13 27 -1.4096116973251958 0 82.0 -1.4096116973251958 1
gene  1 14 27 4.537657449323967 0 83.0 4.537657449323967 0
gene  1 15 27 -5.941964640178902 0 84.0 -5.941964640178902 1
gene  1 16 27 1.950590613193113 0 85.0 1.950590613193113 1
gene  1 17 27 1.2009148472295488 0 86.0 1.2009148472295488 1
gene  1 18 27 -0.676836998541397 0 87.0 -0.676836998541397 1
gene  1 19 27 -1.6401687274760122 0 88.0 -1.6401687274760122 1
gene  1 20 27 0.04161752202229163 0 89.0 0.04161752202229163 1
gene  1 21 27 2.0654868906726396 0 90.0 2.0654868906726396 1
gene  1 22 27 -0.9434356913215483 0 91.0 -0.9434356913215483 1
gene  1 23 27 -1.7765029797508072 0 92.0 -1.7765029797508072 1
gene  1 23 28 1.0877739220789417 0 93.0 1.0877739220789417 1
gene  1 24 28 0.6603205300169406 0 94.0 0.6603205300169406 1
gene  1 25 28 -0.05538910175020978 0 95.0 -0.05538910175020978 1
gene  1 26 28 -1.3279961804113336 0 96.0 -1.3279961804113336 1
gene  1 27 28 0.5237415817733402 0 97.0 0.5237415817733402 1
gene  1 23 29 3.0271071161470378 0 98.0 3.0271071161470378 1
gene  1 24 29 2.0068657773138625 0 99.0 2.0068657773138625 1
gene  1 25 29 2.0294433599583783 0 100.0 2.0294433599583783 1
gene  1 26 29 -0.11915889624428411 0 101.0 -0.11915889624428411 1
gene  1 27 29 1.8606424123295056 0 102.0 1.8606424123295056 1
gene  1 23 30 1.2751846715844048 0 103.0 1.2751846715844048 1
gene  1 24 30 2.40188036984291 0 104.0 2.40188036984291 1
gene  1 25 30 0.39362806132119976 0 105.0 0.39362806132119976 1
gene  1 26 30 0.9747305189582761 0 106.0 0.9747305189582761 1
gene  1 27 30 -0.7161761528569143 0 107.0 -0.7161761528569143 1
gene  1 23 31 -1.5398911991412878 0 108.0 -1.5398911991412878 1
gene  1 24 31 6.549969120249078 0 109.0 6.549969120249078 1
gene  1 25 31 -0.3734334313545211 0 110.0 -0.3734334313545211 1
gene  1 26 31 -3.2416758609340572 0 111.0 -3.2416758609340572 1
gene  1 27 31 -1.5871683412999396 0 112.0 -1.5871683412999396 1
gene  1 23 32 -3.0801601259784457 0 113.0 -3.0801601259784457 1
gene  1 24 32 1.1731429462242213 0 114.0 1.1731429462242213 1
gene  1 25 32 1.1824834721243707 0 115.0 1.1824834721243707 1
gene  1 26 32 2.12429621056249 0 116.0 2.12429621056249 1
gene  1 27 32 1.1886175992604393 0 117.0 1.1886175992604393 1
gene  1 7 30 -3.4295113625098 0 119.0 -3.4295113625098 1
gene  1 3 37 -3.048623759294866 0 148.0 -3.048623759294866 1
gene  1 37 26 -1.2841086552490235 0 149.0 -1.2841086552490235 1
gene  1 26 59 1.0 0 230.0 1.0 1
gene  1 59 28 -1.588480006568118 0 231.0 -1.588480006568118 1
gene  1 1 31 -2.4948420650338585 0 240.0 -2.4948420650338585 1
gene  1 18 32 -7.885225293188954 0 289.0 -7.885225293188954 1
gene  1 18 30 1.8587608671395395 0 320.0 1.8587608671395395 1
gene  1 59 24 -0.3634030829509688 0 343.0 -0.3634030829509688 1
gene  1 10 28 0.5519835438275424 0 381.0 0.5519835438275424 1
gene  1 25 98 2.4123233081134243 0 416.0 2.4123233081134243 1
gene  1 98 28 -1.1718805634986993 0 417.0 -1.1718805634986993 1
gene  1 22 98 5.498608077478566 0 445.0 5.498608077478566 1
gene  1 5 37 5.131239114680691 0 479.0 5.131239114680691 1
gene  1 12 37 3.2317504058768263 0 494.0 3.2317504058768263 1
gene  1 14 129 -1.1391772950078993 0 545.0 -1.1391772950078993 1
gene  1 129 27 -1.825961273183616 0 546.0 -1.825961273183616 1
gene  1 8 140 0.6158671936607489 0 580.0 0.6158671936607489 1
gene  1 140 27 1.0413983875769874 0 581.0 1.0413983875769874 1
genomeend 8
/* Organism # 009 Fitness:  0,000 Error:  0,000                      */
genomestart  9
trait 1 0.0 0.0 0.0 0.5880285187278544 0.0 0.0 0.0 0.0 
node 1 1 1 1
node 2 1 1 1
node 3 1 1 1
node 4 1 1 1
node 5 1 1 1
node 6 1 1 1
node 7 1 1 1
node 8 1 1 1
node 9 1 1 1
node 10 1 1 1
node 11 1 1 1
node 12 1 1 1
node 13 1 1 1
node 14 1 1 1
node 15 1 1 1
node 16 1 1 1
node 17 1 1 1
node 18 1 1 1
node 19 1 1 1
node 20 1 1 1
node 21 1 1 1
node 22 1 1 1
node 23 1 1 3
node 24 1 0 0
node 25 1 0 0
node 26 1 0 0
node 27 1 0 0
node 28 1 0 2
node 29 1 0 2
node 30 1 0 2
node 31 1 0 2
node 32 1 0 2
node 37 1 0 0
node 59 1 0 0
node 98 1 0 0
node 129 1 0 0
node 140 1 0 0
gene  1 1 24 0.5344584225327565 0 1.0 0.5344584225327565 1
gene  1 2 24 3.7154913810866015 0 2.0 3.7154913810866015 1
gene  1 3 24 0.04023868774870909 0 3.0 0.04023868774870909 1
gene  1 4 24 1.2829363046622348 0 4.0 1.2829363046622348 1
gene  1 5 24 -0.039924423331352266 0 5.0 -0.039924423331352266 1
gene  1 6 24 2.4472354211644785 0 6.0 2.4472354211644785 1
gene  1 7 24 1.3257483165840125 0 7.0 1.3257483165840125 1
gene  1 8 24 0.5080188594528512 0 8.0 0.5080188594528512 1
gene  1 9 24 -0.4913482602182785 0 9.0 -0.4913482602182785 1
gene  1 10 24 1.335357540583393 0 10.0 1.335357540583393 1
gene  1 11 24 0.5749181139356492 0 11.0 0.5749181139356492 1
gene  1 12 24 1.7712883794433378 0 12.0 1.7712883794433378 1
gene  1 13 24 1.8661669837895243 0 13.0 1.8661669837895243 1
gene  1 14 24 -1.3762239110451353 0 14.0 -1.3762239110451353 1
gene  1 15 24 -0.26926074802161115 0 15.0 -0.26926074802161115 1
gene  1 16 24 0.5103324430681042 0 16.0 0.5103324430681042 1
gene  1 17 24 -0.7266833221007302 0 17.0 -0.7266833221007302 1
gene  1 18 24 -3.2086329730691188 0 18.0 -3.2086329730691188 1
gene  1 19 24 0.21011382277239354 0 19.0 0.21011382277239354 1
gene  1 20 24 2.1537752672170267 0 20.0 2.1537752672170267 1
gene  1 21 24 -2.4070557058599364 0 21.0 -2.4070557058599364 1
gene  1 22 24 3.2218709963311256 0 22.0 3.2218709963311256 1
gene  1 23 24 3.8472703283578444 0 23.0 3.8472703283578444 1
gene  1 1 25 2.002084661305637 0 24.0 2.002084661305637 1
gene  1 2 25 1.7214030548899324 0 25.0 1.7214030548899324 1
gene  1 3 25 1.1307219600218543 0 26.0 1.1307219600218543 1
gene  1 4 25 -0.7303063592287937 0 27.0 -0.7303063592287937 1
gene  1 5 25 2.7384966843394816 0 28.0 2.7384966843394816 1
gene  1 6 25 -0.8136282596388483 0 29.0 -0.8136282596388483 1
gene  1 7 25 1.6557400467041843 0 30.0 1.6557400467041843 1
gene  1 8 25 -0.10272216665437695 0 31.0 -0.10272216665437695 1
gene  1 9 25 -2.599582686708667 0 32.0 -2.599582686708667 1
gene  1 10 25 3.2318100928708824 0 33.0 3.2318100928708824 1
gene  1 11 25 -3.6068903319156176 0 34.0 -3.6068903319156176 1
gene  1 12 25 1.0931496925318682 0 35.0 1.0931496925318682 1
gene  1 13 25 -1.4524331055447313 0 36.0 -1.4524331055447313 1
gene  1 14 25 1.1962562414897049 0 37.0 1.1962562414897049 1
gene  1 15 25 1.3574593939704622 0 38.0 1.3574593939704622 1
gene  1 16 25 -0.7435723543371915 0 39.0 -0.7435723543371915 1
gene  1 17 25 0.10685763139210974 0 40.0 0.10685763139210974 1
gene  1 18 25 4.859230771984192 0 41.0 4.859230771984192 1
gene  1 19 25 -1.1615384274489577 0 42.0 -1.1615384274489577 1
gene  1 20 25 0.7699435570164137 0 43.0 0.7699435570164137 1
gene  1 21 25 1.5914245540589198 0 44.0 1.5914245540589198 1
gene  1 22 25 -1.2781255177909756 0 45.0 -1.2781255177909756 1
gene  1 23 25 -0.7513501945215515 0 46.0 -0.7513501945215515 1
gene  1 1 26 0.28872130438584354 0 47.0 0.28872130438584354 1
gene  1 2 26 -0.7558887490225221 0 48.0 -0.7558887490225221 1
gene  1 3 26 -1.9717009661055054 0 49.0 -1.9717009661055054 1
gene  1 4 26 -0.11601168547331997 0 50.0 -0.11601168547331997 1
gene  1 5 26 1.8070669877944332 0 51.0 1.8070669877944332 1
gene  1 6 26 -2.5736805405446255 0 52.0 -2.5736805405446255 1
gene  1 7 26 -0.6481459266648264 0 53.0 -0.6481459266648264 1
gene  1 8 26 -1.3111862509668493 0 54.0 -1.3111862509668493 1
gene  1 9 26 -0.39817909768716137 0 55.0 -0.39817909768716137 1
gene  1 10 26 0.864232505987978 0 56.0 0.864232505987978 1
gene  1 11 26 -0.9354654075527169 0 57.0 -0.9354654075527169 1
gene  1 12 26 -0.4713324273984612 0 58.0 -0.4713324273984612 1
gene  1 13 26 -0.46068200714099383 0 59.0 -0.46068200714099383 1
gene  1 14 26 -1.2149041798350178 0 60.0 -1.2149041798350178 1
gene  1 15 26 2.010179077298028 0 61.0 2.010179077298028 1
gene  1 16 26 1.2511368844215491 0 62.0 1.2511368844215491 1
gene  1 17 26 1.7569894201505865 0 63.0 1.7569894201505865 1
gene  1 18 26 3.6757837936151825 0 64.0 3.6757837936151825 1
gene  1 19 26 1.1499459596536665 0 65.0 1.1499459596536665 1
gene  1 20 26 -1.3363477460380702 0 66.0 -1.3363477460380702 1
gene  1 21 26 0.2468050944708864 0 67.0 0.2468050944708864 1
gene  1 22 26 1.7163726845848144 0 68.0 1.7163726845848144 1
gene  1 23 26 -2.0426484898477586 0 69.0 -2.0426484898477586 1
gene  1 1 27 -2.651710328240366 0 70.0 -2.651710328240366 1
gene  1 2 27 -0.4365861182073474 0 71.0 -0.4365861182073474 1
gene  1 3 27 -0.3446372216133187 0 72.0 -0.3446372216133187 1
gene  1 4 27 -0.985427536497237 0 73.0 -0.985427536497237 1
gene  1 5 27 2.6454025277354143 0 74.0 2.6454025277354143 1
gene  1 6 27 0.4587801134824314 0 75.0 0.4587801134824314 1
gene  1 7 27 0.05698883912582303 0 76.0 0.05698883912582303 1
gene  1 8 27 3.0849547719636705 0 77.0 3.0849547719636705 0
gene  1 9 27 -2.3134350012819693 0 78.0 -2.3134350012819693 1
gene  1 10 27 -1.5774119858597113 0 79.0 -1.5774119858597113 1
gene  1 11 27 -0.7337209344533269 0 80.0 -0.7337209344533269 1
gene  1 12 27 -1.278896851862501 0 81.0 -1.278896851862501 1
gene  1 13 27 -1.8944229468691027 0 82.0 -1.8944229468691027 1
gene  1 14 27 3.543869955004485 0 83.0 3.543869955004485 0
gene  1 15 27 -4.752314867773299 0 84.0 -4.752314867773299 1
gene  1 16 27 -1.9431593841144812 0 85.0 -1.9431593841144812 1
gene  1 17 27 1.2009148472295488 0 86.0 1.2009148472295488 1
gene  1 18 27 -0.676836998541397 0 87.0 -0.676836998541397 1
gene  1 19 27 -1.6401687274760122 0 88.0 -1.6401687274760122 1
gene  1 20 27 -0.882919479838151 0 89.0 -0.882919479838151 1
gene  1 21 27 -1.5593762137800158 0 90.0 -1.5593762137800158 1
gene  1 22 27 1.4631734715360554 0 91.0 1.4631734715360554 1
gene  1 23 27 0.3254464799101324 0 92.0 0.3254464799101324 1
gene  1 23 28 1.786537520018461 0 93.0 1.786537520018461 1
gene  1 24 28 1.5921428065902368 0 94.0 1.5921428065902368 1
gene  1 25 28 -0.05538910175020978 0 95.0 -0.05538910175020978 1
gene  1 26 28 -1.3279961804113336 0 96.0 -1.3279961804113336 1
gene  1 27 28 1.9006190683455888 0 97.0 1.9006190683455888 1
gene  1 23 29 1.745456101284244 0 98.0 1.745456101284244 1
gene  1 24 29 4.217064496446083 0 99.0 4.217064496446083 1
gene  1 25 29 1.0987685366782378 0 100.0 1.0987685366782378 1
gene  1 26 29 -0.08675537476178602 0 101.0 -0.08675537476178602 1
gene  1 27 29 2.0267987734301776 0 102.0 2.0267987734301776 1
gene  1 23 30 -1.215519258006093 0 103.0 -1.215519258006093 1
gene  1 24 30 2.4024542224114205 0 104.0 2.4024542224114205 1
gene  1 25 30 -0.8030212602218609 0 105.0 -0.8030212602218609 1
gene  1 26 30 0.108758532186424 0 106.0 0.108758532186424 1
gene  1 27 30 0.3896738036060575 0 107.0 0.3896738036060575 1
gene  1 23 31 -0.23475641995885144 0 108.0 -0.23475641995885144 1
gene  1 24 31 4.234015049298904 0 109.0 4.234015049298904 1
gene  1 25 31 -0.9528153654193499 0 110.0 -0.9528153654193499 1
gene  1 26 31 -1.7294069357683477 0 111.0 -1.7294069357683477 1
gene  1 27 31 -0.6246539629317833 0 112.0 -0.6246539629317833 1
gene  1 23 32 -3.4356321625634902 0 113.0 -3.4356321625634902 1
gene  1 24 32 0.45840606448091875 0 114.0 0.45840606448091875 1
gene  1 25 32 1.9775568992889845 0 115.0 1.9775568992889845 1
gene  1 26 32 2.2947778471090032 0 116.0 2.2947778471090032 1
gene  1 27 32 0.9304521777058978 0 117.0 0.9304521777058978 1
gene  1 7 30 -3.4295113625098 0 119.0 -3.4295113625098 1
gene  1 3 37 -1.1209052353995475 0 148.0 -1.1209052353995475 1
gene  1 37 26 -1.2841086552490235 0 149.0 -1.2841086552490235 1
gene  1 26 59 1.0 0 230.0 0.0 1
gene  1 59 28 -1.3279961804113336 0 231.0 0.0 1
gene  1 1 31 -2.4948420650338585 0 240.0 -2.4948420650338585 1
gene  1 18 32 -5.559815515693596 0 289.0 -5.559815515693596 1
gene  1 18 30 9.147042273790538 0 320.0 9.147042273790538 1
gene  1 59 24 -3.45476752361914 0 343.0 -3.45476752361914 1
gene  1 10 28 8.361047493802914 0 381.0 0.0 1
gene  1 25 98 1.0 0 416.0 0.0 1
gene  1 98 28 -0.05538910175020978 0 417.0 0.0 1
gene  1 22 98 3.8976384132958533 0 445.0 3.8976384132958533 1
gene  1 5 37 5.302805035129062 0 479.0 5.302805035129062 1
gene  1 12 37 1.354391194830008 0 494.0 1.354391194830008 1
gene  1 14 129 1.0 0 545.0 0.0 1
gene  1 129 27 3.543869955004485 0 546.0 0.0 1
gene  1 8 140 1.0 0 580.0 0.0 1
gene  1 140 27 3.0849547719636705 0 581.0 0.0 1
gene  1 21 31 -2.356599318801056 0 622.0 -2.356599318801056 1
genomeend 9
/* Organism # 010 Fitness:  0,000 Error:  0,000                      */
genomestart  10
trait 1 0.0 0.0 0.0 0.5880285187278544 0.0 0.0 0.0 0.0 
node 1 1 1 1
node 2 1 1 1
node 3 1 1 1
node 4 1 1 1
node 5 1 1 1
node 6 1 1 1
node 7 1 1 1
node 8 1 1 1
node 9 1 1 1
node 10 1 1 1
node 11 1 1 1
node 12 1 1 1
node 13 1 1 1
node 14 1 1 1
node 15 1 1 1
node 16 1 1 1
node 17 1 1 1
node 18 1 1 1
node 19 1 1 1
node 20 1 1 1
node 21 1 1 1
node 22 1 1 1
node 23 1 1 3
node 24 1 0 0
node 25 1 0 0
node 26 1 0 0
node 27 1 0 0
node 28 1 0 2
node 29 1 0 2
node 30 1 0 2
node 31 1 0 2
node 32 1 0 2
node 37 1 0 0
node 59 1 0 0
node 98 1 0 0
node 129 1 0 0
node 140 1 0 0
gene  1 1 24 0.5344584225327565 0 1.0 0.5344584225327565 1
gene  1 2 24 3.7154913810866015 0 2.0 3.7154913810866015 1
gene  1 3 24 0.04023868774870909 0 3.0 0.04023868774870909 1
gene  1 4 24 1.2829363046622348 0 4.0 1.2829363046622348 1
gene  1 5 24 -0.039924423331352266 0 5.0 -0.039924423331352266 1
gene  1 6 24 2.4472354211644785 0 6.0 2.4472354211644785 1
gene  1 7 24 1.3257483165840125 0 7.0 1.3257483165840125 1
gene  1 8 24 0.5080188594528512 0 8.0 0.5080188594528512 1
gene  1 9 24 -0.4913482602182785 0 9.0 -0.4913482602182785 1
gene  1 10 24 1.335357540583393 0 10.0 1.335357540583393 1
gene  1 11 24 0.5749181139356492 0 11.0 0.5749181139356492 1
gene  1 12 24 1.7712883794433378 0 12.0 1.7712883794433378 1
gene  1 13 24 1.8661669837895243 0 13.0 1.8661669837895243 1
gene  1 14 24 -1.3762239110451353 0 14.0 -1.3762239110451353 1
gene  1 15 24 -0.26926074802161115 0 15.0 -0.26926074802161115 1
gene  1 16 24 0.5103324430681042 0 16.0 0.5103324430681042 1
gene  1 17 24 -0.7266833221007302 0 17.0 -0.7266833221007302 1
gene  1 18 24 -3.2086329730691188 0 18.0 -3.2086329730691188 1
gene  1 19 24 0.21011382277239354 0 19.0 0.21011382277239354 1
gene  1 20 24 2.1537752672170267 0 20.0 2.1537752672170267 1
gene  1 21 24 -2.4070557058599364 0 21.0 -2.4070557058599364 1
gene  1 22 24 3.2218709963311256 0 22.0 3.2218709963311256 1
gene  1 23 24 3.8472703283578444 0 23.0 3.8472703283578444 1
gene  1 1 25 2.002084661305637 0 24.0 2.002084661305637 1
gene  1 2 25 1.7214030548899324 0 25.0 1.7214030548899324 1
gene  1 3 25 1.1307219600218543 0 26.0 1.1307219600218543 1
gene  1 4 25 -0.7303063592287937 0 27.0 -0.7303063592287937 1
gene  1 5 25 2.7384966843394816 0 28.0 2.7384966843394816 1
gene  1 6 25 -0.8136282596388483 0 29.0 -0.8136282596388483 1
gene  1 7 25 1.6557400467041843 0 30.0 1.6557400467041843 1
gene  1 8 25 -0.10272216665437695 0 31.0 -0.10272216665437695 1
gene  1 9 25 -2.599582686708667 0 32.0 -2.599582686708667 1
gene  1 10 25 3.2318100928708824 0 33.0 3.2318100928708824 1
gene  1 11 25 -3.6068903319156176 0 34.0 -3.6068903319156176 1
gene  1 12 25 1.0931496925318682 0 35.0 1.0931496925318682 1
gene  1 13 25 -1.4524331055447313 0 36.0 -1.4524331055447313 1
gene  1 14 25 1.1962562414897049 0 37.0 1.1962562414897049 1
gene  1 15 25 1.3574593939704622 0 38.0 1.3574593939704622 1
gene  1 16 25 -0.7435723543371915 0 39.0 -0.7435723543371915 1
gene  1 17 25 0.10685763139210974 0 40.0 0.10685763139210974 1
gene  1 18 25 4.859230771984192 0 41.0 4.859230771984192 1
gene  1 19 25 -1.1615384274489577 0 42.0 -1.1615384274489577 1
gene  1 20 25 0.7699435570164137 0 43.0 0.7699435570164137 1
gene  1 21 25 1.5914245540589198 0 44.0 1.5914245540589198 1
gene  1 22 25 -1.2781255177909756 0 45.0 -1.2781255177909756 1
gene  1 23 25 -0.7513501945215515 0 46.0 -0.7513501945215515 1
gene  1 1 26 0.28872130438584354 0 47.0 0.28872130438584354 1
gene  1 2 26 -0.7558887490225221 0 48.0 -0.7558887490225221 1
gene  1 3 26 -1.9717009661055054 0 49.0 -1.9717009661055054 1
gene  1 4 26 -0.11601168547331997 0 50.0 -0.11601168547331997 1
gene  1 5 26 1.8070669877944332 0 51.0 1.8070669877944332 1
gene  1 6 26 -2.5736805405446255 0 52.0 -2.5736805405446255 1
gene  1 7 26 -0.6481459266648264 0 53.0 -0.6481459266648264 1
gene  1 8 26 -1.3111862509668493 0 54.0 -1.3111862509668493 1
gene  1 9 26 -0.39817909768716137 0 55.0 -0.39817909768716137 1
gene  1 10 26 0.864232505987978 0 56.0 0.864232505987978 1
gene  1 11 26 -0.9354654075527169 0 57.0 -0.9354654075527169 1
gene  1 12 26 -0.4713324273984612 0 58.0 -0.4713324273984612 1
gene  1 13 26 -0.46068200714099383 0 59.0 -0.46068200714099383 1
gene  1 14 26 -1.2149041798350178 0 60.0 -1.2149041798350178 1
gene  1 15 26 2.010179077298028 0 61.0 2.010179077298028 1
gene  1 16 26 1.2511368844215491 0 62.0 1.2511368844215491 1
gene  1 17 26 1.7569894201505865 0 63.0 1.7569894201505865 1
gene  1 18 26 3.6757837936151825 0 64.0 3.6757837936151825 1
gene  1 19 26 1.1499459596536665 0 65.0 1.1499459596536665 1
gene  1 20 26 -1.3363477460380702 0 66.0 -1.3363477460380702 1
gene  1 21 26 0.2468050944708864 0 67.0 0.2468050944708864 1
gene  1 22 26 1.7163726845848144 0 68.0 1.7163726845848144 1
gene  1 23 26 -2.0426484898477586 0 69.0 -2.0426484898477586 1
gene  1 1 27 -2.651710328240366 0 70.0 -2.651710328240366 1
gene  1 2 27 -0.4365861182073474 0 71.0 -0.4365861182073474 1
gene  1 3 27 -0.3446372216133187 0 72.0 -0.3446372216133187 1
gene  1 4 27 -0.985427536497237 0 73.0 -0.985427536497237 1
gene  1 5 27 2.6454025277354143 0 74.0 2.6454025277354143 1
gene  1 6 27 0.4587801134824314 0 75.0 0.4587801134824314 1
gene  1 7 27 0.05698883912582303 0 76.0 0.05698883912582303 1
gene  1 8 27 3.0849547719636705 0 77.0 3.0849547719636705 0
gene  1 9 27 -2.3134350012819693 0 78.0 -2.3134350012819693 1
gene  1 10 27 -1.5774119858597113 0 79.0 -1.5774119858597113 1
gene  1 11 27 -0.7337209344533269 0 80.0 -0.7337209344533269 1
gene  1 12 27 -1.278896851862501 0 81.0 -1.278896851862501 1
gene  1 13 27 -1.8944229468691027 0 82.0 -1.8944229468691027 1
gene  1 14 27 3.543869955004485 0 83.0 3.543869955004485 0
gene  1 15 27 -4.752314867773299 0 84.0 -4.752314867773299 1
gene  1 16 27 -1.9431593841144812 0 85.0 -1.9431593841144812 1
gene  1 17 27 1.2009148472295488 0 86.0 1.2009148472295488 1
gene  1 18 27 -0.676836998541397 0 87.0 -0.676836998541397 1
gene  1 19 27 -1.6401687274760122 0 88.0 -1.6401687274760122 1
gene  1 20 27 -0.882919479838151 0 89.0 -0.882919479838151 1
gene  1 21 27 -1.5593762137800158 0 90.0 -1.5593762137800158 1
gene  1 22 27 1.4631734715360554 0 91.0 1.4631734715360554 1
gene  1 23 27 0.3254464799101324 0 92.0 0.3254464799101324 1
gene  1 23 28 1.786537520018461 0 93.0 1.786537520018461 1
gene  1 24 28 1.5921428065902368 0 94.0 1.5921428065902368 1
gene  1 25 28 -0.05538910175020978 0 95.0 -0.05538910175020978 1
gene  1 26 28 -1.3279961804113336 0 96.0 -1.3279961804113336 1
gene  1 27 28 1.9006190683455888 0 97.0 1.9006190683455888 1
gene  1 23 29 1.745456101284244 0 98.0 1.745456101284244 1
gene  1 24 29 4.217064496446083 0 99.0 4.217064496446083 1
gene  1 25 29 1.0987685366782378 0 100.0 1.0987685366782378 1
gene  1 26 29 -0.08675537476178602 0 101.0 -0.08675537476178602 1
gene  1 27 29 2.0267987734301776 0 102.0 2.0267987734301776 1
gene  1 23 30 -1.215519258006093 0 103.0 -1.215519258006093 1
gene  1 24 30 2.4024542224114205 0 104.0 2.4024542224114205 1
gene  1 25 30 -0.8030212602218609 0 105.0 -0.8030212602218609 1
gene  1 26 30 0.108758532186424 0 106.0 0.108758532186424 1
gene  1 27 30 0.3896738036060575 0 107.0 0.3896738036060575 1
gene  1 23 31 -0.23475641995885144 0 108.0 -0.23475641995885144 1
gene  1 24 31 4.234015049298904 0 109.0 4.234015049298904 1
gene  1 25 31 -0.9528153654193499 0 110.0 -0.9528153654193499 1
gene  1 26 31 -1.7294069357683477 0 111.0 -1.7294069357683477 1
gene  1 27 31 -0.6246539629317833 0 112.0 -0.6246539629317833 1
gene  1 23 32 -3.4356321625634902 0 113.0 -3.4356321625634902 1
gene  1 24 32 0.45840606448091875 0 114.0 0.45840606448091875 1
gene  1 25 32 1.9775568992889845 0 115.0 1.9775568992889845 1
gene  1 26 32 2.2947778471090032 0 116.0 2.2947778471090032 1
gene  1 27 32 0.9304521777058978 0 117.0 0.9304521777058978 1
gene  1 7 30 -3.4295113625098 0 119.0 -3.4295113625098 1
gene  1 3 37 -1.1209052353995475 0 148.0 -1.1209052353995475 1
gene  1 37 26 -1.2841086552490235 0 149.0 -1.2841086552490235 1
gene  1 26 59 1.0 0 230.0 0.0 1
gene  1 59 28 -1.3279961804113336 0 231.0 0.0 1
gene  1 1 31 -2.4948420650338585 0 240.0 -2.4948420650338585 1
gene  1 18 32 -5.559815515693596 0 289.0 -5.559815515693596 1
gene  1 18 30 9.147042273790538 0 320.0 9.147042273790538 1
gene  1 59 24 -3.45476752361914 0 343.0 -3.45476752361914 1
gene  1 10 28 8.361047493802914 0 381.0 0.0 1
gene  1 25 98 1.0 0 416.0 0.0 1
gene  1 98 28 -0.05538910175020978 0 417.0 0.0 1
gene  1 22 98 3.8976384132958533 0 445.0 3.8976384132958533 1
gene  1 5 37 5.302805035129062 0 479.0 5.302805035129062 1
gene  1 12 37 1.354391194830008 0 494.0 1.354391194830008 1
gene  1 14 129 1.0 0 545.0 0.0 1
gene  1 129 27 3.543869955004485 0 546.0 0.0 1
gene  1 8 140 1.0 0 580.0 0.0 1
gene  1 140 27 3.0849547719636705 0 581.0 0.0 1
gene  1 31 28 -7.019008039649081 0 623.0 -7.019008039649081 1
genomeend 10
/*-------------------------------------------------------------------*/
/* Species # 009         : (size= 003) (AvfFit= 655,000) (Age= 12,000)  */
/*-------------------------------------------------------------------*/
/* Organism # 011 Fitness:  0,000 Error:  0,000                      */
genomestart  11
trait 1 0.0 0.0 0.0 0.0 0.0 0.0 0.0 0.0 
node 1 1 1 1
node 2 1 1 1
node 3 1 1 1
node 4 1 1 1
node 5 1 1 1
node 6 1 1 1
node 7 1 1 1
node 8 1 1 1
node 9 1 1 1
node 10 1 1 1
node 11 1 1 1
node 12 1 1 1
node 13 1 1 1
node 14 1 1 1
node 15 1 1 1
node 16 1 1 1
node 17 1 1 1
node 18 1 1 1
node 19 1 1 1
node 20 1 1 1
node 21 1 1 1
