/* Species # 030         : (size= 005) (AvfFit= 1347,500) (Age= 31,000)  */
/*-------------------------------------------------------------------*/
/* Organism # 000 Fitness:  0,000 Error:  0,000                      */
genomestart  0
trait 1 0.0 0.0 0.0 0.0 0.0 0.0 0.0 0.0 
node 1 1 1 1
node 2 1 1 1
node 3 1 1 1
node 4 1 1 1
node 5 1 1 1
node 6 1 1 1
node 7 1 1 1
node 8 1 1 1
node 9 1 1 1
node 10 1 1 1
node 11 1 1 1
node 12 1 1 1
node 13 1 1 1
node 14 1 1 1
node 15 1 1 1
node 16 1 1 1
node 17 1 1 1
node 18 1 1 1
node 19 1 1 1
node 20 1 1 1
node 21 1 1 1
node 22 1 1 1
node 23 1 1 3
node 24 1 0 0
node 25 1 0 0
node 26 1 0 0
node 27 1 0 0
node 28 1 0 2
node 29 1 0 2
node 30 1 0 2
node 31 1 0 2
node 32 1 0 2
node 41 1 0 0
node 69 1 0 0
node 99 1 0 0
node 103 1 0 0
node 110 1 0 0
node 128 1 0 0
node 150 1 0 0
node 191 1 0 0
node 236 1 0 0
node 242 1 0 0
node 277 1 0 0
node 286 1 0 0
node 295 1 0 0
node 310 1 0 0
node 333 1 0 0
node 355 1 0 0
node 361 1 0 0
node 390 1 0 0
node 419 1 0 0
node 449 1 0 0
node 458 1 0 0
node 492 1 0 0
node 502 1 0 0
node 519 1 0 0
node 550 1 0 0
node 613 1 0 0
gene  1 1 24 0.6836074841519658 0 1.0 0.6836074841519658 1
gene  1 2 24 0.2418349725060388 0 2.0 0.2418349725060388 1
gene  1 3 24 2.231101296592862 0 3.0 2.231101296592862 1
gene  1 4 24 1.9984107658146633 0 4.0 1.9984107658146633 1
gene  1 5 24 -1.295047861402809 0 5.0 -1.295047861402809 1
gene  1 6 24 -0.46614332725808727 0 6.0 -0.46614332725808727 1
gene  1 7 24 -0.6632373714736616 0 7.0 -0.6632373714736616 1
gene  1 8 24 -1.1786407631101534 0 8.0 -1.1786407631101534 1
gene  1 9 24 0.7083499676735852 0 9.0 0.7083499676735852 1
gene  1 10 24 1.8287682424176324 0 10.0 1.8287682424176324 1
gene  1 11 24 0.13114292736241406 0 11.0 0.13114292736241406 1
gene  1 12 24 0.20129052057887642 0 12.0 0.20129052057887642 1
gene  1 13 24 0.15119511013894327 0 13.0 0.15119511013894327 1
gene  1 14 24 -2.305494291515135 0 14.0 -2.305494291515135 1
gene  1 15 24 1.7866237942300476 0 15.0 1.7866237942300476 1
gene  1 16 24 0.4609847206181178 0 16.0 0.4609847206181178 1
gene  1 17 24 1.1367228621818093 0 17.0 1.1367228621818093 1
gene  1 18 24 1.0832013029571876 0 18.0 1.0832013029571876 1
gene  1 19 24 1.1167443914792334 0 19.0 1.1167443914792334 0
gene  1 20 24 0.07414205454090883 0 20.0 0.07414205454090883 1
gene  1 21 24 0.5418885079930811 0 21.0 0.5418885079930811 1
gene  1 22 24 2.484950267181405 0 22.0 2.484950267181405 1
gene  1 23 24 0.425929415896056 0 23.0 0.425929415896056 1
gene  1 1 25 0.6154095691625152 0 24.0 0.6154095691625152 1
gene  1 2 25 -2.8755165268856366 0 25.0 -2.8755165268856366 1
gene  1 3 25 2.689302679798512 0 26.0 2.689302679798512 1
gene  1 4 25 -0.7614296740576152 0 27.0 -0.7614296740576152 1
gene  1 5 25 -0.12017325232786724 0 28.0 -0.12017325232786724 1
gene  1 6 25 -0.8995478796312145 0 29.0 -0.8995478796312145 1
gene  1 7 25 -0.012654369140360444 0 30.0 -0.012654369140360444 1
gene  1 8 25 1.3910890901314834 0 31.0 1.3910890901314834 1
gene  1 9 25 0.3584175622867064 0 32.0 0.3584175622867064 1
gene  1 10 25 0.2779443092033518 0 33.0 0.2779443092033518 0
gene  1 11 25 1.142465146794125 0 34.0 1.142465146794125 1
gene  1 12 25 0.9036541395774667 0 35.0 0.9036541395774667 1
gene  1 13 25 -1.2351814578924105 0 36.0 -1.2351814578924105 1
gene  1 14 25 -2.406576236033213 0 37.0 -2.406576236033213 1
gene  1 15 25 -1.3059963432256165 0 38.0 -1.3059963432256165 1
gene  1 16 25 -0.07279068140327355 0 39.0 -0.07279068140327355 1
gene  1 17 25 2.1463068148221858 0 40.0 2.1463068148221858 1
gene  1 18 25 -0.8147305052695352 0 41.0 -0.8147305052695352 1
gene  1 19 25 -1.8963916370755176 0 42.0 -1.8963916370755176 1
gene  1 20 25 -0.17530964326477716 0 43.0 -0.17530964326477716 1
gene  1 21 25 -2.1615664960138625 0 44.0 -2.1615664960138625 1
gene  1 22 25 -0.5353496319643707 0 45.0 -0.5353496319643707 1
gene  1 23 25 2.211182550883856 0 46.0 2.211182550883856 1
gene  1 1 26 -0.1813538282281052 0 47.0 -0.1813538282281052 1
gene  1 2 26 1.0348232233393615 0 48.0 1.0348232233393615 1
gene  1 3 26 -0.26852393576716355 0 49.0 -0.26852393576716355 1
gene  1 4 26 -0.5462351900443294 0 50.0 -0.5462351900443294 1
gene  1 5 26 1.841798679175527 0 51.0 1.841798679175527 1
gene  1 6 26 0.9246057866887103 0 52.0 0.9246057866887103 1
gene  1 7 26 2.961718684201993 0 53.0 2.961718684201993 1
gene  1 8 26 1.3531921659176516 0 54.0 1.3531921659176516 1
gene  1 9 26 -1.7276248866576271 0 55.0 -1.7276248866576271 1
gene  1 10 26 2.0139802487278704 0 56.0 2.0139802487278704 0
gene  1 11 26 1.528778550886252 0 57.0 1.528778550886252 1
gene  1 12 26 -0.5785609867130133 0 58.0 -0.5785609867130133 1
gene  1 13 26 -2.6797800697851013 0 59.0 -2.6797800697851013 1
gene  1 14 26 -0.5697240976550146 0 60.0 -0.5697240976550146 1
gene  1 15 26 -0.6337731619541322 0 61.0 -0.6337731619541322 1
gene  1 16 26 -3.0562620734655126 0 62.0 -3.0562620734655126 1
gene  1 17 26 -0.6658234717228073 0 63.0 -0.6658234717228073 1
gene  1 18 26 3.3403867808578074 0 64.0 3.3403867808578074 1
gene  1 19 26 0.7776803632315288 0 65.0 0.7776803632315288 1
gene  1 20 26 -0.7243609006292111 0 66.0 -0.7243609006292111 1
gene  1 21 26 -3.0739483612397973 0 67.0 -3.0739483612397973 1
gene  1 22 26 -0.8853447786938764 0 68.0 -0.8853447786938764 1
gene  1 23 26 -1.392668583310223 0 69.0 -1.392668583310223 1
gene  1 1 27 0.1950912962028929 0 70.0 0.1950912962028929 1
gene  1 2 27 -2.3849842766314993 0 71.0 -2.3849842766314993 1
gene  1 3 27 -1.4510293084069832 0 72.0 -1.4510293084069832 1
gene  1 4 27 -2.108078397682316 0 73.0 -2.108078397682316 1
gene  1 5 27 0.9853093818432086 0 74.0 0.9853093818432086 1
gene  1 6 27 1.9012442085109171 0 75.0 1.9012442085109171 1
gene  1 7 27 -1.1359514906506512 0 76.0 -1.1359514906506512 1
gene  1 8 27 1.3588260773815568 0 77.0 1.3588260773815568 1
gene  1 9 27 -2.8086161361721667 0 78.0 -2.8086161361721667 1
gene  1 10 27 0.6822866399342444 0 79.0 0.6822866399342444 1
gene  1 11 27 -1.4192574802827127 0 80.0 -1.4192574802827127 1
gene  1 12 27 2.0194659787646483 0 81.0 2.0194659787646483 1
gene  1 13 27 -3.29794013327734 0 82.0 -3.29794013327734 1
gene  1 14 27 -1.0273223382155723 0 83.0 -1.0273223382155723 1
gene  1 15 27 0.8854793246663014 0 84.0 0.8854793246663014 1
gene  1 16 27 -2.4100030796377325 0 85.0 -2.4100030796377325 1
gene  1 17 27 1.1641354279973304 0 86.0 1.1641354279973304 1
gene  1 18 27 -1.5657621004727782 0 87.0 -1.5657621004727782 1
gene  1 19 27 0.9635940309111093 0 88.0 0.9635940309111093 1
gene  1 20 27 -1.5141808232294682 0 89.0 -1.5141808232294682 1
gene  1 21 27 -1.6098739089238192 0 90.0 -1.6098739089238192 1
gene  1 22 27 -0.20721715934182405 0 91.0 -0.20721715934182405 1
gene  1 23 27 -2.7987944125960222 0 92.0 -2.7987944125960222 1
gene  1 23 28 1.3272888213665466 0 93.0 1.3272888213665466 1
gene  1 24 28 1.3820786340802313 0 94.0 1.3820786340802313 1
gene  1 25 28 0.8152174332290762 0 95.0 0.8152174332290762 1
gene  1 26 28 -1.8871519098029614 0 96.0 -1.8871519098029614 1
gene  1 27 28 -1.0416194194378714 0 97.0 -1.0416194194378714 1
gene  1 23 29 1.712662646035409 0 98.0 1.712662646035409 1
gene  1 24 29 0.3750308964985809 0 99.0 0.3750308964985809 1
gene  1 25 29 2.0081239104076944 0 100.0 2.0081239104076944 1
gene  1 26 29 -1.8177506182944394 0 101.0 -1.8177506182944394 1
gene  1 27 29 0.24578722111506612 0 102.0 0.24578722111506612 1
gene  1 23 30 -0.9792201881248785 0 103.0 -0.9792201881248785 1
gene  1 24 30 0.3847222154010963 0 104.0 0.3847222154010963 1
gene  1 25 30 1.8066113481737804 0 105.0 1.8066113481737804 1
gene  1 26 30 0.2284221571408082 0 106.0 0.2284221571408082 1
gene  1 27 30 2.7779870153214823 0 107.0 2.7779870153214823 1
gene  1 23 31 0.4191893547743016 0 108.0 0.4191893547743016 1
gene  1 24 31 0.77248384192597 0 109.0 0.77248384192597 1
gene  1 25 31 -2.4322039769326436 0 110.0 -2.4322039769326436 1
gene  1 26 31 1.9221518817702068 0 111.0 1.9221518817702068 1
gene  1 27 31 -1.706516430146761 0 112.0 -1.706516430146761 1
gene  1 23 32 -1.20797389976055 0 113.0 -1.20797389976055 1
gene  1 24 32 0.41904467590066785 0 114.0 0.41904467590066785 1
gene  1 25 32 -1.5085101012937148 0 115.0 -1.5085101012937148 1
gene  1 26 32 -0.2604847518040827 0 116.0 -0.2604847518040827 1
gene  1 27 32 1.0654473885398326 0 117.0 1.0654473885398326 1
gene  1 15 28 4.70782994343627 0 145.0 4.70782994343627 1
gene  1 24 41 0.7041611002973363 0 162.0 0.7041611002973363 1
gene  1 41 29 -0.7849467345565301 0 163.0 -0.7849467345565301 1
gene  1 11 28 9.218883268875562 0 192.0 9.218883268875562 1
gene  1 8 29 -2.176334847719313 0 252.0 -2.176334847719313 1
gene  1 8 69 0.6109648487557431 0 286.0 0.6109648487557431 1
gene  1 69 26 2.7645682336002895 0 287.0 2.7645682336002895 0
gene  1 14 28 8.721990907806568 0 325.0 8.721990907806568 1
gene  1 10 28 4.561700536875561 0 337.0 4.561700536875561 1
gene  1 15 32 6.306243292515637 0 371.0 6.306243292515637 1
gene  1 20 99 2.16353396511089 0 420.0 2.16353396511089 1
gene  1 99 27 -2.8094737854649665 0 421.0 -2.8094737854649665 1
gene  1 5 103 -1.0264695869117828 0 442.0 -1.0264695869117828 1
gene  1 103 24 1.3671339875182222 0 443.0 1.3671339875182222 1
gene  1 3 110 -1.3192452305966889 0 466.0 -1.3192452305966889 1
gene  1 110 26 0.17226926783242408 0 467.0 0.17226926783242408 1
gene  1 17 99 8.667263408509712 0 517.0 8.667263408509712 1
gene  1 16 128 -1.1029401447466332 0 542.0 -1.1029401447466332 1
gene  1 128 25 1.5541036770496022 0 543.0 1.5541036770496022 1
gene  1 22 103 -3.6589079271917693 0 584.0 -3.6589079271917693 1
gene  1 24 150 -0.4951572804097779 0 612.0 -0.4951572804097779 1
gene  1 150 29 1.760461199179113 0 613.0 1.760461199179113 1
gene  1 6 128 7.989030214491342 0 659.0 7.989030214491342 1
gene  1 150 69 7.977677494161361 0 697.0 7.977677494161361 1
gene  1 31 32 -7.223103554147636 0 712.0 -7.223103554147636 1
gene  1 26 41 -6.934677827942377 0 740.0 -6.934677827942377 1
gene  1 7 191 2.7026679260086692 0 774.0 2.7026679260086692 1
gene  1 191 26 2.8964560025688257 0 775.0 2.8964560025688257 1
gene  1 103 26 0.9890079923258703 0 816.0 0.9890079923258703 1
gene  1 9 29 -5.980022400228384 0 851.0 -5.980022400228384 1
gene  1 11 99 -3.9682740919211192 0 864.0 -3.9682740919211192 1
gene  1 12 99 -10.457000068568073 0 920.0 -10.457000068568073 1
gene  1 26 236 2.413153052333878 0 945.0 2.413153052333878 1
gene  1 236 28 -0.39879288095864707 0 946.0 -0.39879288095864707 1
gene  1 22 242 0.9659975009029367 0 964.0 0.9659975009029367 1
gene  1 242 24 1.9563221533460138 0 965.0 1.9563221533460138 1
gene  1 15 99 9.470992938607854 0 1027.0 9.470992938607854 1
gene  1 191 69 2.1652779438076055 0 1052.0 2.1652779438076055 1
gene  1 15 277 0.9471773128246486 0 1090.0 0.9471773128246486 1
gene  1 277 28 2.35561451715437 0 1091.0 2.35561451715437 1
gene  1 27 286 -0.12275845610281455 0 1116.0 -0.12275845610281455 1
gene  1 286 28 0.025667614407639316 0 1117.0 0.025667614407639316 0
gene  1 191 295 1.462792961073816 0 1142.0 1.462792961073816 1
gene  1 295 26 -0.6328061547708835 0 1143.0 -0.6328061547708835 1
gene  1 22 128 0.47233297098327853 0 1174.0 0.47233297098327853 0
gene  1 19 310 2.4856618195935347 0 1209.0 2.4856618195935347 1
gene  1 310 24 -1.6364077796782248 0 1210.0 -1.6364077796782248 1
gene  1 242 103 8.287160315783602 0 1238.0 8.287160315783602 1
gene  1 16 236 -0.9082556621137352 0 1287.0 -0.9082556621137352 1
gene  1 20 333 1.0 0 1305.0 1.0 1
gene  1 333 24 -0.43803176646816433 0 1306.0 -0.43803176646816433 1
gene  1 14 277 -7.3398616412898825 0 1364.0 -7.3398616412898825 1
gene  1 2 355 -0.6544197900779483 0 1395.0 -0.6544197900779483 1
gene  1 355 27 0.057231611804800075 0 1396.0 0.057231611804800075 1
gene  1 69 361 -0.018934202235794118 0 1416.0 -0.018934202235794118 1
gene  1 361 26 2.638823677941647 0 1417.0 2.638823677941647 1
gene  1 9 32 -4.24720604900855 0 1466.0 -4.24720604900855 1
gene  1 14 333 -3.785843903385777 0 1482.0 -3.785843903385777 1
gene  1 32 277 2.2177074487957547 0 1522.0 2.2177074487957547 1
gene  1 3 390 1.0 0 1547.0 1.0 1
gene  1 390 26 2.717639197728152 0 1548.0 2.717639197728152 1
gene  1 286 236 0.7913139280449974 0 1594.0 0.7913139280449974 1
gene  1 20 419 1.0 0 1638.0 1.0 1
gene  1 419 27 2.372046399786742 0 1639.0 2.372046399786742 1
gene  1 17 355 -3.941543941741722 0 1648.0 -3.941543941741722 1
gene  1 8 150 0.9703385552652399 0 1688.0 0.9703385552652399 1
gene  1 355 310 -5.568152431032543 0 1725.0 -5.568152431032543 1
gene  1 2 449 2.715246405901041 0 1757.0 2.715246405901041 1
gene  1 449 355 1.1406736985867385 0 1758.0 1.1406736985867385 1
gene  1 10 458 1.0 0 1789.0 1.0 1
gene  1 458 26 0.8334553162957417 0 1790.0 0.8334553162957417 1
gene  1 286 242 0.0177850674950375 0 1819.0 0.0177850674950375 1
gene  1 103 361 -4.425782843693852 0 1881.0 -4.425782843693852 1
gene  1 22 492 1.0 0 1911.0 0.0 1
gene  1 492 128 0.47233297098327853 0 1912.0 0.0 1
gene  1 14 502 1.0 0 1950.0 0.0 1
gene  1 502 25 -2.406576236033213 0 1951.0 0.0 1
gene  1 10 519 1.0 0 2010.0 0.0 1
gene  1 519 25 0.2779443092033518 0 2011.0 0.0 1
gene  1 103 333 -4.925490828342904 0 2033.0 -4.925490828342904 1
gene  1 7 242 -8.589149608783572 0 2047.0 -8.589149608783572 1
gene  1 361 30 -3.364430012547958 0 2081.0 -3.364430012547958 1
gene  1 286 550 1.0 0 2139.0 0.0 1
gene  1 550 28 0.025667614407639316 0 2140.0 0.0 1
gene  1 16 449 -4.819583852973205 0 2207.0 -4.819583852973205 1
gene  1 22 99 -2.805021694326193 0 2256.0 -2.805021694326193 1
gene  1 519 191 5.4862128461960324 0 2286.0 5.4862128461960324 1
gene  1 41 277 -9.127596344581471 0 2326.0 -9.127596344581471 1
gene  1 19 613 1.0 0 2370.0 0.0 1
gene  1 613 24 1.1167443914792334 0 2371.0 0.0 1
gene  1 19 361 -0.9731171545944906 0 2386.0 -0.9731171545944906 1
genomeend 0
/* Organism # 001 Fitness:  0,000 Error:  0,000                      */
genomestart  1
trait 1 0.0 0.0 0.0 0.0 0.0 0.0 0.0 0.0 
node 1 1 1 1
node 2 1 1 1
node 3 1 1 1
node 4 1 1 1
node 5 1 1 1
node 6 1 1 1
node 7 1 1 1
node 8 1 1 1
node 9 1 1 1
node 10 1 1 1
node 11 1 1 1
node 12 1 1 1
node 13 1 1 1
node 14 1 1 1
node 15 1 1 1
node 16 1 1 1
node 17 1 1 1
node 18 1 1 1
node 19 1 1 1
node 20 1 1 1
node 21 1 1 1
node 22 1 1 1
node 23 1 1 3
node 24 1 0 0
node 25 1 0 0
node 26 1 0 0
node 27 1 0 0
node 28 1 0 2
node 29 1 0 2
node 30 1 0 2
node 31 1 0 2
node 32 1 0 2
node 41 1 0 0
node 69 1 0 0
node 99 1 0 0
node 103 1 0 0
node 110 1 0 0
node 128 1 0 0
node 150 1 0 0
node 191 1 0 0
node 236 1 0 0
node 242 1 0 0
node 277 1 0 0
node 286 1 0 0
node 295 1 0 0
node 310 1 0 0
node 333 1 0 0
node 355 1 0 0
node 361 1 0 0
node 390 1 0 0
node 419 1 0 0
node 449 1 0 0
node 458 1 0 0
node 492 1 0 0
node 502 1 0 0
node 519 1 0 0
node 550 1 0 0
node 613 1 0 0
gene  1 1 24 0.6836074841519658 0 1.0 0.6836074841519658 1
gene  1 2 24 0.2418349725060388 0 2.0 0.2418349725060388 1
gene  1 3 24 2.231101296592862 0 3.0 2.231101296592862 1
gene  1 4 24 1.9984107658146633 0 4.0 1.9984107658146633 1
gene  1 5 24 -1.295047861402809 0 5.0 -1.295047861402809 1
gene  1 6 24 -0.46614332725808727 0 6.0 -0.46614332725808727 1
gene  1 7 24 -0.6632373714736616 0 7.0 -0.6632373714736616 1
gene  1 8 24 -1.1786407631101534 0 8.0 -1.1786407631101534 1
gene  1 9 24 0.7083499676735852 0 9.0 0.7083499676735852 1
gene  1 10 24 1.8287682424176324 0 10.0 1.8287682424176324 1
gene  1 11 24 0.13114292736241406 0 11.0 0.13114292736241406 1
gene  1 12 24 0.20129052057887642 0 12.0 0.20129052057887642 1
gene  1 13 24 0.15119511013894327 0 13.0 0.15119511013894327 1
gene  1 14 24 -2.305494291515135 0 14.0 -2.305494291515135 1
gene  1 15 24 1.7866237942300476 0 15.0 1.7866237942300476 1
gene  1 16 24 0.4609847206181178 0 16.0 0.4609847206181178 1
gene  1 17 24 1.1367228621818093 0 17.0 1.1367228621818093 1
gene  1 18 24 1.0832013029571876 0 18.0 1.0832013029571876 1
gene  1 19 24 1.1167443914792334 0 19.0 1.1167443914792334 0
gene  1 20 24 0.07414205454090883 0 20.0 0.07414205454090883 1
gene  1 21 24 0.5418885079930811 0 21.0 0.5418885079930811 1
gene  1 22 24 2.484950267181405 0 22.0 2.484950267181405 1
gene  1 23 24 0.425929415896056 0 23.0 0.425929415896056 1
gene  1 1 25 0.6154095691625152 0 24.0 0.6154095691625152 1
gene  1 2 25 -2.8755165268856366 0 25.0 -2.8755165268856366 1
gene  1 3 25 2.689302679798512 0 26.0 2.689302679798512 1
gene  1 4 25 -0.7614296740576152 0 27.0 -0.7614296740576152 1
gene  1 5 25 -0.12017325232786724 0 28.0 -0.12017325232786724 1
gene  1 6 25 -0.8995478796312145 0 29.0 -0.8995478796312145 1
gene  1 7 25 -0.012654369140360444 0 30.0 -0.012654369140360444 1
gene  1 8 25 1.3910890901314834 0 31.0 1.3910890901314834 1
gene  1 9 25 0.3584175622867064 0 32.0 0.3584175622867064 1
gene  1 10 25 0.2779443092033518 0 33.0 0.2779443092033518 0
gene  1 11 25 1.142465146794125 0 34.0 1.142465146794125 1
gene  1 12 25 0.9036541395774667 0 35.0 0.9036541395774667 1
gene  1 13 25 -1.2351814578924105 0 36.0 -1.2351814578924105 1
gene  1 14 25 -2.406576236033213 0 37.0 -2.406576236033213 1
gene  1 15 25 -1.3059963432256165 0 38.0 -1.3059963432256165 1
gene  1 16 25 -0.07279068140327355 0 39.0 -0.07279068140327355 1
gene  1 17 25 2.1463068148221858 0 40.0 2.1463068148221858 1
gene  1 18 25 -0.8147305052695352 0 41.0 -0.8147305052695352 1
gene  1 19 25 -1.8963916370755176 0 42.0 -1.8963916370755176 1
gene  1 20 25 -0.17530964326477716 0 43.0 -0.17530964326477716 1
gene  1 21 25 -2.1615664960138625 0 44.0 -2.1615664960138625 1
gene  1 22 25 -0.5353496319643707 0 45.0 -0.5353496319643707 1
gene  1 23 25 2.211182550883856 0 46.0 2.211182550883856 1
gene  1 1 26 -0.1813538282281052 0 47.0 -0.1813538282281052 1
gene  1 2 26 1.0348232233393615 0 48.0 1.0348232233393615 1
gene  1 3 26 -0.26852393576716355 0 49.0 -0.26852393576716355 1
gene  1 4 26 -0.5462351900443294 0 50.0 -0.5462351900443294 1
gene  1 5 26 1.841798679175527 0 51.0 1.841798679175527 1
gene  1 6 26 0.9246057866887103 0 52.0 0.9246057866887103 1
gene  1 7 26 2.961718684201993 0 53.0 2.961718684201993 1
gene  1 8 26 1.3531921659176516 0 54.0 1.3531921659176516 1
gene  1 9 26 -1.7276248866576271 0 55.0 -1.7276248866576271 1
gene  1 10 26 2.0139802487278704 0 56.0 2.0139802487278704 0
gene  1 11 26 1.528778550886252 0 57.0 1.528778550886252 1
gene  1 12 26 -0.5785609867130133 0 58.0 -0.5785609867130133 1
gene  1 13 26 -2.6797800697851013 0 59.0 -2.6797800697851013 1
gene  1 14 26 -0.5697240976550146 0 60.0 -0.5697240976550146 1
gene  1 15 26 -0.6337731619541322 0 61.0 -0.6337731619541322 1
gene  1 16 26 -3.0562620734655126 0 62.0 -3.0562620734655126 1
gene  1 17 26 -0.6658234717228073 0 63.0 -0.6658234717228073 1
gene  1 18 26 3.3403867808578074 0 64.0 3.3403867808578074 1
gene  1 19 26 0.7776803632315288 0 65.0 0.7776803632315288 1
gene  1 20 26 -0.7243609006292111 0 66.0 -0.7243609006292111 1
gene  1 21 26 -3.0739483612397973 0 67.0 -3.0739483612397973 1
gene  1 22 26 -0.8853447786938764 0 68.0 -0.8853447786938764 1
gene  1 23 26 -1.392668583310223 0 69.0 -1.392668583310223 1
gene  1 1 27 0.1950912962028929 0 70.0 0.1950912962028929 1
gene  1 2 27 -2.3849842766314993 0 71.0 -2.3849842766314993 1
gene  1 3 27 -1.4510293084069832 0 72.0 -1.4510293084069832 1
gene  1 4 27 -2.108078397682316 0 73.0 -2.108078397682316 1
gene  1 5 27 0.9853093818432086 0 74.0 0.9853093818432086 1
gene  1 6 27 1.9012442085109171 0 75.0 1.9012442085109171 1
gene  1 7 27 -1.1359514906506512 0 76.0 -1.1359514906506512 1
gene  1 8 27 1.3588260773815568 0 77.0 1.3588260773815568 1
gene  1 9 27 -2.8086161361721667 0 78.0 -2.8086161361721667 1
gene  1 10 27 0.6822866399342444 0 79.0 0.6822866399342444 1
gene  1 11 27 -1.4192574802827127 0 80.0 -1.4192574802827127 1
gene  1 12 27 2.0194659787646483 0 81.0 2.0194659787646483 1
gene  1 13 27 -3.29794013327734 0 82.0 -3.29794013327734 1
gene  1 14 27 -1.0273223382155723 0 83.0 -1.0273223382155723 1
gene  1 15 27 0.8854793246663014 0 84.0 0.8854793246663014 1
gene  1 16 27 -2.4100030796377325 0 85.0 -2.4100030796377325 1
gene  1 17 27 1.1641354279973304 0 86.0 1.1641354279973304 1
gene  1 18 27 -1.5657621004727782 0 87.0 -1.5657621004727782 1
gene  1 19 27 0.9635940309111093 0 88.0 0.9635940309111093 1
gene  1 20 27 -1.5141808232294682 0 89.0 -1.5141808232294682 1
gene  1 21 27 -1.6098739089238192 0 90.0 -1.6098739089238192 1
gene  1 22 27 -0.20721715934182405 0 91.0 -0.20721715934182405 1
gene  1 23 27 -2.7987944125960222 0 92.0 -2.7987944125960222 1
gene  1 23 28 1.3272888213665466 0 93.0 1.3272888213665466 1
gene  1 24 28 1.3820786340802313 0 94.0 1.3820786340802313 1
gene  1 25 28 0.8152174332290762 0 95.0 0.8152174332290762 1
gene  1 26 28 -1.8871519098029614 0 96.0 -1.8871519098029614 1
gene  1 27 28 -1.0416194194378714 0 97.0 -1.0416194194378714 1
gene  1 23 29 1.712662646035409 0 98.0 1.712662646035409 1
gene  1 24 29 0.3750308964985809 0 99.0 0.3750308964985809 1
gene  1 25 29 2.0081239104076944 0 100.0 2.0081239104076944 1
gene  1 26 29 -1.8177506182944394 0 101.0 -1.8177506182944394 1
gene  1 27 29 0.24578722111506612 0 102.0 0.24578722111506612 1
gene  1 23 30 -0.9792201881248785 0 103.0 -0.9792201881248785 1
gene  1 24 30 0.3847222154010963 0 104.0 0.3847222154010963 1
gene  1 25 30 1.8066113481737804 0 105.0 1.8066113481737804 1
gene  1 26 30 0.2284221571408082 0 106.0 0.2284221571408082 1
gene  1 27 30 2.7779870153214823 0 107.0 2.7779870153214823 1
gene  1 23 31 0.4191893547743016 0 108.0 0.4191893547743016 1
gene  1 24 31 0.77248384192597 0 109.0 0.77248384192597 1
gene  1 25 31 -2.4322039769326436 0 110.0 -2.4322039769326436 1
gene  1 26 31 1.9221518817702068 0 111.0 1.9221518817702068 1
gene  1 27 31 -1.706516430146761 0 112.0 -1.706516430146761 1
gene  1 23 32 -1.20797389976055 0 113.0 -1.20797389976055 1
gene  1 24 32 0.41904467590066785 0 114.0 0.41904467590066785 1
gene  1 25 32 -1.5085101012937148 0 115.0 -1.5085101012937148 1
gene  1 26 32 -0.2604847518040827 0 116.0 -0.2604847518040827 1
gene  1 27 32 1.0654473885398326 0 117.0 1.0654473885398326 1
gene  1 15 28 4.70782994343627 0 145.0 4.70782994343627 1
gene  1 24 41 0.7041611002973363 0 162.0 0.7041611002973363 1
gene  1 41 29 -0.7849467345565301 0 163.0 -0.7849467345565301 1
gene  1 11 28 9.218883268875562 0 192.0 9.218883268875562 1
gene  1 8 29 -2.176334847719313 0 252.0 -2.176334847719313 1
gene  1 8 69 0.6109648487557431 0 286.0 0.6109648487557431 1
gene  1 69 26 2.7645682336002895 0 287.0 2.7645682336002895 0
gene  1 14 28 8.721990907806568 0 325.0 8.721990907806568 1
gene  1 10 28 4.561700536875561 0 337.0 4.561700536875561 1
gene  1 15 32 6.306243292515637 0 371.0 6.306243292515637 1
gene  1 20 99 2.16353396511089 0 420.0 2.16353396511089 1
gene  1 99 27 -2.8094737854649665 0 421.0 -2.8094737854649665 1
gene  1 5 103 -1.0264695869117828 0 442.0 -1.0264695869117828 1
gene  1 103 24 1.3671339875182222 0 443.0 1.3671339875182222 1
gene  1 3 110 -1.3192452305966889 0 466.0 -1.3192452305966889 1
gene  1 110 26 0.17226926783242408 0 467.0 0.17226926783242408 1
gene  1 17 99 8.667263408509712 0 517.0 8.667263408509712 1
gene  1 16 128 -1.1029401447466332 0 542.0 -1.1029401447466332 1
gene  1 128 25 1.5541036770496022 0 543.0 1.5541036770496022 1
gene  1 22 103 -3.6589079271917693 0 584.0 -3.6589079271917693 1
gene  1 24 150 -0.4951572804097779 0 612.0 -0.4951572804097779 1
gene  1 150 29 1.760461199179113 0 613.0 1.760461199179113 1
gene  1 6 128 7.989030214491342 0 659.0 7.989030214491342 1
gene  1 150 69 7.977677494161361 0 697.0 7.977677494161361 1
gene  1 31 32 -7.223103554147636 0 712.0 -7.223103554147636 1
gene  1 26 41 -6.934677827942377 0 740.0 -6.934677827942377 1
gene  1 7 191 2.7026679260086692 0 774.0 2.7026679260086692 1
gene  1 191 26 2.8964560025688257 0 775.0 2.8964560025688257 1
gene  1 103 26 0.9890079923258703 0 816.0 0.9890079923258703 1
gene  1 9 29 -5.980022400228384 0 851.0 -5.980022400228384 1
gene  1 11 99 -3.9682740919211192 0 864.0 -3.9682740919211192 1
gene  1 12 99 -10.457000068568073 0 920.0 -10.457000068568073 1
gene  1 26 236 2.413153052333878 0 945.0 2.413153052333878 1
gene  1 236 28 -0.39879288095864707 0 946.0 -0.39879288095864707 1
gene  1 22 242 0.9659975009029367 0 964.0 0.9659975009029367 1
gene  1 242 24 1.9563221533460138 0 965.0 1.9563221533460138 1
gene  1 15 99 9.470992938607854 0 1027.0 9.470992938607854 1
gene  1 191 69 2.1652779438076055 0 1052.0 2.1652779438076055 1
gene  1 15 277 0.9471773128246486 0 1090.0 0.9471773128246486 1
gene  1 277 28 2.35561451715437 0 1091.0 2.35561451715437 1
gene  1 27 286 -0.12275845610281455 0 1116.0 -0.12275845610281455 1
gene  1 286 28 0.025667614407639316 0 1117.0 0.025667614407639316 1
gene  1 191 295 1.462792961073816 0 1142.0 1.462792961073816 1
gene  1 295 26 -0.6328061547708835 0 1143.0 -0.6328061547708835 1
gene  1 22 128 0.47233297098327853 0 1174.0 0.47233297098327853 1
gene  1 19 310 2.4856618195935347 0 1209.0 2.4856618195935347 1
gene  1 310 24 -1.6364077796782248 0 1210.0 -1.6364077796782248 1
gene  1 242 103 8.287160315783602 0 1238.0 8.287160315783602 1
gene  1 16 236 -0.9082556621137352 0 1287.0 -0.9082556621137352 1
gene  1 20 333 1.0 0 1305.0 1.0 1
gene  1 333 24 -0.43803176646816433 0 1306.0 -0.43803176646816433 1
gene  1 14 277 -7.3398616412898825 0 1364.0 -7.3398616412898825 1
gene  1 2 355 -0.6544197900779483 0 1395.0 -0.6544197900779483 1
gene  1 355 27 0.057231611804800075 0 1396.0 0.057231611804800075 1
gene  1 69 361 -0.018934202235794118 0 1416.0 -0.018934202235794118 1
gene  1 361 26 2.638823677941647 0 1417.0 2.638823677941647 1
gene  1 9 32 -4.24720604900855 0 1466.0 -4.24720604900855 1
gene  1 14 333 -3.785843903385777 0 1482.0 -3.785843903385777 1
gene  1 32 277 2.2177074487957547 0 1522.0 2.2177074487957547 1
gene  1 3 390 1.0 0 1547.0 1.0 1
gene  1 390 26 2.717639197728152 0 1548.0 2.717639197728152 1
gene  1 286 236 0.7913139280449974 0 1594.0 0.7913139280449974 1
gene  1 20 419 1.0 0 1638.0 1.0 1
gene  1 419 27 2.372046399786742 0 1639.0 2.372046399786742 1
gene  1 17 355 -3.941543941741722 0 1648.0 -3.941543941741722 1
gene  1 8 150 0.9703385552652399 0 1688.0 0.9703385552652399 1
gene  1 355 310 -5.568152431032543 0 1725.0 -5.568152431032543 1
gene  1 2 449 2.715246405901041 0 1757.0 2.715246405901041 1
gene  1 449 355 1.1406736985867385 0 1758.0 1.1406736985867385 1
gene  1 10 458 1.0 0 1789.0 1.0 1
gene  1 458 26 0.8334553162957417 0 1790.0 0.8334553162957417 1
gene  1 286 242 0.0177850674950375 0 1819.0 0.0177850674950375 1
gene  1 103 361 -4.425782843693852 0 1881.0 -4.425782843693852 1
gene  1 22 492 1.0 0 1911.0 0.0 1
gene  1 492 128 0.47233297098327853 0 1912.0 0.0 1
gene  1 14 502 1.0 0 1950.0 0.0 1
gene  1 502 25 -2.406576236033213 0 1951.0 0.0 1
gene  1 10 519 1.0 0 2010.0 0.0 1
gene  1 519 25 0.2779443092033518 0 2011.0 0.0 1
gene  1 103 333 -4.925490828342904 0 2033.0 -4.925490828342904 1
gene  1 7 242 -8.589149608783572 0 2047.0 -8.589149608783572 1
gene  1 361 30 -3.364430012547958 0 2081.0 -3.364430012547958 1
gene  1 286 550 1.0 0 2139.0 0.0 1
gene  1 550 28 0.025667614407639316 0 2140.0 0.0 1
gene  1 16 449 -4.819583852973205 0 2207.0 -4.819583852973205 1
gene  1 22 99 -2.805021694326193 0 2256.0 -2.805021694326193 1
gene  1 519 191 5.4862128461960324 0 2286.0 5.4862128461960324 1
gene  1 41 277 -9.127596344581471 0 2326.0 -9.127596344581471 1
gene  1 19 613 1.0 0 2370.0 0.0 1
gene  1 613 24 1.1167443914792334 0 2371.0 0.0 1
gene  1 19 361 -0.9731171545944906 0 2386.0 -0.9731171545944906 1
gene  1 21 110 -8.674359882083804 0 2418.0 -8.674359882083804 1
genomeend 1
/* Organism # 002 Fitness:  0,000 Error:  0,000                      */
genomestart  2
trait 1 0.0 0.0 0.0 0.0 0.0 0.0 0.0 0.0 
node 1 1 1 1
node 2 1 1 1
node 3 1 1 1
node 4 1 1 1
node 5 1 1 1
node 6 1 1 1
node 7 1 1 1
node 8 1 1 1
node 9 1 1 1
node 10 1 1 1
node 11 1 1 1
node 12 1 1 1
node 13 1 1 1
node 14 1 1 1
node 15 1 1 1
node 16 1 1 1
node 17 1 1 1
node 18 1 1 1
node 19 1 1 1
node 20 1 1 1
node 21 1 1 1
node 22 1 1 1
node 23 1 1 3
node 24 1 0 0
node 25 1 0 0
node 26 1 0 0
node 27 1 0 0
node 28 1 0 2
node 29 1 0 2
node 30 1 0 2
node 31 1 0 2
node 32 1 0 2
node 41 1 0 0
node 69 1 0 0
node 99 1 0 0
node 103 1 0 0
node 110 1 0 0
node 128 1 0 0
node 150 1 0 0
node 191 1 0 0
node 236 1 0 0
node 242 1 0 0
node 277 1 0 0
node 286 1 0 0
node 295 1 0 0
node 310 1 0 0
node 333 1 0 0
node 355 1 0 0
node 361 1 0 0
node 390 1 0 0
node 419 1 0 0
node 449 1 0 0
node 458 1 0 0
node 492 1 0 0
node 502 1 0 0
node 519 1 0 0
node 550 1 0 0
node 613 1 0 0
gene  1 1 24 0.6836074841519658 0 1.0 0.6836074841519658 1
gene  1 2 24 0.2418349725060388 0 2.0 0.2418349725060388 1
gene  1 3 24 2.231101296592862 0 3.0 2.231101296592862 1
gene  1 4 24 1.9984107658146633 0 4.0 1.9984107658146633 1
gene  1 5 24 -1.295047861402809 0 5.0 -1.295047861402809 1
gene  1 6 24 -0.46614332725808727 0 6.0 -0.46614332725808727 1
gene  1 7 24 -0.6632373714736616 0 7.0 -0.6632373714736616 1
gene  1 8 24 -1.1786407631101534 0 8.0 -1.1786407631101534 1
gene  1 9 24 0.7083499676735852 0 9.0 0.7083499676735852 1
gene  1 10 24 1.8287682424176324 0 10.0 1.8287682424176324 1
gene  1 11 24 0.13114292736241406 0 11.0 0.13114292736241406 1
gene  1 12 24 0.20129052057887642 0 12.0 0.20129052057887642 1
gene  1 13 24 0.15119511013894327 0 13.0 0.15119511013894327 1
gene  1 14 24 -2.305494291515135 0 14.0 -2.305494291515135 1
gene  1 15 24 1.7866237942300476 0 15.0 1.7866237942300476 1
gene  1 16 24 0.4609847206181178 0 16.0 0.4609847206181178 1
gene  1 17 24 1.1367228621818093 0 17.0 1.1367228621818093 1
gene  1 18 24 1.0832013029571876 0 18.0 1.0832013029571876 1
gene  1 19 24 1.1167443914792334 0 19.0 1.1167443914792334 0
gene  1 20 24 0.07414205454090883 0 20.0 0.07414205454090883 1
gene  1 21 24 0.5418885079930811 0 21.0 0.5418885079930811 1
gene  1 22 24 2.484950267181405 0 22.0 2.484950267181405 1
gene  1 23 24 0.425929415896056 0 23.0 0.425929415896056 1
gene  1 1 25 0.6154095691625152 0 24.0 0.6154095691625152 1
gene  1 2 25 -2.8755165268856366 0 25.0 -2.8755165268856366 1
gene  1 3 25 2.689302679798512 0 26.0 2.689302679798512 1
gene  1 4 25 -0.7614296740576152 0 27.0 -0.7614296740576152 1
gene  1 5 25 -0.12017325232786724 0 28.0 -0.12017325232786724 1
gene  1 6 25 -0.8995478796312145 0 29.0 -0.8995478796312145 1
gene  1 7 25 -0.012654369140360444 0 30.0 -0.012654369140360444 1
gene  1 8 25 1.3910890901314834 0 31.0 1.3910890901314834 1
gene  1 9 25 0.3584175622867064 0 32.0 0.3584175622867064 1
gene  1 10 25 0.2779443092033518 0 33.0 0.2779443092033518 0
gene  1 11 25 1.142465146794125 0 34.0 1.142465146794125 1
gene  1 12 25 0.9036541395774667 0 35.0 0.9036541395774667 1
gene  1 13 25 -1.2351814578924105 0 36.0 -1.2351814578924105 1
gene  1 14 25 -2.406576236033213 0 37.0 -2.406576236033213 1
gene  1 15 25 -1.3059963432256165 0 38.0 -1.3059963432256165 1
gene  1 16 25 -0.07279068140327355 0 39.0 -0.07279068140327355 1
gene  1 17 25 2.1463068148221858 0 40.0 2.1463068148221858 1
gene  1 18 25 -0.8147305052695352 0 41.0 -0.8147305052695352 1
gene  1 19 25 -1.8963916370755176 0 42.0 -1.8963916370755176 1
gene  1 20 25 -0.17530964326477716 0 43.0 -0.17530964326477716 1
gene  1 21 25 -2.1615664960138625 0 44.0 -2.1615664960138625 1
gene  1 22 25 -0.5353496319643707 0 45.0 -0.5353496319643707 1
gene  1 23 25 2.211182550883856 0 46.0 2.211182550883856 1
gene  1 1 26 -0.1813538282281052 0 47.0 -0.1813538282281052 1
gene  1 2 26 1.0348232233393615 0 48.0 1.0348232233393615 1
gene  1 3 26 -0.26852393576716355 0 49.0 -0.26852393576716355 1
gene  1 4 26 -0.5462351900443294 0 50.0 -0.5462351900443294 1
gene  1 5 26 1.841798679175527 0 51.0 1.841798679175527 1
gene  1 6 26 0.9246057866887103 0 52.0 0.9246057866887103 1
gene  1 7 26 2.961718684201993 0 53.0 2.961718684201993 1
gene  1 8 26 1.3531921659176516 0 54.0 1.3531921659176516 1
gene  1 9 26 -1.7276248866576271 0 55.0 -1.7276248866576271 1
gene  1 10 26 2.0139802487278704 0 56.0 2.0139802487278704 0
gene  1 11 26 1.528778550886252 0 57.0 1.528778550886252 1
gene  1 12 26 -0.5785609867130133 0 58.0 -0.5785609867130133 1
gene  1 13 26 -2.6797800697851013 0 59.0 -2.6797800697851013 1
gene  1 14 26 -0.5697240976550146 0 60.0 -0.5697240976550146 1
gene  1 15 26 -0.6337731619541322 0 61.0 -0.6337731619541322 1
gene  1 16 26 -3.0562620734655126 0 62.0 -3.0562620734655126 1
gene  1 17 26 -0.6658234717228073 0 63.0 -0.6658234717228073 1
gene  1 18 26 3.3403867808578074 0 64.0 3.3403867808578074 1
gene  1 19 26 0.7776803632315288 0 65.0 0.7776803632315288 1
gene  1 20 26 -0.7243609006292111 0 66.0 -0.7243609006292111 1
gene  1 21 26 -3.0739483612397973 0 67.0 -3.0739483612397973 1
gene  1 22 26 -0.8853447786938764 0 68.0 -0.8853447786938764 1
gene  1 23 26 -1.392668583310223 0 69.0 -1.392668583310223 1
gene  1 1 27 0.1950912962028929 0 70.0 0.1950912962028929 1
gene  1 2 27 -2.3849842766314993 0 71.0 -2.3849842766314993 1
gene  1 3 27 -1.4510293084069832 0 72.0 -1.4510293084069832 1
gene  1 4 27 -2.108078397682316 0 73.0 -2.108078397682316 1
gene  1 5 27 0.9853093818432086 0 74.0 0.9853093818432086 1
gene  1 6 27 1.9012442085109171 0 75.0 1.9012442085109171 1
gene  1 7 27 -1.1359514906506512 0 76.0 -1.1359514906506512 1
gene  1 8 27 1.3588260773815568 0 77.0 1.3588260773815568 1
gene  1 9 27 -2.8086161361721667 0 78.0 -2.8086161361721667 1
gene  1 10 27 0.6822866399342444 0 79.0 0.6822866399342444 1
gene  1 11 27 -1.4192574802827127 0 80.0 -1.4192574802827127 1
gene  1 12 27 2.0194659787646483 0 81.0 2.0194659787646483 1
gene  1 13 27 -3.29794013327734 0 82.0 -3.29794013327734 1
gene  1 14 27 -1.0273223382155723 0 83.0 -1.0273223382155723 1
gene  1 15 27 0.8854793246663014 0 84.0 0.8854793246663014 1
gene  1 16 27 -2.4100030796377325 0 85.0 -2.4100030796377325 1
gene  1 17 27 1.1641354279973304 0 86.0 1.1641354279973304 1
gene  1 18 27 -1.5657621004727782 0 87.0 -1.5657621004727782 1
gene  1 19 27 0.9635940309111093 0 88.0 0.9635940309111093 1
gene  1 20 27 -1.5141808232294682 0 89.0 -1.5141808232294682 1
gene  1 21 27 -1.6098739089238192 0 90.0 -1.6098739089238192 1
gene  1 22 27 -0.20721715934182405 0 91.0 -0.20721715934182405 1
gene  1 23 27 -2.7987944125960222 0 92.0 -2.7987944125960222 1
gene  1 23 28 1.3272888213665466 0 93.0 1.3272888213665466 1
gene  1 24 28 1.3820786340802313 0 94.0 1.3820786340802313 1
gene  1 25 28 0.8152174332290762 0 95.0 0.8152174332290762 1
gene  1 26 28 -1.8871519098029614 0 96.0 -1.8871519098029614 1
gene  1 27 28 -1.0416194194378714 0 97.0 -1.0416194194378714 1
gene  1 23 29 1.712662646035409 0 98.0 1.712662646035409 1
gene  1 24 29 0.3750308964985809 0 99.0 0.3750308964985809 1
gene  1 25 29 2.0081239104076944 0 100.0 2.0081239104076944 1
gene  1 26 29 -1.8177506182944394 0 101.0 -1.8177506182944394 1
gene  1 27 29 0.24578722111506612 0 102.0 0.24578722111506612 1
gene  1 23 30 -0.9792201881248785 0 103.0 -0.9792201881248785 1
gene  1 24 30 0.3847222154010963 0 104.0 0.3847222154010963 1
gene  1 25 30 1.8066113481737804 0 105.0 1.8066113481737804 1
gene  1 26 30 0.2284221571408082 0 106.0 0.2284221571408082 1
gene  1 27 30 2.7779870153214823 0 107.0 2.7779870153214823 1
gene  1 23 31 0.4191893547743016 0 108.0 0.4191893547743016 1
gene  1 24 31 0.77248384192597 0 109.0 0.77248384192597 1
gene  1 25 31 -2.4322039769326436 0 110.0 -2.4322039769326436 1
gene  1 26 31 1.9221518817702068 0 111.0 1.9221518817702068 1
gene  1 27 31 -1.706516430146761 0 112.0 -1.706516430146761 1
gene  1 23 32 -1.20797389976055 0 113.0 -1.20797389976055 1
gene  1 24 32 0.41904467590066785 0 114.0 0.41904467590066785 1
gene  1 25 32 -1.5085101012937148 0 115.0 -1.5085101012937148 1
gene  1 26 32 -0.2604847518040827 0 116.0 -0.2604847518040827 1
gene  1 27 32 1.0654473885398326 0 117.0 1.0654473885398326 1
gene  1 15 28 4.70782994343627 0 145.0 4.70782994343627 1
gene  1 24 41 0.7041611002973363 0 162.0 0.7041611002973363 1
gene  1 41 29 -0.7849467345565301 0 163.0 -0.7849467345565301 1
gene  1 11 28 9.218883268875562 0 192.0 9.218883268875562 1
gene  1 8 29 -2.176334847719313 0 252.0 -2.176334847719313 1
gene  1 8 69 0.6109648487557431 0 286.0 0.6109648487557431 1
gene  1 69 26 2.7645682336002895 0 287.0 2.7645682336002895 0
gene  1 14 28 8.721990907806568 0 325.0 8.721990907806568 1
gene  1 10 28 4.561700536875561 0 337.0 4.561700536875561 1
gene  1 15 32 6.306243292515637 0 371.0 6.306243292515637 1
gene  1 20 99 2.16353396511089 0 420.0 2.16353396511089 1
gene  1 99 27 -2.8094737854649665 0 421.0 -2.8094737854649665 1
gene  1 5 103 -1.0264695869117828 0 442.0 -1.0264695869117828 1
gene  1 103 24 1.3671339875182222 0 443.0 1.3671339875182222 1
gene  1 3 110 -1.3192452305966889 0 466.0 -1.3192452305966889 1
gene  1 110 26 0.17226926783242408 0 467.0 0.17226926783242408 1
gene  1 17 99 8.667263408509712 0 517.0 8.667263408509712 1
gene  1 16 128 -1.1029401447466332 0 542.0 -1.1029401447466332 1
gene  1 128 25 1.5541036770496022 0 543.0 1.5541036770496022 1
gene  1 22 103 -3.6589079271917693 0 584.0 -3.6589079271917693 1
gene  1 24 150 -0.4951572804097779 0 612.0 -0.4951572804097779 1
gene  1 150 29 1.760461199179113 0 613.0 1.760461199179113 1
gene  1 6 128 7.989030214491342 0 659.0 7.989030214491342 1
gene  1 150 69 7.977677494161361 0 697.0 7.977677494161361 1
gene  1 31 32 -7.223103554147636 0 712.0 -7.223103554147636 1
gene  1 26 41 -6.934677827942377 0 740.0 -6.934677827942377 1
gene  1 7 191 2.7026679260086692 0 774.0 2.7026679260086692 1
gene  1 191 26 2.8964560025688257 0 775.0 2.8964560025688257 1
gene  1 103 26 0.9890079923258703 0 816.0 0.9890079923258703 1
gene  1 9 29 -5.980022400228384 0 851.0 -5.980022400228384 1
gene  1 11 99 -3.9682740919211192 0 864.0 -3.9682740919211192 1
gene  1 12 99 -10.457000068568073 0 920.0 -10.457000068568073 1
gene  1 26 236 2.413153052333878 0 945.0 2.413153052333878 1
gene  1 236 28 -0.39879288095864707 0 946.0 -0.39879288095864707 1
gene  1 22 242 0.9659975009029367 0 964.0 0.9659975009029367 1
gene  1 242 24 1.9563221533460138 0 965.0 1.9563221533460138 1
gene  1 15 99 9.470992938607854 0 1027.0 9.470992938607854 1
gene  1 191 69 2.1652779438076055 0 1052.0 2.1652779438076055 1
gene  1 15 277 0.9471773128246486 0 1090.0 0.9471773128246486 1
gene  1 277 28 2.35561451715437 0 1091.0 2.35561451715437 1
gene  1 27 286 -0.12275845610281455 0 1116.0 -0.12275845610281455 1
gene  1 286 28 0.025667614407639316 0 1117.0 0.025667614407639316 0
gene  1 191 295 1.462792961073816 0 1142.0 1.462792961073816 1
gene  1 295 26 -0.6328061547708835 0 1143.0 -0.6328061547708835 1
gene  1 22 128 0.47233297098327853 0 1174.0 0.47233297098327853 0
gene  1 19 310 2.4856618195935347 0 1209.0 2.4856618195935347 1
gene  1 310 24 -1.6364077796782248 0 1210.0 -1.6364077796782248 1
gene  1 242 103 8.287160315783602 0 1238.0 8.287160315783602 1
gene  1 16 236 -0.9082556621137352 0 1287.0 -0.9082556621137352 1
gene  1 20 333 1.0 0 1305.0 1.0 1
gene  1 333 24 -0.43803176646816433 0 1306.0 -0.43803176646816433 1
gene  1 14 277 -7.3398616412898825 0 1364.0 -7.3398616412898825 1
gene  1 2 355 -0.6544197900779483 0 1395.0 -0.6544197900779483 1
gene  1 355 27 0.057231611804800075 0 1396.0 0.057231611804800075 1
gene  1 69 361 -0.018934202235794118 0 1416.0 -0.018934202235794118 1
gene  1 361 26 2.638823677941647 0 1417.0 2.638823677941647 1
gene  1 9 32 -4.24720604900855 0 1466.0 -4.24720604900855 1
gene  1 14 333 -3.785843903385777 0 1482.0 -3.785843903385777 1
gene  1 32 277 2.2177074487957547 0 1522.0 2.2177074487957547 1
gene  1 3 390 1.0 0 1547.0 1.0 1
gene  1 390 26 2.717639197728152 0 1548.0 2.717639197728152 1
gene  1 286 236 0.7913139280449974 0 1594.0 0.7913139280449974 1
gene  1 20 419 1.0 0 1638.0 1.0 1
gene  1 419 27 2.372046399786742 0 1639.0 2.372046399786742 1
gene  1 17 355 -3.941543941741722 0 1648.0 -3.941543941741722 1
gene  1 8 150 0.9703385552652399 0 1688.0 0.9703385552652399 1
gene  1 355 310 -5.568152431032543 0 1725.0 -5.568152431032543 1
gene  1 2 449 2.715246405901041 0 1757.0 2.715246405901041 1
gene  1 449 355 1.1406736985867385 0 1758.0 1.1406736985867385 1
gene  1 10 458 1.0 0 1789.0 1.0 1
gene  1 458 26 0.8334553162957417 0 1790.0 0.8334553162957417 1
gene  1 286 242 0.0177850674950375 0 1819.0 0.0177850674950375 1
gene  1 103 361 -4.425782843693852 0 1881.0 -4.425782843693852 1
gene  1 22 492 1.0 0 1911.0 0.0 1
gene  1 492 128 0.47233297098327853 0 1912.0 0.0 1
gene  1 14 502 1.0 0 1950.0 0.0 1
gene  1 502 25 -2.406576236033213 0 1951.0 0.0 1
gene  1 10 519 1.0 0 2010.0 0.0 1
gene  1 519 25 0.2779443092033518 0 2011.0 0.0 1
gene  1 103 333 -4.925490828342904 0 2033.0 -4.925490828342904 1
gene  1 7 242 -8.589149608783572 0 2047.0 -8.589149608783572 1
gene  1 361 30 -3.364430012547958 0 2081.0 -3.364430012547958 1
gene  1 286 550 1.0 0 2139.0 0.0 1
gene  1 550 28 0.025667614407639316 0 2140.0 0.0 1
gene  1 16 449 -4.819583852973205 0 2207.0 -4.819583852973205 1
gene  1 22 99 -2.805021694326193 0 2256.0 -2.805021694326193 1
gene  1 519 191 5.4862128461960324 0 2286.0 5.4862128461960324 1
gene  1 41 277 -9.127596344581471 0 2326.0 -9.127596344581471 1
gene  1 19 613 1.0 0 2370.0 0.0 1
gene  1 613 24 1.1167443914792334 0 2371.0 0.0 1
gene  1 19 361 -0.9731171545944906 0 2386.0 -0.9731171545944906 1
gene  1 150 519 6.419898397957137 0 2419.0 6.419898397957137 1
genomeend 2
/* Organism # 003 Fitness:  0,000 Error:  0,000                      */
genomestart  3
trait 1 0.0 0.0 0.0 0.0 0.0 0.0 0.0 0.0 
node 1 1 1 1
node 2 1 1 1
node 3 1 1 1
node 4 1 1 1
node 5 1 1 1
node 6 1 1 1
node 7 1 1 1
node 8 1 1 1
node 9 1 1 1
node 10 1 1 1
node 11 1 1 1
node 12 1 1 1
node 13 1 1 1
node 14 1 1 1
node 15 1 1 1
node 16 1 1 1
node 17 1 1 1
node 18 1 1 1
node 19 1 1 1
node 20 1 1 1
node 21 1 1 1
node 22 1 1 1
node 23 1 1 3
node 24 1 0 0
node 25 1 0 0
node 26 1 0 0
node 27 1 0 0
node 28 1 0 2
node 29 1 0 2
node 30 1 0 2
node 31 1 0 2
node 32 1 0 2
node 41 1 0 0
node 69 1 0 0
node 99 1 0 0
node 103 1 0 0
node 110 1 0 0
node 128 1 0 0
node 150 1 0 0
node 191 1 0 0
node 236 1 0 0
node 242 1 0 0
node 277 1 0 0
node 286 1 0 0
node 295 1 0 0
node 310 1 0 0
node 333 1 0 0
node 355 1 0 0
node 361 1 0 0
node 390 1 0 0
node 419 1 0 0
node 449 1 0 0
node 458 1 0 0
node 492 1 0 0
node 502 1 0 0
node 519 1 0 0
node 550 1 0 0
node 613 1 0 0
gene  1 1 24 0.6836074841519658 0 1.0 0.6836074841519658 1
gene  1 2 24 0.2418349725060388 0 2.0 0.2418349725060388 1
gene  1 3 24 2.231101296592862 0 3.0 2.231101296592862 1
gene  1 4 24 1.9984107658146633 0 4.0 1.9984107658146633 1
gene  1 5 24 -1.295047861402809 0 5.0 -1.295047861402809 1
gene  1 6 24 -0.46614332725808727 0 6.0 -0.46614332725808727 1
gene  1 7 24 -0.6632373714736616 0 7.0 -0.6632373714736616 1
gene  1 8 24 -1.1786407631101534 0 8.0 -1.1786407631101534 1
gene  1 9 24 0.7083499676735852 0 9.0 0.7083499676735852 1
gene  1 10 24 1.8287682424176324 0 10.0 1.8287682424176324 1
gene  1 11 24 0.13114292736241406 0 11.0 0.13114292736241406 1
gene  1 12 24 0.20129052057887642 0 12.0 0.20129052057887642 1
gene  1 13 24 0.15119511013894327 0 13.0 0.15119511013894327 1
gene  1 14 24 -2.305494291515135 0 14.0 -2.305494291515135 1
gene  1 15 24 1.7866237942300476 0 15.0 1.7866237942300476 1
gene  1 16 24 0.4609847206181178 0 16.0 0.4609847206181178 1
gene  1 17 24 1.1367228621818093 0 17.0 1.1367228621818093 1
gene  1 18 24 1.0832013029571876 0 18.0 1.0832013029571876 1
gene  1 19 24 1.1167443914792334 0 19.0 1.1167443914792334 0
gene  1 20 24 0.07414205454090883 0 20.0 0.07414205454090883 1
gene  1 21 24 0.5418885079930811 0 21.0 0.5418885079930811 1
gene  1 22 24 2.484950267181405 0 22.0 2.484950267181405 1
gene  1 23 24 0.425929415896056 0 23.0 0.425929415896056 1
gene  1 1 25 0.6154095691625152 0 24.0 0.6154095691625152 1
gene  1 2 25 -2.8755165268856366 0 25.0 -2.8755165268856366 1
gene  1 3 25 2.689302679798512 0 26.0 2.689302679798512 1
gene  1 4 25 -0.7614296740576152 0 27.0 -0.7614296740576152 1
gene  1 5 25 -0.12017325232786724 0 28.0 -0.12017325232786724 1
gene  1 6 25 -0.8995478796312145 0 29.0 -0.8995478796312145 1
gene  1 7 25 -0.012654369140360444 0 30.0 -0.012654369140360444 1
gene  1 8 25 1.3910890901314834 0 31.0 1.3910890901314834 1
gene  1 9 25 0.3584175622867064 0 32.0 0.3584175622867064 1
gene  1 10 25 0.2779443092033518 0 33.0 0.2779443092033518 0
gene  1 11 25 1.142465146794125 0 34.0 1.142465146794125 1
gene  1 12 25 0.9036541395774667 0 35.0 0.9036541395774667 1
gene  1 13 25 -1.2351814578924105 0 36.0 -1.2351814578924105 1
gene  1 14 25 -2.406576236033213 0 37.0 -2.406576236033213 1
gene  1 15 25 -1.3059963432256165 0 38.0 -1.3059963432256165 1
gene  1 16 25 -0.07279068140327355 0 39.0 -0.07279068140327355 1
gene  1 17 25 2.1463068148221858 0 40.0 2.1463068148221858 1
gene  1 18 25 -0.8147305052695352 0 41.0 -0.8147305052695352 1
gene  1 19 25 -1.8963916370755176 0 42.0 -1.8963916370755176 1
gene  1 20 25 -0.17530964326477716 0 43.0 -0.17530964326477716 1
gene  1 21 25 -2.1615664960138625 0 44.0 -2.1615664960138625 1
gene  1 22 25 -0.5353496319643707 0 45.0 -0.5353496319643707 1
gene  1 23 25 2.211182550883856 0 46.0 2.211182550883856 1
gene  1 1 26 -0.1813538282281052 0 47.0 -0.1813538282281052 1
gene  1 2 26 1.0348232233393615 0 48.0 1.0348232233393615 1
gene  1 3 26 -0.26852393576716355 0 49.0 -0.26852393576716355 1
gene  1 4 26 -0.5462351900443294 0 50.0 -0.5462351900443294 1
gene  1 5 26 1.841798679175527 0 51.0 1.841798679175527 1
gene  1 6 26 0.9246057866887103 0 52.0 0.9246057866887103 1
gene  1 7 26 2.961718684201993 0 53.0 2.961718684201993 1
gene  1 8 26 1.3531921659176516 0 54.0 1.3531921659176516 1
gene  1 9 26 -1.7276248866576271 0 55.0 -1.7276248866576271 1
gene  1 10 26 2.0139802487278704 0 56.0 2.0139802487278704 0
gene  1 11 26 1.528778550886252 0 57.0 1.528778550886252 1
gene  1 12 26 -0.5785609867130133 0 58.0 -0.5785609867130133 1
gene  1 13 26 -2.6797800697851013 0 59.0 -2.6797800697851013 1
gene  1 14 26 -0.5697240976550146 0 60.0 -0.5697240976550146 1
gene  1 15 26 -0.6337731619541322 0 61.0 -0.6337731619541322 1
gene  1 16 26 -3.0562620734655126 0 62.0 -3.0562620734655126 1
gene  1 17 26 -0.6658234717228073 0 63.0 -0.6658234717228073 1
gene  1 18 26 3.3403867808578074 0 64.0 3.3403867808578074 1
gene  1 19 26 0.7776803632315288 0 65.0 0.7776803632315288 1
gene  1 20 26 -0.7243609006292111 0 66.0 -0.7243609006292111 1
gene  1 21 26 -3.0739483612397973 0 67.0 -3.0739483612397973 1
gene  1 22 26 -0.8853447786938764 0 68.0 -0.8853447786938764 1
gene  1 23 26 -1.392668583310223 0 69.0 -1.392668583310223 1
gene  1 1 27 0.1950912962028929 0 70.0 0.1950912962028929 1
gene  1 2 27 -2.3849842766314993 0 71.0 -2.3849842766314993 1
gene  1 3 27 -1.4510293084069832 0 72.0 -1.4510293084069832 1
gene  1 4 27 -2.108078397682316 0 73.0 -2.108078397682316 1
gene  1 5 27 0.9853093818432086 0 74.0 0.9853093818432086 1
gene  1 6 27 1.9012442085109171 0 75.0 1.9012442085109171 1
gene  1 7 27 -1.1359514906506512 0 76.0 -1.1359514906506512 1
gene  1 8 27 1.3588260773815568 0 77.0 1.3588260773815568 1
gene  1 9 27 -2.8086161361721667 0 78.0 -2.8086161361721667 1
gene  1 10 27 0.6822866399342444 0 79.0 0.6822866399342444 1
gene  1 11 27 -1.4192574802827127 0 80.0 -1.4192574802827127 1
gene  1 12 27 2.0194659787646483 0 81.0 2.0194659787646483 1
gene  1 13 27 -3.29794013327734 0 82.0 -3.29794013327734 1
gene  1 14 27 -1.0273223382155723 0 83.0 -1.0273223382155723 1
gene  1 15 27 0.8854793246663014 0 84.0 0.8854793246663014 1
gene  1 16 27 -2.4100030796377325 0 85.0 -2.4100030796377325 1
gene  1 17 27 1.1641354279973304 0 86.0 1.1641354279973304 1
gene  1 18 27 -1.5657621004727782 0 87.0 -1.5657621004727782 1
gene  1 19 27 0.9635940309111093 0 88.0 0.9635940309111093 1
gene  1 20 27 -1.5141808232294682 0 89.0 -1.5141808232294682 1
gene  1 21 27 -1.6098739089238192 0 90.0 -1.6098739089238192 1
gene  1 22 27 -0.20721715934182405 0 91.0 -0.20721715934182405 1
gene  1 23 27 -2.7987944125960222 0 92.0 -2.7987944125960222 1
gene  1 23 28 1.3272888213665466 0 93.0 1.3272888213665466 1
gene  1 24 28 1.3820786340802313 0 94.0 1.3820786340802313 1
gene  1 25 28 0.8152174332290762 0 95.0 0.8152174332290762 1
gene  1 26 28 -1.8871519098029614 0 96.0 -1.8871519098029614 1
gene  1 27 28 -1.0416194194378714 0 97.0 -1.0416194194378714 1
gene  1 23 29 1.712662646035409 0 98.0 1.712662646035409 1
gene  1 24 29 0.3750308964985809 0 99.0 0.3750308964985809 1
gene  1 25 29 2.0081239104076944 0 100.0 2.0081239104076944 1
gene  1 26 29 -1.8177506182944394 0 101.0 -1.8177506182944394 1
gene  1 27 29 0.24578722111506612 0 102.0 0.24578722111506612 1
gene  1 23 30 -0.9792201881248785 0 103.0 -0.9792201881248785 1
gene  1 24 30 0.3847222154010963 0 104.0 0.3847222154010963 1
gene  1 25 30 1.8066113481737804 0 105.0 1.8066113481737804 1
gene  1 26 30 0.2284221571408082 0 106.0 0.2284221571408082 1
gene  1 27 30 2.7779870153214823 0 107.0 2.7779870153214823 1
gene  1 23 31 0.4191893547743016 0 108.0 0.4191893547743016 1
gene  1 24 31 0.77248384192597 0 109.0 0.77248384192597 1
gene  1 25 31 -2.4322039769326436 0 110.0 -2.4322039769326436 1
gene  1 26 31 1.9221518817702068 0 111.0 1.9221518817702068 1
gene  1 27 31 -1.706516430146761 0 112.0 -1.706516430146761 1
gene  1 23 32 -1.20797389976055 0 113.0 -1.20797389976055 1
gene  1 24 32 0.41904467590066785 0 114.0 0.41904467590066785 1
gene  1 25 32 -1.5085101012937148 0 115.0 -1.5085101012937148 1
gene  1 26 32 -0.2604847518040827 0 116.0 -0.2604847518040827 1
gene  1 27 32 1.0654473885398326 0 117.0 1.0654473885398326 1
gene  1 15 28 4.70782994343627 0 145.0 4.70782994343627 1
gene  1 24 41 0.7041611002973363 0 162.0 0.7041611002973363 1
gene  1 41 29 -0.7849467345565301 0 163.0 -0.7849467345565301 1
gene  1 11 28 9.218883268875562 0 192.0 9.218883268875562 1
gene  1 8 29 -2.176334847719313 0 252.0 -2.176334847719313 1
gene  1 8 69 0.6109648487557431 0 286.0 0.6109648487557431 1
gene  1 69 26 2.7645682336002895 0 287.0 2.7645682336002895 0
gene  1 14 28 8.721990907806568 0 325.0 8.721990907806568 1
gene  1 10 28 4.561700536875561 0 337.0 4.561700536875561 1
gene  1 15 32 6.306243292515637 0 371.0 6.306243292515637 1
gene  1 20 99 2.16353396511089 0 420.0 2.16353396511089 1
gene  1 99 27 -2.8094737854649665 0 421.0 -2.8094737854649665 1
gene  1 5 103 -1.0264695869117828 0 442.0 -1.0264695869117828 1
gene  1 103 24 1.3671339875182222 0 443.0 1.3671339875182222 1
gene  1 3 110 -1.3192452305966889 0 466.0 -1.3192452305966889 1
gene  1 110 26 0.17226926783242408 0 467.0 0.17226926783242408 1
gene  1 17 99 8.667263408509712 0 517.0 8.667263408509712 1
gene  1 16 128 -1.1029401447466332 0 542.0 -1.1029401447466332 1
gene  1 128 25 1.5541036770496022 0 543.0 1.5541036770496022 1
gene  1 22 103 -3.6589079271917693 0 584.0 -3.6589079271917693 1
gene  1 24 150 -0.4951572804097779 0 612.0 -0.4951572804097779 1
gene  1 150 29 1.760461199179113 0 613.0 1.760461199179113 1
gene  1 6 128 7.989030214491342 0 659.0 7.989030214491342 1
gene  1 150 69 7.977677494161361 0 697.0 7.977677494161361 1
gene  1 31 32 -7.223103554147636 0 712.0 -7.223103554147636 1
gene  1 26 41 -6.934677827942377 0 740.0 -6.934677827942377 1
gene  1 7 191 2.7026679260086692 0 774.0 2.7026679260086692 1
gene  1 191 26 2.8964560025688257 0 775.0 2.8964560025688257 1
gene  1 103 26 0.9890079923258703 0 816.0 0.9890079923258703 1
gene  1 9 29 -5.980022400228384 0 851.0 -5.980022400228384 1
gene  1 11 99 -3.9682740919211192 0 864.0 -3.9682740919211192 1
gene  1 12 99 -10.457000068568073 0 920.0 -10.457000068568073 1
gene  1 26 236 2.413153052333878 0 945.0 2.413153052333878 1
gene  1 236 28 -0.39879288095864707 0 946.0 -0.39879288095864707 1
gene  1 22 242 0.9659975009029367 0 964.0 0.9659975009029367 1
gene  1 242 24 1.9563221533460138 0 965.0 1.9563221533460138 1
gene  1 15 99 9.470992938607854 0 1027.0 9.470992938607854 1
gene  1 191 69 2.1652779438076055 0 1052.0 2.1652779438076055 1
gene  1 15 277 0.9471773128246486 0 1090.0 0.9471773128246486 1
gene  1 277 28 2.35561451715437 0 1091.0 2.35561451715437 1
gene  1 27 286 -0.12275845610281455 0 1116.0 -0.12275845610281455 1
gene  1 286 28 0.025667614407639316 0 1117.0 0.025667614407639316 0
gene  1 191 295 1.462792961073816 0 1142.0 1.462792961073816 1
gene  1 295 26 -0.6328061547708835 0 1143.0 -0.6328061547708835 1
gene  1 22 128 0.47233297098327853 0 1174.0 0.47233297098327853 0
gene  1 19 310 2.4856618195935347 0 1209.0 2.4856618195935347 1
gene  1 310 24 -1.6364077796782248 0 1210.0 -1.6364077796782248 1
gene  1 242 103 8.287160315783602 0 1238.0 8.287160315783602 1
gene  1 16 236 -0.9082556621137352 0 1287.0 -0.9082556621137352 1
gene  1 20 333 1.0 0 1305.0 1.0 1
gene  1 333 24 -0.43803176646816433 0 1306.0 -0.43803176646816433 1
gene  1 14 277 -7.3398616412898825 0 1364.0 -7.3398616412898825 1
gene  1 2 355 -0.6544197900779483 0 1395.0 -0.6544197900779483 1
gene  1 355 27 0.057231611804800075 0 1396.0 0.057231611804800075 1
gene  1 69 361 -0.018934202235794118 0 1416.0 -0.018934202235794118 1
gene  1 361 26 2.638823677941647 0 1417.0 2.638823677941647 1
gene  1 9 32 -4.24720604900855 0 1466.0 -4.24720604900855 1
gene  1 14 333 -3.785843903385777 0 1482.0 -3.785843903385777 1
gene  1 32 277 2.2177074487957547 0 1522.0 2.2177074487957547 1
gene  1 3 390 1.0 0 1547.0 1.0 1
gene  1 390 26 2.717639197728152 0 1548.0 2.717639197728152 1
gene  1 286 236 0.7913139280449974 0 1594.0 0.7913139280449974 1
gene  1 20 419 1.0 0 1638.0 1.0 1
gene  1 419 27 2.372046399786742 0 1639.0 2.372046399786742 1
gene  1 17 355 -3.941543941741722 0 1648.0 -3.941543941741722 1
gene  1 8 150 0.9703385552652399 0 1688.0 0.9703385552652399 1
gene  1 355 310 -5.568152431032543 0 1725.0 -5.568152431032543 1
gene  1 2 449 2.715246405901041 0 1757.0 2.715246405901041 1
gene  1 449 355 1.1406736985867385 0 1758.0 1.1406736985867385 1
gene  1 10 458 1.0 0 1789.0 1.0 1
gene  1 458 26 0.8334553162957417 0 1790.0 0.8334553162957417 1
gene  1 286 242 0.0177850674950375 0 1819.0 0.0177850674950375 1
gene  1 103 361 -4.425782843693852 0 1881.0 -4.425782843693852 1
gene  1 22 492 1.0 0 1911.0 0.0 1
gene  1 492 128 0.47233297098327853 0 1912.0 0.0 1
gene  1 14 502 1.0 0 1950.0 0.0 1
gene  1 502 25 -2.406576236033213 0 1951.0 0.0 1
gene  1 10 519 1.0 0 2010.0 0.0 1
gene  1 519 25 0.2779443092033518 0 2011.0 0.0 1
gene  1 103 333 -4.925490828342904 0 2033.0 -4.925490828342904 1
gene  1 7 242 -8.589149608783572 0 2047.0 -8.589149608783572 1
gene  1 361 30 -3.364430012547958 0 2081.0 -3.364430012547958 1
gene  1 286 550 1.0 0 2139.0 0.0 1
gene  1 550 28 0.025667614407639316 0 2140.0 0.0 1
gene  1 16 449 -4.819583852973205 0 2207.0 -4.819583852973205 1
gene  1 22 99 -2.805021694326193 0 2256.0 -2.805021694326193 1
gene  1 519 191 5.4862128461960324 0 2286.0 5.4862128461960324 1
gene  1 41 277 -9.127596344581471 0 2326.0 -9.127596344581471 1
gene  1 19 613 1.0 0 2370.0 0.0 1
gene  1 613 24 1.1167443914792334 0 2371.0 0.0 1
gene  1 19 361 -0.9731171545944906 0 2386.0 -0.9731171545944906 1
gene  1 27 24 8.98234872645752 0 2420.0 8.98234872645752 1
genomeend 3
/* Organism # 004 Fitness:  0,000 Error:  0,000                      */
genomestart  4
trait 1 0.0 0.0 0.0 0.0 0.0 0.0 0.0 0.0 
node 1 1 1 1
node 2 1 1 1
node 3 1 1 1
node 4 1 1 1
node 5 1 1 1
node 6 1 1 1
node 7 1 1 1
node 8 1 1 1
node 9 1 1 1
node 10 1 1 1
node 11 1 1 1
node 12 1 1 1
node 13 1 1 1
node 14 1 1 1
node 15 1 1 1
node 16 1 1 1
node 17 1 1 1
node 18 1 1 1
node 19 1 1 1
node 20 1 1 1
node 21 1 1 1
node 22 1 1 1
node 23 1 1 3
node 24 1 0 0
node 25 1 0 0
node 26 1 0 0
node 27 1 0 0
node 28 1 0 2
node 29 1 0 2
node 30 1 0 2
node 31 1 0 2
node 32 1 0 2
node 41 1 0 0
node 69 1 0 0
node 99 1 0 0
node 103 1 0 0
node 110 1 0 0
node 128 1 0 0
node 150 1 0 0
node 191 1 0 0
node 236 1 0 0
node 242 1 0 0
node 277 1 0 0
node 286 1 0 0
node 295 1 0 0
node 310 1 0 0
node 333 1 0 0
node 355 1 0 0
node 361 1 0 0
node 390 1 0 0
node 419 1 0 0
node 449 1 0 0
node 458 1 0 0
node 492 1 0 0
node 502 1 0 0
node 519 1 0 0
node 550 1 0 0
node 613 1 0 0
node 626 1 0 0
gene  1 1 24 0.6836074841519658 0 1.0 0.6836074841519658 1
gene  1 2 24 0.2418349725060388 0 2.0 0.2418349725060388 1
gene  1 3 24 2.231101296592862 0 3.0 2.231101296592862 1
gene  1 4 24 1.9984107658146633 0 4.0 1.9984107658146633 1
gene  1 5 24 -1.295047861402809 0 5.0 -1.295047861402809 1
gene  1 6 24 -0.46614332725808727 0 6.0 -0.46614332725808727 1
gene  1 7 24 -0.6632373714736616 0 7.0 -0.6632373714736616 1
gene  1 8 24 -1.1786407631101534 0 8.0 -1.1786407631101534 1
gene  1 9 24 0.7083499676735852 0 9.0 0.7083499676735852 1
gene  1 10 24 1.8287682424176324 0 10.0 1.8287682424176324 1
gene  1 11 24 0.13114292736241406 0 11.0 0.13114292736241406 1
gene  1 12 24 0.20129052057887642 0 12.0 0.20129052057887642 1
gene  1 13 24 0.15119511013894327 0 13.0 0.15119511013894327 1
gene  1 14 24 -2.305494291515135 0 14.0 -2.305494291515135 1
gene  1 15 24 1.7866237942300476 0 15.0 1.7866237942300476 1
gene  1 16 24 0.4609847206181178 0 16.0 0.4609847206181178 1
gene  1 17 24 1.1367228621818093 0 17.0 1.1367228621818093 1
gene  1 18 24 1.0832013029571876 0 18.0 1.0832013029571876 1
gene  1 19 24 1.1167443914792334 0 19.0 1.1167443914792334 0
gene  1 20 24 0.07414205454090883 0 20.0 0.07414205454090883 1
gene  1 21 24 0.5418885079930811 0 21.0 0.5418885079930811 1
gene  1 22 24 2.484950267181405 0 22.0 2.484950267181405 1
gene  1 23 24 0.425929415896056 0 23.0 0.425929415896056 1
gene  1 1 25 0.6154095691625152 0 24.0 0.6154095691625152 1
gene  1 2 25 -2.8755165268856366 0 25.0 -2.8755165268856366 1
gene  1 3 25 2.689302679798512 0 26.0 2.689302679798512 1
gene  1 4 25 -0.7614296740576152 0 27.0 -0.7614296740576152 1
gene  1 5 25 -0.12017325232786724 0 28.0 -0.12017325232786724 1
gene  1 6 25 -0.8995478796312145 0 29.0 -0.8995478796312145 1
gene  1 7 25 -0.012654369140360444 0 30.0 -0.012654369140360444 1
gene  1 8 25 1.3910890901314834 0 31.0 1.3910890901314834 1
gene  1 9 25 0.3584175622867064 0 32.0 0.3584175622867064 1
gene  1 10 25 0.2779443092033518 0 33.0 0.2779443092033518 0
gene  1 11 25 1.142465146794125 0 34.0 1.142465146794125 1
gene  1 12 25 0.9036541395774667 0 35.0 0.9036541395774667 1
gene  1 13 25 -1.2351814578924105 0 36.0 -1.2351814578924105 1
gene  1 14 25 -2.406576236033213 0 37.0 -2.406576236033213 1
gene  1 15 25 -1.3059963432256165 0 38.0 -1.3059963432256165 1
gene  1 16 25 -0.07279068140327355 0 39.0 -0.07279068140327355 1
gene  1 17 25 2.1463068148221858 0 40.0 2.1463068148221858 1
gene  1 18 25 -0.8147305052695352 0 41.0 -0.8147305052695352 1
gene  1 19 25 -1.8963916370755176 0 42.0 -1.8963916370755176 1
gene  1 20 25 -0.17530964326477716 0 43.0 -0.17530964326477716 1
gene  1 21 25 -2.1615664960138625 0 44.0 -2.1615664960138625 1
gene  1 22 25 -0.5353496319643707 0 45.0 -0.5353496319643707 1
gene  1 23 25 2.211182550883856 0 46.0 2.211182550883856 1
gene  1 1 26 -0.1813538282281052 0 47.0 -0.1813538282281052 1
gene  1 2 26 1.0348232233393615 0 48.0 1.0348232233393615 1
gene  1 3 26 -0.26852393576716355 0 49.0 -0.26852393576716355 1
gene  1 4 26 -0.5462351900443294 0 50.0 -0.5462351900443294 1
gene  1 5 26 1.841798679175527 0 51.0 1.841798679175527 1
gene  1 6 26 0.9246057866887103 0 52.0 0.9246057866887103 1
gene  1 7 26 2.961718684201993 0 53.0 2.961718684201993 1
gene  1 8 26 1.3531921659176516 0 54.0 1.3531921659176516 1
gene  1 9 26 -1.7276248866576271 0 55.0 -1.7276248866576271 1
gene  1 10 26 2.0139802487278704 0 56.0 2.0139802487278704 0
gene  1 11 26 1.528778550886252 0 57.0 1.528778550886252 1
gene  1 12 26 -0.5785609867130133 0 58.0 -0.5785609867130133 1
gene  1 13 26 -2.6797800697851013 0 59.0 -2.6797800697851013 1
gene  1 14 26 -0.5697240976550146 0 60.0 -0.5697240976550146 1
gene  1 15 26 -0.6337731619541322 0 61.0 -0.6337731619541322 1
gene  1 16 26 -3.0562620734655126 0 62.0 -3.0562620734655126 1
gene  1 17 26 -0.6658234717228073 0 63.0 -0.6658234717228073 1
gene  1 18 26 3.3403867808578074 0 64.0 3.3403867808578074 1
gene  1 19 26 0.7776803632315288 0 65.0 0.7776803632315288 1
gene  1 20 26 -0.7243609006292111 0 66.0 -0.7243609006292111 1
gene  1 21 26 -3.0739483612397973 0 67.0 -3.0739483612397973 1
gene  1 22 26 -0.8853447786938764 0 68.0 -0.8853447786938764 1
gene  1 23 26 -1.392668583310223 0 69.0 -1.392668583310223 1
gene  1 1 27 0.1950912962028929 0 70.0 0.1950912962028929 1
gene  1 2 27 -2.3849842766314993 0 71.0 -2.3849842766314993 1
gene  1 3 27 -1.4510293084069832 0 72.0 -1.4510293084069832 1
gene  1 4 27 -2.108078397682316 0 73.0 -2.108078397682316 1
gene  1 5 27 0.9853093818432086 0 74.0 0.9853093818432086 1
gene  1 6 27 1.9012442085109171 0 75.0 1.9012442085109171 1
gene  1 7 27 -1.1359514906506512 0 76.0 -1.1359514906506512 1
gene  1 8 27 1.3588260773815568 0 77.0 1.3588260773815568 1
gene  1 9 27 -2.8086161361721667 0 78.0 -2.8086161361721667 1
gene  1 10 27 0.6822866399342444 0 79.0 0.6822866399342444 1
gene  1 11 27 -1.4192574802827127 0 80.0 -1.4192574802827127 1
gene  1 12 27 2.0194659787646483 0 81.0 2.0194659787646483 1
gene  1 13 27 -3.29794013327734 0 82.0 -3.29794013327734 1
gene  1 14 27 -1.0273223382155723 0 83.0 -1.0273223382155723 1
gene  1 15 27 0.8854793246663014 0 84.0 0.8854793246663014 1
gene  1 16 27 -2.4100030796377325 0 85.0 -2.4100030796377325 1
gene  1 17 27 1.1641354279973304 0 86.0 1.1641354279973304 1
gene  1 18 27 -1.5657621004727782 0 87.0 -1.5657621004727782 1
gene  1 19 27 0.9635940309111093 0 88.0 0.9635940309111093 1
gene  1 20 27 -1.5141808232294682 0 89.0 -1.5141808232294682 1
gene  1 21 27 -1.6098739089238192 0 90.0 -1.6098739089238192 1
gene  1 22 27 -0.20721715934182405 0 91.0 -0.20721715934182405 1
gene  1 23 27 -2.7987944125960222 0 92.0 -2.7987944125960222 1
gene  1 23 28 1.3272888213665466 0 93.0 1.3272888213665466 1
gene  1 24 28 1.3820786340802313 0 94.0 1.3820786340802313 1
gene  1 25 28 0.8152174332290762 0 95.0 0.8152174332290762 1
gene  1 26 28 -1.8871519098029614 0 96.0 -1.8871519098029614 1
gene  1 27 28 -1.0416194194378714 0 97.0 -1.0416194194378714 1
gene  1 23 29 1.712662646035409 0 98.0 1.712662646035409 1
gene  1 24 29 0.3750308964985809 0 99.0 0.3750308964985809 1
gene  1 25 29 2.0081239104076944 0 100.0 2.0081239104076944 1
gene  1 26 29 -1.8177506182944394 0 101.0 -1.8177506182944394 1
gene  1 27 29 0.24578722111506612 0 102.0 0.24578722111506612 1
gene  1 23 30 -0.9792201881248785 0 103.0 -0.9792201881248785 1
gene  1 24 30 0.3847222154010963 0 104.0 0.3847222154010963 1
gene  1 25 30 1.8066113481737804 0 105.0 1.8066113481737804 1
gene  1 26 30 0.2284221571408082 0 106.0 0.2284221571408082 1
gene  1 27 30 2.7779870153214823 0 107.0 2.7779870153214823 1
gene  1 23 31 0.4191893547743016 0 108.0 0.4191893547743016 1
gene  1 24 31 0.77248384192597 0 109.0 0.77248384192597 1
gene  1 25 31 -2.4322039769326436 0 110.0 -2.4322039769326436 1
gene  1 26 31 1.9221518817702068 0 111.0 1.9221518817702068 1
gene  1 27 31 -1.706516430146761 0 112.0 -1.706516430146761 1
gene  1 23 32 -1.20797389976055 0 113.0 -1.20797389976055 1
gene  1 24 32 0.41904467590066785 0 114.0 0.41904467590066785 1
gene  1 25 32 -1.5085101012937148 0 115.0 -1.5085101012937148 1
gene  1 26 32 -0.2604847518040827 0 116.0 -0.2604847518040827 1
gene  1 27 32 1.0654473885398326 0 117.0 1.0654473885398326 1
gene  1 15 28 4.70782994343627 0 145.0 4.70782994343627 1
gene  1 24 41 0.7041611002973363 0 162.0 0.7041611002973363 0
gene  1 41 29 -0.7849467345565301 0 163.0 -0.7849467345565301 1
gene  1 11 28 9.218883268875562 0 192.0 9.218883268875562 1
gene  1 8 29 -2.176334847719313 0 252.0 -2.176334847719313 1
gene  1 8 69 0.6109648487557431 0 286.0 0.6109648487557431 1
gene  1 69 26 2.7645682336002895 0 287.0 2.7645682336002895 0
gene  1 14 28 8.721990907806568 0 325.0 8.721990907806568 1
gene  1 10 28 4.561700536875561 0 337.0 4.561700536875561 1
gene  1 15 32 6.306243292515637 0 371.0 6.306243292515637 1
gene  1 20 99 2.16353396511089 0 420.0 2.16353396511089 1
gene  1 99 27 -2.8094737854649665 0 421.0 -2.8094737854649665 1
gene  1 5 103 -1.0264695869117828 0 442.0 -1.0264695869117828 1
gene  1 103 24 1.3671339875182222 0 443.0 1.3671339875182222 1
gene  1 3 110 -1.3192452305966889 0 466.0 -1.3192452305966889 1
gene  1 110 26 0.17226926783242408 0 467.0 0.17226926783242408 1
gene  1 17 99 8.667263408509712 0 517.0 8.667263408509712 1
gene  1 16 128 -1.1029401447466332 0 542.0 -1.1029401447466332 1
gene  1 128 25 1.5541036770496022 0 543.0 1.5541036770496022 1
gene  1 22 103 -3.6589079271917693 0 584.0 -3.6589079271917693 1
gene  1 24 150 -0.4951572804097779 0 612.0 -0.4951572804097779 1
gene  1 150 29 1.760461199179113 0 613.0 1.760461199179113 1
gene  1 6 128 7.989030214491342 0 659.0 7.989030214491342 1
gene  1 150 69 7.977677494161361 0 697.0 7.977677494161361 1
gene  1 31 32 -7.223103554147636 0 712.0 -7.223103554147636 1
gene  1 26 41 -6.934677827942377 0 740.0 -6.934677827942377 1
gene  1 7 191 2.7026679260086692 0 774.0 2.7026679260086692 1
gene  1 191 26 2.8964560025688257 0 775.0 2.8964560025688257 1
gene  1 103 26 0.9890079923258703 0 816.0 0.9890079923258703 1
gene  1 9 29 -5.980022400228384 0 851.0 -5.980022400228384 1
gene  1 11 99 -3.9682740919211192 0 864.0 -3.9682740919211192 1
gene  1 12 99 -10.457000068568073 0 920.0 -10.457000068568073 1
gene  1 26 236 2.413153052333878 0 945.0 2.413153052333878 1
gene  1 236 28 -0.39879288095864707 0 946.0 -0.39879288095864707 1
gene  1 22 242 0.9659975009029367 0 964.0 0.9659975009029367 1
gene  1 242 24 1.9563221533460138 0 965.0 1.9563221533460138 1
gene  1 15 99 9.470992938607854 0 1027.0 9.470992938607854 1
gene  1 191 69 2.1652779438076055 0 1052.0 2.1652779438076055 1
gene  1 15 277 0.9471773128246486 0 1090.0 0.9471773128246486 1
gene  1 277 28 2.35561451715437 0 1091.0 2.35561451715437 1
gene  1 27 286 -0.12275845610281455 0 1116.0 -0.12275845610281455 1
gene  1 286 28 0.025667614407639316 0 1117.0 0.025667614407639316 0
gene  1 191 295 1.462792961073816 0 1142.0 1.462792961073816 1
gene  1 295 26 -0.6328061547708835 0 1143.0 -0.6328061547708835 1
gene  1 22 128 0.47233297098327853 0 1174.0 0.47233297098327853 0
gene  1 19 310 2.4856618195935347 0 1209.0 2.4856618195935347 1
gene  1 310 24 -1.6364077796782248 0 1210.0 -1.6364077796782248 1
gene  1 242 103 8.287160315783602 0 1238.0 8.287160315783602 1
gene  1 16 236 -0.9082556621137352 0 1287.0 -0.9082556621137352 1
gene  1 20 333 1.0 0 1305.0 1.0 1
gene  1 333 24 -0.43803176646816433 0 1306.0 -0.43803176646816433 1
gene  1 14 277 -7.3398616412898825 0 1364.0 -7.3398616412898825 1
gene  1 2 355 -0.6544197900779483 0 1395.0 -0.6544197900779483 1
gene  1 355 27 0.057231611804800075 0 1396.0 0.057231611804800075 1
gene  1 69 361 -0.018934202235794118 0 1416.0 -0.018934202235794118 1
gene  1 361 26 2.638823677941647 0 1417.0 2.638823677941647 1
gene  1 9 32 -4.24720604900855 0 1466.0 -4.24720604900855 1
gene  1 14 333 -3.785843903385777 0 1482.0 -3.785843903385777 1
gene  1 32 277 2.2177074487957547 0 1522.0 2.2177074487957547 1
gene  1 3 390 1.0 0 1547.0 1.0 1
gene  1 390 26 2.717639197728152 0 1548.0 2.717639197728152 1
gene  1 286 236 0.7913139280449974 0 1594.0 0.7913139280449974 1
gene  1 20 419 1.0 0 1638.0 1.0 1
gene  1 419 27 2.372046399786742 0 1639.0 2.372046399786742 1
gene  1 17 355 -3.941543941741722 0 1648.0 -3.941543941741722 1
gene  1 8 150 0.9703385552652399 0 1688.0 0.9703385552652399 1
gene  1 355 310 -5.568152431032543 0 1725.0 -5.568152431032543 1
gene  1 2 449 2.715246405901041 0 1757.0 2.715246405901041 1
gene  1 449 355 1.1406736985867385 0 1758.0 1.1406736985867385 1
gene  1 10 458 1.0 0 1789.0 1.0 1
gene  1 458 26 0.8334553162957417 0 1790.0 0.8334553162957417 1
gene  1 286 242 0.0177850674950375 0 1819.0 0.0177850674950375 1
gene  1 103 361 -4.425782843693852 0 1881.0 -4.425782843693852 1
gene  1 22 492 1.0 0 1911.0 0.0 1
gene  1 492 128 0.47233297098327853 0 1912.0 0.0 1
gene  1 14 502 1.0 0 1950.0 0.0 1
gene  1 502 25 -2.406576236033213 0 1951.0 0.0 1
gene  1 10 519 1.0 0 2010.0 0.0 1
gene  1 519 25 0.2779443092033518 0 2011.0 0.0 1
gene  1 103 333 -4.925490828342904 0 2033.0 -4.925490828342904 1
gene  1 7 242 -8.589149608783572 0 2047.0 -8.589149608783572 1
gene  1 361 30 -3.364430012547958 0 2081.0 -3.364430012547958 1
gene  1 286 550 1.0 0 2139.0 0.0 1
gene  1 550 28 0.025667614407639316 0 2140.0 0.0 1
gene  1 16 449 -4.819583852973205 0 2207.0 -4.819583852973205 1
gene  1 22 99 -2.805021694326193 0 2256.0 -2.805021694326193 1
gene  1 519 191 5.4862128461960324 0 2286.0 5.4862128461960324 1
gene  1 41 277 -9.127596344581471 0 2326.0 -9.127596344581471 1
gene  1 19 613 1.0 0 2370.0 0.0 1
gene  1 613 24 1.1167443914792334 0 2371.0 0.0 1
gene  1 19 361 -0.9731171545944906 0 2386.0 -0.9731171545944906 1
gene  1 24 626 1.0 0 2421.0 0.0 1
gene  1 626 41 0.7041611002973363 0 2422.0 0.0 1
genomeend 4
/*-------------------------------------------------------------------*/
/* Species # 031         : (size= 002) (AvfFit= 410,000) (Age= 27,000)  */
/*-------------------------------------------------------------------*/
/* Organism # 005 Fitness:  0,000 Error:  0,000                      */
genomestart  5
trait 1 0.0 0.0 0.0 0.0 0.0 0.0 0.0 0.0 
node 1 1 1 1
node 2 1 1 1
node 3 1 1 1
node 4 1 1 1
node 5 1 1 1
node 6 1 1 1
node 7 1 1 1
node 8 1 1 1
node 9 1 1 1
node 10 1 1 1
node 11 1 1 1
node 12 1 1 1
node 13 1 1 1
node 14 1 1 1
node 15 1 1 1
node 16 1 1 1
node 17 1 1 1
node 18 1 1 1
node 19 1 1 1
node 20 1 1 1
node 21 1 1 1
node 22 1 1 1
node 23 1 1 3
node 24 1 0 0
node 25 1 0 0
node 26 1 0 0
node 27 1 0 0
node 28 1 0 2
node 29 1 0 2
node 30 1 0 2
node 31 1 0 2
node 32 1 0 2
node 41 1 0 0
node 69 1 0 0
node 99 1 0 0
node 103 1 0 0
node 110 1 0 0
node 128 1 0 0
node 150 1 0 0
node 191 1 0 0
node 236 1 0 0
node 242 1 0 0
node 277 1 0 0
node 286 1 0 0
node 302 1 0 0
node 327 1 0 0
node 343 1 0 0
node 366 1 0 0
node 397 1 0 0
node 439 1 0 0
node 455 1 0 0
node 485 1 0 0
node 508 1 0 0
node 518 1 0 0
node 525 1 0 0
node 542 1 0 0
node 623 1 0 0
gene  1 1 24 -1.1489814706815507 0 1.0 -1.1489814706815507 1
gene  1 2 24 0.9263921864928745 0 2.0 0.9263921864928745 1
gene  1 3 24 2.4162193353354313 0 3.0 2.4162193353354313 1
gene  1 4 24 0.6802004327150789 0 4.0 0.6802004327150789 1
gene  1 5 24 -2.051090862614788 0 5.0 -2.051090862614788 1
gene  1 6 24 -4.660095866814399 0 6.0 -4.660095866814399 1
gene  1 7 24 -2.966658553063641 0 7.0 -2.966658553063641 1
gene  1 8 24 -1.5314606027750122 0 8.0 -1.5314606027750122 1
gene  1 9 24 3.177755189354963 0 9.0 3.177755189354963 1
gene  1 10 24 4.504481463446218 0 10.0 4.504481463446218 1
gene  1 11 24 -0.6828082598804799 0 11.0 -0.6828082598804799 1
gene  1 12 24 0.8296193601828552 0 12.0 0.8296193601828552 1
gene  1 13 24 3.253866891998072 0 13.0 3.253866891998072 1
gene  1 14 24 -2.8051319085476183 0 14.0 -2.8051319085476183 1
gene  1 15 24 1.613555105991104 0 15.0 1.613555105991104 1
gene  1 16 24 0.2949782428373474 0 16.0 0.2949782428373474 1
gene  1 17 24 3.124685541420937 0 17.0 3.124685541420937 1
gene  1 18 24 -1.4931870823958882 0 18.0 -1.4931870823958882 1
gene  1 19 24 -1.2870955792467127 0 19.0 -1.2870955792467127 1
gene  1 20 24 3.082402603805207 0 20.0 3.082402603805207 1
gene  1 21 24 1.3423340061301885 0 21.0 1.3423340061301885 1
gene  1 22 24 1.0270133026906445 0 22.0 1.0270133026906445 1
gene  1 23 24 0.5339949477595332 0 23.0 0.5339949477595332 1
gene  1 1 25 1.043146533803247 0 24.0 1.043146533803247 1
gene  1 2 25 -2.7934976838559247 0 25.0 -2.7934976838559247 1
gene  1 3 25 -1.0745228616100024 0 26.0 -1.0745228616100024 1
gene  1 4 25 3.354706849611939 0 27.0 3.354706849611939 1
gene  1 5 25 3.8904924688332105 0 28.0 3.8904924688332105 1
gene  1 6 25 1.0135660584522264 0 29.0 1.0135660584522264 1
gene  1 7 25 2.5095917270154158 0 30.0 2.5095917270154158 1
gene  1 8 25 -2.4598593303254805 0 31.0 -2.4598593303254805 1
gene  1 9 25 0.12830064032947475 0 32.0 0.12830064032947475 1
gene  1 10 25 -0.3504777408073372 0 33.0 -0.3504777408073372 1
gene  1 11 25 -1.286726247990928 0 34.0 -1.286726247990928 0
gene  1 12 25 -0.24745484627063008 0 35.0 -0.24745484627063008 1
gene  1 13 25 4.578117571437447 0 36.0 4.578117571437447 1
gene  1 14 25 -3.2249243662526994 0 37.0 -3.2249243662526994 1
gene  1 15 25 -1.7359941954593798 0 38.0 -1.7359941954593798 1
gene  1 16 25 2.570959489613681 0 39.0 2.570959489613681 1
gene  1 17 25 1.2515055115773879 0 40.0 1.2515055115773879 1
gene  1 18 25 -1.0487915508967545 0 41.0 -1.0487915508967545 1
gene  1 19 25 1.352342451546486 0 42.0 1.352342451546486 1
gene  1 20 25 -0.9172026597015764 0 43.0 -0.9172026597015764 1
gene  1 21 25 -2.4904974446954014 0 44.0 -2.4904974446954014 1
gene  1 22 25 -0.7336977723011928 0 45.0 -0.7336977723011928 1
gene  1 23 25 0.802504445332738 0 46.0 0.802504445332738 1
gene  1 1 26 -1.2443474658103406 0 47.0 -1.2443474658103406 1
gene  1 2 26 2.63648397413259 0 48.0 2.63648397413259 1
gene  1 3 26 -1.6389452639894226 0 49.0 -1.6389452639894226 1
gene  1 4 26 0.7102476367868094 0 50.0 0.7102476367868094 1
gene  1 5 26 1.546982223591752 0 51.0 1.546982223591752 1
gene  1 6 26 3.904829823557784 0 52.0 3.904829823557784 1
gene  1 7 26 2.609652559170999 0 53.0 2.609652559170999 1
gene  1 8 26 2.6416804775052207 0 54.0 2.6416804775052207 0
gene  1 9 26 1.7729267699069413 0 55.0 1.7729267699069413 1
gene  1 10 26 3.3166160054057423 0 56.0 3.3166160054057423 1
gene  1 11 26 3.9800048316966903 0 57.0 3.9800048316966903 1
gene  1 12 26 -0.23612619441962995 0 58.0 -0.23612619441962995 1
gene  1 13 26 -1.1718059256896627 0 59.0 -1.1718059256896627 1
gene  1 14 26 0.693514934245697 0 60.0 0.693514934245697 1
gene  1 15 26 1.9103745546572322 0 61.0 1.9103745546572322 1
gene  1 16 26 0.15090720900281762 0 62.0 0.15090720900281762 1
gene  1 17 26 -1.670350206006841 0 63.0 -1.670350206006841 1
gene  1 18 26 0.7789434543518446 0 64.0 0.7789434543518446 1
gene  1 19 26 -0.4096852910592652 0 65.0 -0.4096852910592652 1
gene  1 20 26 -2.5233784459488704 0 66.0 -2.5233784459488704 1
gene  1 21 26 0.9979908369289143 0 67.0 0.9979908369289143 1
gene  1 22 26 1.4054505907191805 0 68.0 1.4054505907191805 1
gene  1 23 26 -2.403688289807015 0 69.0 -2.403688289807015 1
gene  1 1 27 4.5812363382018955 0 70.0 4.5812363382018955 1
gene  1 2 27 -0.6803671927349657 0 71.0 -0.6803671927349657 1
gene  1 3 27 1.1832501706896816 0 72.0 1.1832501706896816 1
gene  1 4 27 -1.2253265522742935 0 73.0 -1.2253265522742935 1
gene  1 5 27 -1.1469652552090683 0 74.0 -1.1469652552090683 1
gene  1 6 27 1.7483587836542571 0 75.0 1.7483587836542571 1
gene  1 7 27 0.8335688235276439 0 76.0 0.8335688235276439 1
gene  1 8 27 0.882069218988801 0 77.0 0.882069218988801 1
gene  1 9 27 -2.2943862890209226 0 78.0 -2.2943862890209226 1
gene  1 10 27 1.1723182137885937 0 79.0 1.1723182137885937 1
gene  1 11 27 2.464226014282381 0 80.0 2.464226014282381 1
gene  1 12 27 0.11639116634398627 0 81.0 0.11639116634398627 1
gene  1 13 27 1.4251382418397718 0 82.0 1.4251382418397718 1
gene  1 14 27 2.4778373832859875 0 83.0 2.4778373832859875 1
gene  1 15 27 3.1661055784479566 0 84.0 3.1661055784479566 1
gene  1 16 27 2.397379933709093 0 85.0 2.397379933709093 1
gene  1 17 27 2.8308784471996526 0 86.0 2.8308784471996526 1
gene  1 18 27 -3.6879358742826414 0 87.0 -3.6879358742826414 1
gene  1 19 27 -2.2616743224350495 0 88.0 -2.2616743224350495 1
gene  1 20 27 1.7757709380175346 0 89.0 1.7757709380175346 1
gene  1 21 27 3.268414193564225 0 90.0 3.268414193564225 1
gene  1 22 27 0.611915370140663 0 91.0 0.611915370140663 1
gene  1 23 27 -2.6777533862861356 0 92.0 -2.6777533862861356 1
gene  1 23 28 0.5507070234643141 0 93.0 0.5507070234643141 1
gene  1 24 28 -0.4385243334401683 0 94.0 -0.4385243334401683 1
gene  1 25 28 1.968729943755837 0 95.0 1.968729943755837 1
gene  1 26 28 -0.4082785150304178 0 96.0 -0.4082785150304178 1
gene  1 27 28 2.714080327795412 0 97.0 2.714080327795412 1
gene  1 23 29 4.247566827561727 0 98.0 4.247566827561727 1
gene  1 24 29 -2.2752274209003183 0 99.0 -2.2752274209003183 1
gene  1 25 29 -1.8375548394672203 0 100.0 -1.8375548394672203 1
gene  1 26 29 2.929198507889882 0 101.0 2.929198507889882 1
gene  1 27 29 3.587363903593857 0 102.0 3.587363903593857 1
gene  1 23 30 0.24569440529154318 0 103.0 0.24569440529154318 1
gene  1 24 30 0.08463132141611118 0 104.0 0.08463132141611118 1
gene  1 25 30 2.7483352755113426 0 105.0 2.7483352755113426 1
gene  1 26 30 -3.2315316259309075 0 106.0 -3.2315316259309075 1
gene  1 27 30 0.25554310828831395 0 107.0 0.25554310828831395 1
gene  1 23 31 -2.4570889381266596 0 108.0 -2.4570889381266596 1
gene  1 24 31 0.1854272782156059 0 109.0 0.1854272782156059 1
gene  1 25 31 1.945570791821796 0 110.0 1.945570791821796 1
gene  1 26 31 3.4254109266047483 0 111.0 3.4254109266047483 1
gene  1 27 31 0.22926790190857138 0 112.0 0.22926790190857138 1
gene  1 23 32 -1.1240748780757337 0 113.0 -1.1240748780757337 1
gene  1 24 32 -3.883827215929781 0 114.0 -3.883827215929781 1
gene  1 25 32 0.016371812733110724 0 115.0 0.016371812733110724 1
gene  1 26 32 -4.43209907512254 0 116.0 -4.43209907512254 0
gene  1 27 32 -1.5191521907360257 0 117.0 -1.5191521907360257 1
gene  1 15 28 3.7255078747760986 0 145.0 3.7255078747760986 1
gene  1 24 41 4.241491739579709 0 162.0 4.241491739579709 1
gene  1 41 29 1.8715210618340747 0 163.0 1.8715210618340747 1
gene  1 11 28 8.139902886390324 0 192.0 8.139902886390324 1
gene  1 8 29 -3.119718221428749 0 252.0 -3.119718221428749 1
gene  1 8 69 4.966242815828988 0 286.0 4.966242815828988 1
gene  1 69 26 0.9893876457330069 0 287.0 0.9893876457330069 1
gene  1 14 28 5.501722370073591 0 325.0 5.501722370073591 1
gene  1 10 28 5.2533765932185865 0 337.0 5.2533765932185865 1
gene  1 15 32 4.278464181057021 0 371.0 4.278464181057021 1
gene  1 20 99 -3.3280103388205466 0 420.0 -3.3280103388205466 1
gene  1 99 27 0.6680570352978392 0 421.0 0.6680570352978392 1
gene  1 5 103 3.6604317502077386 0 442.0 3.6604317502077386 1
gene  1 103 24 2.8856230615175544 0 443.0 2.8856230615175544 1
gene  1 3 110 0.21305146364040928 0 466.0 0.21305146364040928 1
gene  1 110 26 2.3405570042930073 0 467.0 2.3405570042930073 1
gene  1 17 99 5.926921051120595 0 517.0 5.926921051120595 1
gene  1 16 128 3.819793697877119 0 542.0 3.819793697877119 1
gene  1 128 25 0.07773860240609698 0 543.0 0.07773860240609698 1
gene  1 22 103 -4.520295589685176 0 584.0 -4.520295589685176 1
gene  1 24 150 3.0486817338741012 0 612.0 3.0486817338741012 1
gene  1 150 29 -3.273975417095434 0 613.0 -3.273975417095434 1
gene  1 6 128 -1.5604997718619888 0 659.0 -1.5604997718619888 1
gene  1 150 69 4.807969794830508 0 697.0 4.807969794830508 1
gene  1 31 32 -2.158339361033159 0 712.0 -2.158339361033159 1
gene  1 26 41 -9.390479082976617 0 740.0 -9.390479082976617 1
gene  1 7 191 1.2615097255781251 0 774.0 1.2615097255781251 1
gene  1 191 26 -1.9633138326296913 0 775.0 -1.9633138326296913 1
gene  1 103 26 6.516029434548589 0 816.0 6.516029434548589 1
gene  1 9 29 -2.2718035114059267 0 851.0 -2.2718035114059267 1
gene  1 11 99 -3.2172123411282207 0 864.0 -3.2172123411282207 1
gene  1 12 99 -7.726461643472344 0 920.0 -7.726461643472344 1
gene  1 26 236 -0.5186632150147563 0 945.0 -0.5186632150147563 1
gene  1 236 28 -1.3197205689829874 0 946.0 -1.3197205689829874 1
gene  1 22 242 0.41960453253836305 0 964.0 0.41960453253836305 1
gene  1 242 24 -0.7202949035297412 0 965.0 -0.7202949035297412 1
gene  1 15 99 4.497384273882663 0 1027.0 4.497384273882663 1
gene  1 191 69 -2.0736333487269563 0 1052.0 -2.0736333487269563 1
gene  1 15 277 2.8199338959207836 0 1090.0 2.8199338959207836 1
gene  1 277 28 6.145382463271195 0 1091.0 6.145382463271195 1
gene  1 27 286 0.6519049582169889 0 1116.0 0.6519049582169889 0
gene  1 286 28 -0.27440242269518 0 1117.0 -0.27440242269518 1
gene  1 99 242 1.3675420673118406 0 1141.0 1.3675420673118406 1
gene  1 25 302 1.9960989270491947 0 1172.0 1.9960989270491947 1
gene  1 302 29 0.9032445841892494 0 1173.0 0.9032445841892494 1
gene  1 27 69 -4.86027339642299 0 1225.0 -4.86027339642299 1
gene  1 7 41 -2.628352897164592 0 1246.0 -2.628352897164592 1
gene  1 26 327 0.8439775539503597 0 1274.0 0.8439775539503597 1
gene  1 327 29 -0.7902938757440364 0 1275.0 -0.7902938757440364 1
gene  1 1 277 -1.8182132192268925 0 1310.0 -1.8182132192268925 1
gene  1 150 343 -1.2908737044428653 0 1344.0 -1.2908737044428653 1
gene  1 343 69 4.316155374925191 0 1345.0 4.316155374925191 1
gene  1 7 29 -0.10752680568230066 0 1397.0 -0.10752680568230066 1
gene  1 23 242 5.1238475075302565 0 1440.0 5.1238475075302565 1
gene  1 16 366 1.8853436262478198 0 1443.0 1.8853436262478198 1
gene  1 366 128 0.987649299124971 0 1444.0 0.987649299124971 1
gene  1 14 242 -1.5475888130744333 0 1475.0 -1.5475888130744333 1
gene  1 17 32 1.0440139997530817 0 1520.0 1.0440139997530817 1
gene  1 26 397 -2.2701073525490805 0 1565.0 -2.2701073525490805 1
gene  1 397 30 -2.0557484727525592 0 1566.0 -2.0557484727525592 1
gene  1 32 277 -7.51108455366324 0 1590.0 -7.51108455366324 1
gene  1 24 128 0.3911934885806473 0 1620.0 0.3911934885806473 1
gene  1 4 236 3.2467078217942476 0 1662.0 3.2467078217942476 1
gene  1 16 327 -1.460562013208452 0 1682.0 -1.460562013208452 1
gene  1 21 439 2.3864034610389657 0 1719.0 2.3864034610389657 1
gene  1 439 27 1.7389770157004667 0 1720.0 1.7389770157004667 1
gene  1 5 455 1.3760554845729578 0 1779.0 1.3760554845729578 1
gene  1 455 26 1.846107865993957 0 1780.0 1.846107865993957 1
gene  1 439 343 -1.6708416784621032 0 1846.0 -1.6708416784621032 1
gene  1 26 485 0.21641680596974822 0 1886.0 0.21641680596974822 1
gene  1 485 32 2.257204480473366 0 1887.0 2.257204480473366 1
gene  1 17 508 1.3171011062809757 0 1973.0 1.3171011062809757 1
gene  1 508 27 -0.5046425472740459 0 1974.0 -0.5046425472740459 1
gene  1 439 518 1.0 0 2007.0 1.0 1
gene  1 518 343 -3.6714811785252137 0 2008.0 -3.6714811785252137 1
gene  1 27 525 1.0 0 2039.0 1.0 1
gene  1 525 286 1.1446880303777243 0 2040.0 1.1446880303777243 1
gene  1 14 103 7.288089321701191 0 2072.0 7.288089321701191 1
gene  1 10 542 -0.5833914369067785 0 2110.0 -0.5833914369067785 1
gene  1 542 25 -1.9240213433790119 0 2111.0 -1.9240213433790119 1
gene  1 17 28 2.0843252305239823 0 2146.0 2.0843252305239823 1
gene  1 518 27 0.031002103221486055 0 2176.0 0.031002103221486055 1
gene  1 14 99 2.9803322666065855 0 2211.0 2.9803322666065855 1
gene  1 15 508 -6.774607979146356 0 2249.0 -6.774607979146356 1
gene  1 508 150 5.474344611533057 0 2281.0 5.474344611533057 1
gene  1 23 508 4.098628358740197 0 2312.0 4.098628358740197 1
gene  1 7 542 -4.591567135559807 0 2382.0 -4.591567135559807 1
gene  1 11 623 1.0 0 2410.0 0.0 1
gene  1 623 25 -1.286726247990928 0 2411.0 0.0 1
gene  1 26 623 0.8319789189405202 0 2448.0 0.8319789189405202 1
genomeend 5
/* Organism # 006 Fitness:  0,000 Error:  0,000                      */
genomestart  6
trait 1 0.0 0.0 0.0 0.0 0.0 0.0 0.0 0.0 
node 1 1 1 1
node 2 1 1 1
node 3 1 1 1
node 4 1 1 1
node 5 1 1 1
node 6 1 1 1
node 7 1 1 1
node 8 1 1 1
node 9 1 1 1
node 10 1 1 1
node 11 1 1 1
node 12 1 1 1
node 13 1 1 1
node 14 1 1 1
node 15 1 1 1
node 16 1 1 1
node 17 1 1 1
node 18 1 1 1
node 19 1 1 1
node 20 1 1 1
node 21 1 1 1
node 22 1 1 1
node 23 1 1 3
node 24 1 0 0
node 25 1 0 0
node 26 1 0 0
node 27 1 0 0
node 28 1 0 2
node 29 1 0 2
node 30 1 0 2
node 31 1 0 2
node 32 1 0 2
node 41 1 0 0
node 69 1 0 0
node 99 1 0 0
node 103 1 0 0
node 110 1 0 0
node 128 1 0 0
node 150 1 0 0
node 191 1 0 0
node 236 1 0 0
node 242 1 0 0
node 277 1 0 0
node 286 1 0 0
node 302 1 0 0
node 327 1 0 0
node 343 1 0 0
node 366 1 0 0
node 397 1 0 0
node 439 1 0 0
node 455 1 0 0
node 485 1 0 0
node 508 1 0 0
node 518 1 0 0
node 525 1 0 0
node 542 1 0 0
node 623 1 0 0
node 635 1 0 0
gene  1 1 24 -1.1489814706815507 0 1.0 -1.1489814706815507 1
gene  1 2 24 0.9263921864928745 0 2.0 0.9263921864928745 1
gene  1 3 24 2.4162193353354313 0 3.0 2.4162193353354313 1
gene  1 4 24 0.6802004327150789 0 4.0 0.6802004327150789 1
gene  1 5 24 -2.051090862614788 0 5.0 -2.051090862614788 1
gene  1 6 24 -4.660095866814399 0 6.0 -4.660095866814399 1
gene  1 7 24 -2.966658553063641 0 7.0 -2.966658553063641 1
gene  1 8 24 -1.5314606027750122 0 8.0 -1.5314606027750122 1
gene  1 9 24 3.177755189354963 0 9.0 3.177755189354963 1
gene  1 10 24 4.504481463446218 0 10.0 4.504481463446218 1
gene  1 11 24 -0.6828082598804799 0 11.0 -0.6828082598804799 1
gene  1 12 24 0.8296193601828552 0 12.0 0.8296193601828552 1
gene  1 13 24 3.253866891998072 0 13.0 3.253866891998072 1
gene  1 14 24 -2.8051319085476183 0 14.0 -2.8051319085476183 1
gene  1 15 24 1.613555105991104 0 15.0 1.613555105991104 1
gene  1 16 24 0.2949782428373474 0 16.0 0.2949782428373474 1
gene  1 17 24 3.124685541420937 0 17.0 3.124685541420937 1
gene  1 18 24 -1.4931870823958882 0 18.0 -1.4931870823958882 1
gene  1 19 24 -1.2870955792467127 0 19.0 -1.2870955792467127 1
gene  1 20 24 3.082402603805207 0 20.0 3.082402603805207 1
gene  1 21 24 1.3423340061301885 0 21.0 1.3423340061301885 1
gene  1 22 24 1.0270133026906445 0 22.0 1.0270133026906445 1
gene  1 23 24 0.5339949477595332 0 23.0 0.5339949477595332 1
gene  1 1 25 1.043146533803247 0 24.0 1.043146533803247 1
gene  1 2 25 -2.7934976838559247 0 25.0 -2.7934976838559247 1
gene  1 3 25 -1.0745228616100024 0 26.0 -1.0745228616100024 1
gene  1 4 25 3.354706849611939 0 27.0 3.354706849611939 1
gene  1 5 25 3.8904924688332105 0 28.0 3.8904924688332105 1
gene  1 6 25 1.0135660584522264 0 29.0 1.0135660584522264 1
gene  1 7 25 2.5095917270154158 0 30.0 2.5095917270154158 1
gene  1 8 25 -2.4598593303254805 0 31.0 -2.4598593303254805 1
gene  1 9 25 0.12830064032947475 0 32.0 0.12830064032947475 1
gene  1 10 25 -0.3504777408073372 0 33.0 -0.3504777408073372 1
gene  1 11 25 -1.286726247990928 0 34.0 -1.286726247990928 0
gene  1 12 25 -0.24745484627063008 0 35.0 -0.24745484627063008 1
gene  1 13 25 4.578117571437447 0 36.0 4.578117571437447 1
gene  1 14 25 -3.2249243662526994 0 37.0 -3.2249243662526994 1
gene  1 15 25 -1.7359941954593798 0 38.0 -1.7359941954593798 1
gene  1 16 25 2.570959489613681 0 39.0 2.570959489613681 1
gene  1 17 25 1.2515055115773879 0 40.0 1.2515055115773879 1
gene  1 18 25 -1.0487915508967545 0 41.0 -1.0487915508967545 1
gene  1 19 25 1.352342451546486 0 42.0 1.352342451546486 1
gene  1 20 25 -0.9172026597015764 0 43.0 -0.9172026597015764 1
gene  1 21 25 -2.4904974446954014 0 44.0 -2.4904974446954014 1
gene  1 22 25 -0.7336977723011928 0 45.0 -0.7336977723011928 1
gene  1 23 25 0.802504445332738 0 46.0 0.802504445332738 1
gene  1 1 26 -1.2443474658103406 0 47.0 -1.2443474658103406 1
gene  1 2 26 2.63648397413259 0 48.0 2.63648397413259 1
gene  1 3 26 -1.6389452639894226 0 49.0 -1.6389452639894226 1
gene  1 4 26 0.7102476367868094 0 50.0 0.7102476367868094 1
gene  1 5 26 1.546982223591752 0 51.0 1.546982223591752 1
gene  1 6 26 3.904829823557784 0 52.0 3.904829823557784 1
gene  1 7 26 2.609652559170999 0 53.0 2.609652559170999 1
gene  1 8 26 2.6416804775052207 0 54.0 2.6416804775052207 0
gene  1 9 26 1.7729267699069413 0 55.0 1.7729267699069413 1
gene  1 10 26 3.3166160054057423 0 56.0 3.3166160054057423 1
gene  1 11 26 3.9800048316966903 0 57.0 3.9800048316966903 1
gene  1 12 26 -0.23612619441962995 0 58.0 -0.23612619441962995 1
gene  1 13 26 -1.1718059256896627 0 59.0 -1.1718059256896627 1
gene  1 14 26 0.693514934245697 0 60.0 0.693514934245697 1
gene  1 15 26 1.9103745546572322 0 61.0 1.9103745546572322 1
gene  1 16 26 0.15090720900281762 0 62.0 0.15090720900281762 1
gene  1 17 26 -1.670350206006841 0 63.0 -1.670350206006841 1
gene  1 18 26 0.7789434543518446 0 64.0 0.7789434543518446 1
gene  1 19 26 -0.4096852910592652 0 65.0 -0.4096852910592652 1
gene  1 20 26 -2.5233784459488704 0 66.0 -2.5233784459488704 1
gene  1 21 26 0.9979908369289143 0 67.0 0.9979908369289143 1
gene  1 22 26 1.4054505907191805 0 68.0 1.4054505907191805 1
gene  1 23 26 -2.403688289807015 0 69.0 -2.403688289807015 1
gene  1 1 27 4.5812363382018955 0 70.0 4.5812363382018955 1
gene  1 2 27 -0.6803671927349657 0 71.0 -0.6803671927349657 1
gene  1 3 27 1.1832501706896816 0 72.0 1.1832501706896816 1
gene  1 4 27 -1.2253265522742935 0 73.0 -1.2253265522742935 1
gene  1 5 27 -1.1469652552090683 0 74.0 -1.1469652552090683 1
gene  1 6 27 1.7483587836542571 0 75.0 1.7483587836542571 1
gene  1 7 27 0.8335688235276439 0 76.0 0.8335688235276439 1
gene  1 8 27 0.882069218988801 0 77.0 0.882069218988801 1
gene  1 9 27 -2.2943862890209226 0 78.0 -2.2943862890209226 1
gene  1 10 27 1.1723182137885937 0 79.0 1.1723182137885937 1
gene  1 11 27 2.464226014282381 0 80.0 2.464226014282381 1
gene  1 12 27 0.11639116634398627 0 81.0 0.11639116634398627 1
gene  1 13 27 1.4251382418397718 0 82.0 1.4251382418397718 1
gene  1 14 27 2.4778373832859875 0 83.0 2.4778373832859875 1
gene  1 15 27 3.1661055784479566 0 84.0 3.1661055784479566 1
gene  1 16 27 2.397379933709093 0 85.0 2.397379933709093 1
gene  1 17 27 2.8308784471996526 0 86.0 2.8308784471996526 1
gene  1 18 27 -3.6879358742826414 0 87.0 -3.6879358742826414 1
gene  1 19 27 -2.2616743224350495 0 88.0 -2.2616743224350495 1
gene  1 20 27 1.7757709380175346 0 89.0 1.7757709380175346 1
gene  1 21 27 3.268414193564225 0 90.0 3.268414193564225 1
gene  1 22 27 0.611915370140663 0 91.0 0.611915370140663 1
gene  1 23 27 -2.6777533862861356 0 92.0 -2.6777533862861356 1
gene  1 23 28 0.5507070234643141 0 93.0 0.5507070234643141 1
gene  1 24 28 -0.4385243334401683 0 94.0 -0.4385243334401683 1
gene  1 25 28 1.968729943755837 0 95.0 1.968729943755837 1
gene  1 26 28 -0.4082785150304178 0 96.0 -0.4082785150304178 1
gene  1 27 28 2.714080327795412 0 97.0 2.714080327795412 1
gene  1 23 29 4.247566827561727 0 98.0 4.247566827561727 1
gene  1 24 29 -2.2752274209003183 0 99.0 -2.2752274209003183 1
gene  1 25 29 -1.8375548394672203 0 100.0 -1.8375548394672203 0
gene  1 26 29 2.929198507889882 0 101.0 2.929198507889882 1
gene  1 27 29 3.587363903593857 0 102.0 3.587363903593857 1
gene  1 23 30 0.24569440529154318 0 103.0 0.24569440529154318 1
gene  1 24 30 0.08463132141611118 0 104.0 0.08463132141611118 1
gene  1 25 30 2.7483352755113426 0 105.0 2.7483352755113426 1
gene  1 26 30 -3.2315316259309075 0 106.0 -3.2315316259309075 1
gene  1 27 30 0.25554310828831395 0 107.0 0.25554310828831395 1
gene  1 23 31 -2.4570889381266596 0 108.0 -2.4570889381266596 1
gene  1 24 31 0.1854272782156059 0 109.0 0.1854272782156059 1
gene  1 25 31 1.945570791821796 0 110.0 1.945570791821796 1
gene  1 26 31 3.4254109266047483 0 111.0 3.4254109266047483 1
gene  1 27 31 0.22926790190857138 0 112.0 0.22926790190857138 1
gene  1 23 32 -1.1240748780757337 0 113.0 -1.1240748780757337 1
gene  1 24 32 -3.883827215929781 0 114.0 -3.883827215929781 1
gene  1 25 32 0.016371812733110724 0 115.0 0.016371812733110724 1
gene  1 26 32 -4.43209907512254 0 116.0 -4.43209907512254 0
gene  1 27 32 -1.5191521907360257 0 117.0 -1.5191521907360257 1
gene  1 15 28 3.7255078747760986 0 145.0 3.7255078747760986 1
gene  1 24 41 4.241491739579709 0 162.0 4.241491739579709 1
gene  1 41 29 1.8715210618340747 0 163.0 1.8715210618340747 1
gene  1 11 28 8.139902886390324 0 192.0 8.139902886390324 1
gene  1 8 29 -3.119718221428749 0 252.0 -3.119718221428749 1
gene  1 8 69 4.966242815828988 0 286.0 4.966242815828988 1
gene  1 69 26 0.9893876457330069 0 287.0 0.9893876457330069 1
gene  1 14 28 5.501722370073591 0 325.0 5.501722370073591 1
gene  1 10 28 5.2533765932185865 0 337.0 5.2533765932185865 1
gene  1 15 32 4.278464181057021 0 371.0 4.278464181057021 1
gene  1 20 99 -3.3280103388205466 0 420.0 -3.3280103388205466 1
gene  1 99 27 0.6680570352978392 0 421.0 0.6680570352978392 1
gene  1 5 103 3.6604317502077386 0 442.0 3.6604317502077386 1
gene  1 103 24 2.8856230615175544 0 443.0 2.8856230615175544 1
gene  1 3 110 0.21305146364040928 0 466.0 0.21305146364040928 1
gene  1 110 26 2.3405570042930073 0 467.0 2.3405570042930073 1
gene  1 17 99 5.926921051120595 0 517.0 5.926921051120595 1
gene  1 16 128 3.819793697877119 0 542.0 3.819793697877119 1
gene  1 128 25 0.07773860240609698 0 543.0 0.07773860240609698 1
gene  1 22 103 -4.520295589685176 0 584.0 -4.520295589685176 1
gene  1 24 150 3.0486817338741012 0 612.0 3.0486817338741012 1
gene  1 150 29 -3.273975417095434 0 613.0 -3.273975417095434 1
gene  1 6 128 -1.5604997718619888 0 659.0 -1.5604997718619888 1
gene  1 150 69 4.807969794830508 0 697.0 4.807969794830508 1
gene  1 31 32 -2.158339361033159 0 712.0 -2.158339361033159 1
gene  1 26 41 -9.390479082976617 0 740.0 -9.390479082976617 1
gene  1 7 191 1.2615097255781251 0 774.0 1.2615097255781251 1
gene  1 191 26 -1.9633138326296913 0 775.0 -1.9633138326296913 1
gene  1 103 26 6.516029434548589 0 816.0 6.516029434548589 1
gene  1 9 29 -2.2718035114059267 0 851.0 -2.2718035114059267 1
gene  1 11 99 -3.2172123411282207 0 864.0 -3.2172123411282207 1
gene  1 12 99 -7.726461643472344 0 920.0 -7.726461643472344 1
gene  1 26 236 -0.5186632150147563 0 945.0 -0.5186632150147563 1
gene  1 236 28 -1.3197205689829874 0 946.0 -1.3197205689829874 1
gene  1 22 242 0.41960453253836305 0 964.0 0.41960453253836305 1
gene  1 242 24 -0.7202949035297412 0 965.0 -0.7202949035297412 1
gene  1 15 99 4.497384273882663 0 1027.0 4.497384273882663 1
gene  1 191 69 -2.0736333487269563 0 1052.0 -2.0736333487269563 1
gene  1 15 277 2.8199338959207836 0 1090.0 2.8199338959207836 1
gene  1 277 28 6.145382463271195 0 1091.0 6.145382463271195 1
gene  1 27 286 0.6519049582169889 0 1116.0 0.6519049582169889 0
gene  1 286 28 -0.27440242269518 0 1117.0 -0.27440242269518 1
gene  1 99 242 1.3675420673118406 0 1141.0 1.3675420673118406 1
gene  1 25 302 1.9960989270491947 0 1172.0 1.9960989270491947 1
gene  1 302 29 0.9032445841892494 0 1173.0 0.9032445841892494 1
gene  1 27 69 -4.86027339642299 0 1225.0 -4.86027339642299 1
gene  1 7 41 -2.628352897164592 0 1246.0 -2.628352897164592 1
gene  1 26 327 0.8439775539503597 0 1274.0 0.8439775539503597 1
gene  1 327 29 -0.7902938757440364 0 1275.0 -0.7902938757440364 1
gene  1 1 277 -1.8182132192268925 0 1310.0 -1.8182132192268925 1
gene  1 150 343 -1.2908737044428653 0 1344.0 -1.2908737044428653 1
gene  1 343 69 4.316155374925191 0 1345.0 4.316155374925191 1
gene  1 7 29 -0.10752680568230066 0 1397.0 -0.10752680568230066 1
gene  1 23 242 5.1238475075302565 0 1440.0 5.1238475075302565 1
gene  1 16 366 1.8853436262478198 0 1443.0 1.8853436262478198 1
gene  1 366 128 0.987649299124971 0 1444.0 0.987649299124971 1
gene  1 14 242 -1.5475888130744333 0 1475.0 -1.5475888130744333 1
gene  1 17 32 1.0440139997530817 0 1520.0 1.0440139997530817 1
gene  1 26 397 -2.2701073525490805 0 1565.0 -2.2701073525490805 1
gene  1 397 30 -2.0557484727525592 0 1566.0 -2.0557484727525592 1
gene  1 32 277 -7.51108455366324 0 1590.0 -7.51108455366324 1
gene  1 24 128 0.3911934885806473 0 1620.0 0.3911934885806473 1
gene  1 4 236 3.2467078217942476 0 1662.0 3.2467078217942476 1
gene  1 16 327 -1.460562013208452 0 1682.0 -1.460562013208452 1
gene  1 21 439 2.3864034610389657 0 1719.0 2.3864034610389657 1
gene  1 439 27 1.7389770157004667 0 1720.0 1.7389770157004667 1
gene  1 5 455 1.3760554845729578 0 1779.0 1.3760554845729578 1
gene  1 455 26 1.846107865993957 0 1780.0 1.846107865993957 1
gene  1 439 343 -1.6708416784621032 0 1846.0 -1.6708416784621032 1
gene  1 26 485 0.21641680596974822 0 1886.0 0.21641680596974822 1
gene  1 485 32 2.257204480473366 0 1887.0 2.257204480473366 1
gene  1 17 508 1.3171011062809757 0 1973.0 1.3171011062809757 1
gene  1 508 27 -0.5046425472740459 0 1974.0 -0.5046425472740459 1
gene  1 439 518 1.0 0 2007.0 1.0 1
gene  1 518 343 -3.6714811785252137 0 2008.0 -3.6714811785252137 1
gene  1 27 525 1.0 0 2039.0 1.0 1
gene  1 525 286 1.1446880303777243 0 2040.0 1.1446880303777243 1
gene  1 14 103 7.288089321701191 0 2072.0 7.288089321701191 1
gene  1 10 542 -0.5833914369067785 0 2110.0 -0.5833914369067785 1
gene  1 542 25 -1.9240213433790119 0 2111.0 -1.9240213433790119 1
gene  1 17 28 2.0843252305239823 0 2146.0 2.0843252305239823 1
gene  1 518 27 0.031002103221486055 0 2176.0 0.031002103221486055 1
gene  1 14 99 2.9803322666065855 0 2211.0 2.9803322666065855 1
gene  1 15 508 -6.774607979146356 0 2249.0 -6.774607979146356 1
gene  1 508 150 5.474344611533057 0 2281.0 5.474344611533057 1
gene  1 23 508 4.098628358740197 0 2312.0 4.098628358740197 1
gene  1 7 542 -4.591567135559807 0 2382.0 -4.591567135559807 1
gene  1 11 623 1.0 0 2410.0 0.0 1
gene  1 623 25 -1.286726247990928 0 2411.0 0.0 1
gene  1 25 635 1.0 0 2449.0 0.0 1
gene  1 635 29 -1.8375548394672203 0 2450.0 0.0 1
genomeend 6
/*-------------------------------------------------------------------*/
/* Species # 032         : (size= 002) (AvfFit= 430,000) (Age= 23,000)  */
/*-------------------------------------------------------------------*/
/* Organism # 007 Fitness:  0,000 Error:  0,000                      */
genomestart  7
trait 1 0.0 0.4447040931572258 0.17141728378837895 0.0 0.10367948650246206 0.0 0.0 0.0 
node 1 1 1 1
node 2 1 1 1
node 3 1 1 1
node 4 1 1 1
node 5 1 1 1
node 6 1 1 1
node 7 1 1 1
node 8 1 1 1
node 9 1 1 1
node 10 1 1 1
node 11 1 1 1
node 12 1 1 1
node 13 1 1 1
node 14 1 1 1
node 15 1 1 1
node 16 1 1 1
node 17 1 1 1
node 18 1 1 1
node 19 1 1 1
node 20 1 1 1
node 21 1 1 1
node 22 1 1 1
node 23 1 1 3
node 24 1 0 0
node 25 1 0 0
node 26 1 0 0
node 27 1 0 0
node 28 1 0 2
node 29 1 0 2
node 30 1 0 2
node 31 1 0 2
node 32 1 0 2
node 41 1 0 0
node 69 1 0 0
node 99 1 0 0
node 103 1 0 0
node 110 1 0 0
node 128 1 0 0
node 150 1 0 0
node 191 1 0 0
node 236 1 0 0
node 242 1 0 0
node 277 1 0 0
node 286 1 0 0
node 295 1 0 0
node 310 1 0 0
node 333 1 0 0
node 355 1 0 0
node 361 1 0 0
node 390 1 0 0
node 419 1 0 0
node 421 1 0 0
node 442 1 0 0
node 450 1 0 0
node 471 1 0 0
node 482 1 0 0
node 499 1 0 0
node 526 1 0 0
node 537 1 0 0
node 548 1 0 0
node 605 1 0 0
node 625 1 0 0
gene  1 1 24 2.0759160610983773 0 1.0 2.0759160610983773 1
gene  1 2 24 1.3704320485637829 0 2.0 1.3704320485637829 1
gene  1 3 24 1.5997894574203282 0 3.0 1.5997894574203282 1
gene  1 4 24 -0.6029599629597704 0 4.0 -0.6029599629597704 1
gene  1 5 24 1.328023668543294 0 5.0 1.328023668543294 1
gene  1 6 24 -1.2727047937335045 0 6.0 -1.2727047937335045 1
gene  1 7 24 1.37629933355652 0 7.0 1.37629933355652 1
gene  1 8 24 -2.3779417115199966 0 8.0 -2.3779417115199966 1
gene  1 9 24 -3.1222968212448965 0 9.0 -3.1222968212448965 1
gene  1 10 24 0.03265339695094899 0 10.0 0.03265339695094899 1
gene  1 11 24 -0.7762200349166981 0 11.0 -0.7762200349166981 1
gene  1 12 24 0.6088228747964608 0 12.0 0.6088228747964608 1
gene  1 13 24 -0.44114298303728383 0 13.0 -0.44114298303728383 1
gene  1 14 24 -0.7568426297414567 0 14.0 -0.7568426297414567 1
gene  1 15 24 -0.19395099726972737 0 15.0 -0.19395099726972737 1
gene  1 16 24 -3.1330271820636444 0 16.0 -3.1330271820636444 1
gene  1 17 24 -1.2675580668771587 0 17.0 -1.2675580668771587 0
gene  1 18 24 -2.8051609156988127 0 18.0 -2.8051609156988127 1
gene  1 19 24 1.7232801822017452 0 19.0 1.7232801822017452 1
gene  1 20 24 1.460760296704318 0 20.0 1.460760296704318 1
gene  1 21 24 -1.374004216815901 0 21.0 -1.374004216815901 1
gene  1 22 24 -0.5122744324551032 0 22.0 -0.5122744324551032 1
gene  1 23 24 2.236889074115855 0 23.0 2.236889074115855 1
gene  1 1 25 1.1185278307521294 0 24.0 1.1185278307521294 1
gene  1 2 25 0.4379876960850039 0 25.0 0.4379876960850039 1
gene  1 3 25 1.9714459565062334 0 26.0 1.9714459565062334 1
gene  1 4 25 3.6900537031409697 0 27.0 3.6900537031409697 1
gene  1 5 25 2.7482085216431758 0 28.0 2.7482085216431758 1
gene  1 6 25 1.683322125030577 0 29.0 1.683322125030577 1
gene  1 7 25 -1.0356552586635333 0 30.0 -1.0356552586635333 1
gene  1 8 25 2.258562325152501 0 31.0 2.258562325152501 1
gene  1 9 25 -1.9800704564323603 0 32.0 -1.9800704564323603 1
gene  1 10 25 -0.157127207639704 0 33.0 -0.157127207639704 1
gene  1 11 25 2.123460602492911 0 34.0 2.123460602492911 1
gene  1 12 25 1.5135755799535617 0 35.0 1.5135755799535617 1
gene  1 13 25 -1.1141308136692865 0 36.0 -1.1141308136692865 1
gene  1 14 25 -1.7720618212571413 0 37.0 -1.7720618212571413 1
gene  1 15 25 -1.208773461259562 0 38.0 -1.208773461259562 1
gene  1 16 25 -1.1166832932599497 0 39.0 -1.1166832932599497 1
gene  1 17 25 1.4576378739056148 0 40.0 1.4576378739056148 1
gene  1 18 25 -1.9890487545441173 0 41.0 -1.9890487545441173 1
gene  1 19 25 1.1630102194679344 0 42.0 1.1630102194679344 1
