/* Species # 072         : (size= 002) (AvfFit= 905,000) (Age= 23,000)  */
/*-------------------------------------------------------------------*/
/* Organism # 000 Fitness:  0,000 Error:  0,000                      */
genomestart  0
trait 1 0.0 0.0 0.0 0.0 0.0 0.0 0.0 0.0 
node 1 1 1 1
node 2 1 1 1
node 3 1 1 1
node 4 1 1 1
node 5 1 1 1
node 6 1 1 1
node 7 1 1 1
node 8 1 1 1
node 9 1 1 1
node 10 1 1 1
node 11 1 1 1
node 12 1 1 1
node 13 1 1 1
node 14 1 1 1
node 15 1 1 1
node 16 1 1 1
node 17 1 1 1
node 18 1 1 1
node 19 1 1 1
node 20 1 1 1
node 21 1 1 1
node 22 1 1 1
node 23 1 1 3
node 24 1 0 0
node 25 1 0 0
node 26 1 0 0
node 27 1 0 0
node 28 1 0 2
node 29 1 0 2
node 30 1 0 2
node 31 1 0 2
node 32 1 0 2
node 41 1 0 0
node 69 1 0 0
node 99 1 0 0
node 103 1 0 0
node 110 1 0 0
node 128 1 0 0
node 150 1 0 0
node 191 1 0 0
node 236 1 0 0
node 242 1 0 0
node 277 1 0 0
node 286 1 0 0
node 295 1 0 0
node 310 1 0 0
node 333 1 0 0
node 355 1 0 0
node 361 1 0 0
node 390 1 0 0
node 419 1 0 0
node 449 1 0 0
node 458 1 0 0
node 492 1 0 0
node 502 1 0 0
node 519 1 0 0
node 550 1 0 0
node 613 1 0 0
node 637 1 0 0
node 650 1 0 0
node 684 1 0 0
node 693 1 0 0
node 762 1 0 0
node 780 1 0 0
node 801 1 0 0
node 817 1 0 0
node 833 1 0 0
node 837 1 0 0
node 877 1 0 0
node 949 1 0 0
node 953 1 0 0
node 967 1 0 0
node 984 1 0 0
node 1008 1 0 0
node 1029 1 0 0
node 1062 1 0 0
node 1090 1 0 0
node 1102 1 0 0
node 1125 1 0 0
node 1134 1 0 0
node 1282 1 0 0
node 1305 1 0 0
node 1331 1 0 0
gene  1 1 24 0.6836074841519658 0 1.0 0.6836074841519658 1
gene  1 2 24 0.2418349725060388 0 2.0 0.2418349725060388 1
gene  1 3 24 2.231101296592862 0 3.0 2.231101296592862 1
gene  1 4 24 1.9984107658146633 0 4.0 1.9984107658146633 1
gene  1 5 24 -1.295047861402809 0 5.0 -1.295047861402809 1
gene  1 6 24 -0.46614332725808727 0 6.0 -0.46614332725808727 1
gene  1 7 24 -0.6632373714736616 0 7.0 -0.6632373714736616 1
gene  1 8 24 -1.1786407631101534 0 8.0 -1.1786407631101534 1
gene  1 9 24 0.7083499676735852 0 9.0 0.7083499676735852 1
gene  1 10 24 1.8287682424176324 0 10.0 1.8287682424176324 1
gene  1 11 24 0.13114292736241406 0 11.0 0.13114292736241406 1
gene  1 12 24 0.20129052057887642 0 12.0 0.20129052057887642 1
gene  1 13 24 0.15119511013894327 0 13.0 0.15119511013894327 1
gene  1 14 24 -2.305494291515135 0 14.0 -2.305494291515135 1
gene  1 15 24 1.7866237942300476 0 15.0 1.7866237942300476 1
gene  1 16 24 0.4609847206181178 0 16.0 0.4609847206181178 1
gene  1 17 24 1.1367228621818093 0 17.0 1.1367228621818093 1
gene  1 18 24 1.0832013029571876 0 18.0 1.0832013029571876 1
gene  1 19 24 1.1167443914792334 0 19.0 1.1167443914792334 1
gene  1 20 24 0.07414205454090883 0 20.0 0.07414205454090883 1
gene  1 21 24 0.5418885079930811 0 21.0 0.5418885079930811 1
gene  1 22 24 2.484950267181405 0 22.0 2.484950267181405 1
gene  1 23 24 0.425929415896056 0 23.0 0.425929415896056 1
gene  1 1 25 0.6154095691625152 0 24.0 0.6154095691625152 1
gene  1 2 25 -2.8755165268856366 0 25.0 -2.8755165268856366 1
gene  1 3 25 2.689302679798512 0 26.0 2.689302679798512 1
gene  1 4 25 -0.7614296740576152 0 27.0 -0.7614296740576152 1
gene  1 5 25 -0.12017325232786724 0 28.0 -0.12017325232786724 1
gene  1 6 25 -0.8995478796312145 0 29.0 -0.8995478796312145 1
gene  1 7 25 -0.012654369140360444 0 30.0 -0.012654369140360444 1
gene  1 8 25 1.3910890901314834 0 31.0 1.3910890901314834 1
gene  1 9 25 0.3584175622867064 0 32.0 0.3584175622867064 1
gene  1 10 25 0.2779443092033518 0 33.0 0.2779443092033518 1
gene  1 11 25 1.142465146794125 0 34.0 1.142465146794125 1
gene  1 12 25 0.9036541395774667 0 35.0 0.9036541395774667 1
gene  1 13 25 -1.2351814578924105 0 36.0 -1.2351814578924105 1
gene  1 14 25 -2.406576236033213 0 37.0 -2.406576236033213 1
gene  1 15 25 -1.3059963432256165 0 38.0 -1.3059963432256165 1
gene  1 16 25 -0.07279068140327355 0 39.0 -0.07279068140327355 1
gene  1 17 25 2.1463068148221858 0 40.0 2.1463068148221858 1
gene  1 18 25 -0.8147305052695352 0 41.0 -0.8147305052695352 1
gene  1 19 25 -1.8963916370755176 0 42.0 -1.8963916370755176 1
gene  1 20 25 -0.17530964326477716 0 43.0 -0.17530964326477716 1
gene  1 21 25 -2.1615664960138625 0 44.0 -2.1615664960138625 1
gene  1 22 25 -0.5353496319643707 0 45.0 -0.5353496319643707 1
gene  1 23 25 2.211182550883856 0 46.0 2.211182550883856 1
gene  1 1 26 -0.1813538282281052 0 47.0 -0.1813538282281052 1
gene  1 2 26 1.0348232233393615 0 48.0 1.0348232233393615 1
gene  1 3 26 -0.26852393576716355 0 49.0 -0.26852393576716355 1
gene  1 4 26 -0.5462351900443294 0 50.0 -0.5462351900443294 1
gene  1 5 26 1.841798679175527 0 51.0 1.841798679175527 1
gene  1 6 26 0.9246057866887103 0 52.0 0.9246057866887103 1
gene  1 7 26 2.961718684201993 0 53.0 2.961718684201993 1
gene  1 8 26 1.3531921659176516 0 54.0 1.3531921659176516 1
gene  1 9 26 -1.7276248866576271 0 55.0 -1.7276248866576271 1
gene  1 10 26 2.0139802487278704 0 56.0 2.0139802487278704 1
gene  1 11 26 1.528778550886252 0 57.0 1.528778550886252 1
gene  1 12 26 -0.5785609867130133 0 58.0 -0.5785609867130133 1
gene  1 13 26 -2.6797800697851013 0 59.0 -2.6797800697851013 1
gene  1 14 26 -0.5697240976550146 0 60.0 -0.5697240976550146 1
gene  1 15 26 -0.6337731619541322 0 61.0 -0.6337731619541322 1
gene  1 16 26 -3.0562620734655126 0 62.0 -3.0562620734655126 1
gene  1 17 26 -0.6658234717228073 0 63.0 -0.6658234717228073 1
gene  1 18 26 3.3403867808578074 0 64.0 3.3403867808578074 1
gene  1 19 26 0.7776803632315288 0 65.0 0.7776803632315288 1
gene  1 20 26 -0.7243609006292111 0 66.0 -0.7243609006292111 1
gene  1 21 26 -3.0739483612397973 0 67.0 -3.0739483612397973 0
gene  1 22 26 -0.8853447786938764 0 68.0 -0.8853447786938764 1
gene  1 23 26 -1.392668583310223 0 69.0 -1.392668583310223 1
gene  1 1 27 0.1950912962028929 0 70.0 0.1950912962028929 1
gene  1 2 27 -2.3849842766314993 0 71.0 -2.3849842766314993 1
gene  1 3 27 -1.4510293084069832 0 72.0 -1.4510293084069832 1
gene  1 4 27 -2.108078397682316 0 73.0 -2.108078397682316 0
gene  1 5 27 0.9853093818432086 0 74.0 0.9853093818432086 1
gene  1 6 27 1.9012442085109171 0 75.0 1.9012442085109171 1
gene  1 7 27 -1.1359514906506512 0 76.0 -1.1359514906506512 1
gene  1 8 27 1.3588260773815568 0 77.0 1.3588260773815568 1
gene  1 9 27 -2.8086161361721667 0 78.0 -2.8086161361721667 1
gene  1 10 27 0.6822866399342444 0 79.0 0.6822866399342444 1
gene  1 11 27 -1.4192574802827127 0 80.0 -1.4192574802827127 1
gene  1 12 27 2.0194659787646483 0 81.0 2.0194659787646483 1
gene  1 13 27 -3.29794013327734 0 82.0 -3.29794013327734 1
gene  1 14 27 -1.0273223382155723 0 83.0 -1.0273223382155723 1
gene  1 15 27 0.8854793246663014 0 84.0 0.8854793246663014 1
gene  1 16 27 -2.4100030796377325 0 85.0 -2.4100030796377325 1
gene  1 17 27 1.1641354279973304 0 86.0 1.1641354279973304 1
gene  1 18 27 -1.5657621004727782 0 87.0 -1.5657621004727782 1
gene  1 19 27 0.9635940309111093 0 88.0 0.9635940309111093 1
gene  1 20 27 -1.5141808232294682 0 89.0 -1.5141808232294682 1
gene  1 21 27 -1.6098739089238192 0 90.0 -1.6098739089238192 1
gene  1 22 27 -0.20721715934182405 0 91.0 -0.20721715934182405 1
gene  1 23 27 -2.7987944125960222 0 92.0 -2.7987944125960222 1
gene  1 23 28 1.3272888213665466 0 93.0 1.3272888213665466 1
gene  1 24 28 1.3820786340802313 0 94.0 1.3820786340802313 1
gene  1 25 28 0.8152174332290762 0 95.0 0.8152174332290762 1
gene  1 26 28 -1.8871519098029614 0 96.0 -1.8871519098029614 1
gene  1 27 28 -1.0416194194378714 0 97.0 -1.0416194194378714 1
gene  1 23 29 1.712662646035409 0 98.0 1.712662646035409 1
gene  1 24 29 0.3750308964985809 0 99.0 0.3750308964985809 1
gene  1 25 29 2.0081239104076944 0 100.0 2.0081239104076944 1
gene  1 26 29 -1.8177506182944394 0 101.0 -1.8177506182944394 1
gene  1 27 29 0.24578722111506612 0 102.0 0.24578722111506612 1
gene  1 23 30 -0.9792201881248785 0 103.0 -0.9792201881248785 1
gene  1 24 30 0.3847222154010963 0 104.0 0.3847222154010963 1
gene  1 25 30 1.8066113481737804 0 105.0 1.8066113481737804 1
gene  1 26 30 0.2284221571408082 0 106.0 0.2284221571408082 1
gene  1 27 30 2.7779870153214823 0 107.0 2.7779870153214823 1
gene  1 23 31 0.4191893547743016 0 108.0 0.4191893547743016 1
gene  1 24 31 0.77248384192597 0 109.0 0.77248384192597 1
gene  1 25 31 -2.4322039769326436 0 110.0 -2.4322039769326436 1
gene  1 26 31 1.9221518817702068 0 111.0 1.9221518817702068 1
gene  1 27 31 -1.706516430146761 0 112.0 -1.706516430146761 1
gene  1 23 32 -1.20797389976055 0 113.0 -1.20797389976055 1
gene  1 24 32 0.41904467590066785 0 114.0 0.41904467590066785 1
gene  1 25 32 -1.5085101012937148 0 115.0 -1.5085101012937148 1
gene  1 26 32 -0.2604847518040827 0 116.0 -0.2604847518040827 1
gene  1 27 32 1.0654473885398326 0 117.0 1.0654473885398326 1
gene  1 15 28 4.70782994343627 0 145.0 4.70782994343627 1
gene  1 24 41 0.7041611002973363 0 162.0 0.7041611002973363 1
gene  1 41 29 -0.7849467345565301 0 163.0 -0.7849467345565301 1
gene  1 11 28 9.218883268875562 0 192.0 9.218883268875562 1
gene  1 8 29 -2.176334847719313 0 252.0 -2.176334847719313 1
gene  1 8 69 0.6109648487557431 0 286.0 0.6109648487557431 1
gene  1 69 26 2.7645682336002895 0 287.0 2.7645682336002895 1
gene  1 14 28 8.721990907806568 0 325.0 8.721990907806568 1
gene  1 10 28 4.561700536875561 0 337.0 4.561700536875561 1
gene  1 15 32 6.306243292515637 0 371.0 6.306243292515637 1
gene  1 20 99 2.16353396511089 0 420.0 2.16353396511089 1
gene  1 99 27 -2.8094737854649665 0 421.0 -2.8094737854649665 1
gene  1 5 103 -1.0264695869117828 0 442.0 -1.0264695869117828 1
gene  1 103 24 1.3671339875182222 0 443.0 1.3671339875182222 1
gene  1 3 110 -1.3192452305966889 0 466.0 -1.3192452305966889 1
gene  1 110 26 0.17226926783242408 0 467.0 0.17226926783242408 1
gene  1 17 99 8.667263408509712 0 517.0 8.667263408509712 1
gene  1 16 128 -1.1029401447466332 0 542.0 -1.1029401447466332 1
gene  1 128 25 1.5541036770496022 0 543.0 1.5541036770496022 1
gene  1 22 103 -3.6589079271917693 0 584.0 -3.6589079271917693 1
gene  1 24 150 -0.4951572804097779 0 612.0 -0.4951572804097779 1
gene  1 150 29 1.760461199179113 0 613.0 1.760461199179113 1
gene  1 6 128 7.989030214491342 0 659.0 7.989030214491342 1
gene  1 150 69 7.977677494161361 0 697.0 7.977677494161361 1
gene  1 31 32 -7.223103554147636 0 712.0 -7.223103554147636 1
gene  1 26 41 -6.934677827942377 0 740.0 -6.934677827942377 1
gene  1 7 191 2.7026679260086692 0 774.0 2.7026679260086692 0
gene  1 191 26 2.8964560025688257 0 775.0 2.8964560025688257 1
gene  1 103 26 0.9890079923258703 0 816.0 0.9890079923258703 1
gene  1 9 29 -5.980022400228384 0 851.0 -5.980022400228384 1
gene  1 11 99 -3.9682740919211192 0 864.0 -3.9682740919211192 1
gene  1 12 99 -10.457000068568073 0 920.0 -10.457000068568073 1
gene  1 26 236 2.413153052333878 0 945.0 2.413153052333878 1
gene  1 236 28 -0.39879288095864707 0 946.0 -0.39879288095864707 1
gene  1 22 242 0.9659975009029367 0 964.0 0.9659975009029367 1
gene  1 242 24 1.9563221533460138 0 965.0 1.9563221533460138 1
gene  1 15 99 9.470992938607854 0 1027.0 9.470992938607854 1
gene  1 191 69 2.1652779438076055 0 1052.0 2.1652779438076055 1
gene  1 15 277 0.9471773128246486 0 1090.0 0.9471773128246486 1
gene  1 277 28 2.35561451715437 0 1091.0 2.35561451715437 1
gene  1 27 286 -0.12275845610281455 0 1116.0 -0.12275845610281455 1
gene  1 286 28 0.025667614407639316 0 1117.0 0.025667614407639316 1
gene  1 191 295 1.462792961073816 0 1142.0 1.462792961073816 0
gene  1 295 26 -0.6328061547708835 0 1143.0 -0.6328061547708835 1
gene  1 22 128 0.47233297098327853 0 1174.0 0.47233297098327853 1
gene  1 19 310 2.4856618195935347 0 1209.0 2.4856618195935347 0
gene  1 310 24 -1.6364077796782248 0 1210.0 -1.6364077796782248 1
gene  1 242 103 8.287160315783602 0 1238.0 8.287160315783602 1
gene  1 16 236 -0.9082556621137352 0 1287.0 -0.9082556621137352 1
gene  1 20 333 1.0 0 1305.0 1.0 1
gene  1 333 24 -0.43803176646816433 0 1306.0 -0.43803176646816433 1
gene  1 14 277 -7.3398616412898825 0 1364.0 -7.3398616412898825 1
gene  1 2 355 -0.6544197900779483 0 1395.0 -0.6544197900779483 1
gene  1 355 27 0.057231611804800075 0 1396.0 0.057231611804800075 1
gene  1 69 361 -0.018934202235794118 0 1416.0 -0.018934202235794118 1
gene  1 361 26 2.638823677941647 0 1417.0 2.638823677941647 1
gene  1 9 32 -4.24720604900855 0 1466.0 -4.24720604900855 1
gene  1 14 333 -3.785843903385777 0 1482.0 -3.785843903385777 1
gene  1 32 277 2.2177074487957547 0 1522.0 2.2177074487957547 1
gene  1 3 390 1.0 0 1547.0 1.0 1
gene  1 390 26 2.717639197728152 0 1548.0 2.717639197728152 1
gene  1 286 236 0.7913139280449974 0 1594.0 0.7913139280449974 1
gene  1 20 419 1.0 0 1638.0 1.0 1
gene  1 419 27 2.372046399786742 0 1639.0 2.372046399786742 1
gene  1 17 355 -3.941543941741722 0 1648.0 -3.941543941741722 1
gene  1 8 150 0.9703385552652399 0 1688.0 0.9703385552652399 1
gene  1 355 310 -5.568152431032543 0 1725.0 -5.568152431032543 1
gene  1 2 449 2.715246405901041 0 1757.0 2.715246405901041 1
gene  1 449 355 1.1406736985867385 0 1758.0 1.1406736985867385 1
gene  1 10 458 1.0 0 1789.0 1.0 1
gene  1 458 26 0.8334553162957417 0 1790.0 0.8334553162957417 1
gene  1 286 242 0.0177850674950375 0 1819.0 0.0177850674950375 1
gene  1 103 361 -4.425782843693852 0 1881.0 -4.425782843693852 1
gene  1 22 492 1.0 0 1911.0 0.0 1
gene  1 492 128 0.47233297098327853 0 1912.0 0.0 1
gene  1 14 502 1.0 0 1950.0 0.0 1
gene  1 502 25 -2.406576236033213 0 1951.0 0.0 1
gene  1 10 519 1.0 0 2010.0 0.0 1
gene  1 519 25 0.2779443092033518 0 2011.0 0.0 1
gene  1 103 333 -4.925490828342904 0 2033.0 -4.925490828342904 1
gene  1 7 242 -8.589149608783572 0 2047.0 -8.589149608783572 1
gene  1 361 30 -3.364430012547958 0 2081.0 -3.364430012547958 1
gene  1 286 550 1.0 0 2139.0 0.0 1
gene  1 550 28 0.025667614407639316 0 2140.0 0.0 1
gene  1 16 449 -4.819583852973205 0 2207.0 -4.819583852973205 1
gene  1 22 99 -2.805021694326193 0 2256.0 -2.805021694326193 0
gene  1 519 191 5.4862128461960324 0 2286.0 5.4862128461960324 1
gene  1 41 277 -9.127596344581471 0 2326.0 -9.127596344581471 1
gene  1 19 613 1.0 0 2370.0 0.0 1
gene  1 613 24 1.1167443914792334 0 2371.0 0.0 1
gene  1 19 361 -0.9731171545944906 0 2386.0 -0.9731171545944906 1
gene  1 150 519 6.419898397957137 0 2419.0 6.419898397957137 1
gene  1 8 637 1.0 0 2459.0 0.0 1
gene  1 637 69 0.6109648487557431 0 2460.0 0.0 1
gene  1 99 41 -5.8512602291313005 0 2491.0 -5.8512602291313005 1
gene  1 14 650 1.0 0 2525.0 0.0 1
gene  1 650 26 -0.5697240976550146 0 2526.0 0.0 1
gene  1 99 449 9.692660829861735 0 2574.0 9.692660829861735 1
gene  1 128 650 -5.0758949069195305 0 2611.0 -5.0758949069195305 1
gene  1 242 613 -5.126578153185584 0 2631.0 -5.126578153185584 1
gene  1 26 684 1.0 0 2651.0 0.0 1
gene  1 684 41 -6.934677827942377 0 2652.0 0.0 1
gene  1 7 693 1.0 0 2686.0 0.0 1
gene  1 693 27 -1.1359514906506512 0 2687.0 0.0 1
gene  1 693 637 -8.665673205969714 0 2741.0 -8.665673205969714 1
gene  1 21 28 0.06671616490239618 0 2763.0 0.06671616490239618 1
gene  1 458 103 8.611347731799743 0 2802.0 8.611347731799743 1
gene  1 286 41 -0.3004047542578181 0 2819.0 -0.3004047542578181 1
gene  1 502 390 -8.194380204004723 0 2870.0 -8.194380204004723 1
gene  1 333 32 -7.464997288507407 0 2893.0 -7.464997288507407 1
gene  1 30 236 5.775671236113728 0 2925.0 5.775671236113728 1
gene  1 9 762 1.0 0 2965.0 0.0 1
gene  1 762 26 -1.7276248866576271 0 2966.0 0.0 1
gene  1 16 613 4.007700359226538 0 2985.0 4.007700359226538 1
gene  1 25 780 1.0 0 3029.0 0.0 1
gene  1 780 28 0.8152174332290762 0 3030.0 0.0 1
gene  1 502 69 2.7969092830649056 0 3080.0 2.7969092830649056 1
gene  1 2 801 1.0 0 3114.0 0.0 1
gene  1 801 26 1.0348232233393615 0 3115.0 0.0 1
gene  1 550 310 4.349619558396177 0 3126.0 4.349619558396177 1
gene  1 550 817 1.0 0 3162.0 0.0 1
gene  1 817 28 0.025667614407639316 0 3163.0 0.0 1
gene  1 103 833 1.0 0 3220.0 0.0 1
gene  1 833 24 1.3671339875182222 0 3221.0 0.0 1
gene  1 14 837 1.0 0 3236.0 0.0 1
gene  1 837 333 -3.785843903385777 0 3237.0 0.0 1
gene  1 21 150 0.37578412308161835 0 3282.0 0.37578412308161835 1
gene  1 650 780 3.1321547879450895 0 3314.0 3.1321547879450895 1
gene  1 15 837 -8.001033582604686 0 3364.0 -8.001033582604686 1
gene  1 20 877 1.0 0 3407.0 0.0 1
gene  1 877 99 2.16353396511089 0 3408.0 0.0 1
gene  1 16 333 -7.684474477005092 0 3491.0 -7.684474477005092 1
gene  1 4 361 9.048045139790645 0 3557.0 9.048045139790645 1
gene  1 17 150 -6.332162956026258 0 3601.0 -6.332162956026258 1
gene  1 15 419 6.608183758505177 0 3630.0 6.608183758505177 1
gene  1 27 236 -9.183117112089807 0 3680.0 -9.183117112089807 1
gene  1 242 949 1.0 0 3697.0 0.0 1
gene  1 949 24 1.9563221533460138 0 3698.0 0.0 1
gene  1 21 953 1.0 0 3730.0 0.0 1
gene  1 953 26 -3.0739483612397973 0 3731.0 0.0 1
gene  1 21 967 1.0 0 3782.0 0.0 1
gene  1 967 27 -1.6098739089238192 0 3783.0 0.0 1
gene  1 295 41 -9.542866571256884 0 3812.0 -9.542866571256884 1
gene  1 1 984 1.0 0 3857.0 0.0 1
gene  1 984 27 0.1950912962028929 0 3858.0 0.0 1
gene  1 502 355 -8.196641142612357 0 3916.0 -8.196641142612357 1
gene  1 877 110 8.721426883747764 0 3933.0 8.721426883747764 1
gene  1 24 1008 1.0 0 3947.0 0.0 1
gene  1 1008 150 -0.4951572804097779 0 3948.0 0.0 1
gene  1 4 492 -8.457524817301785 0 3998.0 -8.457524817301785 1
gene  1 20 1029 1.0 0 4022.0 0.0 1
gene  1 1029 25 -0.17530964326477716 0 4023.0 0.0 1
gene  1 103 801 -2.3027310937624277 0 4066.0 -2.3027310937624277 1
gene  1 984 492 6.950981250856162 0 4110.0 6.950981250856162 1
gene  1 693 550 -0.3055966438361801 0 4127.0 -0.3055966438361801 1
gene  1 550 1062 1.0 0 4155.0 0.0 1
gene  1 1062 310 4.349619558396177 0 4156.0 0.0 1
gene  1 502 984 4.146867788623857 0 4187.0 4.146867788623857 1
gene  1 833 613 -0.7014831771904717 0 4214.0 -0.7014831771904717 1
gene  1 4 1090 1.0 0 4251.0 0.0 1
gene  1 1090 24 1.9984107658146633 0 4252.0 0.0 1
gene  1 191 1102 1.0 0 4284.0 0.0 1
gene  1 1102 295 1.462792961073816 0 4285.0 0.0 1
gene  1 984 449 -9.331156395448737 0 4326.0 -9.331156395448737 1
gene  1 15 1125 1.0 0 4368.0 0.0 1
gene  1 1125 27 0.8854793246663014 0 4369.0 0.0 1
gene  1 4 1134 1.0 0 4401.0 0.0 1
gene  1 1134 27 -2.108078397682316 0 4402.0 0.0 1
gene  1 12 449 2.6982152417791836 0 4445.0 2.6982152417791836 1
gene  1 9 242 8.99554449740825 0 4467.0 8.99554449740825 1
gene  1 41 30 -7.1994370192127715 0 4490.0 -7.1994370192127715 1
gene  1 458 1125 6.521126856990772 0 4529.0 6.521126856990772 1
gene  1 762 1008 -2.260922377983232 0 4582.0 -2.260922377983232 1
gene  1 984 1062 -2.3548248112539314 0 4623.0 -2.3548248112539314 1
gene  1 1029 1134 8.217670137638471 0 4653.0 8.217670137638471 1
gene  1 1029 277 9.693352686705248 0 4681.0 9.693352686705248 1
gene  1 22 286 -7.354671207895601 0 4716.0 -7.354671207895601 1
gene  1 355 333 -0.9474445607950321 0 4740.0 -0.9474445607950321 1
gene  1 550 333 -4.863400180773963 0 4777.0 -4.863400180773963 1
gene  1 99 967 -3.3657320846591565 0 4792.0 -3.3657320846591565 1
gene  1 9 286 -0.5209168932561625 0 4832.0 -0.5209168932561625 1
gene  1 150 30 -6.491196081375619 0 4880.0 -6.491196081375619 1
gene  1 22 1282 1.0 0 4922.0 0.0 1
gene  1 1282 99 -2.805021694326193 0 4923.0 0.0 1
gene  1 953 128 2.38687647684391 0 4972.0 2.38687647684391 1
gene  1 27 1305 1.0 0 5016.0 0.0 1
gene  1 1305 236 -9.183117112089807 0 5017.0 0.0 1
gene  1 20 984 0.7239693004935921 0 5048.0 0.7239693004935921 1
gene  1 953 1029 -6.447803796931357 0 5090.0 -6.447803796931357 1
gene  1 7 1331 1.0 0 5124.0 0.0 1
gene  1 1331 191 2.7026679260086692 0 5125.0 0.0 1
genomeend 0
/* Organism # 001 Fitness:  0,000 Error:  0,000                      */
genomestart  1
trait 1 0.0 0.0 0.0 0.0 0.0 0.0 0.0 0.0 
node 1 1 1 1
node 2 1 1 1
node 3 1 1 1
node 4 1 1 1
node 5 1 1 1
node 6 1 1 1
node 7 1 1 1
node 8 1 1 1
node 9 1 1 1
node 10 1 1 1
node 11 1 1 1
node 12 1 1 1
node 13 1 1 1
node 14 1 1 1
node 15 1 1 1
node 16 1 1 1
node 17 1 1 1
node 18 1 1 1
node 19 1 1 1
node 20 1 1 1
node 21 1 1 1
node 22 1 1 1
node 23 1 1 3
node 24 1 0 0
node 25 1 0 0
node 26 1 0 0
node 27 1 0 0
node 28 1 0 2
node 29 1 0 2
node 30 1 0 2
node 31 1 0 2
node 32 1 0 2
node 41 1 0 0
node 69 1 0 0
node 99 1 0 0
node 103 1 0 0
node 110 1 0 0
node 128 1 0 0
node 150 1 0 0
node 191 1 0 0
node 236 1 0 0
node 242 1 0 0
node 277 1 0 0
node 286 1 0 0
node 295 1 0 0
node 310 1 0 0
node 333 1 0 0
node 355 1 0 0
node 361 1 0 0
node 390 1 0 0
node 419 1 0 0
node 449 1 0 0
node 458 1 0 0
node 492 1 0 0
node 502 1 0 0
node 519 1 0 0
node 550 1 0 0
node 613 1 0 0
node 637 1 0 0
node 650 1 0 0
node 684 1 0 0
node 693 1 0 0
node 762 1 0 0
node 780 1 0 0
node 801 1 0 0
node 817 1 0 0
node 833 1 0 0
node 837 1 0 0
node 877 1 0 0
node 949 1 0 0
node 953 1 0 0
node 967 1 0 0
node 984 1 0 0
node 1008 1 0 0
node 1029 1 0 0
node 1062 1 0 0
node 1090 1 0 0
node 1102 1 0 0
node 1125 1 0 0
node 1134 1 0 0
node 1282 1 0 0
node 1305 1 0 0
gene  1 1 24 0.6836074841519658 0 1.0 0.6836074841519658 1
gene  1 2 24 0.2418349725060388 0 2.0 0.2418349725060388 1
gene  1 3 24 2.231101296592862 0 3.0 2.231101296592862 1
gene  1 4 24 1.9984107658146633 0 4.0 1.9984107658146633 1
gene  1 5 24 -1.295047861402809 0 5.0 -1.295047861402809 1
gene  1 6 24 -0.46614332725808727 0 6.0 -0.46614332725808727 1
gene  1 7 24 -0.6632373714736616 0 7.0 -0.6632373714736616 1
gene  1 8 24 -1.1786407631101534 0 8.0 -1.1786407631101534 1
gene  1 9 24 0.7083499676735852 0 9.0 0.7083499676735852 1
gene  1 10 24 1.8287682424176324 0 10.0 1.8287682424176324 1
gene  1 11 24 0.13114292736241406 0 11.0 0.13114292736241406 1
gene  1 12 24 0.20129052057887642 0 12.0 0.20129052057887642 1
gene  1 13 24 0.15119511013894327 0 13.0 0.15119511013894327 1
gene  1 14 24 -2.305494291515135 0 14.0 -2.305494291515135 1
gene  1 15 24 1.7866237942300476 0 15.0 1.7866237942300476 1
gene  1 16 24 0.4609847206181178 0 16.0 0.4609847206181178 1
gene  1 17 24 1.1367228621818093 0 17.0 1.1367228621818093 1
gene  1 18 24 1.0832013029571876 0 18.0 1.0832013029571876 1
gene  1 19 24 1.1167443914792334 0 19.0 1.1167443914792334 1
gene  1 20 24 0.07414205454090883 0 20.0 0.07414205454090883 1
gene  1 21 24 0.5418885079930811 0 21.0 0.5418885079930811 1
gene  1 22 24 2.484950267181405 0 22.0 2.484950267181405 1
gene  1 23 24 0.425929415896056 0 23.0 0.425929415896056 1
gene  1 1 25 0.6154095691625152 0 24.0 0.6154095691625152 1
gene  1 2 25 -2.8755165268856366 0 25.0 -2.8755165268856366 1
gene  1 3 25 2.689302679798512 0 26.0 2.689302679798512 1
gene  1 4 25 -0.7614296740576152 0 27.0 -0.7614296740576152 1
gene  1 5 25 -0.12017325232786724 0 28.0 -0.12017325232786724 1
gene  1 6 25 -0.8995478796312145 0 29.0 -0.8995478796312145 1
gene  1 7 25 -0.012654369140360444 0 30.0 -0.012654369140360444 1
gene  1 8 25 1.3910890901314834 0 31.0 1.3910890901314834 1
gene  1 9 25 0.3584175622867064 0 32.0 0.3584175622867064 1
gene  1 10 25 0.2779443092033518 0 33.0 0.2779443092033518 1
gene  1 11 25 1.142465146794125 0 34.0 1.142465146794125 1
gene  1 12 25 0.9036541395774667 0 35.0 0.9036541395774667 1
gene  1 13 25 -1.2351814578924105 0 36.0 -1.2351814578924105 1
gene  1 14 25 -2.406576236033213 0 37.0 -2.406576236033213 1
gene  1 15 25 -1.3059963432256165 0 38.0 -1.3059963432256165 1
gene  1 16 25 -0.07279068140327355 0 39.0 -0.07279068140327355 1
gene  1 17 25 2.1463068148221858 0 40.0 2.1463068148221858 1
gene  1 18 25 -0.8147305052695352 0 41.0 -0.8147305052695352 1
gene  1 19 25 -1.8963916370755176 0 42.0 -1.8963916370755176 1
gene  1 20 25 -0.17530964326477716 0 43.0 -0.17530964326477716 1
gene  1 21 25 -2.1615664960138625 0 44.0 -2.1615664960138625 1
gene  1 22 25 -0.5353496319643707 0 45.0 -0.5353496319643707 1
gene  1 23 25 2.211182550883856 0 46.0 2.211182550883856 1
gene  1 1 26 -0.1813538282281052 0 47.0 -0.1813538282281052 1
gene  1 2 26 1.0348232233393615 0 48.0 1.0348232233393615 1
gene  1 3 26 -0.26852393576716355 0 49.0 -0.26852393576716355 1
gene  1 4 26 -0.5462351900443294 0 50.0 -0.5462351900443294 1
gene  1 5 26 1.841798679175527 0 51.0 1.841798679175527 1
gene  1 6 26 0.9246057866887103 0 52.0 0.9246057866887103 1
gene  1 7 26 2.961718684201993 0 53.0 2.961718684201993 1
gene  1 8 26 1.3531921659176516 0 54.0 1.3531921659176516 1
gene  1 9 26 -1.7276248866576271 0 55.0 -1.7276248866576271 1
gene  1 10 26 2.0139802487278704 0 56.0 2.0139802487278704 1
gene  1 11 26 1.528778550886252 0 57.0 1.528778550886252 1
gene  1 12 26 -0.5785609867130133 0 58.0 -0.5785609867130133 1
gene  1 13 26 -2.6797800697851013 0 59.0 -2.6797800697851013 1
gene  1 14 26 -0.5697240976550146 0 60.0 -0.5697240976550146 1
gene  1 15 26 -0.6337731619541322 0 61.0 -0.6337731619541322 1
gene  1 16 26 -3.0562620734655126 0 62.0 -3.0562620734655126 1
gene  1 17 26 -0.6658234717228073 0 63.0 -0.6658234717228073 1
gene  1 18 26 3.3403867808578074 0 64.0 3.3403867808578074 1
gene  1 19 26 0.7776803632315288 0 65.0 0.7776803632315288 1
gene  1 20 26 -0.7243609006292111 0 66.0 -0.7243609006292111 1
gene  1 21 26 -3.0739483612397973 0 67.0 -3.0739483612397973 0
gene  1 22 26 -0.8853447786938764 0 68.0 -0.8853447786938764 1
gene  1 23 26 -1.392668583310223 0 69.0 -1.392668583310223 1
gene  1 1 27 0.1950912962028929 0 70.0 0.1950912962028929 1
gene  1 2 27 -2.3849842766314993 0 71.0 -2.3849842766314993 1
gene  1 3 27 -1.4510293084069832 0 72.0 -1.4510293084069832 1
gene  1 4 27 -2.108078397682316 0 73.0 -2.108078397682316 0
gene  1 5 27 0.9853093818432086 0 74.0 0.9853093818432086 1
gene  1 6 27 1.9012442085109171 0 75.0 1.9012442085109171 1
gene  1 7 27 -1.1359514906506512 0 76.0 -1.1359514906506512 1
gene  1 8 27 1.3588260773815568 0 77.0 1.3588260773815568 1
gene  1 9 27 -2.8086161361721667 0 78.0 -2.8086161361721667 1
gene  1 10 27 0.6822866399342444 0 79.0 0.6822866399342444 1
gene  1 11 27 -1.4192574802827127 0 80.0 -1.4192574802827127 1
gene  1 12 27 2.0194659787646483 0 81.0 2.0194659787646483 1
gene  1 13 27 -3.29794013327734 0 82.0 -3.29794013327734 1
gene  1 14 27 -1.0273223382155723 0 83.0 -1.0273223382155723 1
gene  1 15 27 0.8854793246663014 0 84.0 0.8854793246663014 0
gene  1 16 27 -2.4100030796377325 0 85.0 -2.4100030796377325 1
gene  1 17 27 1.1641354279973304 0 86.0 1.1641354279973304 1
gene  1 18 27 -1.5657621004727782 0 87.0 -1.5657621004727782 1
gene  1 19 27 0.9635940309111093 0 88.0 0.9635940309111093 1
gene  1 20 27 -1.5141808232294682 0 89.0 -1.5141808232294682 1
gene  1 21 27 -1.6098739089238192 0 90.0 -1.6098739089238192 1
gene  1 22 27 -0.20721715934182405 0 91.0 -0.20721715934182405 1
gene  1 23 27 -2.7987944125960222 0 92.0 -2.7987944125960222 1
gene  1 23 28 1.3272888213665466 0 93.0 1.3272888213665466 1
gene  1 24 28 1.3820786340802313 0 94.0 1.3820786340802313 1
gene  1 25 28 0.8152174332290762 0 95.0 0.8152174332290762 1
gene  1 26 28 -1.8871519098029614 0 96.0 -1.8871519098029614 1
gene  1 27 28 -1.0416194194378714 0 97.0 -1.0416194194378714 1
gene  1 23 29 1.712662646035409 0 98.0 1.712662646035409 1
gene  1 24 29 0.3750308964985809 0 99.0 0.3750308964985809 1
gene  1 25 29 2.0081239104076944 0 100.0 2.0081239104076944 1
gene  1 26 29 -1.8177506182944394 0 101.0 -1.8177506182944394 1
gene  1 27 29 0.24578722111506612 0 102.0 0.24578722111506612 1
gene  1 23 30 -0.9792201881248785 0 103.0 -0.9792201881248785 1
gene  1 24 30 0.3847222154010963 0 104.0 0.3847222154010963 1
gene  1 25 30 1.8066113481737804 0 105.0 1.8066113481737804 1
gene  1 26 30 0.2284221571408082 0 106.0 0.2284221571408082 1
gene  1 27 30 2.7779870153214823 0 107.0 2.7779870153214823 1
gene  1 23 31 0.4191893547743016 0 108.0 0.4191893547743016 1
gene  1 24 31 0.77248384192597 0 109.0 0.77248384192597 1
gene  1 25 31 -2.4322039769326436 0 110.0 -2.4322039769326436 1
gene  1 26 31 1.9221518817702068 0 111.0 1.9221518817702068 1
gene  1 27 31 -1.706516430146761 0 112.0 -1.706516430146761 1
gene  1 23 32 -1.20797389976055 0 113.0 -1.20797389976055 1
gene  1 24 32 0.41904467590066785 0 114.0 0.41904467590066785 1
gene  1 25 32 -1.5085101012937148 0 115.0 -1.5085101012937148 1
gene  1 26 32 -0.2604847518040827 0 116.0 -0.2604847518040827 1
gene  1 27 32 1.0654473885398326 0 117.0 1.0654473885398326 1
gene  1 15 28 4.70782994343627 0 145.0 4.70782994343627 1
gene  1 24 41 0.7041611002973363 0 162.0 0.7041611002973363 1
gene  1 41 29 -0.7849467345565301 0 163.0 -0.7849467345565301 1
gene  1 11 28 9.218883268875562 0 192.0 9.218883268875562 1
gene  1 8 29 -2.176334847719313 0 252.0 -2.176334847719313 1
gene  1 8 69 0.6109648487557431 0 286.0 0.6109648487557431 1
gene  1 69 26 2.7645682336002895 0 287.0 2.7645682336002895 1
gene  1 14 28 8.721990907806568 0 325.0 8.721990907806568 1
gene  1 10 28 4.561700536875561 0 337.0 4.561700536875561 1
gene  1 15 32 6.306243292515637 0 371.0 6.306243292515637 1
gene  1 20 99 2.16353396511089 0 420.0 2.16353396511089 1
gene  1 99 27 -2.8094737854649665 0 421.0 -2.8094737854649665 1
gene  1 5 103 -1.0264695869117828 0 442.0 -1.0264695869117828 1
gene  1 103 24 1.3671339875182222 0 443.0 1.3671339875182222 1
gene  1 3 110 -1.3192452305966889 0 466.0 -1.3192452305966889 1
gene  1 110 26 0.17226926783242408 0 467.0 0.17226926783242408 1
gene  1 17 99 8.667263408509712 0 517.0 8.667263408509712 1
gene  1 16 128 -1.1029401447466332 0 542.0 -1.1029401447466332 1
gene  1 128 25 1.5541036770496022 0 543.0 1.5541036770496022 1
gene  1 22 103 -3.6589079271917693 0 584.0 -3.6589079271917693 1
gene  1 24 150 -0.4951572804097779 0 612.0 -0.4951572804097779 1
gene  1 150 29 1.760461199179113 0 613.0 1.760461199179113 1
gene  1 6 128 7.989030214491342 0 659.0 7.989030214491342 1
gene  1 150 69 7.977677494161361 0 697.0 7.977677494161361 1
gene  1 31 32 -7.223103554147636 0 712.0 -7.223103554147636 1
gene  1 26 41 -6.934677827942377 0 740.0 -6.934677827942377 0
gene  1 7 191 2.7026679260086692 0 774.0 2.7026679260086692 1
gene  1 191 26 2.8964560025688257 0 775.0 2.8964560025688257 1
gene  1 103 26 0.9890079923258703 0 816.0 0.9890079923258703 1
gene  1 9 29 -5.980022400228384 0 851.0 -5.980022400228384 1
gene  1 11 99 -3.9682740919211192 0 864.0 -3.9682740919211192 1
gene  1 12 99 -10.457000068568073 0 920.0 -10.457000068568073 1
gene  1 26 236 2.413153052333878 0 945.0 2.413153052333878 1
gene  1 236 28 -0.39879288095864707 0 946.0 -0.39879288095864707 1
gene  1 22 242 0.9659975009029367 0 964.0 0.9659975009029367 1
gene  1 242 24 1.9563221533460138 0 965.0 1.9563221533460138 1
gene  1 15 99 9.470992938607854 0 1027.0 9.470992938607854 1
gene  1 191 69 2.1652779438076055 0 1052.0 2.1652779438076055 1
gene  1 15 277 0.9471773128246486 0 1090.0 0.9471773128246486 1
gene  1 277 28 2.35561451715437 0 1091.0 2.35561451715437 1
gene  1 27 286 -0.12275845610281455 0 1116.0 -0.12275845610281455 1
gene  1 286 28 0.025667614407639316 0 1117.0 0.025667614407639316 1
gene  1 191 295 1.462792961073816 0 1142.0 1.462792961073816 0
gene  1 295 26 -0.6328061547708835 0 1143.0 -0.6328061547708835 1
gene  1 22 128 0.47233297098327853 0 1174.0 0.47233297098327853 1
gene  1 19 310 2.4856618195935347 0 1209.0 2.4856618195935347 0
gene  1 310 24 -1.6364077796782248 0 1210.0 -1.6364077796782248 1
gene  1 242 103 8.287160315783602 0 1238.0 8.287160315783602 1
gene  1 16 236 -0.9082556621137352 0 1287.0 -0.9082556621137352 1
gene  1 20 333 1.0 0 1305.0 1.0 1
gene  1 333 24 -0.43803176646816433 0 1306.0 -0.43803176646816433 1
gene  1 14 277 -7.3398616412898825 0 1364.0 -7.3398616412898825 1
gene  1 2 355 -0.6544197900779483 0 1395.0 -0.6544197900779483 1
gene  1 355 27 0.057231611804800075 0 1396.0 0.057231611804800075 1
gene  1 69 361 -0.018934202235794118 0 1416.0 -0.018934202235794118 1
gene  1 361 26 2.638823677941647 0 1417.0 2.638823677941647 1
gene  1 9 32 -4.24720604900855 0 1466.0 -4.24720604900855 1
gene  1 14 333 -3.785843903385777 0 1482.0 -3.785843903385777 1
gene  1 32 277 2.2177074487957547 0 1522.0 2.2177074487957547 1
gene  1 3 390 1.0 0 1547.0 1.0 1
gene  1 390 26 2.717639197728152 0 1548.0 2.717639197728152 1
gene  1 286 236 0.7913139280449974 0 1594.0 0.7913139280449974 1
gene  1 20 419 1.0 0 1638.0 1.0 1
gene  1 419 27 2.372046399786742 0 1639.0 2.372046399786742 1
gene  1 17 355 -3.941543941741722 0 1648.0 -3.941543941741722 1
gene  1 8 150 0.9703385552652399 0 1688.0 0.9703385552652399 1
gene  1 355 310 -5.568152431032543 0 1725.0 -5.568152431032543 1
gene  1 2 449 2.715246405901041 0 1757.0 2.715246405901041 1
gene  1 449 355 1.1406736985867385 0 1758.0 1.1406736985867385 1
gene  1 10 458 1.0 0 1789.0 1.0 1
gene  1 458 26 0.8334553162957417 0 1790.0 0.8334553162957417 1
gene  1 286 242 0.0177850674950375 0 1819.0 0.0177850674950375 1
gene  1 103 361 -4.425782843693852 0 1881.0 -4.425782843693852 1
gene  1 22 492 1.0 0 1911.0 0.0 1
gene  1 492 128 0.47233297098327853 0 1912.0 0.0 1
gene  1 14 502 1.0 0 1950.0 0.0 1
gene  1 502 25 -2.406576236033213 0 1951.0 0.0 1
gene  1 10 519 1.0 0 2010.0 0.0 1
gene  1 519 25 0.2779443092033518 0 2011.0 0.0 1
gene  1 103 333 -4.925490828342904 0 2033.0 -4.925490828342904 1
gene  1 7 242 -8.589149608783572 0 2047.0 -8.589149608783572 1
gene  1 361 30 -3.364430012547958 0 2081.0 -3.364430012547958 1
gene  1 286 550 1.0 0 2139.0 0.0 1
gene  1 550 28 0.025667614407639316 0 2140.0 0.0 1
gene  1 16 449 -4.819583852973205 0 2207.0 -4.819583852973205 1
gene  1 22 99 -2.805021694326193 0 2256.0 -2.805021694326193 0
gene  1 519 191 5.4862128461960324 0 2286.0 5.4862128461960324 1
gene  1 41 277 -9.127596344581471 0 2326.0 -9.127596344581471 1
gene  1 19 613 1.0 0 2370.0 0.0 1
gene  1 613 24 1.1167443914792334 0 2371.0 0.0 1
gene  1 19 361 -0.9731171545944906 0 2386.0 -0.9731171545944906 1
gene  1 150 519 6.419898397957137 0 2419.0 6.419898397957137 1
gene  1 8 637 1.0 0 2459.0 0.0 1
gene  1 637 69 0.6109648487557431 0 2460.0 0.0 1
gene  1 99 41 -5.8512602291313005 0 2491.0 -5.8512602291313005 1
gene  1 14 650 1.0 0 2525.0 0.0 1
gene  1 650 26 -0.5697240976550146 0 2526.0 0.0 1
gene  1 99 449 9.692660829861735 0 2574.0 9.692660829861735 1
gene  1 128 650 -5.0758949069195305 0 2611.0 -5.0758949069195305 1
gene  1 242 613 -5.126578153185584 0 2631.0 -5.126578153185584 1
gene  1 26 684 1.0 0 2651.0 0.0 1
gene  1 684 41 -6.934677827942377 0 2652.0 0.0 1
gene  1 7 693 1.0 0 2686.0 0.0 1
gene  1 693 27 -1.1359514906506512 0 2687.0 0.0 1
gene  1 693 637 -8.665673205969714 0 2741.0 -8.665673205969714 1
gene  1 21 28 0.06671616490239618 0 2763.0 0.06671616490239618 1
gene  1 458 103 8.611347731799743 0 2802.0 8.611347731799743 1
gene  1 286 41 -0.3004047542578181 0 2819.0 -0.3004047542578181 1
gene  1 502 390 -8.194380204004723 0 2870.0 -8.194380204004723 1
gene  1 333 32 -7.464997288507407 0 2893.0 -7.464997288507407 1
gene  1 30 236 5.775671236113728 0 2925.0 5.775671236113728 1
gene  1 9 762 1.0 0 2965.0 0.0 1
gene  1 762 26 -1.7276248866576271 0 2966.0 0.0 1
gene  1 16 613 4.007700359226538 0 2985.0 4.007700359226538 1
gene  1 25 780 1.0 0 3029.0 0.0 1
gene  1 780 28 0.8152174332290762 0 3030.0 0.0 1
gene  1 502 69 2.7969092830649056 0 3080.0 2.7969092830649056 1
gene  1 2 801 1.0 0 3114.0 0.0 1
gene  1 801 26 1.0348232233393615 0 3115.0 0.0 1
gene  1 550 310 4.349619558396177 0 3126.0 4.349619558396177 1
gene  1 550 817 1.0 0 3162.0 0.0 1
gene  1 817 28 0.025667614407639316 0 3163.0 0.0 1
gene  1 103 833 1.0 0 3220.0 0.0 1
gene  1 833 24 1.3671339875182222 0 3221.0 0.0 1
gene  1 14 837 1.0 0 3236.0 0.0 1
gene  1 837 333 -3.785843903385777 0 3237.0 0.0 1
gene  1 21 150 0.37578412308161835 0 3282.0 0.37578412308161835 1
gene  1 650 780 3.1321547879450895 0 3314.0 3.1321547879450895 1
gene  1 15 837 -8.001033582604686 0 3364.0 -8.001033582604686 1
gene  1 20 877 1.0 0 3407.0 0.0 1
gene  1 877 99 2.16353396511089 0 3408.0 0.0 1
gene  1 16 333 -7.684474477005092 0 3491.0 -7.684474477005092 1
gene  1 4 361 9.048045139790645 0 3557.0 9.048045139790645 1
gene  1 17 150 -6.332162956026258 0 3601.0 -6.332162956026258 1
gene  1 15 419 6.608183758505177 0 3630.0 6.608183758505177 1
gene  1 27 236 -9.183117112089807 0 3680.0 -9.183117112089807 0
gene  1 242 949 1.0 0 3697.0 0.0 1
gene  1 949 24 1.9563221533460138 0 3698.0 0.0 1
gene  1 21 953 1.0 0 3730.0 0.0 1
gene  1 953 26 -3.0739483612397973 0 3731.0 0.0 1
gene  1 21 967 1.0 0 3782.0 0.0 1
gene  1 967 27 -1.6098739089238192 0 3783.0 0.0 1
gene  1 295 41 -9.542866571256884 0 3812.0 -9.542866571256884 1
gene  1 1 984 1.0 0 3857.0 0.0 1
gene  1 984 27 0.1950912962028929 0 3858.0 0.0 1
gene  1 502 355 -8.196641142612357 0 3916.0 -8.196641142612357 1
gene  1 877 110 8.721426883747764 0 3933.0 8.721426883747764 1
gene  1 24 1008 1.0 0 3947.0 0.0 1
gene  1 1008 150 -0.4951572804097779 0 3948.0 0.0 1
gene  1 4 492 -8.457524817301785 0 3998.0 -8.457524817301785 1
gene  1 20 1029 1.0 0 4022.0 0.0 1
gene  1 1029 25 -0.17530964326477716 0 4023.0 0.0 1
gene  1 103 801 -2.3027310937624277 0 4066.0 -2.3027310937624277 1
gene  1 984 492 6.950981250856162 0 4110.0 6.950981250856162 1
gene  1 693 550 -0.3055966438361801 0 4127.0 -0.3055966438361801 1
gene  1 550 1062 1.0 0 4155.0 0.0 1
gene  1 1062 310 4.349619558396177 0 4156.0 0.0 1
gene  1 502 984 4.146867788623857 0 4187.0 4.146867788623857 1
gene  1 833 613 -0.7014831771904717 0 4214.0 -0.7014831771904717 1
gene  1 4 1090 1.0 0 4251.0 0.0 1
gene  1 1090 24 1.9984107658146633 0 4252.0 0.0 1
gene  1 191 1102 1.0 0 4284.0 0.0 1
gene  1 1102 295 1.462792961073816 0 4285.0 0.0 1
gene  1 984 449 -9.331156395448737 0 4326.0 -9.331156395448737 1
gene  1 15 1125 1.0 0 4368.0 0.0 1
gene  1 1125 27 0.8854793246663014 0 4369.0 0.0 1
gene  1 4 1134 1.0 0 4401.0 0.0 1
gene  1 1134 27 -2.108078397682316 0 4402.0 0.0 1
gene  1 12 449 2.6982152417791836 0 4445.0 2.6982152417791836 1
gene  1 9 242 8.99554449740825 0 4467.0 8.99554449740825 1
gene  1 41 30 -7.1994370192127715 0 4490.0 -7.1994370192127715 1
gene  1 458 1125 6.521126856990772 0 4529.0 6.521126856990772 1
gene  1 762 1008 -2.260922377983232 0 4582.0 -2.260922377983232 1
gene  1 984 1062 -2.3548248112539314 0 4623.0 -2.3548248112539314 1
gene  1 1029 1134 8.217670137638471 0 4653.0 8.217670137638471 1
gene  1 1029 277 9.693352686705248 0 4681.0 9.693352686705248 1
gene  1 22 286 -7.354671207895601 0 4716.0 -7.354671207895601 1
gene  1 355 333 -0.9474445607950321 0 4740.0 -0.9474445607950321 1
gene  1 550 333 -4.863400180773963 0 4777.0 -4.863400180773963 1
gene  1 99 967 -3.3657320846591565 0 4792.0 -3.3657320846591565 1
gene  1 9 286 -0.5209168932561625 0 4832.0 -0.5209168932561625 1
gene  1 150 30 -6.491196081375619 0 4880.0 -6.491196081375619 1
gene  1 22 1282 1.0 0 4922.0 0.0 1
gene  1 1282 99 -2.805021694326193 0 4923.0 0.0 1
gene  1 953 128 2.38687647684391 0 4972.0 2.38687647684391 1
gene  1 27 1305 1.0 0 5016.0 0.0 1
gene  1 1305 236 -9.183117112089807 0 5017.0 0.0 1
gene  1 20 984 0.7239693004935921 0 5048.0 0.7239693004935921 1
gene  1 953 1029 -6.447803796931357 0 5090.0 -6.447803796931357 1
gene  1 1125 650 -5.753929257453276 0 5126.0 -5.753929257453276 1
genomeend 1
/*-------------------------------------------------------------------*/
/* Species # 075         : (size= 003) (AvfFit= 815,000) (Age= 13,000)  */
/*-------------------------------------------------------------------*/
/* Organism # 002 Fitness:  0,000 Error:  0,000                      */
genomestart  2
trait 1 0.0 0.0 0.0 0.0 0.0 0.0 0.0 0.0 
node 1 1 1 1
node 2 1 1 1
node 3 1 1 1
node 4 1 1 1
node 5 1 1 1
node 6 1 1 1
node 7 1 1 1
node 8 1 1 1
node 9 1 1 1
node 10 1 1 1
node 11 1 1 1
node 12 1 1 1
node 13 1 1 1
node 14 1 1 1
node 15 1 1 1
node 16 1 1 1
node 17 1 1 1
node 18 1 1 1
node 19 1 1 1
node 20 1 1 1
node 21 1 1 1
node 22 1 1 1
node 23 1 1 3
node 24 1 0 0
node 25 1 0 0
node 26 1 0 0
node 27 1 0 0
node 28 1 0 2
node 29 1 0 2
node 30 1 0 2
node 31 1 0 2
node 32 1 0 2
node 41 1 0 0
node 69 1 0 0
node 99 1 0 0
node 103 1 0 0
node 110 1 0 0
node 128 1 0 0
node 150 1 0 0
node 191 1 0 0
node 236 1 0 0
node 242 1 0 0
node 277 1 0 0
node 286 1 0 0
node 295 1 0 0
node 310 1 0 0
node 333 1 0 0
node 355 1 0 0
node 361 1 0 0
node 390 1 0 0
node 419 1 0 0
node 449 1 0 0
node 458 1 0 0
node 492 1 0 0
node 502 1 0 0
node 519 1 0 0
node 550 1 0 0
node 613 1 0 0
node 637 1 0 0
node 650 1 0 0
node 684 1 0 0
node 693 1 0 0
node 762 1 0 0
node 780 1 0 0
node 801 1 0 0
node 817 1 0 0
node 833 1 0 0
node 837 1 0 0
node 877 1 0 0
node 949 1 0 0
node 953 1 0 0
node 967 1 0 0
node 984 1 0 0
node 1028 1 0 0
node 1106 1 0 0
node 1121 1 0 0
node 1140 1 0 0
node 1229 1 0 0
node 1243 1 0 0
node 1246 1 0 0
node 1259 1 0 0
gene  1 1 24 0.6836074841519658 0 1.0 0.6836074841519658 1
gene  1 2 24 0.2418349725060388 0 2.0 0.2418349725060388 1
gene  1 3 24 2.231101296592862 0 3.0 2.231101296592862 0
gene  1 4 24 1.9984107658146633 0 4.0 1.9984107658146633 0
gene  1 5 24 -1.295047861402809 0 5.0 -1.295047861402809 1
gene  1 6 24 -0.46614332725808727 0 6.0 -0.46614332725808727 1
gene  1 7 24 -0.6632373714736616 0 7.0 -0.6632373714736616 1
gene  1 8 24 -1.1786407631101534 0 8.0 -1.1786407631101534 1
gene  1 9 24 0.7083499676735852 0 9.0 0.7083499676735852 1
gene  1 10 24 1.8287682424176324 0 10.0 1.8287682424176324 1
gene  1 11 24 0.13114292736241406 0 11.0 0.13114292736241406 1
gene  1 12 24 0.20129052057887642 0 12.0 0.20129052057887642 1
gene  1 13 24 0.15119511013894327 0 13.0 0.15119511013894327 1
gene  1 14 24 -2.305494291515135 0 14.0 -2.305494291515135 1
gene  1 15 24 1.7866237942300476 0 15.0 1.7866237942300476 1
gene  1 16 24 0.4609847206181178 0 16.0 0.4609847206181178 1
gene  1 17 24 1.1367228621818093 0 17.0 1.1367228621818093 1
gene  1 18 24 1.0832013029571876 0 18.0 1.0832013029571876 1
gene  1 19 24 1.1167443914792334 0 19.0 1.1167443914792334 1
gene  1 20 24 0.07414205454090883 0 20.0 0.07414205454090883 1
gene  1 21 24 0.5418885079930811 0 21.0 0.5418885079930811 1
gene  1 22 24 2.484950267181405 0 22.0 2.484950267181405 1
gene  1 23 24 0.425929415896056 0 23.0 0.425929415896056 1
gene  1 1 25 0.6154095691625152 0 24.0 0.6154095691625152 1
gene  1 2 25 -2.8755165268856366 0 25.0 -2.8755165268856366 1
gene  1 3 25 2.689302679798512 0 26.0 2.689302679798512 1
gene  1 4 25 -0.7614296740576152 0 27.0 -0.7614296740576152 1
gene  1 5 25 -0.12017325232786724 0 28.0 -0.12017325232786724 1
gene  1 6 25 -0.8995478796312145 0 29.0 -0.8995478796312145 1
gene  1 7 25 -0.012654369140360444 0 30.0 -0.012654369140360444 1
gene  1 8 25 1.3910890901314834 0 31.0 1.3910890901314834 1
gene  1 9 25 0.3584175622867064 0 32.0 0.3584175622867064 1
gene  1 10 25 0.2779443092033518 0 33.0 0.2779443092033518 1
gene  1 11 25 1.142465146794125 0 34.0 1.142465146794125 1
gene  1 12 25 0.9036541395774667 0 35.0 0.9036541395774667 1
gene  1 13 25 -1.2351814578924105 0 36.0 -1.2351814578924105 1
gene  1 14 25 -2.406576236033213 0 37.0 -2.406576236033213 1
gene  1 15 25 -1.3059963432256165 0 38.0 -1.3059963432256165 1
gene  1 16 25 -0.07279068140327355 0 39.0 -0.07279068140327355 1
gene  1 17 25 2.1463068148221858 0 40.0 2.1463068148221858 1
gene  1 18 25 -0.8147305052695352 0 41.0 -0.8147305052695352 1
gene  1 19 25 -1.8963916370755176 0 42.0 -1.8963916370755176 1
gene  1 20 25 -0.17530964326477716 0 43.0 -0.17530964326477716 1
gene  1 21 25 -2.1615664960138625 0 44.0 -2.1615664960138625 1
gene  1 22 25 -0.5353496319643707 0 45.0 -0.5353496319643707 1
gene  1 23 25 2.211182550883856 0 46.0 2.211182550883856 1
gene  1 1 26 -0.1813538282281052 0 47.0 -0.1813538282281052 1
gene  1 2 26 1.0348232233393615 0 48.0 1.0348232233393615 1
gene  1 3 26 -0.26852393576716355 0 49.0 -0.26852393576716355 1
gene  1 4 26 -0.5462351900443294 0 50.0 -0.5462351900443294 1
gene  1 5 26 1.841798679175527 0 51.0 1.841798679175527 1
gene  1 6 26 0.9246057866887103 0 52.0 0.9246057866887103 1
gene  1 7 26 2.961718684201993 0 53.0 2.961718684201993 1
gene  1 8 26 1.3531921659176516 0 54.0 1.3531921659176516 1
gene  1 9 26 -1.7276248866576271 0 55.0 -1.7276248866576271 1
gene  1 10 26 2.0139802487278704 0 56.0 2.0139802487278704 1
gene  1 11 26 1.528778550886252 0 57.0 1.528778550886252 1
gene  1 12 26 -0.5785609867130133 0 58.0 -0.5785609867130133 1
gene  1 13 26 -2.6797800697851013 0 59.0 -2.6797800697851013 1
gene  1 14 26 -0.5697240976550146 0 60.0 -0.5697240976550146 0
gene  1 15 26 -0.6337731619541322 0 61.0 -0.6337731619541322 1
gene  1 16 26 -3.0562620734655126 0 62.0 -3.0562620734655126 1
gene  1 17 26 -0.6658234717228073 0 63.0 -0.6658234717228073 0
gene  1 18 26 3.3403867808578074 0 64.0 3.3403867808578074 1
gene  1 19 26 0.7776803632315288 0 65.0 0.7776803632315288 1
gene  1 20 26 -0.7243609006292111 0 66.0 -0.7243609006292111 0
gene  1 21 26 -3.0739483612397973 0 67.0 -3.0739483612397973 1
gene  1 22 26 -0.8853447786938764 0 68.0 -0.8853447786938764 1
gene  1 23 26 -1.392668583310223 0 69.0 -1.392668583310223 1
gene  1 1 27 0.1950912962028929 0 70.0 0.1950912962028929 0
gene  1 2 27 -2.3849842766314993 0 71.0 -2.3849842766314993 1
gene  1 3 27 -1.4510293084069832 0 72.0 -1.4510293084069832 1
gene  1 4 27 -2.108078397682316 0 73.0 -2.108078397682316 1
gene  1 5 27 0.9853093818432086 0 74.0 0.9853093818432086 1
gene  1 6 27 1.9012442085109171 0 75.0 1.9012442085109171 1
gene  1 7 27 -1.1359514906506512 0 76.0 -1.1359514906506512 1
gene  1 8 27 1.3588260773815568 0 77.0 1.3588260773815568 1
gene  1 9 27 -2.8086161361721667 0 78.0 -2.8086161361721667 1
gene  1 10 27 0.6822866399342444 0 79.0 0.6822866399342444 1
gene  1 11 27 -1.4192574802827127 0 80.0 -1.4192574802827127 1
gene  1 12 27 2.0194659787646483 0 81.0 2.0194659787646483 1
gene  1 13 27 -3.29794013327734 0 82.0 -3.29794013327734 1
gene  1 14 27 -1.0273223382155723 0 83.0 -1.0273223382155723 1
gene  1 15 27 0.8854793246663014 0 84.0 0.8854793246663014 1
gene  1 16 27 -2.4100030796377325 0 85.0 -2.4100030796377325 1
gene  1 17 27 1.1641354279973304 0 86.0 1.1641354279973304 1
gene  1 18 27 -1.5657621004727782 0 87.0 -1.5657621004727782 1
gene  1 19 27 0.9635940309111093 0 88.0 0.9635940309111093 1
gene  1 20 27 -1.5141808232294682 0 89.0 -1.5141808232294682 1
gene  1 21 27 -1.6098739089238192 0 90.0 -1.6098739089238192 1
gene  1 22 27 -0.20721715934182405 0 91.0 -0.20721715934182405 1
gene  1 23 27 -2.7987944125960222 0 92.0 -2.7987944125960222 1
gene  1 23 28 1.3272888213665466 0 93.0 1.3272888213665466 1
gene  1 24 28 1.3820786340802313 0 94.0 1.3820786340802313 1
gene  1 25 28 0.8152174332290762 0 95.0 0.8152174332290762 0
gene  1 26 28 -1.8871519098029614 0 96.0 -1.8871519098029614 1
gene  1 27 28 -1.0416194194378714 0 97.0 -1.0416194194378714 1
gene  1 23 29 1.712662646035409 0 98.0 1.712662646035409 1
gene  1 24 29 0.3750308964985809 0 99.0 0.3750308964985809 1
gene  1 25 29 2.0081239104076944 0 100.0 2.0081239104076944 1
gene  1 26 29 -1.8177506182944394 0 101.0 -1.8177506182944394 1
gene  1 27 29 0.24578722111506612 0 102.0 0.24578722111506612 1
gene  1 23 30 -0.9792201881248785 0 103.0 -0.9792201881248785 1
gene  1 24 30 0.3847222154010963 0 104.0 0.3847222154010963 1
gene  1 25 30 1.8066113481737804 0 105.0 1.8066113481737804 1
gene  1 26 30 0.2284221571408082 0 106.0 0.2284221571408082 1
gene  1 27 30 2.7779870153214823 0 107.0 2.7779870153214823 1
gene  1 23 31 0.4191893547743016 0 108.0 0.4191893547743016 1
gene  1 24 31 0.77248384192597 0 109.0 0.77248384192597 1
gene  1 25 31 -2.4322039769326436 0 110.0 -2.4322039769326436 1
gene  1 26 31 1.9221518817702068 0 111.0 1.9221518817702068 1
gene  1 27 31 -1.706516430146761 0 112.0 -1.706516430146761 1
gene  1 23 32 -1.20797389976055 0 113.0 -1.20797389976055 1
gene  1 24 32 0.41904467590066785 0 114.0 0.41904467590066785 1
gene  1 25 32 -1.5085101012937148 0 115.0 -1.5085101012937148 1
gene  1 26 32 -0.2604847518040827 0 116.0 -0.2604847518040827 1
gene  1 27 32 1.0654473885398326 0 117.0 1.0654473885398326 1
gene  1 15 28 4.70782994343627 0 145.0 4.70782994343627 1
gene  1 24 41 0.7041611002973363 0 162.0 0.7041611002973363 1
gene  1 41 29 -0.7849467345565301 0 163.0 -0.7849467345565301 1
gene  1 11 28 9.218883268875562 0 192.0 9.218883268875562 1
gene  1 8 29 -2.176334847719313 0 252.0 -2.176334847719313 1
gene  1 8 69 0.6109648487557431 0 286.0 0.6109648487557431 1
gene  1 69 26 2.7645682336002895 0 287.0 2.7645682336002895 1
gene  1 14 28 8.721990907806568 0 325.0 8.721990907806568 1
gene  1 10 28 4.561700536875561 0 337.0 4.561700536875561 1
gene  1 15 32 6.306243292515637 0 371.0 6.306243292515637 1
gene  1 20 99 2.16353396511089 0 420.0 2.16353396511089 1
gene  1 99 27 -2.8094737854649665 0 421.0 -2.8094737854649665 1
gene  1 5 103 -1.0264695869117828 0 442.0 -1.0264695869117828 1
gene  1 103 24 1.3671339875182222 0 443.0 1.3671339875182222 1
gene  1 3 110 -1.3192452305966889 0 466.0 -1.3192452305966889 1
gene  1 110 26 0.17226926783242408 0 467.0 0.17226926783242408 1
gene  1 17 99 8.667263408509712 0 517.0 8.667263408509712 1
gene  1 16 128 -1.1029401447466332 0 542.0 -1.1029401447466332 1
gene  1 128 25 1.5541036770496022 0 543.0 1.5541036770496022 1
gene  1 22 103 -3.6589079271917693 0 584.0 -3.6589079271917693 1
gene  1 24 150 -0.4951572804097779 0 612.0 -0.4951572804097779 1
gene  1 150 29 1.760461199179113 0 613.0 1.760461199179113 1
gene  1 6 128 7.989030214491342 0 659.0 7.989030214491342 1
gene  1 150 69 7.977677494161361 0 697.0 7.977677494161361 1
gene  1 31 32 -7.223103554147636 0 712.0 -7.223103554147636 1
gene  1 26 41 -6.934677827942377 0 740.0 -6.934677827942377 1
gene  1 7 191 2.7026679260086692 0 774.0 2.7026679260086692 1
gene  1 191 26 2.8964560025688257 0 775.0 2.8964560025688257 1
gene  1 103 26 0.9890079923258703 0 816.0 0.9890079923258703 1
gene  1 9 29 -5.980022400228384 0 851.0 -5.980022400228384 1
gene  1 11 99 -3.9682740919211192 0 864.0 -3.9682740919211192 1
gene  1 12 99 -10.457000068568073 0 920.0 -10.457000068568073 1
gene  1 26 236 2.413153052333878 0 945.0 2.413153052333878 1
gene  1 236 28 -0.39879288095864707 0 946.0 -0.39879288095864707 1
gene  1 22 242 0.9659975009029367 0 964.0 0.9659975009029367 1
gene  1 242 24 1.9563221533460138 0 965.0 1.9563221533460138 1
gene  1 15 99 9.470992938607854 0 1027.0 9.470992938607854 1
gene  1 191 69 2.1652779438076055 0 1052.0 2.1652779438076055 1
gene  1 15 277 0.9471773128246486 0 1090.0 0.9471773128246486 1
gene  1 277 28 2.35561451715437 0 1091.0 2.35561451715437 1
gene  1 27 286 -0.12275845610281455 0 1116.0 -0.12275845610281455 1
gene  1 286 28 0.025667614407639316 0 1117.0 0.025667614407639316 1
gene  1 191 295 1.462792961073816 0 1142.0 1.462792961073816 1
gene  1 295 26 -0.6328061547708835 0 1143.0 -0.6328061547708835 1
gene  1 22 128 0.47233297098327853 0 1174.0 0.47233297098327853 1
gene  1 19 310 2.4856618195935347 0 1209.0 2.4856618195935347 1
gene  1 310 24 -1.6364077796782248 0 1210.0 -1.6364077796782248 1
gene  1 242 103 8.287160315783602 0 1238.0 8.287160315783602 1
gene  1 16 236 -0.9082556621137352 0 1287.0 -0.9082556621137352 1
gene  1 20 333 1.0 0 1305.0 1.0 1
gene  1 333 24 -0.43803176646816433 0 1306.0 -0.43803176646816433 1
gene  1 14 277 -7.3398616412898825 0 1364.0 -7.3398616412898825 1
gene  1 2 355 -0.6544197900779483 0 1395.0 -0.6544197900779483 1
gene  1 355 27 0.057231611804800075 0 1396.0 0.057231611804800075 1
gene  1 69 361 -0.018934202235794118 0 1416.0 -0.018934202235794118 1
gene  1 361 26 2.638823677941647 0 1417.0 2.638823677941647 1
gene  1 9 32 -4.24720604900855 0 1466.0 -4.24720604900855 1
gene  1 14 333 -3.785843903385777 0 1482.0 -3.785843903385777 1
gene  1 32 277 2.2177074487957547 0 1522.0 2.2177074487957547 1
gene  1 3 390 1.0 0 1547.0 1.0 1
gene  1 390 26 2.717639197728152 0 1548.0 2.717639197728152 1
gene  1 286 236 0.7913139280449974 0 1594.0 0.7913139280449974 1
gene  1 20 419 1.0 0 1638.0 1.0 0
gene  1 419 27 2.372046399786742 0 1639.0 2.372046399786742 1
gene  1 17 355 -3.941543941741722 0 1648.0 -3.941543941741722 1
gene  1 8 150 0.9703385552652399 0 1688.0 0.9703385552652399 1
gene  1 355 310 -5.568152431032543 0 1725.0 -5.568152431032543 1
gene  1 2 449 2.715246405901041 0 1757.0 2.715246405901041 0
gene  1 449 355 1.1406736985867385 0 1758.0 1.1406736985867385 1
gene  1 10 458 1.0 0 1789.0 1.0 1
gene  1 458 26 0.8334553162957417 0 1790.0 0.8334553162957417 1
gene  1 286 242 0.0177850674950375 0 1819.0 0.0177850674950375 1
gene  1 103 361 -4.425782843693852 0 1881.0 -4.425782843693852 1
gene  1 22 492 1.0 0 1911.0 0.0 1
gene  1 492 128 0.47233297098327853 0 1912.0 0.0 1
gene  1 14 502 1.0 0 1950.0 0.0 1
gene  1 502 25 -2.406576236033213 0 1951.0 0.0 1
gene  1 10 519 1.0 0 2010.0 0.0 1
gene  1 519 25 0.2779443092033518 0 2011.0 0.0 1
gene  1 103 333 -4.925490828342904 0 2033.0 -4.925490828342904 1
gene  1 7 242 -8.589149608783572 0 2047.0 -8.589149608783572 1
gene  1 361 30 -3.364430012547958 0 2081.0 -3.364430012547958 1
gene  1 286 550 1.0 0 2139.0 0.0 1
gene  1 550 28 0.025667614407639316 0 2140.0 0.0 1
gene  1 16 449 -4.819583852973205 0 2207.0 -4.819583852973205 1
gene  1 22 99 -2.805021694326193 0 2256.0 -2.805021694326193 1
gene  1 519 191 5.4862128461960324 0 2286.0 5.4862128461960324 1
gene  1 41 277 -9.127596344581471 0 2326.0 -9.127596344581471 1
gene  1 19 613 1.0 0 2370.0 0.0 1
gene  1 613 24 1.1167443914792334 0 2371.0 0.0 1
gene  1 19 361 -0.9731171545944906 0 2386.0 -0.9731171545944906 1
gene  1 150 519 6.419898397957137 0 2419.0 6.419898397957137 1
gene  1 8 637 1.0 0 2459.0 0.0 1
gene  1 637 69 0.6109648487557431 0 2460.0 0.0 1
gene  1 99 41 -5.8512602291313005 0 2491.0 -5.8512602291313005 1
gene  1 14 650 1.0 0 2525.0 0.0 1
gene  1 650 26 -0.5697240976550146 0 2526.0 0.0 1
gene  1 99 449 9.692660829861735 0 2574.0 9.692660829861735 1
gene  1 128 650 -5.0758949069195305 0 2611.0 -5.0758949069195305 1
gene  1 242 613 -5.126578153185584 0 2631.0 -5.126578153185584 1
gene  1 26 684 1.0 0 2651.0 0.0 1
gene  1 684 41 -6.934677827942377 0 2652.0 0.0 1
gene  1 7 693 1.0 0 2686.0 0.0 1
gene  1 693 27 -1.1359514906506512 0 2687.0 0.0 0
gene  1 693 637 -8.665673205969714 0 2741.0 -8.665673205969714 1
gene  1 21 28 0.06671616490239618 0 2763.0 0.06671616490239618 1
gene  1 458 103 8.611347731799743 0 2802.0 8.611347731799743 1
gene  1 286 41 -0.3004047542578181 0 2819.0 -0.3004047542578181 1
gene  1 502 390 -8.194380204004723 0 2870.0 -8.194380204004723 1
gene  1 333 32 -7.464997288507407 0 2893.0 -7.464997288507407 1
gene  1 30 236 5.775671236113728 0 2925.0 5.775671236113728 1
gene  1 9 762 1.0 0 2965.0 0.0 1
gene  1 762 26 -1.7276248866576271 0 2966.0 0.0 1
gene  1 16 613 4.007700359226538 0 2985.0 4.007700359226538 1
gene  1 25 780 1.0 0 3029.0 0.0 1
gene  1 780 28 0.8152174332290762 0 3030.0 0.0 1
gene  1 502 69 2.7969092830649056 0 3080.0 2.7969092830649056 1
gene  1 2 801 1.0 0 3114.0 0.0 1
gene  1 801 26 1.0348232233393615 0 3115.0 0.0 1
gene  1 550 310 4.349619558396177 0 3126.0 4.349619558396177 1
gene  1 550 817 1.0 0 3162.0 0.0 1
gene  1 817 28 0.025667614407639316 0 3163.0 0.0 1
gene  1 103 833 1.0 0 3220.0 0.0 1
gene  1 833 24 1.3671339875182222 0 3221.0 0.0 1
gene  1 14 837 1.0 0 3236.0 0.0 1
gene  1 837 333 -3.785843903385777 0 3237.0 0.0 1
gene  1 21 150 0.37578412308161835 0 3282.0 0.37578412308161835 1
gene  1 650 780 3.1321547879450895 0 3314.0 3.1321547879450895 1
gene  1 15 837 -8.001033582604686 0 3364.0 -8.001033582604686 1
gene  1 20 877 1.0 0 3407.0 0.0 1
gene  1 877 99 2.16353396511089 0 3408.0 0.0 1
gene  1 16 333 -7.684474477005092 0 3491.0 -7.684474477005092 1
gene  1 4 361 9.048045139790645 0 3557.0 9.048045139790645 1
gene  1 17 150 -6.332162956026258 0 3601.0 -6.332162956026258 1
gene  1 15 419 6.608183758505177 0 3630.0 6.608183758505177 1
gene  1 27 236 -9.183117112089807 0 3680.0 -9.183117112089807 1
gene  1 242 949 1.0 0 3697.0 0.0 1
gene  1 949 24 1.9563221533460138 0 3698.0 0.0 1
gene  1 21 953 1.0 0 3730.0 0.0 1
gene  1 953 26 -3.0739483612397973 0 3731.0 0.0 1
gene  1 21 967 1.0 0 3782.0 0.0 1
gene  1 967 27 -1.6098739089238192 0 3783.0 0.0 1
gene  1 295 41 -9.542866571256884 0 3812.0 -9.542866571256884 1
gene  1 1 984 1.0 0 3857.0 0.0 1
gene  1 984 27 0.1950912962028929 0 3858.0 0.0 1
gene  1 361 277 -9.71706795386717 0 3913.0 -9.71706795386717 1
gene  1 355 236 8.849509012006822 0 3939.0 8.849509012006822 1
gene  1 24 519 -1.9983202650583276 0 3980.0 -1.9983202650583276 1
gene  1 4 1028 1.0 0 4017.0 0.0 1
gene  1 1028 24 1.9984107658146633 0 4018.0 0.0 1
gene  1 967 295 -2.460117361131746 0 4050.0 -2.460117361131746 1
gene  1 984 877 5.9510759430761055 0 4079.0 5.9510759430761055 1
gene  1 4 128 -8.822529101351892 0 4132.0 -8.822529101351892 1
gene  1 128 236 0.2500147129790231 0 4200.0 0.2500147129790231 1
gene  1 11 780 -3.1233437305279876 0 4210.0 -3.1233437305279876 1
gene  1 8 110 -4.724111710003617 0 4245.0 -4.724111710003617 1
gene  1 20 1106 1.0 0 4296.0 0.0 1
gene  1 1106 26 -0.7243609006292111 0 4297.0 0.0 1
gene  1 953 286 -4.32751788269656 0 4318.0 -4.32751788269656 1
gene  1 17 1121 1.0 0 4353.0 0.0 1
gene  1 1121 26 -0.6658234717228073 0 4354.0 0.0 1
gene  1 693 1140 1.0 0 4425.0 0.0 1
gene  1 1140 27 -1.1359514906506512 0 4426.0 0.0 1
gene  1 13 492 -6.339712038890357 0 4480.0 -6.339712038890357 1
gene  1 9 801 3.8400903877768244 0 4486.0 3.8400903877768244 1
gene  1 295 390 -2.4726238863261574 0 4522.0 -2.4726238863261574 1
gene  1 637 449 4.971720935747434 0 4561.0 4.971720935747434 1
gene  1 1028 361 5.11118257941537 0 4646.0 5.11118257941537 1
gene  1 103 1121 -2.527909282235873 0 4699.0 -2.527909282235873 1
gene  1 3 1229 1.0 0 4737.0 0.0 1
gene  1 1229 24 2.231101296592862 0 4738.0 0.0 1
gene  1 2 1243 1.0 0 4782.0 0.0 1
gene  1 1243 449 2.715246405901041 0 4783.0 0.0 1
gene  1 20 1246 1.0 0 4794.0 0.0 1
gene  1 1246 26 -0.7243609006292111 0 4795.0 0.0 1
gene  1 20 1259 1.0 0 4835.0 0.0 1
gene  1 1259 419 1.0 0 4836.0 0.0 1
gene  1 1028 242 5.039185034235656 0 4871.0 5.039185034235656 1
gene  1 5 949 -2.3849689763401907 0 4911.0 -2.3849689763401907 1
gene  1 15 31 -5.806215104645243 0 4950.0 -5.806215104645243 1
gene  1 419 128 1.377592944790783 0 4978.0 1.377592944790783 1
gene  1 1 458 2.962382402446483 0 5023.0 2.962382402446483 1
gene  1 12 833 -4.299257747556916 0 5055.0 -4.299257747556916 1
gene  1 877 25 4.649123407035765 0 5077.0 4.649123407035765 1
gene  1 801 684 3.138840475769035 0 5121.0 3.138840475769035 1
genomeend 2
/* Organism # 003 Fitness:  0,000 Error:  0,000                      */
genomestart  3
trait 1 0.0 0.0 0.0 0.0 0.0 0.0 0.0 0.0 
node 1 1 1 1
node 2 1 1 1
node 3 1 1 1
node 4 1 1 1
node 5 1 1 1
node 6 1 1 1
node 7 1 1 1
node 8 1 1 1
node 9 1 1 1
node 10 1 1 1
node 11 1 1 1
node 12 1 1 1
node 13 1 1 1
node 14 1 1 1
node 15 1 1 1
node 16 1 1 1
node 17 1 1 1
node 18 1 1 1
node 19 1 1 1
node 20 1 1 1
node 21 1 1 1
node 22 1 1 1
node 23 1 1 3
node 24 1 0 0
node 25 1 0 0
node 26 1 0 0
node 27 1 0 0
node 28 1 0 2
node 29 1 0 2
node 30 1 0 2
node 31 1 0 2
node 32 1 0 2
node 41 1 0 0
node 69 1 0 0
node 99 1 0 0
node 103 1 0 0
node 110 1 0 0
node 128 1 0 0
node 150 1 0 0
node 191 1 0 0
node 236 1 0 0
node 242 1 0 0
node 277 1 0 0
node 286 1 0 0
node 295 1 0 0
node 310 1 0 0
node 333 1 0 0
node 355 1 0 0
node 361 1 0 0
node 390 1 0 0
node 419 1 0 0
node 449 1 0 0
node 458 1 0 0
node 492 1 0 0
node 502 1 0 0
node 519 1 0 0
node 550 1 0 0
node 613 1 0 0
node 637 1 0 0
node 650 1 0 0
node 684 1 0 0
node 693 1 0 0
node 762 1 0 0
node 780 1 0 0
node 801 1 0 0
node 817 1 0 0
node 833 1 0 0
node 837 1 0 0
node 877 1 0 0
node 949 1 0 0
node 953 1 0 0
node 967 1 0 0
node 984 1 0 0
node 1028 1 0 0
node 1106 1 0 0
node 1121 1 0 0
node 1140 1 0 0
node 1229 1 0 0
node 1243 1 0 0
node 1246 1 0 0
node 1259 1 0 0
gene  1 1 24 0.6836074841519658 0 1.0 0.6836074841519658 1
gene  1 2 24 0.2418349725060388 0 2.0 0.2418349725060388 1
gene  1 3 24 2.231101296592862 0 3.0 2.231101296592862 0
gene  1 4 24 1.9984107658146633 0 4.0 1.9984107658146633 0
gene  1 5 24 -1.295047861402809 0 5.0 -1.295047861402809 1
gene  1 6 24 -0.46614332725808727 0 6.0 -0.46614332725808727 1
gene  1 7 24 -0.6632373714736616 0 7.0 -0.6632373714736616 1
gene  1 8 24 -1.1786407631101534 0 8.0 -1.1786407631101534 1
gene  1 9 24 0.7083499676735852 0 9.0 0.7083499676735852 1
gene  1 10 24 1.8287682424176324 0 10.0 1.8287682424176324 1
gene  1 11 24 0.13114292736241406 0 11.0 0.13114292736241406 1
gene  1 12 24 0.20129052057887642 0 12.0 0.20129052057887642 1
gene  1 13 24 0.15119511013894327 0 13.0 0.15119511013894327 1
gene  1 14 24 -2.305494291515135 0 14.0 -2.305494291515135 1
gene  1 15 24 1.7866237942300476 0 15.0 1.7866237942300476 1
gene  1 16 24 0.4609847206181178 0 16.0 0.4609847206181178 1
gene  1 17 24 1.1367228621818093 0 17.0 1.1367228621818093 1
gene  1 18 24 1.0832013029571876 0 18.0 1.0832013029571876 1
gene  1 19 24 1.1167443914792334 0 19.0 1.1167443914792334 1
gene  1 20 24 0.07414205454090883 0 20.0 0.07414205454090883 1
gene  1 21 24 0.5418885079930811 0 21.0 0.5418885079930811 1
gene  1 22 24 2.484950267181405 0 22.0 2.484950267181405 1
gene  1 23 24 0.425929415896056 0 23.0 0.425929415896056 1
gene  1 1 25 0.6154095691625152 0 24.0 0.6154095691625152 1
gene  1 2 25 -2.8755165268856366 0 25.0 -2.8755165268856366 1
gene  1 3 25 2.689302679798512 0 26.0 2.689302679798512 1
gene  1 4 25 -0.7614296740576152 0 27.0 -0.7614296740576152 1
gene  1 5 25 -0.12017325232786724 0 28.0 -0.12017325232786724 1
gene  1 6 25 -0.8995478796312145 0 29.0 -0.8995478796312145 1
gene  1 7 25 -0.012654369140360444 0 30.0 -0.012654369140360444 1
gene  1 8 25 1.3910890901314834 0 31.0 1.3910890901314834 1
gene  1 9 25 0.3584175622867064 0 32.0 0.3584175622867064 1
gene  1 10 25 0.2779443092033518 0 33.0 0.2779443092033518 1
gene  1 11 25 1.142465146794125 0 34.0 1.142465146794125 1
gene  1 12 25 0.9036541395774667 0 35.0 0.9036541395774667 1
gene  1 13 25 -1.2351814578924105 0 36.0 -1.2351814578924105 1
gene  1 14 25 -2.406576236033213 0 37.0 -2.406576236033213 1
gene  1 15 25 -1.3059963432256165 0 38.0 -1.3059963432256165 1
gene  1 16 25 -0.07279068140327355 0 39.0 -0.07279068140327355 1
gene  1 17 25 2.1463068148221858 0 40.0 2.1463068148221858 1
gene  1 18 25 -0.8147305052695352 0 41.0 -0.8147305052695352 1
gene  1 19 25 -1.8963916370755176 0 42.0 -1.8963916370755176 1
gene  1 20 25 -0.17530964326477716 0 43.0 -0.17530964326477716 1
gene  1 21 25 -2.1615664960138625 0 44.0 -2.1615664960138625 1
gene  1 22 25 -0.5353496319643707 0 45.0 -0.5353496319643707 1
gene  1 23 25 2.211182550883856 0 46.0 2.211182550883856 1
gene  1 1 26 -0.1813538282281052 0 47.0 -0.1813538282281052 1
gene  1 2 26 1.0348232233393615 0 48.0 1.0348232233393615 1
gene  1 3 26 -0.26852393576716355 0 49.0 -0.26852393576716355 1
gene  1 4 26 -0.5462351900443294 0 50.0 -0.5462351900443294 1
gene  1 5 26 1.841798679175527 0 51.0 1.841798679175527 1
gene  1 6 26 0.9246057866887103 0 52.0 0.9246057866887103 1
gene  1 7 26 2.961718684201993 0 53.0 2.961718684201993 1
gene  1 8 26 1.3531921659176516 0 54.0 1.3531921659176516 1
gene  1 9 26 -1.7276248866576271 0 55.0 -1.7276248866576271 1
gene  1 10 26 2.0139802487278704 0 56.0 2.0139802487278704 1
gene  1 11 26 1.528778550886252 0 57.0 1.528778550886252 1
gene  1 12 26 -0.5785609867130133 0 58.0 -0.5785609867130133 1
gene  1 13 26 -2.6797800697851013 0 59.0 -2.6797800697851013 1
gene  1 14 26 -0.5697240976550146 0 60.0 -0.5697240976550146 0
gene  1 15 26 -0.6337731619541322 0 61.0 -0.6337731619541322 1
gene  1 16 26 -3.0562620734655126 0 62.0 -3.0562620734655126 1
gene  1 17 26 -0.6658234717228073 0 63.0 -0.6658234717228073 0
gene  1 18 26 3.3403867808578074 0 64.0 3.3403867808578074 1
gene  1 19 26 0.7776803632315288 0 65.0 0.7776803632315288 1
gene  1 20 26 -0.7243609006292111 0 66.0 -0.7243609006292111 0
gene  1 21 26 -3.0739483612397973 0 67.0 -3.0739483612397973 1
gene  1 22 26 -0.8853447786938764 0 68.0 -0.8853447786938764 1
gene  1 23 26 -1.392668583310223 0 69.0 -1.392668583310223 1
gene  1 1 27 0.1950912962028929 0 70.0 0.1950912962028929 0
gene  1 2 27 -2.3849842766314993 0 71.0 -2.3849842766314993 1
gene  1 3 27 -1.4510293084069832 0 72.0 -1.4510293084069832 1
gene  1 4 27 -2.108078397682316 0 73.0 -2.108078397682316 1
gene  1 5 27 0.9853093818432086 0 74.0 0.9853093818432086 1
gene  1 6 27 1.9012442085109171 0 75.0 1.9012442085109171 1
gene  1 7 27 -1.1359514906506512 0 76.0 -1.1359514906506512 1
gene  1 8 27 1.3588260773815568 0 77.0 1.3588260773815568 1
gene  1 9 27 -2.8086161361721667 0 78.0 -2.8086161361721667 1
gene  1 10 27 0.6822866399342444 0 79.0 0.6822866399342444 1
gene  1 11 27 -1.4192574802827127 0 80.0 -1.4192574802827127 1
gene  1 12 27 2.0194659787646483 0 81.0 2.0194659787646483 1
gene  1 13 27 -3.29794013327734 0 82.0 -3.29794013327734 1
gene  1 14 27 -1.0273223382155723 0 83.0 -1.0273223382155723 1
gene  1 15 27 0.8854793246663014 0 84.0 0.8854793246663014 1
gene  1 16 27 -2.4100030796377325 0 85.0 -2.4100030796377325 1
gene  1 17 27 1.1641354279973304 0 86.0 1.1641354279973304 1
gene  1 18 27 -1.5657621004727782 0 87.0 -1.5657621004727782 1
gene  1 19 27 0.9635940309111093 0 88.0 0.9635940309111093 1
gene  1 20 27 -1.5141808232294682 0 89.0 -1.5141808232294682 1
gene  1 21 27 -1.6098739089238192 0 90.0 -1.6098739089238192 1
gene  1 22 27 -0.20721715934182405 0 91.0 -0.20721715934182405 1
gene  1 23 27 -2.7987944125960222 0 92.0 -2.7987944125960222 1
gene  1 23 28 1.3272888213665466 0 93.0 1.3272888213665466 1
gene  1 24 28 1.3820786340802313 0 94.0 1.3820786340802313 1
gene  1 25 28 0.8152174332290762 0 95.0 0.8152174332290762 0
gene  1 26 28 -1.8871519098029614 0 96.0 -1.8871519098029614 1
gene  1 27 28 -1.0416194194378714 0 97.0 -1.0416194194378714 1
gene  1 23 29 1.712662646035409 0 98.0 1.712662646035409 1
gene  1 24 29 0.3750308964985809 0 99.0 0.3750308964985809 1
gene  1 25 29 2.0081239104076944 0 100.0 2.0081239104076944 1
gene  1 26 29 -1.8177506182944394 0 101.0 -1.8177506182944394 1
gene  1 27 29 0.24578722111506612 0 102.0 0.24578722111506612 1
gene  1 23 30 -0.9792201881248785 0 103.0 -0.9792201881248785 1
gene  1 24 30 0.3847222154010963 0 104.0 0.3847222154010963 1
gene  1 25 30 1.8066113481737804 0 105.0 1.8066113481737804 1
gene  1 26 30 0.2284221571408082 0 106.0 0.2284221571408082 1
gene  1 27 30 2.7779870153214823 0 107.0 2.7779870153214823 1
gene  1 23 31 0.4191893547743016 0 108.0 0.4191893547743016 1
gene  1 24 31 0.77248384192597 0 109.0 0.77248384192597 1
gene  1 25 31 -2.4322039769326436 0 110.0 -2.4322039769326436 1
gene  1 26 31 1.9221518817702068 0 111.0 1.9221518817702068 1
gene  1 27 31 -1.706516430146761 0 112.0 -1.706516430146761 1
gene  1 23 32 -1.20797389976055 0 113.0 -1.20797389976055 1
gene  1 24 32 0.41904467590066785 0 114.0 0.41904467590066785 1
gene  1 25 32 -1.5085101012937148 0 115.0 -1.5085101012937148 1
gene  1 26 32 -0.2604847518040827 0 116.0 -0.2604847518040827 1
gene  1 27 32 1.0654473885398326 0 117.0 1.0654473885398326 1
gene  1 15 28 4.70782994343627 0 145.0 4.70782994343627 1
gene  1 24 41 0.7041611002973363 0 162.0 0.7041611002973363 1
gene  1 41 29 -0.7849467345565301 0 163.0 -0.7849467345565301 1
gene  1 11 28 9.218883268875562 0 192.0 9.218883268875562 1
gene  1 8 29 -2.176334847719313 0 252.0 -2.176334847719313 1
gene  1 8 69 0.6109648487557431 0 286.0 0.6109648487557431 1
gene  1 69 26 2.7645682336002895 0 287.0 2.7645682336002895 1
gene  1 14 28 8.721990907806568 0 325.0 8.721990907806568 1
gene  1 10 28 4.561700536875561 0 337.0 4.561700536875561 1
gene  1 15 32 6.306243292515637 0 371.0 6.306243292515637 1
gene  1 20 99 2.16353396511089 0 420.0 2.16353396511089 1
gene  1 99 27 -2.8094737854649665 0 421.0 -2.8094737854649665 1
gene  1 5 103 -1.0264695869117828 0 442.0 -1.0264695869117828 1
gene  1 103 24 1.3671339875182222 0 443.0 1.3671339875182222 1
gene  1 3 110 -1.3192452305966889 0 466.0 -1.3192452305966889 1
gene  1 110 26 0.17226926783242408 0 467.0 0.17226926783242408 1
gene  1 17 99 8.667263408509712 0 517.0 8.667263408509712 1
gene  1 16 128 -1.1029401447466332 0 542.0 -1.1029401447466332 1
gene  1 128 25 1.5541036770496022 0 543.0 1.5541036770496022 1
gene  1 22 103 -3.6589079271917693 0 584.0 -3.6589079271917693 1
gene  1 24 150 -0.4951572804097779 0 612.0 -0.4951572804097779 1
gene  1 150 29 1.760461199179113 0 613.0 1.760461199179113 1
gene  1 6 128 7.989030214491342 0 659.0 7.989030214491342 1
gene  1 150 69 7.977677494161361 0 697.0 7.977677494161361 1
gene  1 31 32 -7.223103554147636 0 712.0 -7.223103554147636 1
gene  1 26 41 -6.934677827942377 0 740.0 -6.934677827942377 1
gene  1 7 191 2.7026679260086692 0 774.0 2.7026679260086692 1
gene  1 191 26 2.8964560025688257 0 775.0 2.8964560025688257 1
gene  1 103 26 0.9890079923258703 0 816.0 0.9890079923258703 1
gene  1 9 29 -5.980022400228384 0 851.0 -5.980022400228384 1
gene  1 11 99 -3.9682740919211192 0 864.0 -3.9682740919211192 1
gene  1 12 99 -10.457000068568073 0 920.0 -10.457000068568073 1
gene  1 26 236 2.413153052333878 0 945.0 2.413153052333878 1
gene  1 236 28 -0.39879288095864707 0 946.0 -0.39879288095864707 1
gene  1 22 242 0.9659975009029367 0 964.0 0.9659975009029367 1
gene  1 242 24 1.9563221533460138 0 965.0 1.9563221533460138 1
gene  1 15 99 9.470992938607854 0 1027.0 9.470992938607854 1
gene  1 191 69 2.1652779438076055 0 1052.0 2.1652779438076055 1
gene  1 15 277 0.9471773128246486 0 1090.0 0.9471773128246486 1
gene  1 277 28 2.35561451715437 0 1091.0 2.35561451715437 1
gene  1 27 286 -0.12275845610281455 0 1116.0 -0.12275845610281455 1
gene  1 286 28 0.025667614407639316 0 1117.0 0.025667614407639316 1
gene  1 191 295 1.462792961073816 0 1142.0 1.462792961073816 1
gene  1 295 26 -0.6328061547708835 0 1143.0 -0.6328061547708835 1
gene  1 22 128 0.47233297098327853 0 1174.0 0.47233297098327853 1
gene  1 19 310 2.4856618195935347 0 1209.0 2.4856618195935347 1
gene  1 310 24 -1.6364077796782248 0 1210.0 -1.6364077796782248 1
gene  1 242 103 8.287160315783602 0 1238.0 8.287160315783602 1
gene  1 16 236 -0.9082556621137352 0 1287.0 -0.9082556621137352 1
gene  1 20 333 1.0 0 1305.0 1.0 1
gene  1 333 24 -0.43803176646816433 0 1306.0 -0.43803176646816433 1
gene  1 14 277 -7.3398616412898825 0 1364.0 -7.3398616412898825 1
gene  1 2 355 -0.6544197900779483 0 1395.0 -0.6544197900779483 1
gene  1 355 27 0.057231611804800075 0 1396.0 0.057231611804800075 1
gene  1 69 361 -0.018934202235794118 0 1416.0 -0.018934202235794118 1
gene  1 361 26 2.638823677941647 0 1417.0 2.638823677941647 1
gene  1 9 32 -4.24720604900855 0 1466.0 -4.24720604900855 1
gene  1 14 333 -3.785843903385777 0 1482.0 -3.785843903385777 1
gene  1 32 277 2.2177074487957547 0 1522.0 2.2177074487957547 1
gene  1 3 390 1.0 0 1547.0 1.0 1
gene  1 390 26 2.717639197728152 0 1548.0 2.717639197728152 1
gene  1 286 236 0.7913139280449974 0 1594.0 0.7913139280449974 1
gene  1 20 419 1.0 0 1638.0 1.0 0
gene  1 419 27 2.372046399786742 0 1639.0 2.372046399786742 1
gene  1 17 355 -3.941543941741722 0 1648.0 -3.941543941741722 1
gene  1 8 150 0.9703385552652399 0 1688.0 0.9703385552652399 1
gene  1 355 310 -5.568152431032543 0 1725.0 -5.568152431032543 1
gene  1 2 449 2.715246405901041 0 1757.0 2.715246405901041 0
gene  1 449 355 1.1406736985867385 0 1758.0 1.1406736985867385 1
gene  1 10 458 1.0 0 1789.0 1.0 1
gene  1 458 26 0.8334553162957417 0 1790.0 0.8334553162957417 1
gene  1 286 242 0.0177850674950375 0 1819.0 0.0177850674950375 1
gene  1 103 361 -4.425782843693852 0 1881.0 -4.425782843693852 1
gene  1 22 492 1.0 0 1911.0 0.0 1
gene  1 492 128 0.47233297098327853 0 1912.0 0.0 1
gene  1 14 502 1.0 0 1950.0 0.0 1
gene  1 502 25 -2.406576236033213 0 1951.0 0.0 1
gene  1 10 519 1.0 0 2010.0 0.0 1
gene  1 519 25 0.2779443092033518 0 2011.0 0.0 1
gene  1 103 333 -4.925490828342904 0 2033.0 -4.925490828342904 1
gene  1 7 242 -8.589149608783572 0 2047.0 -8.589149608783572 1
gene  1 361 30 -3.364430012547958 0 2081.0 -3.364430012547958 1
gene  1 286 550 1.0 0 2139.0 0.0 1
gene  1 550 28 0.025667614407639316 0 2140.0 0.0 1
gene  1 16 449 -4.819583852973205 0 2207.0 -4.819583852973205 1
gene  1 22 99 -2.805021694326193 0 2256.0 -2.805021694326193 1
gene  1 519 191 5.4862128461960324 0 2286.0 5.4862128461960324 1
gene  1 41 277 -9.127596344581471 0 2326.0 -9.127596344581471 1
gene  1 19 613 1.0 0 2370.0 0.0 1
gene  1 613 24 1.1167443914792334 0 2371.0 0.0 1
gene  1 19 361 -0.9731171545944906 0 2386.0 -0.9731171545944906 1
gene  1 150 519 6.419898397957137 0 2419.0 6.419898397957137 1
gene  1 8 637 1.0 0 2459.0 0.0 1
gene  1 637 69 0.6109648487557431 0 2460.0 0.0 1
gene  1 99 41 -5.8512602291313005 0 2491.0 -5.8512602291313005 1
gene  1 14 650 1.0 0 2525.0 0.0 1
gene  1 650 26 -0.5697240976550146 0 2526.0 0.0 1
gene  1 99 449 9.692660829861735 0 2574.0 9.692660829861735 1
gene  1 128 650 -5.0758949069195305 0 2611.0 -5.0758949069195305 1
gene  1 242 613 -5.126578153185584 0 2631.0 -5.126578153185584 1
gene  1 26 684 1.0 0 2651.0 0.0 1
gene  1 684 41 -6.934677827942377 0 2652.0 0.0 1
gene  1 7 693 1.0 0 2686.0 0.0 1
gene  1 693 27 -1.1359514906506512 0 2687.0 0.0 0
gene  1 693 637 -8.665673205969714 0 2741.0 -8.665673205969714 1
gene  1 21 28 0.06671616490239618 0 2763.0 0.06671616490239618 1
gene  1 458 103 8.611347731799743 0 2802.0 8.611347731799743 1
gene  1 286 41 -0.3004047542578181 0 2819.0 -0.3004047542578181 1
gene  1 502 390 -8.194380204004723 0 2870.0 -8.194380204004723 1
gene  1 333 32 -7.464997288507407 0 2893.0 -7.464997288507407 1
gene  1 30 236 5.775671236113728 0 2925.0 5.775671236113728 1
gene  1 9 762 1.0 0 2965.0 0.0 1
gene  1 762 26 -1.7276248866576271 0 2966.0 0.0 1
gene  1 16 613 4.007700359226538 0 2985.0 4.007700359226538 1
gene  1 25 780 1.0 0 3029.0 0.0 1
gene  1 780 28 0.8152174332290762 0 3030.0 0.0 1
gene  1 502 69 2.7969092830649056 0 3080.0 2.7969092830649056 1
gene  1 2 801 1.0 0 3114.0 0.0 1
gene  1 801 26 1.0348232233393615 0 3115.0 0.0 1
gene  1 550 310 4.349619558396177 0 3126.0 4.349619558396177 1
gene  1 550 817 1.0 0 3162.0 0.0 1
gene  1 817 28 0.025667614407639316 0 3163.0 0.0 1
gene  1 103 833 1.0 0 3220.0 0.0 1
gene  1 833 24 1.3671339875182222 0 3221.0 0.0 1
gene  1 14 837 1.0 0 3236.0 0.0 1
gene  1 837 333 -3.785843903385777 0 3237.0 0.0 1
gene  1 21 150 0.37578412308161835 0 3282.0 0.37578412308161835 1
gene  1 650 780 3.1321547879450895 0 3314.0 3.1321547879450895 1
gene  1 15 837 -8.001033582604686 0 3364.0 -8.001033582604686 1
gene  1 20 877 1.0 0 3407.0 0.0 1
gene  1 877 99 2.16353396511089 0 3408.0 0.0 1
gene  1 16 333 -7.684474477005092 0 3491.0 -7.684474477005092 1
gene  1 4 361 9.048045139790645 0 3557.0 9.048045139790645 1
gene  1 17 150 -6.332162956026258 0 3601.0 -6.332162956026258 1
gene  1 15 419 6.608183758505177 0 3630.0 6.608183758505177 1
gene  1 27 236 -9.183117112089807 0 3680.0 -9.183117112089807 1
gene  1 242 949 1.0 0 3697.0 0.0 1
gene  1 949 24 1.9563221533460138 0 3698.0 0.0 1
gene  1 21 953 1.0 0 3730.0 0.0 1
gene  1 953 26 -3.0739483612397973 0 3731.0 0.0 1
gene  1 21 967 1.0 0 3782.0 0.0 1
gene  1 967 27 -1.6098739089238192 0 3783.0 0.0 1
gene  1 295 41 -9.542866571256884 0 3812.0 -9.542866571256884 1
gene  1 1 984 1.0 0 3857.0 0.0 1
gene  1 984 27 0.1950912962028929 0 3858.0 0.0 1
gene  1 361 277 -9.71706795386717 0 3913.0 -9.71706795386717 1
gene  1 355 236 8.849509012006822 0 3939.0 8.849509012006822 1
gene  1 24 519 -1.9983202650583276 0 3980.0 -1.9983202650583276 1
gene  1 4 1028 1.0 0 4017.0 0.0 1
gene  1 1028 24 1.9984107658146633 0 4018.0 0.0 1
gene  1 967 295 -2.460117361131746 0 4050.0 -2.460117361131746 1
gene  1 984 877 5.9510759430761055 0 4079.0 5.9510759430761055 1
gene  1 4 128 -8.822529101351892 0 4132.0 -8.822529101351892 1
gene  1 128 236 0.2500147129790231 0 4200.0 0.2500147129790231 1
gene  1 11 780 -3.1233437305279876 0 4210.0 -3.1233437305279876 1
gene  1 8 110 -4.724111710003617 0 4245.0 -4.724111710003617 1
gene  1 20 1106 1.0 0 4296.0 0.0 1
gene  1 1106 26 -0.7243609006292111 0 4297.0 0.0 1
gene  1 953 286 -4.32751788269656 0 4318.0 -4.32751788269656 1
gene  1 17 1121 1.0 0 4353.0 0.0 1
gene  1 1121 26 -0.6658234717228073 0 4354.0 0.0 1
gene  1 693 1140 1.0 0 4425.0 0.0 1
gene  1 1140 27 -1.1359514906506512 0 4426.0 0.0 1
gene  1 13 492 -6.339712038890357 0 4480.0 -6.339712038890357 1
gene  1 9 801 3.8400903877768244 0 4486.0 3.8400903877768244 1
gene  1 295 390 -2.4726238863261574 0 4522.0 -2.4726238863261574 1
gene  1 637 449 4.971720935747434 0 4561.0 4.971720935747434 1
gene  1 1028 361 5.11118257941537 0 4646.0 5.11118257941537 1
gene  1 103 1121 -2.527909282235873 0 4699.0 -2.527909282235873 1
gene  1 3 1229 1.0 0 4737.0 0.0 1
gene  1 1229 24 2.231101296592862 0 4738.0 0.0 1
gene  1 2 1243 1.0 0 4782.0 0.0 1
gene  1 1243 449 2.715246405901041 0 4783.0 0.0 1
gene  1 20 1246 1.0 0 4794.0 0.0 1
gene  1 1246 26 -0.7243609006292111 0 4795.0 0.0 1
gene  1 20 1259 1.0 0 4835.0 0.0 1
gene  1 1259 419 1.0 0 4836.0 0.0 1
gene  1 1028 242 5.039185034235656 0 4871.0 5.039185034235656 1
gene  1 5 949 -2.3849689763401907 0 4911.0 -2.3849689763401907 1
gene  1 15 31 -5.806215104645243 0 4950.0 -5.806215104645243 1
gene  1 419 128 1.377592944790783 0 4978.0 1.377592944790783 1
gene  1 1 458 2.962382402446483 0 5023.0 2.962382402446483 1
gene  1 12 833 -4.299257747556916 0 5055.0 -4.299257747556916 1
gene  1 877 25 4.649123407035765 0 5077.0 4.649123407035765 1
gene  1 2 310 0.8727917603081425 0 5122.0 0.8727917603081425 1
genomeend 3
/* Organism # 004 Fitness:  0,000 Error:  0,000                      */
genomestart  4
trait 1 0.0 0.0 0.0 0.0 0.0 0.0 0.0 0.0 
node 1 1 1 1
node 2 1 1 1
node 3 1 1 1
node 4 1 1 1
node 5 1 1 1
node 6 1 1 1
node 7 1 1 1
node 8 1 1 1
node 9 1 1 1
node 10 1 1 1
node 11 1 1 1
node 12 1 1 1
node 13 1 1 1
node 14 1 1 1
node 15 1 1 1
node 16 1 1 1
node 17 1 1 1
node 18 1 1 1
node 19 1 1 1
node 20 1 1 1
node 21 1 1 1
node 22 1 1 1
node 23 1 1 3
node 24 1 0 0
node 25 1 0 0
node 26 1 0 0
node 27 1 0 0
node 28 1 0 2
node 29 1 0 2
node 30 1 0 2
node 31 1 0 2
node 32 1 0 2
node 41 1 0 0
node 69 1 0 0
node 99 1 0 0
node 103 1 0 0
node 110 1 0 0
node 128 1 0 0
node 150 1 0 0
node 191 1 0 0
node 236 1 0 0
node 242 1 0 0
node 277 1 0 0
node 286 1 0 0
node 295 1 0 0
node 310 1 0 0
node 333 1 0 0
node 355 1 0 0
node 361 1 0 0
node 390 1 0 0
node 419 1 0 0
node 449 1 0 0
node 458 1 0 0
node 492 1 0 0
node 502 1 0 0
node 519 1 0 0
node 550 1 0 0
node 613 1 0 0
node 637 1 0 0
node 650 1 0 0
node 684 1 0 0
node 693 1 0 0
node 762 1 0 0
node 780 1 0 0
node 801 1 0 0
node 817 1 0 0
node 833 1 0 0
node 837 1 0 0
node 877 1 0 0
node 949 1 0 0
node 953 1 0 0
node 967 1 0 0
node 984 1 0 0
node 1028 1 0 0
node 1106 1 0 0
node 1121 1 0 0
node 1140 1 0 0
node 1229 1 0 0
node 1243 1 0 0
node 1246 1 0 0
node 1259 1 0 0
gene  1 1 24 0.6836074841519658 0 1.0 0.6836074841519658 1
gene  1 2 24 0.2418349725060388 0 2.0 0.2418349725060388 1
gene  1 3 24 2.231101296592862 0 3.0 2.231101296592862 0
gene  1 4 24 1.9984107658146633 0 4.0 1.9984107658146633 0
gene  1 5 24 -1.295047861402809 0 5.0 -1.295047861402809 1
gene  1 6 24 -0.46614332725808727 0 6.0 -0.46614332725808727 1
gene  1 7 24 -0.6632373714736616 0 7.0 -0.6632373714736616 1
gene  1 8 24 -1.1786407631101534 0 8.0 -1.1786407631101534 1
gene  1 9 24 0.7083499676735852 0 9.0 0.7083499676735852 1
gene  1 10 24 1.8287682424176324 0 10.0 1.8287682424176324 1
gene  1 11 24 0.13114292736241406 0 11.0 0.13114292736241406 1
gene  1 12 24 0.20129052057887642 0 12.0 0.20129052057887642 1
gene  1 13 24 0.15119511013894327 0 13.0 0.15119511013894327 1
gene  1 14 24 -2.305494291515135 0 14.0 -2.305494291515135 1
gene  1 15 24 1.7866237942300476 0 15.0 1.7866237942300476 1
gene  1 16 24 0.4609847206181178 0 16.0 0.4609847206181178 1
gene  1 17 24 1.1367228621818093 0 17.0 1.1367228621818093 1
gene  1 18 24 1.0832013029571876 0 18.0 1.0832013029571876 1
gene  1 19 24 1.1167443914792334 0 19.0 1.1167443914792334 1
gene  1 20 24 0.07414205454090883 0 20.0 0.07414205454090883 1
gene  1 21 24 0.5418885079930811 0 21.0 0.5418885079930811 1
gene  1 22 24 2.484950267181405 0 22.0 2.484950267181405 1
gene  1 23 24 0.425929415896056 0 23.0 0.425929415896056 1
gene  1 1 25 0.6154095691625152 0 24.0 0.6154095691625152 1
gene  1 2 25 -2.8755165268856366 0 25.0 -2.8755165268856366 1
gene  1 3 25 2.689302679798512 0 26.0 2.689302679798512 1
gene  1 4 25 -0.7614296740576152 0 27.0 -0.7614296740576152 1
gene  1 5 25 -0.12017325232786724 0 28.0 -0.12017325232786724 1
gene  1 6 25 -0.8995478796312145 0 29.0 -0.8995478796312145 1
gene  1 7 25 -0.012654369140360444 0 30.0 -0.012654369140360444 1
gene  1 8 25 1.3910890901314834 0 31.0 1.3910890901314834 1
gene  1 9 25 0.3584175622867064 0 32.0 0.3584175622867064 1
gene  1 10 25 0.2779443092033518 0 33.0 0.2779443092033518 1
gene  1 11 25 1.142465146794125 0 34.0 1.142465146794125 1
gene  1 12 25 0.9036541395774667 0 35.0 0.9036541395774667 1
gene  1 13 25 -1.2351814578924105 0 36.0 -1.2351814578924105 1
gene  1 14 25 -2.406576236033213 0 37.0 -2.406576236033213 1
gene  1 15 25 -1.3059963432256165 0 38.0 -1.3059963432256165 1
gene  1 16 25 -0.07279068140327355 0 39.0 -0.07279068140327355 1
gene  1 17 25 2.1463068148221858 0 40.0 2.1463068148221858 1
gene  1 18 25 -0.8147305052695352 0 41.0 -0.8147305052695352 1
gene  1 19 25 -1.8963916370755176 0 42.0 -1.8963916370755176 1
gene  1 20 25 -0.17530964326477716 0 43.0 -0.17530964326477716 1
gene  1 21 25 -2.1615664960138625 0 44.0 -2.1615664960138625 1
gene  1 22 25 -0.5353496319643707 0 45.0 -0.5353496319643707 1
gene  1 23 25 2.211182550883856 0 46.0 2.211182550883856 1
gene  1 1 26 -0.1813538282281052 0 47.0 -0.1813538282281052 1
gene  1 2 26 1.0348232233393615 0 48.0 1.0348232233393615 1
gene  1 3 26 -0.26852393576716355 0 49.0 -0.26852393576716355 1
gene  1 4 26 -0.5462351900443294 0 50.0 -0.5462351900443294 1
gene  1 5 26 1.841798679175527 0 51.0 1.841798679175527 1
gene  1 6 26 0.9246057866887103 0 52.0 0.9246057866887103 1
gene  1 7 26 2.961718684201993 0 53.0 2.961718684201993 1
gene  1 8 26 1.3531921659176516 0 54.0 1.3531921659176516 1
gene  1 9 26 -1.7276248866576271 0 55.0 -1.7276248866576271 1
gene  1 10 26 2.0139802487278704 0 56.0 2.0139802487278704 1
gene  1 11 26 1.528778550886252 0 57.0 1.528778550886252 1
gene  1 12 26 -0.5785609867130133 0 58.0 -0.5785609867130133 1
gene  1 13 26 -2.6797800697851013 0 59.0 -2.6797800697851013 1
gene  1 14 26 -0.5697240976550146 0 60.0 -0.5697240976550146 0
gene  1 15 26 -0.6337731619541322 0 61.0 -0.6337731619541322 1
gene  1 16 26 -3.0562620734655126 0 62.0 -3.0562620734655126 1
gene  1 17 26 -0.6658234717228073 0 63.0 -0.6658234717228073 0
gene  1 18 26 3.3403867808578074 0 64.0 3.3403867808578074 1
gene  1 19 26 0.7776803632315288 0 65.0 0.7776803632315288 1
gene  1 20 26 -0.7243609006292111 0 66.0 -0.7243609006292111 0
gene  1 21 26 -3.0739483612397973 0 67.0 -3.0739483612397973 1
gene  1 22 26 -0.8853447786938764 0 68.0 -0.8853447786938764 1
gene  1 23 26 -1.392668583310223 0 69.0 -1.392668583310223 1
gene  1 1 27 0.1950912962028929 0 70.0 0.1950912962028929 0
gene  1 2 27 -2.3849842766314993 0 71.0 -2.3849842766314993 1
gene  1 3 27 -1.4510293084069832 0 72.0 -1.4510293084069832 1
gene  1 4 27 -2.108078397682316 0 73.0 -2.108078397682316 1
gene  1 5 27 0.9853093818432086 0 74.0 0.9853093818432086 1
gene  1 6 27 1.9012442085109171 0 75.0 1.9012442085109171 1
gene  1 7 27 -1.1359514906506512 0 76.0 -1.1359514906506512 1
gene  1 8 27 1.3588260773815568 0 77.0 1.3588260773815568 1
gene  1 9 27 -2.8086161361721667 0 78.0 -2.8086161361721667 1
gene  1 10 27 0.6822866399342444 0 79.0 0.6822866399342444 1
gene  1 11 27 -1.4192574802827127 0 80.0 -1.4192574802827127 1
gene  1 12 27 2.0194659787646483 0 81.0 2.0194659787646483 1
gene  1 13 27 -3.29794013327734 0 82.0 -3.29794013327734 1
gene  1 14 27 -1.0273223382155723 0 83.0 -1.0273223382155723 1
gene  1 15 27 0.8854793246663014 0 84.0 0.8854793246663014 1
gene  1 16 27 -2.4100030796377325 0 85.0 -2.4100030796377325 1
gene  1 17 27 1.1641354279973304 0 86.0 1.1641354279973304 1
gene  1 18 27 -1.5657621004727782 0 87.0 -1.5657621004727782 1
gene  1 19 27 0.9635940309111093 0 88.0 0.9635940309111093 1
gene  1 20 27 -1.5141808232294682 0 89.0 -1.5141808232294682 1
gene  1 21 27 -1.6098739089238192 0 90.0 -1.6098739089238192 1
gene  1 22 27 -0.20721715934182405 0 91.0 -0.20721715934182405 1
gene  1 23 27 -2.7987944125960222 0 92.0 -2.7987944125960222 1
gene  1 23 28 1.3272888213665466 0 93.0 1.3272888213665466 1
gene  1 24 28 1.3820786340802313 0 94.0 1.3820786340802313 1
gene  1 25 28 0.8152174332290762 0 95.0 0.8152174332290762 0
gene  1 26 28 -1.8871519098029614 0 96.0 -1.8871519098029614 1
gene  1 27 28 -1.0416194194378714 0 97.0 -1.0416194194378714 1
gene  1 23 29 1.712662646035409 0 98.0 1.712662646035409 1
gene  1 24 29 0.3750308964985809 0 99.0 0.3750308964985809 1
gene  1 25 29 2.0081239104076944 0 100.0 2.0081239104076944 1
gene  1 26 29 -1.8177506182944394 0 101.0 -1.8177506182944394 1
gene  1 27 29 0.24578722111506612 0 102.0 0.24578722111506612 1
gene  1 23 30 -0.9792201881248785 0 103.0 -0.9792201881248785 1
gene  1 24 30 0.3847222154010963 0 104.0 0.3847222154010963 1
gene  1 25 30 1.8066113481737804 0 105.0 1.8066113481737804 1
gene  1 26 30 0.2284221571408082 0 106.0 0.2284221571408082 1
gene  1 27 30 2.7779870153214823 0 107.0 2.7779870153214823 1
gene  1 23 31 0.4191893547743016 0 108.0 0.4191893547743016 1
gene  1 24 31 0.77248384192597 0 109.0 0.77248384192597 1
gene  1 25 31 -2.4322039769326436 0 110.0 -2.4322039769326436 1
gene  1 26 31 1.9221518817702068 0 111.0 1.9221518817702068 1
gene  1 27 31 -1.706516430146761 0 112.0 -1.706516430146761 1
gene  1 23 32 -1.20797389976055 0 113.0 -1.20797389976055 1
gene  1 24 32 0.41904467590066785 0 114.0 0.41904467590066785 1
gene  1 25 32 -1.5085101012937148 0 115.0 -1.5085101012937148 1
gene  1 26 32 -0.2604847518040827 0 116.0 -0.2604847518040827 1
gene  1 27 32 1.0654473885398326 0 117.0 1.0654473885398326 1
gene  1 15 28 4.70782994343627 0 145.0 4.70782994343627 1
gene  1 24 41 0.7041611002973363 0 162.0 0.7041611002973363 1
gene  1 41 29 -0.7849467345565301 0 163.0 -0.7849467345565301 1
gene  1 11 28 9.218883268875562 0 192.0 9.218883268875562 1
gene  1 8 29 -2.176334847719313 0 252.0 -2.176334847719313 1
gene  1 8 69 0.6109648487557431 0 286.0 0.6109648487557431 1
gene  1 69 26 2.7645682336002895 0 287.0 2.7645682336002895 1
gene  1 14 28 8.721990907806568 0 325.0 8.721990907806568 1
gene  1 10 28 4.561700536875561 0 337.0 4.561700536875561 1
gene  1 15 32 6.306243292515637 0 371.0 6.306243292515637 1
gene  1 20 99 2.16353396511089 0 420.0 2.16353396511089 1
gene  1 99 27 -2.8094737854649665 0 421.0 -2.8094737854649665 1
gene  1 5 103 -1.0264695869117828 0 442.0 -1.0264695869117828 1
gene  1 103 24 1.3671339875182222 0 443.0 1.3671339875182222 1
gene  1 3 110 -1.3192452305966889 0 466.0 -1.3192452305966889 1
gene  1 110 26 0.17226926783242408 0 467.0 0.17226926783242408 1
gene  1 17 99 8.667263408509712 0 517.0 8.667263408509712 1
gene  1 16 128 -1.1029401447466332 0 542.0 -1.1029401447466332 1
gene  1 128 25 1.5541036770496022 0 543.0 1.5541036770496022 1
gene  1 22 103 -3.6589079271917693 0 584.0 -3.6589079271917693 1
gene  1 24 150 -0.4951572804097779 0 612.0 -0.4951572804097779 1
gene  1 150 29 1.760461199179113 0 613.0 1.760461199179113 1
gene  1 6 128 7.989030214491342 0 659.0 7.989030214491342 1
gene  1 150 69 7.977677494161361 0 697.0 7.977677494161361 1
gene  1 31 32 -7.223103554147636 0 712.0 -7.223103554147636 1
gene  1 26 41 -6.934677827942377 0 740.0 -6.934677827942377 1
gene  1 7 191 2.7026679260086692 0 774.0 2.7026679260086692 1
gene  1 191 26 2.8964560025688257 0 775.0 2.8964560025688257 1
gene  1 103 26 0.9890079923258703 0 816.0 0.9890079923258703 1
gene  1 9 29 -5.980022400228384 0 851.0 -5.980022400228384 1
gene  1 11 99 -3.9682740919211192 0 864.0 -3.9682740919211192 1
gene  1 12 99 -10.457000068568073 0 920.0 -10.457000068568073 1
gene  1 26 236 2.413153052333878 0 945.0 2.413153052333878 1
gene  1 236 28 -0.39879288095864707 0 946.0 -0.39879288095864707 1
gene  1 22 242 0.9659975009029367 0 964.0 0.9659975009029367 1
gene  1 242 24 1.9563221533460138 0 965.0 1.9563221533460138 1
gene  1 15 99 9.470992938607854 0 1027.0 9.470992938607854 1
gene  1 191 69 2.1652779438076055 0 1052.0 2.1652779438076055 1
gene  1 15 277 0.9471773128246486 0 1090.0 0.9471773128246486 1
gene  1 277 28 2.35561451715437 0 1091.0 2.35561451715437 1
gene  1 27 286 -0.12275845610281455 0 1116.0 -0.12275845610281455 1
gene  1 286 28 0.025667614407639316 0 1117.0 0.025667614407639316 1
gene  1 191 295 1.462792961073816 0 1142.0 1.462792961073816 1
gene  1 295 26 -0.6328061547708835 0 1143.0 -0.6328061547708835 1
gene  1 22 128 0.47233297098327853 0 1174.0 0.47233297098327853 1
gene  1 19 310 2.4856618195935347 0 1209.0 2.4856618195935347 1
gene  1 310 24 -1.6364077796782248 0 1210.0 -1.6364077796782248 1
gene  1 242 103 8.287160315783602 0 1238.0 8.287160315783602 1
gene  1 16 236 -0.9082556621137352 0 1287.0 -0.9082556621137352 1
gene  1 20 333 1.0 0 1305.0 1.0 1
gene  1 333 24 -0.43803176646816433 0 1306.0 -0.43803176646816433 1
gene  1 14 277 -7.3398616412898825 0 1364.0 -7.3398616412898825 1
gene  1 2 355 -0.6544197900779483 0 1395.0 -0.6544197900779483 1
gene  1 355 27 0.057231611804800075 0 1396.0 0.057231611804800075 1
gene  1 69 361 -0.018934202235794118 0 1416.0 -0.018934202235794118 1
gene  1 361 26 2.638823677941647 0 1417.0 2.638823677941647 1
gene  1 9 32 -4.24720604900855 0 1466.0 -4.24720604900855 1
gene  1 14 333 -3.785843903385777 0 1482.0 -3.785843903385777 1
gene  1 32 277 2.2177074487957547 0 1522.0 2.2177074487957547 1
gene  1 3 390 1.0 0 1547.0 1.0 1
gene  1 390 26 2.717639197728152 0 1548.0 2.717639197728152 1
gene  1 286 236 0.7913139280449974 0 1594.0 0.7913139280449974 1
gene  1 20 419 1.0 0 1638.0 1.0 0
gene  1 419 27 2.372046399786742 0 1639.0 2.372046399786742 1
gene  1 17 355 -3.941543941741722 0 1648.0 -3.941543941741722 1
gene  1 8 150 0.9703385552652399 0 1688.0 0.9703385552652399 1
gene  1 355 310 -5.568152431032543 0 1725.0 -5.568152431032543 1
gene  1 2 449 2.715246405901041 0 1757.0 2.715246405901041 0
gene  1 449 355 1.1406736985867385 0 1758.0 1.1406736985867385 1
gene  1 10 458 1.0 0 1789.0 1.0 1
gene  1 458 26 0.8334553162957417 0 1790.0 0.8334553162957417 1
gene  1 286 242 0.0177850674950375 0 1819.0 0.0177850674950375 1
gene  1 103 361 -4.425782843693852 0 1881.0 -4.425782843693852 1
gene  1 22 492 1.0 0 1911.0 0.0 1
gene  1 492 128 0.47233297098327853 0 1912.0 0.0 1
gene  1 14 502 1.0 0 1950.0 0.0 1
gene  1 502 25 -2.406576236033213 0 1951.0 0.0 1
gene  1 10 519 1.0 0 2010.0 0.0 1
gene  1 519 25 0.2779443092033518 0 2011.0 0.0 1
gene  1 103 333 -4.925490828342904 0 2033.0 -4.925490828342904 1
gene  1 7 242 -8.589149608783572 0 2047.0 -8.589149608783572 1
gene  1 361 30 -3.364430012547958 0 2081.0 -3.364430012547958 1
gene  1 286 550 1.0 0 2139.0 0.0 1
gene  1 550 28 0.025667614407639316 0 2140.0 0.0 1
gene  1 16 449 -4.819583852973205 0 2207.0 -4.819583852973205 1
gene  1 22 99 -2.805021694326193 0 2256.0 -2.805021694326193 1
gene  1 519 191 5.4862128461960324 0 2286.0 5.4862128461960324 1
gene  1 41 277 -9.127596344581471 0 2326.0 -9.127596344581471 1
gene  1 19 613 1.0 0 2370.0 0.0 1
gene  1 613 24 1.1167443914792334 0 2371.0 0.0 1
gene  1 19 361 -0.9731171545944906 0 2386.0 -0.9731171545944906 1
gene  1 150 519 6.419898397957137 0 2419.0 6.419898397957137 1
gene  1 8 637 1.0 0 2459.0 0.0 1
gene  1 637 69 0.6109648487557431 0 2460.0 0.0 1
gene  1 99 41 -5.8512602291313005 0 2491.0 -5.8512602291313005 1
gene  1 14 650 1.0 0 2525.0 0.0 1
gene  1 650 26 -0.5697240976550146 0 2526.0 0.0 1
gene  1 99 449 9.692660829861735 0 2574.0 9.692660829861735 1
gene  1 128 650 -5.0758949069195305 0 2611.0 -5.0758949069195305 1
gene  1 242 613 -5.126578153185584 0 2631.0 -5.126578153185584 1
gene  1 26 684 1.0 0 2651.0 0.0 1
gene  1 684 41 -6.934677827942377 0 2652.0 0.0 1
gene  1 7 693 1.0 0 2686.0 0.0 1
gene  1 693 27 -1.1359514906506512 0 2687.0 0.0 0
gene  1 693 637 -8.665673205969714 0 2741.0 -8.665673205969714 1
gene  1 21 28 0.06671616490239618 0 2763.0 0.06671616490239618 1
gene  1 458 103 8.611347731799743 0 2802.0 8.611347731799743 1
gene  1 286 41 -0.3004047542578181 0 2819.0 -0.3004047542578181 1
gene  1 502 390 -8.194380204004723 0 2870.0 -8.194380204004723 1
gene  1 333 32 -7.464997288507407 0 2893.0 -7.464997288507407 1
gene  1 30 236 5.775671236113728 0 2925.0 5.775671236113728 1
gene  1 9 762 1.0 0 2965.0 0.0 1
gene  1 762 26 -1.7276248866576271 0 2966.0 0.0 1
gene  1 16 613 4.007700359226538 0 2985.0 4.007700359226538 1
gene  1 25 780 1.0 0 3029.0 0.0 1
gene  1 780 28 0.8152174332290762 0 3030.0 0.0 1
gene  1 502 69 2.7969092830649056 0 3080.0 2.7969092830649056 1
gene  1 2 801 1.0 0 3114.0 0.0 1
gene  1 801 26 1.0348232233393615 0 3115.0 0.0 1
gene  1 550 310 4.349619558396177 0 3126.0 4.349619558396177 1
gene  1 550 817 1.0 0 3162.0 0.0 1
gene  1 817 28 0.025667614407639316 0 3163.0 0.0 1
gene  1 103 833 1.0 0 3220.0 0.0 1
gene  1 833 24 1.3671339875182222 0 3221.0 0.0 1
gene  1 14 837 1.0 0 3236.0 0.0 1
gene  1 837 333 -3.785843903385777 0 3237.0 0.0 1
gene  1 21 150 0.37578412308161835 0 3282.0 0.37578412308161835 1
gene  1 650 780 3.1321547879450895 0 3314.0 3.1321547879450895 1
gene  1 15 837 -8.001033582604686 0 3364.0 -8.001033582604686 1
gene  1 20 877 1.0 0 3407.0 0.0 1
gene  1 877 99 2.16353396511089 0 3408.0 0.0 1
gene  1 16 333 -7.684474477005092 0 3491.0 -7.684474477005092 1
gene  1 4 361 9.048045139790645 0 3557.0 9.048045139790645 1
gene  1 17 150 -6.332162956026258 0 3601.0 -6.332162956026258 1
gene  1 15 419 6.608183758505177 0 3630.0 6.608183758505177 1
gene  1 27 236 -9.183117112089807 0 3680.0 -9.183117112089807 1
gene  1 242 949 1.0 0 3697.0 0.0 1
gene  1 949 24 1.9563221533460138 0 3698.0 0.0 1
gene  1 21 953 1.0 0 3730.0 0.0 1
gene  1 953 26 -3.0739483612397973 0 3731.0 0.0 1
gene  1 21 967 1.0 0 3782.0 0.0 1
gene  1 967 27 -1.6098739089238192 0 3783.0 0.0 1
gene  1 295 41 -9.542866571256884 0 3812.0 -9.542866571256884 1
gene  1 1 984 1.0 0 3857.0 0.0 1
gene  1 984 27 0.1950912962028929 0 3858.0 0.0 1
gene  1 361 277 -9.71706795386717 0 3913.0 -9.71706795386717 1
gene  1 355 236 8.849509012006822 0 3939.0 8.849509012006822 1
gene  1 24 519 -1.9983202650583276 0 3980.0 -1.9983202650583276 1
gene  1 4 1028 1.0 0 4017.0 0.0 1
gene  1 1028 24 1.9984107658146633 0 4018.0 0.0 1
gene  1 967 295 -2.460117361131746 0 4050.0 -2.460117361131746 1
gene  1 984 877 5.9510759430761055 0 4079.0 5.9510759430761055 1
gene  1 4 128 -8.822529101351892 0 4132.0 -8.822529101351892 1
gene  1 128 236 0.2500147129790231 0 4200.0 0.2500147129790231 1
gene  1 11 780 -3.1233437305279876 0 4210.0 -3.1233437305279876 1
gene  1 8 110 -4.724111710003617 0 4245.0 -4.724111710003617 1
gene  1 20 1106 1.0 0 4296.0 0.0 1
gene  1 1106 26 -0.7243609006292111 0 4297.0 0.0 1
gene  1 953 286 -4.32751788269656 0 4318.0 -4.32751788269656 1
gene  1 17 1121 1.0 0 4353.0 0.0 1
gene  1 1121 26 -0.6658234717228073 0 4354.0 0.0 1
gene  1 693 1140 1.0 0 4425.0 0.0 1
gene  1 1140 27 -1.1359514906506512 0 4426.0 0.0 1
gene  1 13 492 -6.339712038890357 0 4480.0 -6.339712038890357 1
gene  1 9 801 3.8400903877768244 0 4486.0 3.8400903877768244 1
gene  1 295 390 -2.4726238863261574 0 4522.0 -2.4726238863261574 1
gene  1 637 449 4.971720935747434 0 4561.0 4.971720935747434 1
gene  1 1028 361 5.11118257941537 0 4646.0 5.11118257941537 1
gene  1 103 1121 -2.527909282235873 0 4699.0 -2.527909282235873 1
gene  1 3 1229 1.0 0 4737.0 0.0 1
gene  1 1229 24 2.231101296592862 0 4738.0 0.0 1
gene  1 2 1243 1.0 0 4782.0 0.0 1
gene  1 1243 449 2.715246405901041 0 4783.0 0.0 1
gene  1 20 1246 1.0 0 4794.0 0.0 1
gene  1 1246 26 -0.7243609006292111 0 4795.0 0.0 1
gene  1 20 1259 1.0 0 4835.0 0.0 1
gene  1 1259 419 1.0 0 4836.0 0.0 1
gene  1 1028 242 5.039185034235656 0 4871.0 5.039185034235656 1
gene  1 5 949 -2.3849689763401907 0 4911.0 -2.3849689763401907 1
gene  1 15 31 -5.806215104645243 0 4950.0 -5.806215104645243 1
gene  1 419 128 1.377592944790783 0 4978.0 1.377592944790783 1
gene  1 1 458 2.962382402446483 0 5023.0 2.962382402446483 1
gene  1 12 833 -4.299257747556916 0 5055.0 -4.299257747556916 1
gene  1 877 25 4.649123407035765 0 5077.0 4.649123407035765 1
gene  1 3 41 8.653686861944236 0 5123.0 8.653686861944236 1
genomeend 4
/*-------------------------------------------------------------------*/
/* Species # 076         : (size= 002) (AvfFit= 770,000) (Age= 7,000)  */
/*-------------------------------------------------------------------*/
/* Organism # 005 Fitness:  0,000 Error:  0,000                      */
genomestart  5
trait 1 0.0 0.0 0.0 0.0 0.0 0.0 0.0 0.0 
node 1 1 1 1
node 2 1 1 1
node 3 1 1 1
node 4 1 1 1
node 5 1 1 1
node 6 1 1 1
node 7 1 1 1
node 8 1 1 1
node 9 1 1 1
node 10 1 1 1
node 11 1 1 1
node 12 1 1 1
node 13 1 1 1
node 14 1 1 1
node 15 1 1 1
node 16 1 1 1
node 17 1 1 1
node 18 1 1 1
node 19 1 1 1
node 20 1 1 1
node 21 1 1 1
node 22 1 1 1
node 23 1 1 3
node 24 1 0 0
node 25 1 0 0
node 26 1 0 0
node 27 1 0 0
node 28 1 0 2
node 29 1 0 2
node 30 1 0 2
node 31 1 0 2
node 32 1 0 2
node 41 1 0 0
node 69 1 0 0
node 99 1 0 0
node 103 1 0 0
node 110 1 0 0
node 128 1 0 0
node 150 1 0 0
node 191 1 0 0
node 236 1 0 0
node 242 1 0 0
node 277 1 0 0
node 286 1 0 0
node 295 1 0 0
node 310 1 0 0
node 333 1 0 0
node 355 1 0 0
node 361 1 0 0
node 390 1 0 0
node 419 1 0 0
node 449 1 0 0
node 458 1 0 0
node 492 1 0 0
node 502 1 0 0
node 519 1 0 0
node 550 1 0 0
node 613 1 0 0
node 637 1 0 0
node 650 1 0 0
node 684 1 0 0
node 693 1 0 0
node 762 1 0 0
node 780 1 0 0
node 801 1 0 0
node 817 1 0 0
node 833 1 0 0
node 837 1 0 0
node 877 1 0 0
node 949 1 0 0
node 953 1 0 0
node 967 1 0 0
node 984 1 0 0
node 1028 1 0 0
node 1106 1 0 0
node 1121 1 0 0
node 1140 1 0 0
node 1229 1 0 0
node 1243 1 0 0
node 1246 1 0 0
node 1259 1 0 0
node 1281 1 0 0
node 1295 1 0 0
gene  1 1 24 0.6836074841519658 0 1.0 0.6836074841519658 1
gene  1 2 24 0.2418349725060388 0 2.0 0.2418349725060388 1
gene  1 3 24 2.231101296592862 0 3.0 2.231101296592862 0
gene  1 4 24 1.9984107658146633 0 4.0 1.9984107658146633 1
gene  1 5 24 -1.295047861402809 0 5.0 -1.295047861402809 1
gene  1 6 24 -0.46614332725808727 0 6.0 -0.46614332725808727 1
gene  1 7 24 -0.6632373714736616 0 7.0 -0.6632373714736616 1
gene  1 8 24 -1.1786407631101534 0 8.0 -1.1786407631101534 1
gene  1 9 24 0.7083499676735852 0 9.0 0.7083499676735852 1
gene  1 10 24 1.8287682424176324 0 10.0 1.8287682424176324 1
gene  1 11 24 0.13114292736241406 0 11.0 0.13114292736241406 1
gene  1 12 24 0.20129052057887642 0 12.0 0.20129052057887642 1
gene  1 13 24 0.15119511013894327 0 13.0 0.15119511013894327 1
gene  1 14 24 -2.305494291515135 0 14.0 -2.305494291515135 1
gene  1 15 24 1.7866237942300476 0 15.0 1.7866237942300476 1
gene  1 16 24 0.4609847206181178 0 16.0 0.4609847206181178 1
gene  1 17 24 1.1367228621818093 0 17.0 1.1367228621818093 1
gene  1 18 24 1.0832013029571876 0 18.0 1.0832013029571876 1
gene  1 19 24 1.1167443914792334 0 19.0 1.1167443914792334 1
gene  1 20 24 0.07414205454090883 0 20.0 0.07414205454090883 1
gene  1 21 24 0.5418885079930811 0 21.0 0.5418885079930811 1
gene  1 22 24 2.484950267181405 0 22.0 2.484950267181405 1
gene  1 23 24 0.425929415896056 0 23.0 0.425929415896056 1
gene  1 1 25 0.6154095691625152 0 24.0 0.6154095691625152 1
gene  1 2 25 -2.8755165268856366 0 25.0 -2.8755165268856366 1
gene  1 3 25 2.689302679798512 0 26.0 2.689302679798512 1
gene  1 4 25 -0.7614296740576152 0 27.0 -0.7614296740576152 1
gene  1 5 25 -0.12017325232786724 0 28.0 -0.12017325232786724 1
gene  1 6 25 -0.8995478796312145 0 29.0 -0.8995478796312145 1
gene  1 7 25 -0.012654369140360444 0 30.0 -0.012654369140360444 1
gene  1 8 25 1.3910890901314834 0 31.0 1.3910890901314834 1
gene  1 9 25 0.3584175622867064 0 32.0 0.3584175622867064 1
gene  1 10 25 0.2779443092033518 0 33.0 0.2779443092033518 1
gene  1 11 25 1.142465146794125 0 34.0 1.142465146794125 1
gene  1 12 25 0.9036541395774667 0 35.0 0.9036541395774667 1
gene  1 13 25 -1.2351814578924105 0 36.0 -1.2351814578924105 1
gene  1 14 25 -2.406576236033213 0 37.0 -2.406576236033213 1
gene  1 15 25 -1.3059963432256165 0 38.0 -1.3059963432256165 1
gene  1 16 25 -0.07279068140327355 0 39.0 -0.07279068140327355 1
gene  1 17 25 2.1463068148221858 0 40.0 2.1463068148221858 1
gene  1 18 25 -0.8147305052695352 0 41.0 -0.8147305052695352 1
gene  1 19 25 -1.8963916370755176 0 42.0 -1.8963916370755176 1
gene  1 20 25 -0.17530964326477716 0 43.0 -0.17530964326477716 1
