/* Species # 129         : (size= 002) (AvfFit= 1046,000) (Age= 26,000)  */
/*-------------------------------------------------------------------*/
/* Organism # 000 Fitness:  0,000 Error:  0,000                      */
genomestart  0
trait 1 0.15906958955964612 0.29105188460910975 0.0 0.0 0.0 0.0 0.0 0.0 
node 1 1 1 1
node 2 1 1 1
node 3 1 1 1
node 4 1 1 1
node 5 1 1 1
node 6 1 1 1
node 7 1 1 1
node 8 1 1 1
node 9 1 1 1
node 10 1 1 1
node 11 1 1 1
node 12 1 1 1
node 13 1 1 1
node 14 1 1 1
node 15 1 1 1
node 16 1 1 1
node 17 1 1 1
node 18 1 1 1
node 19 1 1 1
node 20 1 1 1
node 21 1 1 1
node 22 1 1 1
node 23 1 1 3
node 24 1 0 0
node 25 1 0 0
node 26 1 0 0
node 27 1 0 0
node 28 1 0 2
node 29 1 0 2
node 30 1 0 2
node 31 1 0 2
node 32 1 0 2
node 41 1 0 0
node 69 1 0 0
node 99 1 0 0
node 103 1 0 0
node 110 1 0 0
node 128 1 0 0
node 150 1 0 0
node 191 1 0 0
node 236 1 0 0
node 242 1 0 0
node 277 1 0 0
node 286 1 0 0
node 295 1 0 0
node 310 1 0 0
node 333 1 0 0
node 355 1 0 0
node 361 1 0 0
node 390 1 0 0
node 419 1 0 0
node 449 1 0 0
node 458 1 0 0
node 492 1 0 0
node 502 1 0 0
node 519 1 0 0
node 550 1 0 0
node 613 1 0 0
node 637 1 0 0
node 650 1 0 0
node 684 1 0 0
node 693 1 0 0
node 762 1 0 0
node 780 1 0 0
node 801 1 0 0
node 817 1 0 0
node 833 1 0 0
node 837 1 0 0
node 877 1 0 0
node 949 1 0 0
node 953 1 0 0
node 967 1 0 0
node 984 1 0 0
node 1008 1 0 0
node 1029 1 0 0
node 1062 1 0 0
node 1090 1 0 0
node 1102 1 0 0
node 1125 1 0 0
node 1134 1 0 0
node 1274 1 0 0
node 1291 1 0 0
node 1304 1 0 0
node 1314 1 0 0
node 1321 1 0 0
node 1327 1 0 0
node 1346 1 0 0
node 1360 1 0 0
node 1367 1 0 0
node 1410 1 0 0
node 1417 1 0 0
node 1459 1 0 0
node 1482 1 0 0
node 1487 1 0 0
node 1497 1 0 0
node 1505 1 0 0
node 1524 1 0 0
node 1533 1 0 0
node 1569 1 0 0
node 1584 1 0 0
node 1593 1 0 0
node 1598 1 0 0
node 1620 1 0 0
node 1639 1 0 0
node 1685 1 0 0
node 1698 1 0 0
node 1712 1 0 0
node 1743 1 0 0
node 1795 1 0 0
node 1821 1 0 0
node 1852 1 0 0
node 1865 1 0 0
node 1866 1 0 0
node 1877 1 0 0
node 1890 1 0 0
node 1896 1 0 0
node 1907 1 0 0
node 1915 1 0 0
node 1934 1 0 0
node 1984 1 0 0
node 2003 1 0 0
node 2011 1 0 0
node 2034 1 0 0
node 2054 1 0 0
node 2058 1 0 0
gene  1 1 24 -0.6050134821861067 0 1.0 -0.6050134821861067 1
gene  1 2 24 0.4529456991984583 0 2.0 0.4529456991984583 1
gene  1 3 24 0.013841789258596027 0 3.0 0.013841789258596027 1
gene  1 4 24 0.30159237467128075 0 4.0 0.30159237467128075 1
gene  1 5 24 -1.5429502631953005 0 5.0 -1.5429502631953005 1
gene  1 6 24 -2.5198938864376483 0 6.0 -2.5198938864376483 1
gene  1 7 24 1.8090291065654922 0 7.0 1.8090291065654922 1
gene  1 8 24 -2.246790634197215 0 8.0 -2.246790634197215 1
gene  1 9 24 1.5711173938390544 0 9.0 1.5711173938390544 1
gene  1 10 24 -0.5977546637268949 0 10.0 -0.5977546637268949 1
gene  1 11 24 -1.3127723296956826 0 11.0 -1.3127723296956826 1
gene  1 12 24 -1.2899452375785414 0 12.0 -1.2899452375785414 1
gene  1 13 24 -2.0887509366563908 0 13.0 -2.0887509366563908 1
gene  1 14 24 -3.435833653841839 0 14.0 -3.435833653841839 1
gene  1 15 24 -0.05315691731028904 0 15.0 -0.05315691731028904 1
gene  1 16 24 -1.8379159080841276 0 16.0 -1.8379159080841276 1
gene  1 17 24 -1.2234523633683687 0 17.0 -1.2234523633683687 1
gene  1 18 24 3.2118290856047755 0 18.0 3.2118290856047755 1
gene  1 19 24 1.3860707412146946 0 19.0 1.3860707412146946 1
gene  1 20 24 2.4607687342978926 0 20.0 2.4607687342978926 1
gene  1 21 24 1.3446582486816858 0 21.0 1.3446582486816858 1
gene  1 22 24 0.530501868304663 0 22.0 0.530501868304663 1
gene  1 23 24 -0.29546992746878226 0 23.0 -0.29546992746878226 1
gene  1 1 25 -0.4299937770023601 0 24.0 -0.4299937770023601 1
gene  1 2 25 -0.8956613835991223 0 25.0 -0.8956613835991223 1
gene  1 3 25 1.4218503157026006 0 26.0 1.4218503157026006 1
gene  1 4 25 -1.8202687226244452 0 27.0 -1.8202687226244452 1
gene  1 5 25 -1.0161097122380536 0 28.0 -1.0161097122380536 1
gene  1 6 25 0.8131559028298249 0 29.0 0.8131559028298249 1
gene  1 7 25 0.4419510732113694 0 30.0 0.4419510732113694 1
gene  1 8 25 2.9479439745373757 0 31.0 2.9479439745373757 1
gene  1 9 25 0.6932873691317387 0 32.0 0.6932873691317387 1
gene  1 10 25 0.8291879084657592 0 33.0 0.8291879084657592 1
gene  1 11 25 1.4662190973686307 0 34.0 1.4662190973686307 1
gene  1 12 25 3.3763084013822473 0 35.0 3.3763084013822473 1
gene  1 13 25 -2.993270162905356 0 36.0 -2.993270162905356 1
gene  1 14 25 -0.02021533750430926 0 37.0 -0.02021533750430926 1
gene  1 15 25 0.8832078064674775 0 38.0 0.8832078064674775 1
gene  1 16 25 1.9730986657632716 0 39.0 1.9730986657632716 1
gene  1 17 25 2.4660299431672583 0 40.0 2.4660299431672583 1
gene  1 18 25 -2.9776171139675247 0 41.0 -2.9776171139675247 1
gene  1 19 25 -1.9138355807534373 0 42.0 -1.9138355807534373 1
gene  1 20 25 1.5121625585249696 0 43.0 1.5121625585249696 1
gene  1 21 25 -1.6952779006628536 0 44.0 -1.6952779006628536 1
gene  1 22 25 -1.020199365116318 0 45.0 -1.020199365116318 1
gene  1 23 25 2.953757969819995 0 46.0 2.953757969819995 1
gene  1 1 26 0.3798938063448032 0 47.0 0.3798938063448032 1
gene  1 2 26 2.578655568012862 0 48.0 2.578655568012862 1
gene  1 3 26 0.17185159879514705 0 49.0 0.17185159879514705 1
gene  1 4 26 -1.4294815248402346 0 50.0 -1.4294815248402346 1
gene  1 5 26 0.1263838723348476 0 51.0 0.1263838723348476 1
gene  1 6 26 0.05510139004957537 0 52.0 0.05510139004957537 1
gene  1 7 26 0.7376311264643665 0 53.0 0.7376311264643665 1
gene  1 8 26 0.4693386057045381 0 54.0 0.4693386057045381 1
gene  1 9 26 -3.421019877038495 0 55.0 -3.421019877038495 1
gene  1 10 26 3.251340779420064 0 56.0 3.251340779420064 1
gene  1 11 26 2.252360037564655 0 57.0 2.252360037564655 1
gene  1 12 26 0.07666352163265344 0 58.0 0.07666352163265344 1
gene  1 13 26 -0.6943479812965447 0 59.0 -0.6943479812965447 1
gene  1 14 26 0.3885929939640087 0 60.0 0.3885929939640087 1
gene  1 15 26 1.7391738654242188 0 61.0 1.7391738654242188 1
gene  1 16 26 -4.082482271777721 0 62.0 -4.082482271777721 1
gene  1 17 26 -0.406422431134571 0 63.0 -0.406422431134571 1
gene  1 18 26 3.365487306572854 0 64.0 3.365487306572854 1
gene  1 19 26 1.9585113445234734 0 65.0 1.9585113445234734 1
gene  1 20 26 -0.9391611874655497 0 66.0 -0.9391611874655497 1
gene  1 21 26 -1.7816078117203122 0 67.0 -1.7816078117203122 1
gene  1 22 26 -2.4063818391553373 0 68.0 -2.4063818391553373 1
gene  1 23 26 -1.5621762057986168 0 69.0 -1.5621762057986168 1
gene  1 1 27 0.33687487543496164 0 70.0 0.33687487543496164 1
gene  1 2 27 -0.31317063057941485 0 71.0 -0.31317063057941485 1
gene  1 3 27 -0.8259649872866119 0 72.0 -0.8259649872866119 1
gene  1 4 27 -0.8759386988393647 0 73.0 -0.8759386988393647 1
gene  1 5 27 -1.4189432364708239 0 74.0 -1.4189432364708239 1
gene  1 6 27 3.7317034230581996 0 75.0 3.7317034230581996 1
gene  1 7 27 1.1541149557040593 0 76.0 1.1541149557040593 1
gene  1 8 27 3.289918381793599 0 77.0 3.289918381793599 1
gene  1 9 27 -4.198018509459003 0 78.0 -4.198018509459003 1
gene  1 10 27 -1.4663110969401985 0 79.0 -1.4663110969401985 1
gene  1 11 27 -2.8346203519796265 0 80.0 -2.8346203519796265 1
gene  1 12 27 0.4844985631735068 0 81.0 0.4844985631735068 1
gene  1 13 27 -5.087359388627509 0 82.0 -5.087359388627509 1
gene  1 14 27 -2.339820796081831 0 83.0 -2.339820796081831 1
gene  1 15 27 1.8774245490392052 0 84.0 1.8774245490392052 1
gene  1 16 27 -0.4339480011821719 0 85.0 -0.4339480011821719 1
gene  1 17 27 0.36494669610053077 0 86.0 0.36494669610053077 1
gene  1 18 27 -0.7134176623740915 0 87.0 -0.7134176623740915 1
gene  1 19 27 2.1216514366904238 0 88.0 2.1216514366904238 1
gene  1 20 27 -2.728361586998415 0 89.0 -2.728361586998415 1
gene  1 21 27 -4.081315675393339 0 90.0 -4.081315675393339 1
gene  1 22 27 1.9227078022892385 0 91.0 1.9227078022892385 1
gene  1 23 27 -5.166143333139884 0 92.0 -5.166143333139884 1
gene  1 23 28 0.21284352343727564 0 93.0 0.21284352343727564 1
gene  1 24 28 -0.5461474869807985 0 94.0 -0.5461474869807985 1
gene  1 25 28 0.13925785422955306 0 95.0 0.13925785422955306 1
gene  1 26 28 -0.19846913739072414 0 96.0 -0.19846913739072414 1
gene  1 27 28 1.4513887346311467 0 97.0 1.4513887346311467 1
gene  1 23 29 1.4147845091181557 0 98.0 1.4147845091181557 1
gene  1 24 29 -1.7634351144450169 0 99.0 -1.7634351144450169 1
gene  1 25 29 3.7476386590333344 0 100.0 3.7476386590333344 1
gene  1 26 29 -0.4170409598218283 0 101.0 -0.4170409598218283 1
gene  1 27 29 -1.2114260260302299 0 102.0 -1.2114260260302299 1
gene  1 23 30 -2.022138888922966 0 103.0 -2.022138888922966 1
gene  1 24 30 0.8942602647201925 0 104.0 0.8942602647201925 1
gene  1 25 30 2.210354582459631 0 105.0 2.210354582459631 1
gene  1 26 30 0.5367972749066199 0 106.0 0.5367972749066199 1
gene  1 27 30 3.7297213167650733 0 107.0 3.7297213167650733 1
gene  1 23 31 1.5003429956837302 0 108.0 1.5003429956837302 1
gene  1 24 31 2.8469870631235255 0 109.0 2.8469870631235255 1
gene  1 25 31 -3.6695000752048568 0 110.0 -3.6695000752048568 1
gene  1 26 31 1.359220775283302 0 111.0 1.359220775283302 1
gene  1 27 31 -4.170124632383489 0 112.0 -4.170124632383489 1
gene  1 23 32 -2.0337749369417697 0 113.0 -2.0337749369417697 1
gene  1 24 32 2.8883709415524796 0 114.0 2.8883709415524796 1
gene  1 25 32 -0.4113658975349901 0 115.0 -0.4113658975349901 1
gene  1 26 32 -2.5213480645920887 0 116.0 -2.5213480645920887 1
gene  1 27 32 -1.0800181834148446 0 117.0 -1.0800181834148446 1
gene  1 15 28 6.528105988730598 0 145.0 6.528105988730598 1
gene  1 24 41 0.02567861739563715 0 162.0 0.02567861739563715 1
gene  1 41 29 -2.2990744998867743 0 163.0 -2.2990744998867743 1
gene  1 11 28 10.433338056029251 0 192.0 10.433338056029251 1
gene  1 8 29 -0.9707761707031957 0 252.0 -0.9707761707031957 1
gene  1 8 69 0.6423228813984702 0 286.0 0.6423228813984702 1
gene  1 69 26 5.004957670255051 0 287.0 5.004957670255051 1
gene  1 14 28 6.317512157147826 0 325.0 6.317512157147826 1
gene  1 10 28 3.5480178293400053 0 337.0 3.5480178293400053 1
gene  1 15 32 7.8604751358417975 0 371.0 7.8604751358417975 1
gene  1 20 99 2.275847061738073 0 420.0 2.275847061738073 1
gene  1 99 27 -2.855650615938891 0 421.0 -2.855650615938891 1
gene  1 5 103 0.8986076077998011 0 442.0 0.8986076077998011 1
gene  1 103 24 -0.4603080724661446 0 443.0 -0.4603080724661446 1
gene  1 3 110 -2.2630343708476275 0 466.0 -2.2630343708476275 1
gene  1 110 26 -1.0951892974230601 0 467.0 -1.0951892974230601 0
gene  1 17 99 9.662138963435742 0 517.0 9.662138963435742 1
gene  1 16 128 -0.7033251711872569 0 542.0 -0.7033251711872569 1
gene  1 128 25 -0.6485840817489272 0 543.0 -0.6485840817489272 1
gene  1 22 103 -2.942926111658456 0 584.0 -2.942926111658456 1
gene  1 24 150 0.16010209186396285 0 612.0 0.16010209186396285 1
gene  1 150 29 3.093189032367465 0 613.0 3.093189032367465 1
gene  1 6 128 6.160397795208626 0 659.0 6.160397795208626 1
gene  1 150 69 5.699536446788058 0 697.0 5.699536446788058 1
gene  1 31 32 -8.718494039922051 0 712.0 -8.718494039922051 1
gene  1 26 41 -8.60994013316434 0 740.0 -8.60994013316434 1
gene  1 7 191 1.1109741607947288 0 774.0 1.1109741607947288 1
gene  1 191 26 2.0179388538651173 0 775.0 2.0179388538651173 1
gene  1 103 26 -0.07662421626431115 0 816.0 -0.07662421626431115 1
gene  1 9 29 -4.724955872884276 0 851.0 -4.724955872884276 1
gene  1 11 99 -4.326109661632565 0 864.0 -4.326109661632565 1
gene  1 12 99 -9.143389032090967 0 920.0 -9.143389032090967 1
gene  1 26 236 4.441324054595296 0 945.0 4.441324054595296 1
gene  1 236 28 -0.7147605488266375 0 946.0 -0.7147605488266375 1
gene  1 22 242 1.1569226420777672 0 964.0 1.1569226420777672 1
gene  1 242 24 3.484189872587297 0 965.0 3.484189872587297 1
gene  1 15 99 7.927517456979706 0 1027.0 7.927517456979706 1
gene  1 191 69 0.6995480921591635 0 1052.0 0.6995480921591635 1
gene  1 15 277 2.5457279402046176 0 1090.0 2.5457279402046176 1
gene  1 277 28 1.3051347677625398 0 1091.0 1.3051347677625398 1
gene  1 27 286 -0.6988853143337519 0 1116.0 -0.6988853143337519 1
gene  1 286 28 0.732614827982254 0 1117.0 0.732614827982254 1
gene  1 191 295 0.9214515805940492 0 1142.0 0.9214515805940492 1
gene  1 295 26 0.8283347055679394 0 1143.0 0.8283347055679394 1
gene  1 22 128 -0.6416511336235574 0 1174.0 -0.6416511336235574 1
gene  1 19 310 0.17600891316873035 0 1209.0 0.17600891316873035 1
gene  1 310 24 -1.6981517661217653 0 1210.0 -1.6981517661217653 1
gene  1 242 103 9.847814545542553 0 1238.0 9.847814545542553 1
gene  1 16 236 -2.998892971923529 0 1287.0 -2.998892971923529 1
gene  1 20 333 0.32399172039171353 0 1305.0 0.32399172039171353 1
gene  1 333 24 -1.9672437025811762 0 1306.0 -1.9672437025811762 1
gene  1 14 277 -5.1719921344124895 0 1364.0 -5.1719921344124895 1
gene  1 2 355 1.2021661936623023 0 1395.0 1.2021661936623023 1
gene  1 355 27 -2.3307987233236007 0 1396.0 -2.3307987233236007 1
gene  1 69 361 -0.16161200903451828 0 1416.0 -0.16161200903451828 1
gene  1 361 26 4.152373878993893 0 1417.0 4.152373878993893 1
gene  1 9 32 -4.31037329377096 0 1466.0 -4.31037329377096 1
gene  1 14 333 -2.5738428015064367 0 1482.0 -2.5738428015064367 1
gene  1 32 277 2.5360197469317733 0 1522.0 2.5360197469317733 1
gene  1 3 390 1.631118311789685 0 1547.0 1.631118311789685 1
gene  1 390 26 0.6543902515671927 0 1548.0 0.6543902515671927 1
gene  1 286 236 -0.3331553685662665 0 1594.0 -0.3331553685662665 1
gene  1 20 419 2.6284661081112946 0 1638.0 2.6284661081112946 1
gene  1 419 27 4.2384332039427175 0 1639.0 4.2384332039427175 1
gene  1 17 355 -4.773634282356027 0 1648.0 -4.773634282356027 1
gene  1 8 150 -0.5192156450931047 0 1688.0 -0.5192156450931047 1
gene  1 355 310 -3.322114800217643 0 1725.0 -3.322114800217643 1
gene  1 2 449 2.1983440354221604 0 1757.0 2.1983440354221604 1
gene  1 449 355 2.3538994183637985 0 1758.0 2.3538994183637985 1
gene  1 10 458 -1.4439677321244768 0 1789.0 -1.4439677321244768 1
gene  1 458 26 2.5376630889776868 0 1790.0 2.5376630889776868 1
gene  1 286 242 0.6436453854250157 0 1819.0 0.6436453854250157 1
gene  1 103 361 -3.755668354947863 0 1881.0 -3.755668354947863 1
gene  1 22 492 1.071600764486728 0 1911.0 1.071600764486728 1
gene  1 492 128 1.7359514298911742 0 1912.0 1.7359514298911742 1
gene  1 14 502 0.23387687018843795 0 1950.0 0.23387687018843795 1
gene  1 502 25 -0.004905046081029596 0 1951.0 -0.004905046081029596 1
gene  1 10 519 1.583930079520625 0 2010.0 1.583930079520625 1
gene  1 519 25 0.06403600363082712 0 2011.0 0.06403600363082712 1
gene  1 103 333 -4.162461039008403 0 2033.0 -4.162461039008403 1
gene  1 7 242 -8.523770263297761 0 2047.0 -8.523770263297761 1
gene  1 361 30 -1.4898507048911327 0 2081.0 -1.4898507048911327 1
gene  1 286 550 -0.4425179371327239 0 2139.0 -0.4425179371327239 1
gene  1 550 28 2.213368660259549 0 2140.0 2.213368660259549 1
gene  1 16 449 -4.66265085002441 0 2207.0 -4.66265085002441 1
gene  1 22 99 -0.3867756038818402 0 2256.0 -0.3867756038818402 1
gene  1 519 191 6.602694027816476 0 2286.0 6.602694027816476 1
gene  1 41 277 -7.968938190204406 0 2326.0 -7.968938190204406 1
gene  1 19 613 1.4613487255825885 0 2370.0 1.4613487255825885 1
gene  1 613 24 2.733192355377835 0 2371.0 2.733192355377835 1
gene  1 19 361 -0.8527572101051717 0 2386.0 -0.8527572101051717 1
gene  1 150 519 4.13696773592667 0 2419.0 4.13696773592667 1
gene  1 8 637 2.6130508769352145 0 2459.0 2.6130508769352145 1
gene  1 637 69 0.40181201242799136 0 2460.0 0.40181201242799136 1
gene  1 99 41 -5.730680996306784 0 2491.0 -5.730680996306784 1
gene  1 14 650 0.9514636149947264 0 2525.0 0.9514636149947264 1
gene  1 650 26 -1.6267676148384105 0 2526.0 -1.6267676148384105 1
gene  1 99 449 9.167881554554835 0 2574.0 9.167881554554835 1
gene  1 128 650 -5.496276038960529 0 2611.0 -5.496276038960529 1
gene  1 242 613 -6.335885567529024 0 2631.0 -6.335885567529024 1
gene  1 26 684 -0.770117401498916 0 2651.0 -0.770117401498916 1
gene  1 684 41 -8.841841625282635 0 2652.0 -8.841841625282635 1
gene  1 7 693 -0.3848371103369528 0 2686.0 -0.3848371103369528 1
gene  1 693 27 0.6915278337545039 0 2687.0 0.6915278337545039 1
gene  1 693 637 -6.575708457543306 0 2741.0 -6.575708457543306 1
gene  1 21 28 1.62792381238151 0 2763.0 1.62792381238151 1
gene  1 458 103 8.759768458459641 0 2802.0 8.759768458459641 1
gene  1 286 41 -0.2832323313780505 0 2819.0 -0.2832323313780505 1
gene  1 502 390 -6.618742119685509 0 2870.0 -6.618742119685509 1
gene  1 333 32 -7.961789648135533 0 2893.0 -7.961789648135533 1
gene  1 30 236 8.207984366004357 0 2925.0 8.207984366004357 1
gene  1 9 762 -0.25671682121313544 0 2965.0 -0.25671682121313544 1
gene  1 762 26 -3.056854339711964 0 2966.0 -3.056854339711964 1
gene  1 16 613 2.188321561887971 0 2985.0 2.188321561887971 1
gene  1 25 780 1.4508542877256412 0 3029.0 1.4508542877256412 1
gene  1 780 28 1.8797118404053694 0 3030.0 1.8797118404053694 1
gene  1 502 69 2.0020160134224683 0 3080.0 2.0020160134224683 1
gene  1 2 801 -0.935111941830598 0 3114.0 -0.935111941830598 1
gene  1 801 26 -0.014677915461013935 0 3115.0 -0.014677915461013935 1
gene  1 550 310 2.747305898898137 0 3126.0 2.747305898898137 1
gene  1 550 817 -1.2959941615973358 0 3162.0 -1.2959941615973358 1
gene  1 817 28 -1.550638350790946 0 3163.0 -1.550638350790946 1
gene  1 103 833 2.1056504832619374 0 3220.0 2.1056504832619374 1
gene  1 833 24 -0.9668222320532056 0 3221.0 -0.9668222320532056 1
gene  1 14 837 -0.10754286271974611 0 3236.0 -0.10754286271974611 1
gene  1 837 333 -3.334456759954289 0 3237.0 -3.334456759954289 1
gene  1 21 150 1.2970243262659853 0 3282.0 1.2970243262659853 1
gene  1 650 780 3.120117697639558 0 3314.0 3.120117697639558 1
gene  1 15 837 -6.998866761357357 0 3364.0 -6.998866761357357 1
gene  1 20 877 0.7783339163887822 0 3407.0 0.7783339163887822 1
gene  1 877 99 4.58040467013384 0 3408.0 4.58040467013384 1
gene  1 16 333 -9.926709120660796 0 3491.0 -9.926709120660796 1
gene  1 4 361 10.11937232050201 0 3557.0 10.11937232050201 1
gene  1 17 150 -6.701239954307506 0 3601.0 -6.701239954307506 1
gene  1 15 419 5.015002709564995 0 3630.0 5.015002709564995 1
gene  1 27 236 -11.19786816713594 0 3680.0 -11.19786816713594 1
gene  1 242 949 0.7432920176811402 0 3697.0 0.7432920176811402 1
gene  1 949 24 4.412394170157821 0 3698.0 4.412394170157821 1
gene  1 21 953 2.3904536876680003 0 3730.0 2.3904536876680003 1
gene  1 953 26 -5.017909481738211 0 3731.0 -5.017909481738211 1
gene  1 21 967 -0.03170661945751263 0 3782.0 -0.03170661945751263 1
gene  1 967 27 -1.4334221763879056 0 3783.0 -1.4334221763879056 1
gene  1 295 41 -10.096042962527253 0 3812.0 -10.096042962527253 1
gene  1 1 984 -1.3999512275320996 0 3857.0 -1.3999512275320996 1
gene  1 984 27 2.026589415518565 0 3858.0 2.026589415518565 1
gene  1 502 355 -6.958902899147237 0 3916.0 -6.958902899147237 1
gene  1 877 110 6.535405892906383 0 3933.0 6.535405892906383 1
gene  1 24 1008 1.5923236222263053 0 3947.0 1.5923236222263053 1
gene  1 1008 150 -0.7238025085678632 0 3948.0 -0.7238025085678632 1
gene  1 4 492 -6.1486427992115225 0 3998.0 -6.1486427992115225 1
gene  1 20 1029 0.21795661714038483 0 4022.0 0.21795661714038483 1
gene  1 1029 25 -2.08077469406297 0 4023.0 -2.08077469406297 1
gene  1 103 801 -4.308529807261104 0 4066.0 -4.308529807261104 1
gene  1 984 492 8.918189299352884 0 4110.0 8.918189299352884 1
gene  1 693 550 -0.5713044648183427 0 4127.0 -0.5713044648183427 1
gene  1 550 1062 1.5246162142605784 0 4155.0 1.5246162142605784 1
gene  1 1062 310 4.608101631547467 0 4156.0 4.608101631547467 1
gene  1 502 984 5.161418010367205 0 4187.0 5.161418010367205 1
gene  1 833 613 0.3411209482594373 0 4214.0 0.3411209482594373 1
gene  1 4 1090 0.39137365774692645 0 4251.0 0.39137365774692645 1
gene  1 1090 24 2.2181717223524102 0 4252.0 2.2181717223524102 1
gene  1 191 1102 1.3319423752365955 0 4284.0 1.3319423752365955 1
gene  1 1102 295 0.26612332760795376 0 4285.0 0.26612332760795376 1
gene  1 984 449 -10.725423688120426 0 4326.0 -10.725423688120426 1
gene  1 15 1125 -0.1899474732323776 0 4368.0 -0.1899474732323776 1
gene  1 1125 27 1.6413798502992334 0 4369.0 1.6413798502992334 1
gene  1 4 1134 1.9537416178151 0 4401.0 1.9537416178151 1
gene  1 1134 27 -4.288472476078547 0 4402.0 -4.288472476078547 1
gene  1 12 449 3.9614513929899857 0 4445.0 3.9614513929899857 1
gene  1 9 242 10.58211680416022 0 4467.0 10.58211680416022 1
gene  1 41 30 -5.99050359686473 0 4490.0 -5.99050359686473 1
gene  1 458 1125 8.892100612938096 0 4529.0 8.892100612938096 1
gene  1 762 1008 -0.7520533521588046 0 4582.0 -0.7520533521588046 1
gene  1 984 1062 -3.7064094140698827 0 4623.0 -3.7064094140698827 1
gene  1 1029 1134 7.1842540984507135 0 4653.0 7.1842540984507135 1
gene  1 1029 277 8.970432814887477 0 4681.0 8.970432814887477 1
gene  1 22 286 -8.460988932212267 0 4716.0 -8.460988932212267 1
gene  1 355 333 -2.7679410417547725 0 4740.0 -2.7679410417547725 0
gene  1 550 333 -7.228058188408967 0 4777.0 -7.228058188408967 1
gene  1 99 967 -0.8355689664121626 0 4792.0 -0.8355689664121626 1
gene  1 9 286 -1.8333468304490745 0 4832.0 -1.8333468304490745 1
gene  1 150 30 -5.503218049633048 0 4880.0 -5.503218049633048 1
gene  1 19 1274 2.891168140152786 0 4895.0 2.891168140152786 1
gene  1 1274 310 1.2166822462787805 0 4896.0 1.2166822462787805 1
gene  1 18 128 -7.8893030171781575 0 4928.0 -7.8893030171781575 1
gene  1 984 1291 3.2180631949478498 0 4965.0 3.2180631949478498 1
gene  1 1291 27 0.7537276513199379 0 4966.0 0.7537276513199379 1
gene  1 817 191 -1.2633537877312624 0 4986.0 -1.2633537877312624 1
gene  1 984 1304 -1.1345479653975157 0 5012.0 -1.1345479653975157 1
gene  1 1304 449 -11.488956679055425 0 5013.0 -11.488956679055425 0
gene  1 14 1314 -0.6065933289402479 0 5061.0 -0.6065933289402479 1
gene  1 1314 333 -2.691918895586861 0 5062.0 -2.691918895586861 1
gene  1 286 1321 -0.15383044242504523 0 5086.0 -0.15383044242504523 1
gene  1 1321 28 0.7518406282675114 0 5087.0 0.7518406282675114 1
gene  1 2 1327 -1.0430173955509239 0 5110.0 -1.0430173955509239 1
gene  1 1327 355 -1.0965396716930291 0 5111.0 -1.0965396716930291 1
gene  1 1134 1304 5.408266352002036 0 5151.0 5.408266352002036 1
gene  1 4 1346 0.8067051420302287 0 5175.0 0.8067051420302287 1
gene  1 1346 24 3.269206031201369 0 5176.0 3.269206031201369 1
gene  1 15 1360 1.609453797402951 0 5223.0 1.609453797402951 1
gene  1 1360 837 -8.81765933402929 0 5224.0 -8.81765933402929 1
gene  1 19 1367 1.6418778706553665 0 5258.0 1.6418778706553665 1
gene  1 1367 1274 2.2517459914518936 0 5259.0 2.2517459914518936 1
gene  1 637 1102 -6.822986425732995 0 5285.0 -6.822986425732995 1
gene  1 5 1274 0.6246772684448838 0 5333.0 0.6246772684448838 1
gene  1 1102 650 4.505040127980592 0 5336.0 4.505040127980592 1
gene  1 1367 492 -11.10754610372213 0 5372.0 -11.10754610372213 1
gene  1 236 32 -0.6324856997987591 0 5410.0 -0.6324856997987591 1
gene  1 24 1410 1.6639845834818168 0 5435.0 1.6639845834818168 1
gene  1 1410 1008 -0.010741833818424418 0 5436.0 -0.010741833818424418 1
gene  1 1102 1417 -0.8921118940043244 0 5466.0 -0.8921118940043244 1
gene  1 1417 295 2.1216902593244606 0 5467.0 2.1216902593244606 1
gene  1 295 361 -3.3607270245163945 0 5516.0 -3.3607270245163945 1
gene  1 801 949 -5.104953782034274 0 5526.0 -5.104953782034274 1
gene  1 1134 99 -2.491578130335028 0 5559.0 -2.491578130335028 1
gene  1 6 236 1.9249187642078094 0 5608.0 1.9249187642078094 1
gene  1 12 1459 -1.0724388701659464 0 5634.0 -1.0724388701659464 1
gene  1 1459 25 -1.4508871988447516 0 5635.0 -1.4508871988447516 1
gene  1 502 519 6.5608672475614 0 5675.0 6.5608672475614 1
gene  1 242 1482 -0.469545567985137 0 5706.0 -0.469545567985137 1
gene  1 1482 24 3.575366916475601 0 5707.0 3.575366916475601 1
gene  1 10 1487 -1.1269060241358044 0 5733.0 -1.1269060241358044 1
gene  1 1487 458 1.078402387683155 0 5734.0 1.078402387683155 1
gene  1 9 1497 0.00923589318495166 0 5774.0 0.00923589318495166 1
gene  1 1497 286 -2.187450479301755 0 5775.0 -2.187450479301755 1
gene  1 1304 1505 0.4007101526974901 0 5802.0 0.4007101526974901 1
gene  1 1505 449 -9.188521471289038 0 5803.0 -9.188521471289038 1
gene  1 13 1274 10.498263440466408 0 5813.0 10.498263440466408 1
gene  1 550 1274 6.536583857732854 0 5865.0 6.536583857732854 1
gene  1 817 1524 2.4906864647755973 0 5874.0 2.4906864647755973 1
gene  1 1524 191 -2.100642952424658 0 5875.0 -2.100642952424658 1
gene  1 6 1533 -0.5419791434916739 0 5912.0 -0.5419791434916739 1
gene  1 1533 26 -0.2740781706151303 0 5913.0 -0.2740781706151303 1
gene  1 1459 242 4.341358211727012 0 5962.0 4.341358211727012 1
gene  1 762 984 -7.44698564030331 0 6000.0 -7.44698564030331 1
gene  1 12 1569 1.708157141967588 0 6043.0 1.708157141967588 1
gene  1 1569 26 -1.3795289290250032 0 6044.0 -1.3795289290250032 1
gene  1 613 1524 -0.8446600456649969 0 6051.0 -0.8446600456649969 1
gene  1 17 1008 7.11348603956501 0 6083.0 7.11348603956501 1
gene  1 12 1584 2.6100774786447443 0 6101.0 2.6100774786447443 1
gene  1 1584 25 0.21905473719390423 0 6102.0 0.21905473719390423 1
gene  1 17 1593 0.10337380479523395 0 6140.0 0.10337380479523395 1
gene  1 1593 99 8.667263408509712 0 6141.0 8.667263408509712 1
gene  1 492 1593 -8.247807381295186 0 6165.0 -8.247807381295186 1
gene  1 17 1598 3.030858585097411 0 6171.0 3.030858585097411 1
gene  1 1598 355 -3.928526380998734 0 6172.0 -3.928526380998734 1
gene  1 11 1620 1.4517329017969378 0 6236.0 1.4517329017969378 1
gene  1 1620 25 1.142465146794125 0 6237.0 1.142465146794125 1
gene  1 693 26 8.355633439210646 0 6249.0 8.355633439210646 1
gene  1 1505 1327 -1.0294128462888945 0 6276.0 -1.0294128462888945 1
gene  1 361 1639 1.741859787243092 0 6328.0 1.741859787243092 1
gene  1 1639 26 0.7508922060927121 0 6329.0 0.7508922060927121 1
gene  1 1 30 -2.8433315693813688 0 6336.0 -2.8433315693813688 1
gene  1 15 286 6.265329655916672 0 6391.0 6.265329655916672 1
gene  1 26 277 -6.097792736477572 0 6402.0 -6.097792736477572 1
gene  1 984 333 -1.1901122608775556 0 6442.0 -1.1901122608775556 1
gene  1 12 1685 0.39764855476614347 0 6503.0 0.39764855476614347 1
gene  1 1685 24 0.5809931683608612 0 6504.0 0.5809931683608612 1
gene  1 4 1321 -2.7430995137037293 0 6517.0 -2.7430995137037293 1
gene  1 1367 1698 -0.5059288207612687 0 6564.0 -0.5059288207612687 1
gene  1 1698 492 -7.823211247232555 0 6565.0 -7.823211247232555 1
gene  1 984 242 4.133707840239853 0 6574.0 4.133707840239853 1
gene  1 17 1487 -0.3165704594821389 0 6598.0 -0.3165704594821389 1
gene  1 780 1712 0.6161004715524334 0 6635.0 0.6161004715524334 1
gene  1 1712 28 2.9799946821436802 0 6636.0 2.9799946821436802 1
gene  1 1497 128 7.58910591835848 0 6681.0 7.58910591835848 1
gene  1 110 355 -10.059384050119325 0 6710.0 -10.059384050119325 1
gene  1 25 1321 7.75612143916196 0 6737.0 7.75612143916196 1
gene  1 24 1743 -0.41961177048431253 0 6773.0 -0.41961177048431253 1
gene  1 1743 41 0.7041611002973363 0 6774.0 0.7041611002973363 1
gene  1 502 286 7.992538457083723 0 6813.0 7.992538457083723 1
gene  1 23 103 1.4696412340436895 0 6846.0 1.4696412340436895 1
gene  1 650 277 1.1805454733492868 0 6864.0 1.1805454733492868 1
gene  1 99 1125 1.1613286408638057 0 6890.0 1.1613286408638057 1
gene  1 27 1795 -0.42858864076036696 0 6981.0 -0.42858864076036696 1
gene  1 1795 236 -9.183117112089807 0 6982.0 -9.183117112089807 1
gene  1 762 295 9.643199240056376 0 6998.0 9.643199240056376 1
gene  1 613 1712 -7.70475440169906 0 7044.0 -7.70475440169906 1
gene  1 637 519 10.249692054793687 0 7074.0 10.249692054793687 1
gene  1 10 1821 -0.6478771208359531 0 7084.0 -0.6478771208359531 1
gene  1 1821 25 -0.1544423506384593 0 7085.0 -0.1544423506384593 1
gene  1 3 877 9.282848306687237 0 7137.0 9.282848306687237 1
gene  1 242 1639 -5.882529282646589 0 7158.0 -5.882529282646589 1
gene  1 21 1367 3.9665787238774888 0 7187.0 3.9665787238774888 1
gene  1 110 1852 -0.7255781925423593 0 7224.0 -0.7255781925423593 1
gene  1 1852 26 -1.5937263943330642 0 7225.0 -1.5937263943330642 1
gene  1 27 1865 1.0 0 7278.0 1.0 1
gene  1 1865 32 1.0654473885398326 0 7279.0 1.0654473885398326 1
gene  1 22 1866 1.0485226213314303 0 7280.0 1.0485226213314303 1
gene  1 1866 26 -0.6474513466283698 0 7281.0 -0.6474513466283698 1
gene  1 1090 1877 2.7990427043445303 0 7321.0 2.7990427043445303 1
gene  1 1877 24 3.469062035401775 0 7322.0 3.469062035401775 1
gene  1 449 1890 -0.15692999587761225 0 7379.0 -0.15692999587761225 1
gene  1 1890 355 -0.8350611184716874 0 7380.0 -0.8350611184716874 1
gene  1 32 1896 0.7250247265680267 0 7402.0 0.7250247265680267 1
gene  1 1896 277 2.2177074487957547 0 7403.0 2.2177074487957547 1
gene  1 286 1907 1.0 0 7432.0 1.0 1
gene  1 1907 28 -1.3625663720497898 0 7433.0 -1.3625663720497898 1
gene  1 17 1915 -1.409347131549901 0 7468.0 -1.409347131549901 1
gene  1 1915 1008 6.495961211305815 0 7469.0 6.495961211305815 1
gene  1 637 1685 -2.5888680248389564 0 7498.0 -2.5888680248389564 1
gene  1 15 1934 1.7812509270012065 0 7548.0 1.7812509270012065 1
gene  1 1934 286 5.1510978012361 0 7549.0 5.1510978012361 1
gene  1 2 1497 8.638643556654372 0 7564.0 8.638643556654372 1
gene  1 684 236 1.664837735809944 0 7626.0 1.664837735809944 1
gene  1 1524 69 8.57582385521156 0 7650.0 8.57582385521156 1
gene  1 1685 1896 -6.418837489031393 0 7671.0 -6.418837489031393 1
gene  1 817 650 8.808129556896098 0 7711.0 8.808129556896098 1
gene  1 355 1984 2.4988575818782417 0 7751.0 2.4988575818782417 1
gene  1 1984 333 -2.1570294642083754 0 7752.0 -2.1570294642083754 1
gene  1 19 1090 -6.200691756673492 0 7782.0 -6.200691756673492 1
gene  1 27 2003 1.0692513828906582 0 7819.0 1.0692513828906582 1
gene  1 2003 32 1.0654473885398326 0 7820.0 1.0654473885398326 1
gene  1 1304 2011 1.7047412667412531 0 7854.0 1.7047412667412531 1
gene  1 2011 449 -10.987000518412712 0 7855.0 -10.987000518412712 1
gene  1 1417 277 -8.948681045216752 0 7878.0 -8.948681045216752 1
gene  1 1 2034 0.5350953665057361 0 7942.0 0.5350953665057361 1
gene  1 2034 24 2.450055860903939 0 7943.0 2.450055860903939 1
gene  1 502 242 -7.166234416689298 0 7973.0 -7.166234416689298 1
gene  1 10 2054 -0.1264572171964795 0 8014.0 -0.1264572171964795 1
gene  1 2054 519 1.6069501733185876 0 8015.0 1.6069501733185876 1
gene  1 6 2058 -1.2952771986220841 0 8033.0 -1.2952771986220841 1
gene  1 2058 236 3.676442596411509 0 8034.0 3.676442596411509 1
gene  1 242 1090 6.592909846980368 0 8099.0 6.592909846980368 1
gene  1 1 103 1.8634826324941436 0 8121.0 1.8634826324941436 1
gene  1 1062 837 -6.094634379873105 0 8178.0 -6.094634379873105 1
gene  1 25 953 -1.0072301624411995 0 8219.0 -1.0072301624411995 1
gene  1 650 41 4.527739985299877 0 8264.0 4.527739985299877 1
gene  1 2058 1915 5.233156878904643 0 8292.0 5.233156878904643 1
gene  1 2011 103 -2.9381291735043513 0 8320.0 -2.9381291735043513 1
genomeend 0
/* Organism # 001 Fitness:  0,000 Error:  0,000                      */
genomestart  1
trait 1 0.15906958955964612 0.29105188460910975 0.0 0.0 0.0 0.0 0.0 0.0 
node 1 1 1 1
node 2 1 1 1
node 3 1 1 1
node 4 1 1 1
node 5 1 1 1
node 6 1 1 1
node 7 1 1 1
node 8 1 1 1
node 9 1 1 1
node 10 1 1 1
node 11 1 1 1
node 12 1 1 1
node 13 1 1 1
node 14 1 1 1
node 15 1 1 1
node 16 1 1 1
node 17 1 1 1
node 18 1 1 1
node 19 1 1 1
node 20 1 1 1
node 21 1 1 1
node 22 1 1 1
node 23 1 1 3
node 24 1 0 0
node 25 1 0 0
node 26 1 0 0
node 27 1 0 0
node 28 1 0 2
node 29 1 0 2
node 30 1 0 2
node 31 1 0 2
node 32 1 0 2
node 41 1 0 0
node 69 1 0 0
node 99 1 0 0
node 103 1 0 0
node 110 1 0 0
node 128 1 0 0
node 150 1 0 0
node 191 1 0 0
node 236 1 0 0
node 242 1 0 0
node 277 1 0 0
node 286 1 0 0
node 295 1 0 0
node 310 1 0 0
node 333 1 0 0
node 355 1 0 0
node 361 1 0 0
node 390 1 0 0
node 419 1 0 0
node 449 1 0 0
node 458 1 0 0
node 492 1 0 0
node 502 1 0 0
node 519 1 0 0
node 550 1 0 0
node 613 1 0 0
node 637 1 0 0
node 650 1 0 0
node 684 1 0 0
node 693 1 0 0
node 762 1 0 0
node 780 1 0 0
node 801 1 0 0
node 817 1 0 0
node 833 1 0 0
node 837 1 0 0
node 877 1 0 0
node 949 1 0 0
node 953 1 0 0
node 967 1 0 0
node 984 1 0 0
node 1008 1 0 0
node 1029 1 0 0
node 1062 1 0 0
node 1090 1 0 0
node 1102 1 0 0
node 1125 1 0 0
node 1134 1 0 0
node 1274 1 0 0
node 1291 1 0 0
node 1304 1 0 0
node 1314 1 0 0
node 1321 1 0 0
node 1327 1 0 0
node 1346 1 0 0
node 1360 1 0 0
node 1367 1 0 0
node 1410 1 0 0
node 1417 1 0 0
node 1459 1 0 0
node 1482 1 0 0
node 1487 1 0 0
node 1497 1 0 0
node 1505 1 0 0
node 1524 1 0 0
node 1533 1 0 0
node 1569 1 0 0
node 1584 1 0 0
node 1593 1 0 0
node 1598 1 0 0
node 1620 1 0 0
node 1639 1 0 0
node 1685 1 0 0
node 1698 1 0 0
node 1712 1 0 0
node 1743 1 0 0
node 1795 1 0 0
node 1821 1 0 0
node 1852 1 0 0
node 1865 1 0 0
node 1866 1 0 0
node 1877 1 0 0
node 1890 1 0 0
node 1896 1 0 0
node 1907 1 0 0
node 1915 1 0 0
node 1934 1 0 0
node 1984 1 0 0
node 2003 1 0 0
node 2011 1 0 0
node 2034 1 0 0
node 2054 1 0 0
node 2058 1 0 0
gene  1 1 24 2.4787849610766433 0 1.0 2.4787849610766433 1
gene  1 2 24 0.935187509201615 0 2.0 0.935187509201615 1
gene  1 3 24 2.8606068941071765 0 3.0 2.8606068941071765 1
gene  1 4 24 2.3622799622453448 0 4.0 2.3622799622453448 1
gene  1 5 24 -1.4933431547382285 0 5.0 -1.4933431547382285 1
gene  1 6 24 0.6959886909159585 0 6.0 0.6959886909159585 1
gene  1 7 24 -2.398604605123069 0 7.0 -2.398604605123069 1
gene  1 8 24 -1.4631163614644853 0 8.0 -1.4631163614644853 1
gene  1 9 24 0.14072563013258288 0 9.0 0.14072563013258288 1
gene  1 10 24 0.5052656681554206 0 10.0 0.5052656681554206 1
gene  1 11 24 -0.40896607739630797 0 11.0 -0.40896607739630797 1
gene  1 12 24 -1.575787411356094 0 12.0 -1.575787411356094 1
gene  1 13 24 -1.665125696029187 0 13.0 -1.665125696029187 1
gene  1 14 24 -3.3134822408597486 0 14.0 -3.3134822408597486 1
gene  1 15 24 4.084292443637073 0 15.0 4.084292443637073 1
gene  1 16 24 1.8698471371542027 0 16.0 1.8698471371542027 1
gene  1 17 24 0.06417455734895183 0 17.0 0.06417455734895183 1
gene  1 18 24 3.3554382254532205 0 18.0 3.3554382254532205 1
gene  1 19 24 3.3136658412658146 0 19.0 3.3136658412658146 1
gene  1 20 24 -0.9684372203490024 0 20.0 -0.9684372203490024 1
gene  1 21 24 0.09870418183043772 0 21.0 0.09870418183043772 1
gene  1 22 24 4.162945951075547 0 22.0 4.162945951075547 1
gene  1 23 24 0.1332173522131454 0 23.0 0.1332173522131454 1
gene  1 1 25 2.4656792783659114 0 24.0 2.4656792783659114 1
gene  1 2 25 -5.178385591034869 0 25.0 -5.178385591034869 1
gene  1 3 25 2.861944005712301 0 26.0 2.861944005712301 1
gene  1 4 25 -0.03378319434545063 0 27.0 -0.03378319434545063 1
gene  1 5 25 -0.23416837616463482 0 28.0 -0.23416837616463482 1
gene  1 6 25 -2.5509197417318115 0 29.0 -2.5509197417318115 1
gene  1 7 25 -0.7019182311393151 0 30.0 -0.7019182311393151 1
gene  1 8 25 -0.4824530399892475 0 31.0 -0.4824530399892475 1
gene  1 9 25 1.1285234381886937 0 32.0 1.1285234381886937 1
gene  1 10 25 -2.190165800146551 0 33.0 -2.190165800146551 1
gene  1 11 25 -0.6284323660471649 0 34.0 -0.6284323660471649 1
gene  1 12 25 2.769795687497794 0 35.0 2.769795687497794 1
gene  1 13 25 0.32503816416972975 0 36.0 0.32503816416972975 1
gene  1 14 25 -3.4729248038241174 0 37.0 -3.4729248038241174 1
gene  1 15 25 0.413617204216977 0 38.0 0.413617204216977 1
gene  1 16 25 -2.323206823218761 0 39.0 -2.323206823218761 1
gene  1 17 25 0.8346937062016282 0 40.0 0.8346937062016282 1
gene  1 18 25 -0.2378696176462366 0 41.0 -0.2378696176462366 1
gene  1 19 25 -1.2159968940499142 0 42.0 -1.2159968940499142 1
gene  1 20 25 -1.6649048718402393 0 43.0 -1.6649048718402393 1
gene  1 21 25 -0.5390732872630077 0 44.0 -0.5390732872630077 1
gene  1 22 25 -0.9836545359840192 0 45.0 -0.9836545359840192 1
gene  1 23 25 4.661516446568375 0 46.0 4.661516446568375 1
gene  1 1 26 0.4040940192431991 0 47.0 0.4040940192431991 1
gene  1 2 26 -1.2463061420254298 0 48.0 -1.2463061420254298 1
gene  1 3 26 0.883327737101181 0 49.0 0.883327737101181 1
gene  1 4 26 -0.6399392096785648 0 50.0 -0.6399392096785648 1
gene  1 5 26 0.26652893347265083 0 51.0 0.26652893347265083 1
gene  1 6 26 -0.8771946440827159 0 52.0 -0.8771946440827159 1
gene  1 7 26 5.455964615452772 0 53.0 5.455964615452772 1
gene  1 8 26 0.4676609963702347 0 54.0 0.4676609963702347 1
gene  1 9 26 -3.5284834035577397 0 55.0 -3.5284834035577397 1
gene  1 10 26 2.3458143313363857 0 56.0 2.3458143313363857 1
gene  1 11 26 1.492839847099852 0 57.0 1.492839847099852 1
gene  1 12 26 -1.4513722978296946 0 58.0 -1.4513722978296946 1
gene  1 13 26 -2.3564648282928715 0 59.0 -2.3564648282928715 1
gene  1 14 26 -1.5015000933599083 0 60.0 -1.5015000933599083 1
gene  1 15 26 -0.3841436695783373 0 61.0 -0.3841436695783373 1
gene  1 16 26 -2.8957549299735437 0 62.0 -2.8957549299735437 1
gene  1 17 26 -1.3608695668822723 0 63.0 -1.3608695668822723 1
gene  1 18 26 4.621574756473182 0 64.0 4.621574756473182 1
gene  1 19 26 0.5318474122538099 0 65.0 0.5318474122538099 1
gene  1 20 26 -2.030039939226496 0 66.0 -2.030039939226496 1
gene  1 21 26 -3.4794881126298907 0 67.0 -3.4794881126298907 1
gene  1 22 26 -0.7511460016056584 0 68.0 -0.7511460016056584 1
gene  1 23 26 -2.4959009393889224 0 69.0 -2.4959009393889224 1
gene  1 1 27 1.8440573161580467 0 70.0 1.8440573161580467 1
gene  1 2 27 -0.26248510449317575 0 71.0 -0.26248510449317575 1
gene  1 3 27 -1.0736697360692826 0 72.0 -1.0736697360692826 1
gene  1 4 27 0.01773642071048398 0 73.0 0.01773642071048398 1
gene  1 5 27 0.3160510704936499 0 74.0 0.3160510704936499 1
gene  1 6 27 2.3365182720520714 0 75.0 2.3365182720520714 1
gene  1 7 27 -1.7413743086206253 0 76.0 -1.7413743086206253 1
gene  1 8 27 -1.1114437940560125 0 77.0 -1.1114437940560125 1
gene  1 9 27 -4.019203953114659 0 78.0 -4.019203953114659 1
gene  1 10 27 0.15501157815089117 0 79.0 0.15501157815089117 1
gene  1 11 27 -2.2926449524820933 0 80.0 -2.2926449524820933 1
gene  1 12 27 3.665429848335881 0 81.0 3.665429848335881 1
gene  1 13 27 -4.37343868201693 0 82.0 -4.37343868201693 1
gene  1 14 27 -0.2167236638878598 0 83.0 -0.2167236638878598 1
gene  1 15 27 -0.4572594626780161 0 84.0 -0.4572594626780161 1
gene  1 16 27 -0.9629844995806394 0 85.0 -0.9629844995806394 1
gene  1 17 27 2.3507536325331735 0 86.0 2.3507536325331735 1
gene  1 18 27 -1.8910886095743094 0 87.0 -1.8910886095743094 1
gene  1 19 27 0.292933782157202 0 88.0 0.292933782157202 1
gene  1 20 27 0.5644102164920617 0 89.0 0.5644102164920617 1
gene  1 21 27 -2.5075768635190556 0 90.0 -2.5075768635190556 1
gene  1 22 27 0.8549866565294272 0 91.0 0.8549866565294272 1
gene  1 23 27 -2.1091158847802083 0 92.0 -2.1091158847802083 1
gene  1 23 28 2.772577043347148 0 93.0 2.772577043347148 1
gene  1 24 28 0.13046445529586803 0 94.0 0.13046445529586803 1
gene  1 25 28 1.323621066384824 0 95.0 1.323621066384824 1
gene  1 26 28 -2.4426534604784 0 96.0 -2.4426534604784 1
gene  1 27 28 1.4309782604569667 0 97.0 1.4309782604569667 1
gene  1 23 29 0.8329094561368569 0 98.0 0.8329094561368569 1
gene  1 24 29 -1.3630026504401942 0 99.0 -1.3630026504401942 1
gene  1 25 29 3.9667954375346985 0 100.0 3.9667954375346985 1
gene  1 26 29 -1.7306883547257412 0 101.0 -1.7306883547257412 1
gene  1 27 29 2.2101356329409962 0 102.0 2.2101356329409962 1
gene  1 23 30 -3.3707945116805598 0 103.0 -3.3707945116805598 1
gene  1 24 30 -1.7895101556117814 0 104.0 -1.7895101556117814 1
gene  1 25 30 0.478217023424486 0 105.0 0.478217023424486 1
gene  1 26 30 1.048700292683731 0 106.0 1.048700292683731 1
gene  1 27 30 0.5983694258600027 0 107.0 0.5983694258600027 1
gene  1 23 31 2.2974180002041735 0 108.0 2.2974180002041735 1
gene  1 24 31 -1.185989733458912 0 109.0 -1.185989733458912 1
gene  1 25 31 -3.2623157644082736 0 110.0 -3.2623157644082736 1
gene  1 26 31 3.06974838688417 0 111.0 3.06974838688417 1
gene  1 27 31 -3.5795524690124583 0 112.0 -3.5795524690124583 1
gene  1 23 32 -0.5521752115712151 0 113.0 -0.5521752115712151 1
gene  1 24 32 0.9168119540939683 0 114.0 0.9168119540939683 1
gene  1 25 32 -0.21888593289141434 0 115.0 -0.21888593289141434 1
gene  1 26 32 0.9494916957215176 0 116.0 0.9494916957215176 1
gene  1 27 32 3.2534530000467083 0 117.0 3.2534530000467083 1
gene  1 15 28 2.8175610571011784 0 145.0 2.8175610571011784 1
gene  1 24 41 -1.4602825796682497 0 162.0 -1.4602825796682497 1
gene  1 41 29 -1.1542342744683292 0 163.0 -1.1542342744683292 1
gene  1 11 28 10.892874491665399 0 192.0 10.892874491665399 1
gene  1 8 29 -1.4154056724169215 0 252.0 -1.4154056724169215 1
gene  1 8 69 2.16763529251379 0 286.0 2.16763529251379 1
gene  1 69 26 0.6761860611177806 0 287.0 0.6761860611177806 1
gene  1 14 28 10.948396161320074 0 325.0 10.948396161320074 1
gene  1 10 28 5.8546091158446325 0 337.0 5.8546091158446325 1
gene  1 15 32 3.979017745649959 0 371.0 3.979017745649959 1
gene  1 20 99 2.5842460584586924 0 420.0 2.5842460584586924 1
gene  1 99 27 -1.523330754415597 0 421.0 -1.523330754415597 1
gene  1 5 103 0.9248033514111824 0 442.0 0.9248033514111824 1
gene  1 103 24 -0.8246735007884505 0 443.0 -0.8246735007884505 1
gene  1 3 110 0.13366066734415893 0 466.0 0.13366066734415893 1
gene  1 110 26 0.3375368717481266 0 467.0 0.3375368717481266 0
gene  1 17 99 9.13805777135298 0 517.0 9.13805777135298 1
gene  1 16 128 -2.665502377141551 0 542.0 -2.665502377141551 1
gene  1 128 25 1.3362810926615927 0 543.0 1.3362810926615927 1
gene  1 22 103 -4.290647998968768 0 584.0 -4.290647998968768 1
gene  1 24 150 -2.5470964772684948 0 612.0 -2.5470964772684948 1
gene  1 150 29 2.0018091785079766 0 613.0 2.0018091785079766 1
gene  1 6 128 9.857614283084262 0 659.0 9.857614283084262 1
gene  1 150 69 9.915278245302073 0 697.0 9.915278245302073 1
gene  1 31 32 -6.763544531442095 0 712.0 -6.763544531442095 1
gene  1 26 41 -8.326839564698583 0 740.0 -8.326839564698583 1
gene  1 7 191 1.0591268833115028 0 774.0 1.0591268833115028 1
gene  1 191 26 3.8833687813800672 0 775.0 3.8833687813800672 1
gene  1 103 26 2.157243429430058 0 816.0 2.157243429430058 1
gene  1 9 29 -7.4528595934809125 0 851.0 -7.4528595934809125 1
gene  1 11 99 -3.9015785639888314 0 864.0 -3.9015785639888314 1
gene  1 12 99 -8.66010041074445 0 920.0 -8.66010041074445 1
gene  1 26 236 1.8829526255658022 0 945.0 1.8829526255658022 1
gene  1 236 28 1.9241245421743742 0 946.0 1.9241245421743742 1
gene  1 22 242 3.2877392548655444 0 964.0 3.2877392548655444 1
gene  1 242 24 1.4090807142950312 0 965.0 1.4090807142950312 1
gene  1 15 99 11.61212178850926 0 1027.0 11.61212178850926 1
gene  1 191 69 2.85024612625738 0 1052.0 2.85024612625738 1
gene  1 15 277 -1.2350010051049487 0 1090.0 -1.2350010051049487 1
gene  1 277 28 2.926971982623946 0 1091.0 2.926971982623946 1
gene  1 27 286 -1.8081816385275695 0 1116.0 -1.8081816385275695 1
gene  1 286 28 -0.6276148342831405 0 1117.0 -0.6276148342831405 1
gene  1 191 295 2.476454451465733 0 1142.0 2.476454451465733 1
gene  1 295 26 0.055735454914107585 0 1143.0 0.055735454914107585 1
gene  1 22 128 -1.3027942565825734 0 1174.0 -1.3027942565825734 1
gene  1 19 310 3.853785515655728 0 1209.0 3.853785515655728 1
gene  1 310 24 -1.217546455948708 0 1210.0 -1.217546455948708 1
gene  1 242 103 7.45034516186111 0 1238.0 7.45034516186111 1
gene  1 16 236 -0.22901993019904887 0 1287.0 -0.22901993019904887 1
gene  1 20 333 1.1999963116555024 0 1305.0 1.1999963116555024 1
gene  1 333 24 1.9796705897704563 0 1306.0 1.9796705897704563 1
gene  1 14 277 -9.498906155142672 0 1364.0 -9.498906155142672 1
gene  1 2 355 0.17210900299426846 0 1395.0 0.17210900299426846 1
gene  1 355 27 2.3972118117455263 0 1396.0 2.3972118117455263 1
gene  1 69 361 -1.2562788481435816 0 1416.0 -1.2562788481435816 1
gene  1 361 26 4.484720395959194 0 1417.0 4.484720395959194 1
gene  1 9 32 -4.8106546941398065 0 1466.0 -4.8106546941398065 1
gene  1 14 333 -4.331271774316043 0 1482.0 -4.331271774316043 1
gene  1 32 277 4.501819393358008 0 1522.0 4.501819393358008 1
gene  1 3 390 1.311172616339458 0 1547.0 1.311172616339458 1
gene  1 390 26 1.6706918695655737 0 1548.0 1.6706918695655737 1
gene  1 286 236 2.391551801965755 0 1594.0 2.391551801965755 1
gene  1 20 419 1.1335058224857337 0 1638.0 1.1335058224857337 1
gene  1 419 27 3.6635477336928526 0 1639.0 3.6635477336928526 1
gene  1 17 355 -2.098208903967552 0 1648.0 -2.098208903967552 1
gene  1 8 150 0.2964710399645293 0 1688.0 0.2964710399645293 1
gene  1 355 310 -3.5967959157869265 0 1725.0 -3.5967959157869265 1
gene  1 2 449 4.148017001213199 0 1757.0 4.148017001213199 1
gene  1 449 355 2.8509940693436233 0 1758.0 2.8509940693436233 1
gene  1 10 458 1.1900449039761822 0 1789.0 1.1900449039761822 1
gene  1 458 26 0.991585259898593 0 1790.0 0.991585259898593 1
gene  1 286 242 0.7882058633832434 0 1819.0 0.7882058633832434 1
gene  1 103 361 -2.7880814154724805 0 1881.0 -2.7880814154724805 1
gene  1 22 492 1.3050416521435506 0 1911.0 1.3050416521435506 1
gene  1 492 128 1.1180424280947188 0 1912.0 1.1180424280947188 1
gene  1 14 502 2.986186841558367 0 1950.0 2.986186841558367 1
gene  1 502 25 -1.2372932670282453 0 1951.0 -1.2372932670282453 1
gene  1 10 519 2.3050639972497207 0 2010.0 2.3050639972497207 1
gene  1 519 25 0.797999695316338 0 2011.0 0.797999695316338 1
gene  1 103 333 -7.072813992272676 0 2033.0 -7.072813992272676 1
gene  1 7 242 -10.375129497621435 0 2047.0 -10.375129497621435 1
gene  1 361 30 -4.209368827754469 0 2081.0 -4.209368827754469 1
gene  1 286 550 0.24033949360990237 0 2139.0 0.24033949360990237 1
gene  1 550 28 -1.5833440481231003 0 2140.0 -1.5833440481231003 1
gene  1 16 449 -3.730741798698452 0 2207.0 -3.730741798698452 1
gene  1 22 99 -5.1014023946231735 0 2256.0 -5.1014023946231735 1
gene  1 519 191 5.0697162617972555 0 2286.0 5.0697162617972555 1
gene  1 41 277 -8.726904868247582 0 2326.0 -8.726904868247582 1
gene  1 19 613 1.6266931761831058 0 2370.0 1.6266931761831058 1
gene  1 613 24 -0.040984960064822884 0 2371.0 -0.040984960064822884 1
gene  1 19 361 -1.7113244518408008 0 2386.0 -1.7113244518408008 1
gene  1 150 519 7.992460366419719 0 2419.0 7.992460366419719 1
gene  1 8 637 -1.0917101110416811 0 2459.0 -1.0917101110416811 1
gene  1 637 69 2.6115501747792096 0 2460.0 2.6115501747792096 1
gene  1 99 41 -7.496110356959816 0 2491.0 -7.496110356959816 1
gene  1 14 650 -1.460528880724267 0 2525.0 -1.460528880724267 1
gene  1 650 26 -2.75747793986941 0 2526.0 -2.75747793986941 1
gene  1 99 449 10.010786124078285 0 2574.0 10.010786124078285 1
gene  1 128 650 -5.530818189015344 0 2611.0 -5.530818189015344 1
gene  1 242 613 -5.659942373782398 0 2631.0 -5.659942373782398 1
gene  1 26 684 3.120458928610221 0 2651.0 3.120458928610221 1
gene  1 684 41 -6.36531755020412 0 2652.0 -6.36531755020412 1
gene  1 7 693 -0.570309454175274 0 2686.0 -0.570309454175274 1
gene  1 693 27 -2.158690967053088 0 2687.0 -2.158690967053088 1
gene  1 693 637 -9.445224577517392 0 2741.0 -9.445224577517392 1
gene  1 21 28 -0.06425371622348658 0 2763.0 -0.06425371622348658 1
gene  1 458 103 8.703250525670038 0 2802.0 8.703250525670038 1
gene  1 286 41 -1.6493257268937496 0 2819.0 -1.6493257268937496 1
gene  1 502 390 -7.817549819240474 0 2870.0 -7.817549819240474 1
gene  1 333 32 -6.345209789827615 0 2893.0 -6.345209789827615 1
gene  1 30 236 5.122662806982773 0 2925.0 5.122662806982773 1
gene  1 9 762 -1.347066089394266 0 2965.0 -1.347066089394266 1
gene  1 762 26 -2.6942643810829674 0 2966.0 -2.6942643810829674 1
gene  1 16 613 2.0035380724945355 0 2985.0 2.0035380724945355 1
gene  1 25 780 2.349266668348173 0 3029.0 2.349266668348173 1
gene  1 780 28 -0.6467400376119454 0 3030.0 -0.6467400376119454 1
gene  1 502 69 2.558818705072644 0 3080.0 2.558818705072644 1
gene  1 2 801 3.099341398598063 0 3114.0 3.099341398598063 1
gene  1 801 26 2.0120067489894646 0 3115.0 2.0120067489894646 1
gene  1 550 310 4.463934358711403 0 3126.0 4.463934358711403 1
gene  1 550 817 1.1130794058433628 0 3162.0 1.1130794058433628 1
gene  1 817 28 -0.7065458465400365 0 3163.0 -0.7065458465400365 1
gene  1 103 833 2.700867719951047 0 3220.0 2.700867719951047 1
gene  1 833 24 -1.0199958202289565 0 3221.0 -1.0199958202289565 1
gene  1 14 837 -0.5742404396967857 0 3236.0 -0.5742404396967857 1
gene  1 837 333 -5.040007224105713 0 3237.0 -5.040007224105713 1
gene  1 21 150 1.9487723780903006 0 3282.0 1.9487723780903006 1
gene  1 650 780 2.0978366771370354 0 3314.0 2.0978366771370354 1
gene  1 15 837 -8.651136809068865 0 3364.0 -8.651136809068865 1
gene  1 20 877 2.8907974670509535 0 3407.0 2.8907974670509535 1
gene  1 877 99 4.6467029044700405 0 3408.0 4.6467029044700405 1
gene  1 16 333 -8.845309824248677 0 3491.0 -8.845309824248677 1
gene  1 4 361 7.6498485698001915 0 3557.0 7.6498485698001915 1
gene  1 17 150 -4.82644577040884 0 3601.0 -4.82644577040884 1
gene  1 15 419 6.887297910587835 0 3630.0 6.887297910587835 1
gene  1 27 236 -11.241803514004776 0 3680.0 -11.241803514004776 1
gene  1 242 949 2.9027534028684028 0 3697.0 2.9027534028684028 1
gene  1 949 24 -0.4012793270246746 0 3698.0 -0.4012793270246746 1
gene  1 21 953 0.9460272555288148 0 3730.0 0.9460272555288148 1
gene  1 953 26 -2.3356450066542678 0 3731.0 -2.3356450066542678 1
gene  1 21 967 -0.773731493385386 0 3782.0 -0.773731493385386 1
gene  1 967 27 -2.4891780429525063 0 3783.0 -2.4891780429525063 1
gene  1 295 41 -9.081600167095212 0 3812.0 -9.081600167095212 1
gene  1 1 984 2.2618699877756407 0 3857.0 2.2618699877756407 1
gene  1 984 27 -1.539424534487773 0 3858.0 -1.539424534487773 1
gene  1 502 355 -5.735044544297124 0 3916.0 -5.735044544297124 1
gene  1 877 110 7.654663843900255 0 3933.0 7.654663843900255 1
gene  1 24 1008 -1.242551262411573 0 3947.0 -1.242551262411573 1
gene  1 1008 150 -0.8781712218945018 0 3948.0 -0.8781712218945018 1
gene  1 4 492 -8.069355458302782 0 3998.0 -8.069355458302782 1
gene  1 20 1029 -0.5778113335354569 0 4022.0 -0.5778113335354569 1
gene  1 1029 25 2.035092068985631 0 4023.0 2.035092068985631 1
gene  1 103 801 -3.728433715169631 0 4066.0 -3.728433715169631 1
gene  1 984 492 6.029439893065414 0 4110.0 6.029439893065414 1
gene  1 693 550 -0.8804744287432718 0 4127.0 -0.8804744287432718 1
gene  1 550 1062 3.1870793942809623 0 4155.0 3.1870793942809623 1
gene  1 1062 310 2.2326047293906774 0 4156.0 2.2326047293906774 1
gene  1 502 984 4.605929106754505 0 4187.0 4.605929106754505 1
gene  1 833 613 -0.3319244369610197 0 4214.0 -0.3319244369610197 1
gene  1 4 1090 -1.443413158743534 0 4251.0 -1.443413158743534 1
gene  1 1090 24 2.590865350557384 0 4252.0 2.590865350557384 1
gene  1 191 1102 1.065096653933963 0 4284.0 1.065096653933963 1
gene  1 1102 295 1.2552306999624285 0 4285.0 1.2552306999624285 1
gene  1 984 449 -7.022820414968857 0 4326.0 -7.022820414968857 1
gene  1 15 1125 2.9978455322747 0 4368.0 2.9978455322747 1
gene  1 1125 27 1.4745887754931664 0 4369.0 1.4745887754931664 1
gene  1 4 1134 -0.8456604475492433 0 4401.0 -0.8456604475492433 1
gene  1 1134 27 -2.6456924934161097 0 4402.0 -2.6456924934161097 1
gene  1 12 449 2.61949470718164 0 4445.0 2.61949470718164 1
gene  1 9 242 10.317916754840137 0 4467.0 10.317916754840137 1
gene  1 41 30 -6.652276357925234 0 4490.0 -6.652276357925234 1
gene  1 458 1125 7.476146487726584 0 4529.0 7.476146487726584 1
gene  1 762 1008 -1.5886507702611763 0 4582.0 -1.5886507702611763 1
gene  1 984 1062 -3.3045881205581398 0 4623.0 -3.3045881205581398 1
gene  1 1029 1134 9.459671914760484 0 4653.0 9.459671914760484 1
gene  1 1029 277 10.320251323316805 0 4681.0 10.320251323316805 1
gene  1 22 286 -5.24123625323123 0 4716.0 -5.24123625323123 1
gene  1 355 333 -3.1094864561064326 0 4740.0 -3.1094864561064326 0
gene  1 550 333 -2.780115596265257 0 4777.0 -2.780115596265257 1
gene  1 99 967 -2.4239142169061116 0 4792.0 -2.4239142169061116 1
gene  1 9 286 -2.2875649696579083 0 4832.0 -2.2875649696579083 1
gene  1 150 30 -7.592488258121564 0 4880.0 -7.592488258121564 1
gene  1 19 1274 3.242231125836716 0 4895.0 3.242231125836716 1
gene  1 1274 310 1.7950730905345824 0 4896.0 1.7950730905345824 1
gene  1 18 128 -6.627353803520395 0 4928.0 -6.627353803520395 1
gene  1 984 1291 1.7401583085809438 0 4965.0 1.7401583085809438 1
gene  1 1291 27 -0.030663973901280284 0 4966.0 -0.030663973901280284 1
gene  1 817 191 -2.54823569304079 0 4986.0 -2.54823569304079 1
gene  1 984 1304 1.4927266651025652 0 5012.0 1.4927266651025652 1
gene  1 1304 449 -7.3124530817563755 0 5013.0 -7.3124530817563755 0
gene  1 14 1314 1.4747190556017564 0 5061.0 1.4747190556017564 1
gene  1 1314 333 -2.9304981878843606 0 5062.0 -2.9304981878843606 1
gene  1 286 1321 0.49981865753388066 0 5086.0 0.49981865753388066 1
gene  1 1321 28 2.1450518230504407 0 5087.0 2.1450518230504407 1
gene  1 2 1327 -0.8234476975850378 0 5110.0 -0.8234476975850378 1
gene  1 1327 355 0.2631082764295052 0 5111.0 0.2631082764295052 1
gene  1 1134 1304 5.164208760162678 0 5151.0 5.164208760162678 1
gene  1 4 1346 2.5795850050618485 0 5175.0 2.5795850050618485 1
gene  1 1346 24 0.09234789083470174 0 5176.0 0.09234789083470174 1
gene  1 15 1360 0.5356373135175256 0 5223.0 0.5356373135175256 1
gene  1 1360 837 -5.58689039458161 0 5224.0 -5.58689039458161 1
gene  1 19 1367 1.24369713503416 0 5258.0 1.24369713503416 1
gene  1 1367 1274 1.9608715859933736 0 5259.0 1.9608715859933736 1
gene  1 637 1102 -8.542503594320804 0 5285.0 -8.542503594320804 1
gene  1 5 1274 1.6055522730306588 0 5333.0 1.6055522730306588 1
gene  1 1102 650 6.884167605474114 0 5336.0 6.884167605474114 1
gene  1 1367 492 -10.661747620499192 0 5372.0 -10.661747620499192 1
gene  1 236 32 -1.7585635179637076 0 5410.0 -1.7585635179637076 1
gene  1 24 1410 2.375037290512685 0 5435.0 2.375037290512685 1
gene  1 1410 1008 1.9171469818476203 0 5436.0 1.9171469818476203 1
gene  1 1102 1417 0.511592930069171 0 5466.0 0.511592930069171 1
gene  1 1417 295 1.082737207802087 0 5467.0 1.082737207802087 1
gene  1 295 361 -2.7975419900089946 0 5516.0 -2.7975419900089946 1
gene  1 801 949 -8.186738038624942 0 5526.0 -8.186738038624942 1
gene  1 1134 99 0.22434821824074513 0 5559.0 0.22434821824074513 1
gene  1 6 236 1.1814216575484067 0 5608.0 1.1814216575484067 1
gene  1 12 1459 -0.2522330957702505 0 5634.0 -0.2522330957702505 1
gene  1 1459 25 0.8582173029180615 0 5635.0 0.8582173029180615 1
gene  1 502 519 4.77436689720343 0 5675.0 4.77436689720343 1
gene  1 242 1482 0.08649027856227265 0 5706.0 0.08649027856227265 1
gene  1 1482 24 0.729954236662838 0 5707.0 0.729954236662838 1
gene  1 10 1487 -0.5264996212155424 0 5733.0 -0.5264996212155424 1
gene  1 1487 458 0.6561364065319624 0 5734.0 0.6561364065319624 1
gene  1 9 1497 -1.7192437733688974 0 5774.0 -1.7192437733688974 1
gene  1 1497 286 -2.620821711524567 0 5775.0 -2.620821711524567 1
gene  1 1304 1505 3.552521809808653 0 5802.0 3.552521809808653 1
gene  1 1505 449 -10.490664241484115 0 5803.0 -10.490664241484115 1
gene  1 13 1274 11.81180147351934 0 5813.0 11.81180147351934 1
gene  1 550 1274 6.268388309852793 0 5865.0 6.268388309852793 1
gene  1 817 1524 0.03887530116016613 0 5874.0 0.03887530116016613 1
gene  1 1524 191 -4.2810140083504 0 5875.0 -4.2810140083504 1
gene  1 6 1533 -2.0327706423562883 0 5912.0 -2.0327706423562883 1
gene  1 1533 26 1.7481728736816473 0 5913.0 1.7481728736816473 1
gene  1 1459 242 4.542117634615947 0 5962.0 4.542117634615947 1
gene  1 762 984 -4.4491441866170245 0 6000.0 -4.4491441866170245 1
gene  1 12 1569 0.27342429046744865 0 6043.0 0.27342429046744865 1
gene  1 1569 26 -0.7299271268398397 0 6044.0 -0.7299271268398397 1
gene  1 613 1524 -0.5625221371342202 0 6051.0 -0.5625221371342202 1
gene  1 17 1008 8.847937786119136 0 6083.0 8.847937786119136 1
gene  1 12 1584 0.2745279267672094 0 6101.0 0.2745279267672094 1
gene  1 1584 25 -1.8494697570940501 0 6102.0 -1.8494697570940501 1
gene  1 17 1593 -0.9092126274495413 0 6140.0 -0.9092126274495413 1
gene  1 1593 99 10.757800047529539 0 6141.0 10.757800047529539 1
gene  1 492 1593 -7.620753615685968 0 6165.0 -7.620753615685968 1
gene  1 17 1598 1.0 0 6171.0 1.0 1
gene  1 1598 355 -3.59015396384724 0 6172.0 -3.59015396384724 1
gene  1 11 1620 1.0 0 6236.0 1.0 1
gene  1 1620 25 1.0389879036143925 0 6237.0 1.0389879036143925 1
gene  1 693 26 9.310643256899102 0 6249.0 9.310643256899102 1
gene  1 1505 1327 -1.0605098587340025 0 6276.0 -1.0605098587340025 1
gene  1 361 1639 2.0400720149347555 0 6328.0 2.0400720149347555 1
gene  1 1639 26 1.6374881440042794 0 6329.0 1.6374881440042794 1
gene  1 1 30 1.172794528981156 0 6336.0 1.172794528981156 1
gene  1 15 286 6.8571364552870655 0 6391.0 6.8571364552870655 1
gene  1 26 277 -7.869574933380927 0 6402.0 -7.869574933380927 1
gene  1 984 333 -2.4656733026598596 0 6442.0 -2.4656733026598596 1
gene  1 12 1685 0.838463191919061 0 6503.0 0.838463191919061 1
gene  1 1685 24 1.8545930309152974 0 6504.0 1.8545930309152974 1
gene  1 4 1321 -0.29740940622616896 0 6517.0 -0.29740940622616896 1
gene  1 1367 1698 1.0 0 6564.0 1.0 1
gene  1 1698 492 -10.366352550540764 0 6565.0 -10.366352550540764 1
gene  1 984 242 1.8824412049759527 0 6574.0 1.8824412049759527 1
gene  1 17 1487 0.10810512972067454 0 6598.0 0.10810512972067454 1
gene  1 780 1712 1.4685752082760855 0 6635.0 1.4685752082760855 1
gene  1 1712 28 0.18179357991024853 0 6636.0 0.18179357991024853 1
gene  1 1497 128 8.7340461307804 0 6681.0 8.7340461307804 1
gene  1 110 355 -7.041778134988888 0 6710.0 -7.041778134988888 1
gene  1 25 1321 10.131314797131353 0 6737.0 10.131314797131353 1
gene  1 24 1743 0.27180087864273417 0 6773.0 0.27180087864273417 1
gene  1 1743 41 2.8425980990726583 0 6774.0 2.8425980990726583 1
gene  1 502 286 8.85178966305528 0 6813.0 8.85178966305528 1
gene  1 23 103 -0.6347028466960667 0 6846.0 -0.6347028466960667 1
gene  1 650 277 2.168252175972655 0 6864.0 2.168252175972655 1
gene  1 99 1125 2.194749643524924 0 6890.0 2.194749643524924 1
gene  1 27 1795 1.0 0 6981.0 1.0 1
gene  1 1795 236 -6.83676877555461 0 6982.0 -6.83676877555461 1
gene  1 762 295 0.618759926338913 0 6998.0 0.618759926338913 1
gene  1 613 1712 -7.789632665523744 0 7044.0 -7.789632665523744 1
gene  1 637 519 10.531636805987528 0 7074.0 10.531636805987528 1
gene  1 10 1821 0.8335520089030598 0 7084.0 0.8335520089030598 1
gene  1 1821 25 0.2779443092033518 0 7085.0 0.2779443092033518 1
gene  1 3 877 8.576290453469953 0 7137.0 8.576290453469953 1
gene  1 242 1639 -5.6805604119025075 0 7158.0 -5.6805604119025075 1
gene  1 21 1367 4.937277878161988 0 7187.0 4.937277878161988 1
gene  1 110 1852 -0.36496736347363146 0 7224.0 -0.36496736347363146 1
gene  1 1852 26 0.17226926783242408 0 7225.0 0.17226926783242408 1
gene  1 27 1865 0.2637035077228571 0 7278.0 0.2637035077228571 1
gene  1 1865 32 1.0654473885398326 0 7279.0 1.0654473885398326 1
gene  1 22 1866 3.3590632729983922 0 7280.0 3.3590632729983922 1
gene  1 1866 26 -2.543806596698847 0 7281.0 -2.543806596698847 1
gene  1 1090 1877 2.0480034896489587 0 7321.0 2.0480034896489587 1
gene  1 1877 24 4.075216057764697 0 7322.0 4.075216057764697 1
gene  1 449 1890 -0.8707553377261579 0 7379.0 -0.8707553377261579 1
gene  1 1890 355 2.76130463226583 0 7380.0 2.76130463226583 1
gene  1 32 1896 -0.20866995465937155 0 7402.0 -0.20866995465937155 1
gene  1 1896 277 1.4570595696461064 0 7403.0 1.4570595696461064 1
gene  1 286 1907 3.3246219499063328 0 7432.0 3.3246219499063328 1
gene  1 1907 28 -0.005475208887844529 0 7433.0 -0.005475208887844529 1
gene  1 17 1915 1.0 0 7468.0 1.0 1
gene  1 1915 1008 5.158151294297133 0 7469.0 5.158151294297133 1
gene  1 637 1685 -1.5022829324129 0 7498.0 -1.5022829324129 1
gene  1 15 1934 1.0 0 7548.0 1.0 1
gene  1 1934 286 6.8571364552870655 0 7549.0 6.8571364552870655 1
gene  1 2 1497 -0.9838968844846139 0 7564.0 -0.9838968844846139 1
gene  1 684 236 -0.8379498976521899 0 7626.0 -0.8379498976521899 1
gene  1 1524 69 0.5117556222778913 0 7650.0 0.5117556222778913 1
gene  1 1685 1896 1.950960460972659 0 7671.0 1.950960460972659 1
gene  1 817 650 7.9439034793189 0 7711.0 7.9439034793189 1
gene  1 355 1984 -0.28180276145511574 0 7751.0 -0.28180276145511574 1
gene  1 1984 333 1.6232434674374359 0 7752.0 1.6232434674374359 1
gene  1 19 1090 -7.1153352962673235 0 7782.0 -7.1153352962673235 1
gene  1 27 2003 1.0 0 7819.0 1.0 1
gene  1 2003 32 2.932821339155403 0 7820.0 2.932821339155403 1
gene  1 1304 2011 1.3161051199857172 0 7854.0 1.3161051199857172 1
gene  1 2011 449 -9.66342426761149 0 7855.0 -9.66342426761149 1
gene  1 1417 277 -9.95907511707764 0 7878.0 -9.95907511707764 1
gene  1 1 2034 -1.0324253445437352 0 7942.0 -1.0324253445437352 1
gene  1 2034 24 1.6749315064876718 0 7943.0 1.6749315064876718 1
gene  1 502 242 2.1812716477148566 0 7973.0 2.1812716477148566 1
gene  1 10 2054 1.0 0 8014.0 1.0 1
gene  1 2054 519 3.360527573563207 0 8015.0 3.360527573563207 1
gene  1 6 2058 3.2775111924493987 0 8033.0 3.2775111924493987 1
gene  1 2058 236 -0.3464358666204645 0 8034.0 -0.3464358666204645 1
gene  1 242 1090 8.454779162593232 0 8099.0 8.454779162593232 1
gene  1 1 103 2.2661041434233926 0 8121.0 2.2661041434233926 1
gene  1 1062 837 0.621174846884607 0 8178.0 0.621174846884607 1
gene  1 25 953 0.6594694692029934 0 8219.0 0.6594694692029934 1
gene  1 650 41 3.4117733514215054 0 8264.0 3.4117733514215054 1
gene  1 2058 1915 5.233156878904643 0 8292.0 5.233156878904643 1
gene  1 2011 103 -0.3675962275513911 0 8320.0 -0.3675962275513911 1
genomeend 1
/*-------------------------------------------------------------------*/
/* Species # 134         : (size= 002) (AvfFit= 1010,000) (Age= 11,000)  */
/*-------------------------------------------------------------------*/
/* Organism # 002 Fitness:  0,000 Error:  0,000                      */
genomestart  2
trait 1 0.15906958955964612 0.29105188460910975 0.0 0.0 0.0 0.0 0.0 0.0 
node 1 1 1 1
node 2 1 1 1
node 3 1 1 1
node 4 1 1 1
node 5 1 1 1
node 6 1 1 1
node 7 1 1 1
node 8 1 1 1
node 9 1 1 1
node 10 1 1 1
node 11 1 1 1
node 12 1 1 1
node 13 1 1 1
node 14 1 1 1
node 15 1 1 1
node 16 1 1 1
node 17 1 1 1
node 18 1 1 1
node 19 1 1 1
node 20 1 1 1
node 21 1 1 1
node 22 1 1 1
node 23 1 1 3
node 24 1 0 0
node 25 1 0 0
node 26 1 0 0
node 27 1 0 0
node 28 1 0 2
node 29 1 0 2
node 30 1 0 2
node 31 1 0 2
node 32 1 0 2
node 41 1 0 0
node 69 1 0 0
node 99 1 0 0
node 103 1 0 0
node 110 1 0 0
node 128 1 0 0
node 150 1 0 0
node 191 1 0 0
node 236 1 0 0
node 242 1 0 0
node 277 1 0 0
node 286 1 0 0
node 295 1 0 0
node 310 1 0 0
node 333 1 0 0
node 355 1 0 0
node 361 1 0 0
node 390 1 0 0
node 419 1 0 0
node 449 1 0 0
node 458 1 0 0
node 492 1 0 0
node 502 1 0 0
node 519 1 0 0
node 550 1 0 0
node 613 1 0 0
node 637 1 0 0
node 650 1 0 0
node 684 1 0 0
node 693 1 0 0
node 762 1 0 0
node 780 1 0 0
node 801 1 0 0
node 817 1 0 0
node 833 1 0 0
node 837 1 0 0
node 877 1 0 0
node 949 1 0 0
node 953 1 0 0
node 967 1 0 0
node 984 1 0 0
node 1008 1 0 0
node 1029 1 0 0
node 1062 1 0 0
node 1090 1 0 0
node 1102 1 0 0
node 1125 1 0 0
node 1134 1 0 0
node 1274 1 0 0
node 1291 1 0 0
node 1304 1 0 0
node 1314 1 0 0
node 1321 1 0 0
node 1327 1 0 0
node 1346 1 0 0
node 1360 1 0 0
node 1367 1 0 0
node 1410 1 0 0
node 1417 1 0 0
node 1459 1 0 0
node 1482 1 0 0
node 1487 1 0 0
node 1497 1 0 0
node 1505 1 0 0
node 1524 1 0 0
node 1533 1 0 0
node 1569 1 0 0
node 1584 1 0 0
node 1593 1 0 0
node 1598 1 0 0
node 1620 1 0 0
node 1639 1 0 0
node 1685 1 0 0
node 1698 1 0 0
node 1712 1 0 0
node 1743 1 0 0
node 1795 1 0 0
node 1821 1 0 0
node 1852 1 0 0
node 1865 1 0 0
node 1866 1 0 0
node 1877 1 0 0
node 1890 1 0 0
node 1896 1 0 0
node 1907 1 0 0
node 1915 1 0 0
node 1934 1 0 0
node 1984 1 0 0
node 2003 1 0 0
node 2011 1 0 0
node 2034 1 0 0
node 2054 1 0 0
node 2059 1 0 0
node 2072 1 0 0
node 2090 1 0 0
node 2119 1 0 0
gene  1 1 24 0.6836074841519658 0 1.0 0.6836074841519658 1
gene  1 2 24 0.2418349725060388 0 2.0 0.2418349725060388 1
gene  1 3 24 2.231101296592862 0 3.0 2.231101296592862 1
gene  1 4 24 1.9984107658146633 0 4.0 1.9984107658146633 1
gene  1 5 24 -1.295047861402809 0 5.0 -1.295047861402809 1
gene  1 6 24 -0.46614332725808727 0 6.0 -0.46614332725808727 1
gene  1 7 24 -0.6632373714736616 0 7.0 -0.6632373714736616 1
gene  1 8 24 -1.1786407631101534 0 8.0 -1.1786407631101534 1
gene  1 9 24 0.7083499676735852 0 9.0 0.7083499676735852 1
gene  1 10 24 1.8287682424176324 0 10.0 1.8287682424176324 1
gene  1 11 24 0.13114292736241406 0 11.0 0.13114292736241406 1
gene  1 12 24 0.20129052057887642 0 12.0 0.20129052057887642 1
gene  1 13 24 0.15119511013894327 0 13.0 0.15119511013894327 1
gene  1 14 24 -2.305494291515135 0 14.0 -2.305494291515135 1
gene  1 15 24 1.7866237942300476 0 15.0 1.7866237942300476 1
gene  1 16 24 0.4609847206181178 0 16.0 0.4609847206181178 1
gene  1 17 24 1.1367228621818093 0 17.0 1.1367228621818093 1
gene  1 18 24 1.0832013029571876 0 18.0 1.0832013029571876 1
gene  1 19 24 1.1167443914792334 0 19.0 1.1167443914792334 1
gene  1 20 24 0.07414205454090883 0 20.0 0.07414205454090883 1
gene  1 21 24 0.5418885079930811 0 21.0 0.5418885079930811 1
gene  1 22 24 2.484950267181405 0 22.0 2.484950267181405 1
gene  1 23 24 0.425929415896056 0 23.0 0.425929415896056 1
gene  1 1 25 0.6154095691625152 0 24.0 0.6154095691625152 1
gene  1 2 25 -2.8755165268856366 0 25.0 -2.8755165268856366 1
gene  1 3 25 2.689302679798512 0 26.0 2.689302679798512 1
gene  1 4 25 -0.7614296740576152 0 27.0 -0.7614296740576152 1
gene  1 5 25 -0.12017325232786724 0 28.0 -0.12017325232786724 1
gene  1 6 25 -0.8995478796312145 0 29.0 -0.8995478796312145 1
gene  1 7 25 -0.012654369140360444 0 30.0 -0.012654369140360444 1
gene  1 8 25 1.3910890901314834 0 31.0 1.3910890901314834 1
gene  1 9 25 0.3584175622867064 0 32.0 0.3584175622867064 1
gene  1 10 25 0.2779443092033518 0 33.0 0.2779443092033518 1
gene  1 11 25 1.142465146794125 0 34.0 1.142465146794125 1
gene  1 12 25 0.9036541395774667 0 35.0 0.9036541395774667 1
gene  1 13 25 -1.2351814578924105 0 36.0 -1.2351814578924105 1
gene  1 14 25 -2.406576236033213 0 37.0 -2.406576236033213 1
gene  1 15 25 -1.3059963432256165 0 38.0 -1.3059963432256165 1
gene  1 16 25 -0.07279068140327355 0 39.0 -0.07279068140327355 1
gene  1 17 25 2.1463068148221858 0 40.0 2.1463068148221858 1
gene  1 18 25 -0.8147305052695352 0 41.0 -0.8147305052695352 1
gene  1 19 25 -1.8963916370755176 0 42.0 -1.8963916370755176 1
gene  1 20 25 -0.17530964326477716 0 43.0 -0.17530964326477716 1
gene  1 21 25 -2.1615664960138625 0 44.0 -2.1615664960138625 1
gene  1 22 25 -0.5353496319643707 0 45.0 -0.5353496319643707 1
gene  1 23 25 2.211182550883856 0 46.0 2.211182550883856 1
gene  1 1 26 -0.1813538282281052 0 47.0 -0.1813538282281052 1
gene  1 2 26 1.0348232233393615 0 48.0 1.0348232233393615 1
gene  1 3 26 -0.26852393576716355 0 49.0 -0.26852393576716355 1
gene  1 4 26 -0.5462351900443294 0 50.0 -0.5462351900443294 1
gene  1 5 26 1.841798679175527 0 51.0 1.841798679175527 1
gene  1 6 26 0.9246057866887103 0 52.0 0.9246057866887103 1
gene  1 7 26 2.961718684201993 0 53.0 2.961718684201993 1
gene  1 8 26 1.3531921659176516 0 54.0 1.3531921659176516 1
gene  1 9 26 -1.7276248866576271 0 55.0 -1.7276248866576271 1
gene  1 10 26 2.0139802487278704 0 56.0 2.0139802487278704 1
gene  1 11 26 1.528778550886252 0 57.0 1.528778550886252 1
gene  1 12 26 -0.5785609867130133 0 58.0 -0.5785609867130133 1
gene  1 13 26 -2.6797800697851013 0 59.0 -2.6797800697851013 1
gene  1 14 26 -0.5697240976550146 0 60.0 -0.5697240976550146 1
gene  1 15 26 -0.6337731619541322 0 61.0 -0.6337731619541322 1
gene  1 16 26 -3.0562620734655126 0 62.0 -3.0562620734655126 1
gene  1 17 26 -0.6658234717228073 0 63.0 -0.6658234717228073 1
gene  1 18 26 3.3403867808578074 0 64.0 3.3403867808578074 1
gene  1 19 26 0.7776803632315288 0 65.0 0.7776803632315288 1
gene  1 20 26 -0.7243609006292111 0 66.0 -0.7243609006292111 1
gene  1 21 26 -3.0739483612397973 0 67.0 -3.0739483612397973 1
gene  1 22 26 -0.8853447786938764 0 68.0 -0.8853447786938764 1
gene  1 23 26 -1.392668583310223 0 69.0 -1.392668583310223 1
gene  1 1 27 0.1950912962028929 0 70.0 0.1950912962028929 1
gene  1 2 27 -2.3849842766314993 0 71.0 -2.3849842766314993 1
gene  1 3 27 -1.4510293084069832 0 72.0 -1.4510293084069832 1
gene  1 4 27 -2.108078397682316 0 73.0 -2.108078397682316 1
gene  1 5 27 0.9853093818432086 0 74.0 0.9853093818432086 1
gene  1 6 27 1.9012442085109171 0 75.0 1.9012442085109171 1
gene  1 7 27 -1.1359514906506512 0 76.0 -1.1359514906506512 1
gene  1 8 27 1.3588260773815568 0 77.0 1.3588260773815568 1
gene  1 9 27 -2.8086161361721667 0 78.0 -2.8086161361721667 1
gene  1 10 27 0.6822866399342444 0 79.0 0.6822866399342444 1
gene  1 11 27 -1.4192574802827127 0 80.0 -1.4192574802827127 1
gene  1 12 27 2.0194659787646483 0 81.0 2.0194659787646483 1
gene  1 13 27 -3.29794013327734 0 82.0 -3.29794013327734 1
gene  1 14 27 -1.0273223382155723 0 83.0 -1.0273223382155723 1
gene  1 15 27 0.8854793246663014 0 84.0 0.8854793246663014 1
gene  1 16 27 -2.4100030796377325 0 85.0 -2.4100030796377325 1
gene  1 17 27 1.1641354279973304 0 86.0 1.1641354279973304 1
gene  1 18 27 -1.5657621004727782 0 87.0 -1.5657621004727782 1
gene  1 19 27 0.9635940309111093 0 88.0 0.9635940309111093 1
gene  1 20 27 -1.5141808232294682 0 89.0 -1.5141808232294682 1
gene  1 21 27 -1.6098739089238192 0 90.0 -1.6098739089238192 1
gene  1 22 27 -0.20721715934182405 0 91.0 -0.20721715934182405 1
gene  1 23 27 -2.7987944125960222 0 92.0 -2.7987944125960222 1
gene  1 23 28 1.3272888213665466 0 93.0 1.3272888213665466 1
gene  1 24 28 1.3820786340802313 0 94.0 1.3820786340802313 1
gene  1 25 28 0.8152174332290762 0 95.0 0.8152174332290762 1
gene  1 26 28 -1.8871519098029614 0 96.0 -1.8871519098029614 1
gene  1 27 28 -1.0416194194378714 0 97.0 -1.0416194194378714 1
gene  1 23 29 1.712662646035409 0 98.0 1.712662646035409 1
gene  1 24 29 0.3750308964985809 0 99.0 0.3750308964985809 1
gene  1 25 29 2.0081239104076944 0 100.0 2.0081239104076944 1
gene  1 26 29 -1.8177506182944394 0 101.0 -1.8177506182944394 1
gene  1 27 29 0.24578722111506612 0 102.0 0.24578722111506612 1
gene  1 23 30 -0.9792201881248785 0 103.0 -0.9792201881248785 1
gene  1 24 30 0.3847222154010963 0 104.0 0.3847222154010963 1
gene  1 25 30 1.8066113481737804 0 105.0 1.8066113481737804 1
gene  1 26 30 0.2284221571408082 0 106.0 0.2284221571408082 1
gene  1 27 30 2.7779870153214823 0 107.0 2.7779870153214823 1
gene  1 23 31 0.4191893547743016 0 108.0 0.4191893547743016 1
gene  1 24 31 0.77248384192597 0 109.0 0.77248384192597 1
gene  1 25 31 -2.4322039769326436 0 110.0 -2.4322039769326436 1
gene  1 26 31 1.9221518817702068 0 111.0 1.9221518817702068 1
gene  1 27 31 -1.706516430146761 0 112.0 -1.706516430146761 1
gene  1 23 32 -1.20797389976055 0 113.0 -1.20797389976055 1
gene  1 24 32 0.41904467590066785 0 114.0 0.41904467590066785 1
gene  1 25 32 -1.5085101012937148 0 115.0 -1.5085101012937148 1
gene  1 26 32 -0.2604847518040827 0 116.0 -0.2604847518040827 1
gene  1 27 32 1.0654473885398326 0 117.0 1.0654473885398326 1
gene  1 15 28 4.70782994343627 0 145.0 4.70782994343627 1
gene  1 24 41 0.7041611002973363 0 162.0 0.7041611002973363 1
gene  1 41 29 -0.7849467345565301 0 163.0 -0.7849467345565301 1
gene  1 11 28 9.218883268875562 0 192.0 9.218883268875562 1
gene  1 8 29 -2.176334847719313 0 252.0 -2.176334847719313 1
gene  1 8 69 0.6109648487557431 0 286.0 0.6109648487557431 1
gene  1 69 26 2.7645682336002895 0 287.0 2.7645682336002895 1
gene  1 14 28 8.721990907806568 0 325.0 8.721990907806568 1
gene  1 10 28 4.561700536875561 0 337.0 4.561700536875561 1
gene  1 15 32 6.306243292515637 0 371.0 6.306243292515637 1
gene  1 20 99 2.16353396511089 0 420.0 2.16353396511089 1
gene  1 99 27 -2.8094737854649665 0 421.0 -2.8094737854649665 1
gene  1 5 103 -1.0264695869117828 0 442.0 -1.0264695869117828 1
gene  1 103 24 1.3671339875182222 0 443.0 1.3671339875182222 1
gene  1 3 110 -1.3192452305966889 0 466.0 -1.3192452305966889 1
gene  1 110 26 0.17226926783242408 0 467.0 0.17226926783242408 1
gene  1 17 99 8.667263408509712 0 517.0 8.667263408509712 1
gene  1 16 128 -1.1029401447466332 0 542.0 -1.1029401447466332 1
gene  1 128 25 1.5541036770496022 0 543.0 1.5541036770496022 1
gene  1 22 103 -3.6589079271917693 0 584.0 -3.6589079271917693 1
gene  1 24 150 -0.4951572804097779 0 612.0 -0.4951572804097779 1
gene  1 150 29 1.760461199179113 0 613.0 1.760461199179113 1
gene  1 6 128 7.989030214491342 0 659.0 7.989030214491342 1
gene  1 150 69 7.977677494161361 0 697.0 7.977677494161361 1
gene  1 31 32 -7.223103554147636 0 712.0 -7.223103554147636 1
gene  1 26 41 -6.934677827942377 0 740.0 -6.934677827942377 1
gene  1 7 191 2.7026679260086692 0 774.0 2.7026679260086692 1
gene  1 191 26 2.8964560025688257 0 775.0 2.8964560025688257 1
gene  1 103 26 0.9890079923258703 0 816.0 0.9890079923258703 1
gene  1 9 29 -5.980022400228384 0 851.0 -5.980022400228384 1
gene  1 11 99 -3.9682740919211192 0 864.0 -3.9682740919211192 1
gene  1 12 99 -10.457000068568073 0 920.0 -10.457000068568073 1
gene  1 26 236 2.413153052333878 0 945.0 2.413153052333878 1
gene  1 236 28 -0.39879288095864707 0 946.0 -0.39879288095864707 1
gene  1 22 242 0.9659975009029367 0 964.0 0.9659975009029367 1
gene  1 242 24 1.9563221533460138 0 965.0 1.9563221533460138 1
gene  1 15 99 9.470992938607854 0 1027.0 9.470992938607854 1
gene  1 191 69 2.1652779438076055 0 1052.0 2.1652779438076055 1
gene  1 15 277 0.9471773128246486 0 1090.0 0.9471773128246486 1
gene  1 277 28 2.35561451715437 0 1091.0 2.35561451715437 1
gene  1 27 286 -0.12275845610281455 0 1116.0 -0.12275845610281455 1
gene  1 286 28 0.025667614407639316 0 1117.0 0.025667614407639316 1
gene  1 191 295 1.462792961073816 0 1142.0 1.462792961073816 1
gene  1 295 26 -0.6328061547708835 0 1143.0 -0.6328061547708835 1
gene  1 22 128 0.47233297098327853 0 1174.0 0.47233297098327853 1
gene  1 19 310 2.4856618195935347 0 1209.0 2.4856618195935347 1
gene  1 310 24 -1.6364077796782248 0 1210.0 -1.6364077796782248 1
gene  1 242 103 8.287160315783602 0 1238.0 8.287160315783602 0
gene  1 16 236 -0.9082556621137352 0 1287.0 -0.9082556621137352 1
gene  1 20 333 1.0 0 1305.0 1.0 1
gene  1 333 24 -0.43803176646816433 0 1306.0 -0.43803176646816433 1
gene  1 14 277 -7.3398616412898825 0 1364.0 -7.3398616412898825 1
gene  1 2 355 -0.6544197900779483 0 1395.0 -0.6544197900779483 1
gene  1 355 27 0.057231611804800075 0 1396.0 0.057231611804800075 1
gene  1 69 361 -0.018934202235794118 0 1416.0 -0.018934202235794118 1
gene  1 361 26 2.638823677941647 0 1417.0 2.638823677941647 1
gene  1 9 32 -4.24720604900855 0 1466.0 -4.24720604900855 1
gene  1 14 333 -3.785843903385777 0 1482.0 -3.785843903385777 1
gene  1 32 277 2.2177074487957547 0 1522.0 2.2177074487957547 1
gene  1 3 390 1.0 0 1547.0 1.0 1
gene  1 390 26 2.717639197728152 0 1548.0 2.717639197728152 1
gene  1 286 236 0.7913139280449974 0 1594.0 0.7913139280449974 1
gene  1 20 419 1.0 0 1638.0 1.0 1
gene  1 419 27 2.372046399786742 0 1639.0 2.372046399786742 1
gene  1 17 355 -3.941543941741722 0 1648.0 -3.941543941741722 1
gene  1 8 150 0.9703385552652399 0 1688.0 0.9703385552652399 1
gene  1 355 310 -5.568152431032543 0 1725.0 -5.568152431032543 1
gene  1 2 449 2.715246405901041 0 1757.0 2.715246405901041 1
gene  1 449 355 1.1406736985867385 0 1758.0 1.1406736985867385 1
gene  1 10 458 1.0 0 1789.0 1.0 1
gene  1 458 26 0.8334553162957417 0 1790.0 0.8334553162957417 1
gene  1 286 242 0.0177850674950375 0 1819.0 0.0177850674950375 1
gene  1 103 361 -4.425782843693852 0 1881.0 -4.425782843693852 1
gene  1 22 492 1.0 0 1911.0 0.0 1
gene  1 492 128 0.47233297098327853 0 1912.0 0.0 1
gene  1 14 502 1.0 0 1950.0 0.0 1
gene  1 502 25 -2.406576236033213 0 1951.0 0.0 1
gene  1 10 519 1.0 0 2010.0 0.0 0
gene  1 519 25 0.2779443092033518 0 2011.0 0.0 1
gene  1 103 333 -4.925490828342904 0 2033.0 -4.925490828342904 1
gene  1 7 242 -8.589149608783572 0 2047.0 -8.589149608783572 1
gene  1 361 30 -3.364430012547958 0 2081.0 -3.364430012547958 1
gene  1 286 550 1.0 0 2139.0 0.0 1
gene  1 550 28 0.025667614407639316 0 2140.0 0.0 1
gene  1 16 449 -4.819583852973205 0 2207.0 -4.819583852973205 1
gene  1 22 99 -2.805021694326193 0 2256.0 -2.805021694326193 1
gene  1 519 191 5.4862128461960324 0 2286.0 5.4862128461960324 1
gene  1 41 277 -9.127596344581471 0 2326.0 -9.127596344581471 1
gene  1 19 613 1.0 0 2370.0 0.0 1
gene  1 613 24 1.1167443914792334 0 2371.0 0.0 1
gene  1 19 361 -0.9731171545944906 0 2386.0 -0.9731171545944906 1
gene  1 150 519 6.419898397957137 0 2419.0 6.419898397957137 1
gene  1 8 637 1.0 0 2459.0 0.0 1
gene  1 637 69 0.6109648487557431 0 2460.0 0.0 1
gene  1 99 41 -5.8512602291313005 0 2491.0 -5.8512602291313005 1
gene  1 14 650 1.0 0 2525.0 0.0 1
gene  1 650 26 -0.5697240976550146 0 2526.0 0.0 1
gene  1 99 449 9.692660829861735 0 2574.0 9.692660829861735 1
gene  1 128 650 -5.0758949069195305 0 2611.0 -5.0758949069195305 1
gene  1 242 613 -5.126578153185584 0 2631.0 -5.126578153185584 1
gene  1 26 684 1.0 0 2651.0 0.0 1
gene  1 684 41 -6.934677827942377 0 2652.0 0.0 1
gene  1 7 693 1.0 0 2686.0 0.0 1
gene  1 693 27 -1.1359514906506512 0 2687.0 0.0 1
gene  1 693 637 -8.665673205969714 0 2741.0 -8.665673205969714 1
gene  1 21 28 0.06671616490239618 0 2763.0 0.06671616490239618 1
gene  1 458 103 8.611347731799743 0 2802.0 8.611347731799743 1
gene  1 286 41 -0.3004047542578181 0 2819.0 -0.3004047542578181 1
gene  1 502 390 -8.194380204004723 0 2870.0 -8.194380204004723 1
gene  1 333 32 -7.464997288507407 0 2893.0 -7.464997288507407 1
gene  1 30 236 5.775671236113728 0 2925.0 5.775671236113728 1
gene  1 9 762 1.0 0 2965.0 0.0 1
gene  1 762 26 -1.7276248866576271 0 2966.0 0.0 1
gene  1 16 613 4.007700359226538 0 2985.0 4.007700359226538 1
gene  1 25 780 1.0 0 3029.0 0.0 1
gene  1 780 28 0.8152174332290762 0 3030.0 0.0 1
gene  1 502 69 2.7969092830649056 0 3080.0 2.7969092830649056 1
gene  1 2 801 1.0 0 3114.0 0.0 1
gene  1 801 26 1.0348232233393615 0 3115.0 0.0 1
gene  1 550 310 4.349619558396177 0 3126.0 4.349619558396177 1
gene  1 550 817 1.0 0 3162.0 0.0 1
gene  1 817 28 0.025667614407639316 0 3163.0 0.0 1
gene  1 103 833 1.0 0 3220.0 0.0 1
gene  1 833 24 1.3671339875182222 0 3221.0 0.0 1
gene  1 14 837 1.0 0 3236.0 0.0 1
gene  1 837 333 -3.785843903385777 0 3237.0 0.0 1
gene  1 21 150 0.37578412308161835 0 3282.0 0.37578412308161835 1
gene  1 650 780 3.1321547879450895 0 3314.0 3.1321547879450895 1
gene  1 15 837 -8.001033582604686 0 3364.0 -8.001033582604686 1
gene  1 20 877 1.0 0 3407.0 0.0 1
gene  1 877 99 2.16353396511089 0 3408.0 0.0 1
gene  1 16 333 -7.684474477005092 0 3491.0 -7.684474477005092 1
gene  1 4 361 9.048045139790645 0 3557.0 9.048045139790645 1
gene  1 17 150 -6.332162956026258 0 3601.0 -6.332162956026258 1
gene  1 15 419 6.608183758505177 0 3630.0 6.608183758505177 1
gene  1 27 236 -9.183117112089807 0 3680.0 -9.183117112089807 1
gene  1 242 949 1.0 0 3697.0 0.0 1
gene  1 949 24 1.9563221533460138 0 3698.0 0.0 1
gene  1 21 953 1.0 0 3730.0 0.0 1
gene  1 953 26 -3.0739483612397973 0 3731.0 0.0 1
gene  1 21 967 1.0 0 3782.0 0.0 1
gene  1 967 27 -1.6098739089238192 0 3783.0 0.0 1
gene  1 295 41 -9.542866571256884 0 3812.0 -9.542866571256884 1
gene  1 1 984 1.0 0 3857.0 0.0 1
gene  1 984 27 0.1950912962028929 0 3858.0 0.0 1
gene  1 502 355 -8.196641142612357 0 3916.0 -8.196641142612357 1
gene  1 877 110 8.721426883747764 0 3933.0 8.721426883747764 1
gene  1 24 1008 1.0 0 3947.0 0.0 1
gene  1 1008 150 -0.4951572804097779 0 3948.0 0.0 1
gene  1 4 492 -8.457524817301785 0 3998.0 -8.457524817301785 1
gene  1 20 1029 1.0 0 4022.0 0.0 1
gene  1 1029 25 -0.17530964326477716 0 4023.0 0.0 1
gene  1 103 801 -2.3027310937624277 0 4066.0 -2.3027310937624277 1
gene  1 984 492 6.950981250856162 0 4110.0 6.950981250856162 1
gene  1 693 550 -0.3055966438361801 0 4127.0 -0.3055966438361801 1
gene  1 550 1062 1.0 0 4155.0 0.0 1
gene  1 1062 310 4.349619558396177 0 4156.0 0.0 1
gene  1 502 984 4.146867788623857 0 4187.0 4.146867788623857 1
gene  1 833 613 -0.7014831771904717 0 4214.0 -0.7014831771904717 1
gene  1 4 1090 1.0 0 4251.0 0.0 1
gene  1 1090 24 1.9984107658146633 0 4252.0 0.0 1
gene  1 191 1102 1.0 0 4284.0 0.0 1
gene  1 1102 295 1.462792961073816 0 4285.0 0.0 1
gene  1 984 449 -9.331156395448737 0 4326.0 -9.331156395448737 1
gene  1 15 1125 1.0 0 4368.0 0.0 1
gene  1 1125 27 0.8854793246663014 0 4369.0 0.0 1
gene  1 4 1134 1.0 0 4401.0 0.0 1
gene  1 1134 27 -2.108078397682316 0 4402.0 0.0 1
gene  1 12 449 2.6982152417791836 0 4445.0 2.6982152417791836 1
gene  1 9 242 8.99554449740825 0 4467.0 8.99554449740825 1
gene  1 41 30 -7.1994370192127715 0 4490.0 -7.1994370192127715 1
gene  1 458 1125 6.521126856990772 0 4529.0 6.521126856990772 1
gene  1 762 1008 -2.260922377983232 0 4582.0 -2.260922377983232 1
gene  1 984 1062 -2.3548248112539314 0 4623.0 -2.3548248112539314 1
gene  1 1029 1134 8.217670137638471 0 4653.0 8.217670137638471 1
gene  1 1029 277 9.693352686705248 0 4681.0 9.693352686705248 1
gene  1 22 286 -7.354671207895601 0 4716.0 -7.354671207895601 1
gene  1 355 333 -0.9474445607950321 0 4740.0 -0.9474445607950321 0
gene  1 550 333 -4.863400180773963 0 4777.0 -4.863400180773963 1
gene  1 99 967 -3.0131111743463714 0 4792.0 -3.0131111743463714 1
gene  1 9 286 -1.1573702637585275 0 4832.0 -1.1573702637585275 1
gene  1 150 30 -6.491196081375619 0 4880.0 -6.491196081375619 1
gene  1 19 1274 1.0 0 4895.0 0.5 1
gene  1 1274 310 2.4856618195935347 0 4896.0 1.2428309097967674 1
gene  1 18 128 -7.746707048955349 0 4928.0 -7.746707048955349 1
gene  1 984 1291 1.2558037204776618 0 4965.0 0.7558037204776619 1
gene  1 1291 27 0.1950912962028929 0 4966.0 0.09754564810144645 1
gene  1 817 191 -1.6892382258812573 0 4986.0 -1.6892382258812573 1
gene  1 984 1304 -0.20809565140969655 0 5012.0 -0.7080956514096965 1
gene  1 1304 449 -9.66342426761149 0 5013.0 -4.997846069887121 0
gene  1 14 1314 1.0 0 5061.0 0.5 1
gene  1 1314 333 -1.5154503933520993 0 5062.0 0.3774715583407894 1
gene  1 286 1321 0.1112012954871675 0 5086.0 -0.3887987045128325 1
gene  1 1321 28 1.1416154846989175 0 5087.0 1.1287816774950978 1
gene  1 2 1327 1.0 0 5110.0 0.5 1
gene  1 1327 355 -0.6412007496555301 0 5111.0 -0.31399085461655596 1
gene  1 1134 1304 5.926753150899585 0 5151.0 5.926753150899585 1
gene  1 4 1346 1.0 0 5175.0 0.5 1
gene  1 1346 24 2.2236037097362806 0 5176.0 1.2243983268289491 1
gene  1 15 1360 1.5066331925294723 0 5223.0 1.0066331925294723 1
gene  1 1360 837 -7.490002488059725 0 5224.0 -3.4894856967573817 1
gene  1 19 1367 1.5849160353775569 0 5258.0 1.0849160353775569 1
gene  1 1367 1274 1.0 0 5259.0 0.5 1
gene  1 637 1102 -7.987072237478704 0 5285.0 -7.987072237478704 1
gene  1 5 1274 2.0757661739668176 0 5333.0 2.0757661739668176 1
gene  1 1102 650 6.3099088970887385 0 5336.0 6.3099088970887385 1
gene  1 1367 492 -10.166554880406526 0 5372.0 -10.166554880406526 1
gene  1 236 32 -1.6252334618324744 0 5410.0 -1.6252334618324744 1
gene  1 24 1410 1.0 0 5435.0 0.5 1
gene  1 1410 1008 1.0 0 5436.0 0.5 1
gene  1 1102 1417 1.0 0 5466.0 0.5 1
gene  1 1417 295 1.462792961073816 0 5467.0 0.731396480536908 1
gene  1 295 361 -2.64196572965706 0 5516.0 -2.64196572965706 1
gene  1 801 949 -7.145858985556223 0 5526.0 -7.145858985556223 1
gene  1 1134 99 -0.4936522756317029 0 5559.0 -0.4936522756317029 1
gene  1 6 236 2.9830221849150504 0 5608.0 2.9830221849150504 1
gene  1 12 1459 0.3626243331208577 0 5634.0 -0.13737566687914232 1
gene  1 1459 25 0.10670965589800491 0 5635.0 -0.3451174138907284 1
gene  1 502 519 4.48879772208064 0 5675.0 4.48879772208064 1
gene  1 242 1482 -0.03973384367441679 0 5706.0 -0.5397338436744168 1
gene  1 1482 24 3.1229751646825363 0 5707.0 2.1448140880095297 1
gene  1 10 1487 1.0 0 5733.0 0.5 1
gene  1 1487 458 1.0 0 5734.0 0.5 1
gene  1 9 1497 -0.06172645492845197 0 5774.0 -0.561726454928452 1
gene  1 1497 286 -0.5209168932561625 0 5775.0 -0.26045844662808126 1
gene  1 1304 1505 1.5467291080896595 0 5802.0 1.0467291080896595 1
gene  1 1505 449 -9.331156395448737 0 5803.0 -4.665578197724368 1
gene  1 13 1274 10.313720555232493 0 5813.0 10.313720555232493 1
gene  1 550 1274 5.224760454077588 0 5865.0 5.224760454077588 1
gene  1 817 1524 1.0 0 5874.0 0.5 1
gene  1 1524 191 -1.9290651312772766 0 5875.0 -0.48945050866789674 1
gene  1 6 1533 0.38818773834865633 0 5912.0 -0.11181226165134367 1
gene  1 1533 26 0.630772334410092 0 5913.0 0.1684694410657368 1
gene  1 1459 242 4.081173235260422 0 5962.0 4.081173235260422 1
gene  1 762 984 -6.492300398169439 0 6000.0 -6.492300398169439 1
gene  1 12 1569 2.1606905520171296 0 6043.0 1.6606905520171293 1
gene  1 1569 26 -1.6255845585913962 0 6044.0 -1.3363040652348896 1
gene  1 613 1524 1.366626171552805 0 6051.0 1.366626171552805 1
gene  1 17 1008 7.4825575616648985 0 6083.0 7.4825575616648985 0
gene  1 12 1584 0.7124516798243605 0 6101.0 0.21245167982436053 1
gene  1 1584 25 -0.2589495627963547 0 6102.0 -0.710776632585088 1
gene  1 17 1593 1.0 0 6140.0 0.0 1
gene  1 1593 99 8.667263408509712 0 6141.0 0.0 1
gene  1 492 1593 -7.620753615685968 0 6165.0 -7.620753615685968 1
gene  1 17 1598 1.0 0 6171.0 0.0 1
gene  1 1598 355 -3.941543941741722 0 6172.0 0.0 1
gene  1 11 1620 1.0 0 6236.0 0.0 1
gene  1 1620 25 1.142465146794125 0 6237.0 0.0 1
gene  1 693 26 8.355633439210646 0 6249.0 8.355633439210646 1
gene  1 1505 1327 1.355161854974506 0 6276.0 1.355161854974506 1
gene  1 361 1639 1.0 0 6328.0 0.0 1
gene  1 1639 26 2.638823677941647 0 6329.0 0.0 1
gene  1 1 30 -4.864879633811277 0 6336.0 -4.864879633811277 1
gene  1 15 286 6.8571364552870655 0 6391.0 6.8571364552870655 1
gene  1 26 277 -7.6139893460096895 0 6402.0 -7.6139893460096895 1
gene  1 984 333 -0.2746708727174496 0 6442.0 -0.2746708727174496 1
gene  1 12 1685 1.0 0 6503.0 0.0 1
gene  1 1685 24 0.20129052057887642 0 6504.0 0.0 1
gene  1 4 1321 -1.3501292007379073 0 6517.0 -1.3501292007379073 1
gene  1 1367 1698 1.0 0 6564.0 0.0 1
gene  1 1698 492 -10.166554880406526 0 6565.0 0.0 1
gene  1 984 242 1.9440185465837756 0 6574.0 1.9440185465837756 1
gene  1 17 1487 -1.055182604606163 0 6598.0 -1.055182604606163 1
gene  1 780 1712 1.0 0 6635.0 0.0 1
gene  1 1712 28 0.8152174332290762 0 6636.0 0.0 1
gene  1 1497 128 7.58910591835848 0 6681.0 7.58910591835848 1
gene  1 110 355 -9.1206131420467 0 6710.0 -9.1206131420467 1
gene  1 25 1321 9.879690507588977 0 6737.0 9.879690507588977 1
gene  1 24 1743 1.0 0 6773.0 0.0 1
gene  1 1743 41 0.7041611002973363 0 6774.0 0.0 1
gene  1 502 286 8.85178966305528 0 6813.0 8.85178966305528 1
gene  1 23 103 -0.4048143015526484 0 6846.0 -0.4048143015526484 1
gene  1 650 277 1.1193737636633083 0 6864.0 1.1193737636633083 1
gene  1 99 1125 1.1613286408638057 0 6890.0 1.1613286408638057 1
gene  1 27 1795 1.0 0 6981.0 0.0 1
gene  1 1795 236 -9.183117112089807 0 6982.0 0.0 1
gene  1 762 295 9.643199240056376 0 6998.0 9.643199240056376 1
gene  1 613 1712 -7.789632665523744 0 7044.0 -7.789632665523744 1
gene  1 637 519 8.750591983531436 0 7074.0 8.750591983531436 1
gene  1 10 1821 1.0 0 7084.0 0.0 1
gene  1 1821 25 0.2779443092033518 0 7085.0 0.0 1
gene  1 3 877 8.576290453469953 0 7137.0 8.576290453469953 1
gene  1 242 1639 -6.406563891121316 0 7158.0 -6.406563891121316 1
gene  1 21 1367 3.9665787238774888 0 7187.0 3.9665787238774888 1
gene  1 110 1852 1.0 0 7224.0 0.0 1
gene  1 1852 26 0.17226926783242408 0 7225.0 0.0 1
gene  1 27 1865 1.0 0 7278.0 0.0 1
gene  1 1865 32 1.0654473885398326 0 7279.0 0.0 1
gene  1 22 1866 1.0 0 7280.0 0.0 1
gene  1 1866 26 -0.8853447786938764 0 7281.0 0.0 1
gene  1 1090 1877 1.0 0 7321.0 0.0 1
gene  1 1877 24 1.9984107658146633 0 7322.0 0.0 1
gene  1 449 1890 1.0 0 7379.0 0.0 1
gene  1 1890 355 1.1406736985867385 0 7380.0 0.0 1
gene  1 32 1896 1.0 0 7402.0 0.0 1
gene  1 1896 277 2.2177074487957547 0 7403.0 0.0 1
gene  1 286 1907 1.0 0 7432.0 0.0 1
gene  1 1907 28 0.025667614407639316 0 7433.0 0.0 1
gene  1 17 1915 1.0 0 7468.0 0.0 1
gene  1 1915 1008 7.4825575616648985 0 7469.0 0.0 1
gene  1 637 1685 -2.5153481219374294 0 7498.0 -2.5153481219374294 1
gene  1 15 1934 1.0 0 7548.0 0.0 1
gene  1 1934 286 6.8571364552870655 0 7549.0 0.0 1
gene  1 2 1497 8.638643556654372 0 7564.0 8.638643556654372 1
gene  1 684 236 3.0109735905410417 0 7626.0 3.0109735905410417 1
gene  1 1524 69 8.57582385521156 0 7650.0 8.57582385521156 1
gene  1 1685 1896 -7.037739337804707 0 7671.0 -7.037739337804707 1
gene  1 817 650 6.903945433219435 0 7711.0 6.903945433219435 1
gene  1 355 1984 1.0 0 7751.0 0.0 1
gene  1 1984 333 -0.9474445607950321 0 7752.0 0.0 1
gene  1 19 1090 -6.200691756673492 0 7782.0 -6.200691756673492 1
gene  1 27 2003 1.0 0 7819.0 0.0 1
gene  1 2003 32 1.0654473885398326 0 7820.0 0.0 1
gene  1 1304 2011 1.0 0 7854.0 0.0 1
gene  1 2011 449 -9.66342426761149 0 7855.0 0.0 1
gene  1 1417 277 -9.95907511707764 0 7878.0 -9.95907511707764 1
gene  1 1 2034 1.0 0 7942.0 0.0 1
gene  1 2034 24 0.6836074841519658 0 7943.0 0.0 1
gene  1 502 242 -8.642650812192652 0 7973.0 -8.642650812192652 1
gene  1 10 2054 1.0 0 8014.0 0.0 1
gene  1 2054 519 1.0 0 8015.0 0.0 1
gene  1 1008 2059 1.0 0 8036.0 0.0 1
gene  1 2059 150 -0.4951572804097779 0 8037.0 0.0 1
gene  1 355 1795 9.428017536451087 0 8060.0 9.428017536451087 1
gene  1 242 2072 1.0 0 8089.0 0.0 1
gene  1 2072 103 8.287160315783602 0 8090.0 0.0 1
gene  1 1090 1866 7.437318555568682 0 8115.0 7.437318555568682 1
gene  1 1327 2090 1.0 0 8153.0 0.0 1
gene  1 2090 355 -0.6412007496555301 0 8154.0 0.0 1
gene  1 333 953 -3.0138022045868675 0 8198.0 -3.0138022045868675 1
gene  1 17 236 7.646034737842298 0 8237.0 7.646034737842298 1
gene  1 17 2119 1.0 0 8270.0 0.0 1
gene  1 2119 1008 7.4825575616648985 0 8271.0 0.0 1
gene  1 1852 650 -5.7205409928379005 0 8299.0 -5.7205409928379005 1
gene  1 2003 1524 -4.830615671582102 0 8329.0 -4.830615671582102 1
gene  1 1852 967 -5.4574940239900736 0 8360.0 -5.4574940239900736 1
gene  1 1459 1360 -1.846084477665162 0 8392.0 -1.846084477665162 1
genomeend 2
/* Organism # 003 Fitness:  0,000 Error:  0,000                      */
genomestart  3
trait 1 0.15906958955964612 0.29105188460910975 0.0 0.0 0.0 0.0 0.0 0.0 
node 1 1 1 1
node 2 1 1 1
node 3 1 1 1
node 4 1 1 1
node 5 1 1 1
node 6 1 1 1
node 7 1 1 1
node 8 1 1 1
node 9 1 1 1
node 10 1 1 1
node 11 1 1 1
node 12 1 1 1
node 13 1 1 1
node 14 1 1 1
node 15 1 1 1
node 16 1 1 1
node 17 1 1 1
node 18 1 1 1
node 19 1 1 1
node 20 1 1 1
node 21 1 1 1
node 22 1 1 1
node 23 1 1 3
node 24 1 0 0
node 25 1 0 0
node 26 1 0 0
node 27 1 0 0
node 28 1 0 2
node 29 1 0 2
node 30 1 0 2
node 31 1 0 2
node 32 1 0 2
node 41 1 0 0
node 69 1 0 0
node 99 1 0 0
node 103 1 0 0
node 110 1 0 0
node 128 1 0 0
node 150 1 0 0
node 191 1 0 0
node 236 1 0 0
node 242 1 0 0
node 277 1 0 0
node 286 1 0 0
node 295 1 0 0
node 310 1 0 0
node 333 1 0 0
node 355 1 0 0
node 361 1 0 0
node 390 1 0 0
node 419 1 0 0
node 449 1 0 0
node 458 1 0 0
node 492 1 0 0
node 502 1 0 0
node 519 1 0 0
node 550 1 0 0
node 613 1 0 0
node 637 1 0 0
node 650 1 0 0
node 684 1 0 0
node 693 1 0 0
node 762 1 0 0
node 780 1 0 0
node 801 1 0 0
node 817 1 0 0
node 833 1 0 0
node 837 1 0 0
node 877 1 0 0
node 949 1 0 0
node 953 1 0 0
node 967 1 0 0
node 984 1 0 0
node 1008 1 0 0
node 1029 1 0 0
node 1062 1 0 0
node 1090 1 0 0
node 1102 1 0 0
node 1125 1 0 0
node 1134 1 0 0
node 1274 1 0 0
node 1291 1 0 0
node 1304 1 0 0
node 1314 1 0 0
node 1321 1 0 0
node 1327 1 0 0
node 1346 1 0 0
node 1360 1 0 0
node 1367 1 0 0
node 1410 1 0 0
node 1417 1 0 0
node 1459 1 0 0
node 1482 1 0 0
node 1487 1 0 0
node 1497 1 0 0
node 1505 1 0 0
node 1524 1 0 0
node 1533 1 0 0
node 1569 1 0 0
node 1584 1 0 0
node 1593 1 0 0
node 1598 1 0 0
node 1620 1 0 0
node 1639 1 0 0
node 1685 1 0 0
node 1698 1 0 0
node 1712 1 0 0
node 1743 1 0 0
node 1795 1 0 0
node 1821 1 0 0
node 1852 1 0 0
node 1865 1 0 0
node 1866 1 0 0
node 1877 1 0 0
node 1890 1 0 0
node 1896 1 0 0
node 1907 1 0 0
node 1915 1 0 0
node 1934 1 0 0
node 1984 1 0 0
node 2003 1 0 0
node 2011 1 0 0
node 2034 1 0 0
node 2054 1 0 0
node 2059 1 0 0
node 2072 1 0 0
node 2090 1 0 0
node 2119 1 0 0
gene  1 1 24 2.014689616224287 0 1.0 2.014689616224287 1
gene  1 2 24 1.051342716106515 0 2.0 1.051342716106515 1
gene  1 3 24 3.3282625096928444 0 3.0 3.3282625096928444 1
gene  1 4 24 1.979816162583134 0 4.0 1.979816162583134 1
gene  1 5 24 0.9625366794621004 0 5.0 0.9625366794621004 1
gene  1 6 24 1.4464975258623978 0 6.0 1.4464975258623978 1
gene  1 7 24 1.787550006154634 0 7.0 1.787550006154634 1
gene  1 8 24 1.0693559756426896 0 8.0 1.0693559756426896 1
gene  1 9 24 1.725891952217973 0 9.0 1.725891952217973 1
gene  1 10 24 3.104081081952671 0 10.0 3.104081081952671 1
gene  1 11 24 -0.7716395244840402 0 11.0 -0.7716395244840402 1
gene  1 12 24 1.6520100417953005 0 12.0 1.6520100417953005 1
gene  1 13 24 -1.5729600954675158 0 13.0 -1.5729600954675158 1
gene  1 14 24 -3.4865552037188348 0 14.0 -3.4865552037188348 1
gene  1 15 24 4.1964896856620095 0 15.0 4.1964896856620095 1
gene  1 16 24 0.08767919407476565 0 16.0 0.08767919407476565 1
gene  1 17 24 2.120917059885585 0 17.0 2.120917059885585 1
gene  1 18 24 2.167767240504226 0 18.0 2.167767240504226 1
gene  1 19 24 2.8648007507619146 0 19.0 2.8648007507619146 1
gene  1 20 24 -1.7822690164241808 0 20.0 -1.7822690164241808 1
gene  1 21 24 0.581630269561794 0 21.0 0.581630269561794 1
gene  1 22 24 3.3346811855293317 0 22.0 3.3346811855293317 1
gene  1 23 24 0.41865380445095457 0 23.0 0.41865380445095457 1
gene  1 1 25 0.6154095691625152 0 24.0 0.6154095691625152 1
gene  1 2 25 -2.8755165268856366 0 25.0 -2.8755165268856366 1
gene  1 3 25 0.42903193207473156 0 26.0 0.42903193207473156 1
gene  1 4 25 -1.3730224121556724 0 27.0 -1.3730224121556724 1
gene  1 5 25 1.1175988749958572 0 28.0 1.1175988749958572 1
gene  1 6 25 -2.4478513537460005 0 29.0 -2.4478513537460005 1
gene  1 7 25 -0.4412447556420012 0 30.0 -0.4412447556420012 1
gene  1 8 25 -0.7200989908956414 0 31.0 -0.7200989908956414 1
gene  1 9 25 -2.4145025137636176 0 32.0 -2.4145025137636176 1
gene  1 10 25 -1.24596904557834 0 33.0 -1.24596904557834 1
gene  1 11 25 0.9014184898942799 0 34.0 0.9014184898942799 1
gene  1 12 25 1.5921173405903122 0 35.0 1.5921173405903122 1
gene  1 13 25 -1.2351814578924105 0 36.0 -1.2351814578924105 1
gene  1 14 25 -3.059644076776931 0 37.0 -3.059644076776931 1
gene  1 15 25 -1.1811887145923865 0 38.0 -1.1811887145923865 1
gene  1 16 25 -1.4758930695687782 0 39.0 -1.4758930695687782 1
gene  1 17 25 1.2229924127857335 0 40.0 1.2229924127857335 1
gene  1 18 25 -2.273385861555007 0 41.0 -2.273385861555007 1
gene  1 19 25 -1.8963916370755176 0 42.0 -1.8963916370755176 1
gene  1 20 25 -0.46339964208881035 0 43.0 -0.46339964208881035 1
gene  1 21 25 -3.344706124108737 0 44.0 -3.344706124108737 1
gene  1 22 25 0.30711144858827955 0 45.0 0.30711144858827955 1
gene  1 23 25 2.211182550883856 0 46.0 2.211182550883856 1
gene  1 1 26 0.8816287712010914 0 47.0 0.8816287712010914 1
gene  1 2 26 0.2127692447142704 0 48.0 0.2127692447142704 1
gene  1 3 26 -0.4637383568535931 0 49.0 -0.4637383568535931 1
gene  1 4 26 -0.3090104250381529 0 50.0 -0.3090104250381529 1
gene  1 5 26 -0.12888085719292763 0 51.0 -0.12888085719292763 1
gene  1 6 26 -0.08439446225818203 0 52.0 -0.08439446225818203 1
gene  1 7 26 3.638514011465806 0 53.0 3.638514011465806 1
gene  1 8 26 1.9122213110960682 0 54.0 1.9122213110960682 1
gene  1 9 26 0.2253560576635072 0 55.0 0.2253560576635072 1
gene  1 10 26 3.226820999264663 0 56.0 3.226820999264663 1
gene  1 11 26 0.2771855911712798 0 57.0 0.2771855911712798 1
gene  1 12 26 -2.1207493881860957 0 58.0 -2.1207493881860957 1
gene  1 13 26 -1.093383410771803 0 59.0 -1.093383410771803 1
gene  1 14 26 -0.3565124368312211 0 60.0 -0.3565124368312211 1
gene  1 15 26 -2.068964209960266 0 61.0 -2.068964209960266 1
gene  1 16 26 -0.11780154251805924 0 62.0 -0.11780154251805924 1
gene  1 17 26 -1.5605271419313844 0 63.0 -1.5605271419313844 1
gene  1 18 26 4.356643197478145 0 64.0 4.356643197478145 1
gene  1 19 26 -0.078635992170625 0 65.0 -0.078635992170625 1
gene  1 20 26 -1.5917759943419099 0 66.0 -1.5917759943419099 1
gene  1 21 26 -0.9637127438591322 0 67.0 -0.9637127438591322 1
gene  1 22 26 -0.7429446378325002 0 68.0 -0.7429446378325002 1
gene  1 23 26 -0.9879349590157099 0 69.0 -0.9879349590157099 1
gene  1 1 27 1.360516620259662 0 70.0 1.360516620259662 1
gene  1 2 27 -0.23276718388744344 0 71.0 -0.23276718388744344 1
gene  1 3 27 -2.774183748328245 0 72.0 -2.774183748328245 1
gene  1 4 27 2.273308141809645 0 73.0 2.273308141809645 1
gene  1 5 27 0.09319807967656413 0 74.0 0.09319807967656413 1
gene  1 6 27 -0.29938843418164174 0 75.0 -0.29938843418164174 1
gene  1 7 27 0.3225975673248329 0 76.0 0.3225975673248329 1
gene  1 8 27 1.3588260773815568 0 77.0 1.3588260773815568 1
gene  1 9 27 -2.8503833869512993 0 78.0 -2.8503833869512993 1
gene  1 10 27 1.2849080385009302 0 79.0 1.2849080385009302 1
gene  1 11 27 0.649007759184857 0 80.0 0.649007759184857 1
gene  1 12 27 1.8204120668777084 0 81.0 1.8204120668777084 1
gene  1 13 27 -2.645307360032785 0 82.0 -2.645307360032785 1
gene  1 14 27 -1.699815201094725 0 83.0 -1.699815201094725 1
gene  1 15 27 2.365194745443094 0 84.0 2.365194745443094 1
gene  1 16 27 -2.4100030796377325 0 85.0 -2.4100030796377325 1
gene  1 17 27 1.1641354279973304 0 86.0 1.1641354279973304 1
gene  1 18 27 -4.0270337706569395 0 87.0 -4.0270337706569395 1
gene  1 19 27 0.9635940309111093 0 88.0 0.9635940309111093 1
gene  1 20 27 -1.5546206558809303 0 89.0 -1.5546206558809303 1
gene  1 21 27 -3.525475923233814 0 90.0 -3.525475923233814 1
gene  1 22 27 -0.20721715934182405 0 91.0 -0.20721715934182405 1
gene  1 23 27 -2.7987944125960222 0 92.0 -2.7987944125960222 1
gene  1 23 28 0.9238307269943655 0 93.0 0.9238307269943655 1
gene  1 24 28 3.4863623265916623 0 94.0 3.4863623265916623 1
gene  1 25 28 1.14482469087144 0 95.0 1.14482469087144 1
gene  1 26 28 0.5882664755670108 0 96.0 0.5882664755670108 1
gene  1 27 28 -0.0385259159294018 0 97.0 -0.0385259159294018 1
gene  1 23 29 -0.7168693113680842 0 98.0 -0.7168693113680842 1
gene  1 24 29 0.13709890162989363 0 99.0 0.13709890162989363 1
gene  1 25 29 2.0081239104076944 0 100.0 2.0081239104076944 1
gene  1 26 29 1.633428353144858 0 101.0 1.633428353144858 1
gene  1 27 29 0.24578722111506612 0 102.0 0.24578722111506612 1
gene  1 23 30 0.2708311754370387 0 103.0 0.2708311754370387 1
gene  1 24 30 -1.13682992273218 0 104.0 -1.13682992273218 1
gene  1 25 30 -0.3931548776629803 0 105.0 -0.3931548776629803 1
gene  1 26 30 -0.9599893379071971 0 106.0 -0.9599893379071971 1
gene  1 27 30 0.44882308591764364 0 107.0 0.44882308591764364 1
gene  1 23 31 0.6580540769879288 0 108.0 0.6580540769879288 1
gene  1 24 31 0.77248384192597 0 109.0 0.77248384192597 1
gene  1 25 31 0.04426877126092599 0 110.0 0.04426877126092599 1
gene  1 26 31 0.037577348976186586 0 111.0 0.037577348976186586 1
gene  1 27 31 -2.550865742714689 0 112.0 -2.550865742714689 1
gene  1 23 32 1.144695960805075 0 113.0 1.144695960805075 1
gene  1 24 32 -0.4516906456365428 0 114.0 -0.4516906456365428 1
gene  1 25 32 -3.4677069294694247 0 115.0 -3.4677069294694247 1
gene  1 26 32 1.0344771040702967 0 116.0 1.0344771040702967 1
gene  1 27 32 0.01586904631284325 0 117.0 0.01586904631284325 1
gene  1 15 28 1.5868381881482176 0 145.0 1.5868381881482176 1
gene  1 24 41 -0.6771067416822034 0 162.0 -0.6771067416822034 1
gene  1 41 29 -1.7957880767476126 0 163.0 -1.7957880767476126 1
gene  1 11 28 7.1522988256126325 0 192.0 7.1522988256126325 1
gene  1 8 29 0.91130875909776 0 252.0 0.91130875909776 1
gene  1 8 69 -0.443507599614269 0 286.0 -0.443507599614269 1
gene  1 69 26 -2.411513043731404 0 287.0 -2.411513043731404 1
gene  1 14 28 10.129724576570855 0 325.0 10.129724576570855 1
gene  1 10 28 4.561700536875561 0 337.0 4.561700536875561 1
gene  1 15 32 6.306243292515637 0 371.0 6.306243292515637 1
gene  1 20 99 1.5958910001039783 0 420.0 1.5958910001039783 1
gene  1 99 27 -2.6037441588617947 0 421.0 -2.6037441588617947 1
gene  1 5 103 -1.2814845806394863 0 442.0 -1.2814845806394863 1
gene  1 103 24 0.621491880421351 0 443.0 0.621491880421351 1
gene  1 3 110 -3.175435662390383 0 466.0 -3.175435662390383 1
gene  1 110 26 -0.5531120188141443 0 467.0 -0.5531120188141443 0
gene  1 17 99 8.938326603180164 0 517.0 8.938326603180164 1
gene  1 16 128 -3.3033841000104047 0 542.0 -3.3033841000104047 1
gene  1 128 25 1.5541036770496022 0 543.0 1.5541036770496022 1
gene  1 22 103 -4.793300689200342 0 584.0 -4.793300689200342 1
gene  1 24 150 1.9311291898667093 0 612.0 1.9311291898667093 1
gene  1 150 29 0.5020466787689055 0 613.0 0.5020466787689055 1
