/* Species # 030         : (size= 006) (AvfFit= 1662,500) (Age= 46,000)  */
/*-------------------------------------------------------------------*/
/* Organism # 000 Fitness:  0,000 Error:  0,000                      */
genomestart  0
trait 1 0.0 0.0 0.0 0.0 0.0 0.0 0.0 0.0 
node 1 1 1 1
node 2 1 1 1
node 3 1 1 1
node 4 1 1 1
node 5 1 1 1
node 6 1 1 1
node 7 1 1 1
node 8 1 1 1
node 9 1 1 1
node 10 1 1 1
node 11 1 1 1
node 12 1 1 1
node 13 1 1 1
node 14 1 1 1
node 15 1 1 1
node 16 1 1 1
node 17 1 1 1
node 18 1 1 1
node 19 1 1 1
node 20 1 1 1
node 21 1 1 1
node 22 1 1 1
node 23 1 1 3
node 24 1 0 0
node 25 1 0 0
node 26 1 0 0
node 27 1 0 0
node 28 1 0 2
node 29 1 0 2
node 30 1 0 2
node 31 1 0 2
node 32 1 0 2
node 41 1 0 0
node 69 1 0 0
node 99 1 0 0
node 103 1 0 0
node 110 1 0 0
node 128 1 0 0
node 150 1 0 0
node 191 1 0 0
node 236 1 0 0
node 242 1 0 0
node 277 1 0 0
node 286 1 0 0
node 295 1 0 0
node 310 1 0 0
node 333 1 0 0
node 355 1 0 0
node 361 1 0 0
node 390 1 0 0
node 419 1 0 0
node 449 1 0 0
node 458 1 0 0
node 492 1 0 0
node 502 1 0 0
node 519 1 0 0
node 550 1 0 0
node 613 1 0 0
node 626 1 0 0
node 644 1 0 0
node 674 1 0 0
node 729 1 0 0
gene  1 1 24 0.6836074841519658 0 1.0 0.6836074841519658 1
gene  1 2 24 0.2418349725060388 0 2.0 0.2418349725060388 1
gene  1 3 24 2.231101296592862 0 3.0 2.231101296592862 1
gene  1 4 24 1.9984107658146633 0 4.0 1.9984107658146633 1
gene  1 5 24 -1.295047861402809 0 5.0 -1.295047861402809 1
gene  1 6 24 -0.46614332725808727 0 6.0 -0.46614332725808727 1
gene  1 7 24 -0.6632373714736616 0 7.0 -0.6632373714736616 1
gene  1 8 24 -1.1786407631101534 0 8.0 -1.1786407631101534 1
gene  1 9 24 0.7083499676735852 0 9.0 0.7083499676735852 1
gene  1 10 24 1.8287682424176324 0 10.0 1.8287682424176324 1
gene  1 11 24 0.13114292736241406 0 11.0 0.13114292736241406 1
gene  1 12 24 0.20129052057887642 0 12.0 0.20129052057887642 1
gene  1 13 24 0.15119511013894327 0 13.0 0.15119511013894327 1
gene  1 14 24 -2.305494291515135 0 14.0 -2.305494291515135 1
gene  1 15 24 1.7866237942300476 0 15.0 1.7866237942300476 1
gene  1 16 24 0.4609847206181178 0 16.0 0.4609847206181178 1
gene  1 17 24 1.1367228621818093 0 17.0 1.1367228621818093 1
gene  1 18 24 1.0832013029571876 0 18.0 1.0832013029571876 1
gene  1 19 24 1.1167443914792334 0 19.0 1.1167443914792334 1
gene  1 20 24 0.07414205454090883 0 20.0 0.07414205454090883 1
gene  1 21 24 0.5418885079930811 0 21.0 0.5418885079930811 1
gene  1 22 24 2.484950267181405 0 22.0 2.484950267181405 1
gene  1 23 24 0.425929415896056 0 23.0 0.425929415896056 1
gene  1 1 25 0.6154095691625152 0 24.0 0.6154095691625152 1
gene  1 2 25 -2.8755165268856366 0 25.0 -2.8755165268856366 1
gene  1 3 25 2.689302679798512 0 26.0 2.689302679798512 1
gene  1 4 25 -0.7614296740576152 0 27.0 -0.7614296740576152 1
gene  1 5 25 -0.12017325232786724 0 28.0 -0.12017325232786724 1
gene  1 6 25 -0.8995478796312145 0 29.0 -0.8995478796312145 1
gene  1 7 25 -0.012654369140360444 0 30.0 -0.012654369140360444 1
gene  1 8 25 1.3910890901314834 0 31.0 1.3910890901314834 1
gene  1 9 25 0.3584175622867064 0 32.0 0.3584175622867064 1
gene  1 10 25 0.2779443092033518 0 33.0 0.2779443092033518 1
gene  1 11 25 1.142465146794125 0 34.0 1.142465146794125 1
gene  1 12 25 0.9036541395774667 0 35.0 0.9036541395774667 1
gene  1 13 25 -1.2351814578924105 0 36.0 -1.2351814578924105 1
gene  1 14 25 -2.406576236033213 0 37.0 -2.406576236033213 1
gene  1 15 25 -1.3059963432256165 0 38.0 -1.3059963432256165 1
gene  1 16 25 -0.07279068140327355 0 39.0 -0.07279068140327355 1
gene  1 17 25 2.1463068148221858 0 40.0 2.1463068148221858 1
gene  1 18 25 -0.8147305052695352 0 41.0 -0.8147305052695352 1
gene  1 19 25 -1.8963916370755176 0 42.0 -1.8963916370755176 1
gene  1 20 25 -0.17530964326477716 0 43.0 -0.17530964326477716 1
gene  1 21 25 -2.1615664960138625 0 44.0 -2.1615664960138625 1
gene  1 22 25 -0.5353496319643707 0 45.0 -0.5353496319643707 1
gene  1 23 25 2.211182550883856 0 46.0 2.211182550883856 1
gene  1 1 26 -0.1813538282281052 0 47.0 -0.1813538282281052 1
gene  1 2 26 1.0348232233393615 0 48.0 1.0348232233393615 1
gene  1 3 26 -0.26852393576716355 0 49.0 -0.26852393576716355 1
gene  1 4 26 -0.5462351900443294 0 50.0 -0.5462351900443294 1
gene  1 5 26 1.841798679175527 0 51.0 1.841798679175527 1
gene  1 6 26 0.9246057866887103 0 52.0 0.9246057866887103 1
gene  1 7 26 2.961718684201993 0 53.0 2.961718684201993 1
gene  1 8 26 1.3531921659176516 0 54.0 1.3531921659176516 1
gene  1 9 26 -1.7276248866576271 0 55.0 -1.7276248866576271 1
gene  1 10 26 2.0139802487278704 0 56.0 2.0139802487278704 1
gene  1 11 26 1.528778550886252 0 57.0 1.528778550886252 1
gene  1 12 26 -0.5785609867130133 0 58.0 -0.5785609867130133 1
gene  1 13 26 -2.6797800697851013 0 59.0 -2.6797800697851013 1
gene  1 14 26 -0.5697240976550146 0 60.0 -0.5697240976550146 0
gene  1 15 26 -0.6337731619541322 0 61.0 -0.6337731619541322 1
gene  1 16 26 -3.0562620734655126 0 62.0 -3.0562620734655126 1
gene  1 17 26 -0.6658234717228073 0 63.0 -0.6658234717228073 1
gene  1 18 26 3.3403867808578074 0 64.0 3.3403867808578074 1
gene  1 19 26 0.7776803632315288 0 65.0 0.7776803632315288 1
gene  1 20 26 -0.7243609006292111 0 66.0 -0.7243609006292111 1
gene  1 21 26 -3.0739483612397973 0 67.0 -3.0739483612397973 1
gene  1 22 26 -0.8853447786938764 0 68.0 -0.8853447786938764 1
gene  1 23 26 -1.392668583310223 0 69.0 -1.392668583310223 1
gene  1 1 27 0.1950912962028929 0 70.0 0.1950912962028929 1
gene  1 2 27 -2.3849842766314993 0 71.0 -2.3849842766314993 1
gene  1 3 27 -1.4510293084069832 0 72.0 -1.4510293084069832 1
gene  1 4 27 -2.108078397682316 0 73.0 -2.108078397682316 1
gene  1 5 27 0.9853093818432086 0 74.0 0.9853093818432086 1
gene  1 6 27 1.9012442085109171 0 75.0 1.9012442085109171 1
gene  1 7 27 -1.1359514906506512 0 76.0 -1.1359514906506512 1
gene  1 8 27 1.3588260773815568 0 77.0 1.3588260773815568 1
gene  1 9 27 -2.8086161361721667 0 78.0 -2.8086161361721667 1
gene  1 10 27 0.6822866399342444 0 79.0 0.6822866399342444 1
gene  1 11 27 -1.4192574802827127 0 80.0 -1.4192574802827127 1
gene  1 12 27 2.0194659787646483 0 81.0 2.0194659787646483 1
gene  1 13 27 -3.29794013327734 0 82.0 -3.29794013327734 0
gene  1 14 27 -1.0273223382155723 0 83.0 -1.0273223382155723 1
gene  1 15 27 0.8854793246663014 0 84.0 0.8854793246663014 1
gene  1 16 27 -2.4100030796377325 0 85.0 -2.4100030796377325 1
gene  1 17 27 1.1641354279973304 0 86.0 1.1641354279973304 1
gene  1 18 27 -1.5657621004727782 0 87.0 -1.5657621004727782 1
gene  1 19 27 0.9635940309111093 0 88.0 0.9635940309111093 1
gene  1 20 27 -1.5141808232294682 0 89.0 -1.5141808232294682 1
gene  1 21 27 -1.6098739089238192 0 90.0 -1.6098739089238192 1
gene  1 22 27 -0.20721715934182405 0 91.0 -0.20721715934182405 1
gene  1 23 27 -2.7987944125960222 0 92.0 -2.7987944125960222 1
gene  1 23 28 1.3272888213665466 0 93.0 1.3272888213665466 1
gene  1 24 28 1.3820786340802313 0 94.0 1.3820786340802313 1
gene  1 25 28 0.8152174332290762 0 95.0 0.8152174332290762 1
gene  1 26 28 -1.8871519098029614 0 96.0 -1.8871519098029614 1
gene  1 27 28 -1.0416194194378714 0 97.0 -1.0416194194378714 1
gene  1 23 29 1.712662646035409 0 98.0 1.712662646035409 1
gene  1 24 29 0.3750308964985809 0 99.0 0.3750308964985809 1
gene  1 25 29 2.0081239104076944 0 100.0 2.0081239104076944 1
gene  1 26 29 -1.8177506182944394 0 101.0 -1.8177506182944394 1
gene  1 27 29 0.24578722111506612 0 102.0 0.24578722111506612 1
gene  1 23 30 -0.9792201881248785 0 103.0 -0.9792201881248785 1
gene  1 24 30 0.3847222154010963 0 104.0 0.3847222154010963 1
gene  1 25 30 1.8066113481737804 0 105.0 1.8066113481737804 1
gene  1 26 30 0.2284221571408082 0 106.0 0.2284221571408082 1
gene  1 27 30 2.7779870153214823 0 107.0 2.7779870153214823 1
gene  1 23 31 0.4191893547743016 0 108.0 0.4191893547743016 1
gene  1 24 31 0.77248384192597 0 109.0 0.77248384192597 1
gene  1 25 31 -2.4322039769326436 0 110.0 -2.4322039769326436 1
gene  1 26 31 1.9221518817702068 0 111.0 1.9221518817702068 1
gene  1 27 31 -1.706516430146761 0 112.0 -1.706516430146761 1
gene  1 23 32 -1.20797389976055 0 113.0 -1.20797389976055 1
gene  1 24 32 0.41904467590066785 0 114.0 0.41904467590066785 1
gene  1 25 32 -1.5085101012937148 0 115.0 -1.5085101012937148 1
gene  1 26 32 -0.2604847518040827 0 116.0 -0.2604847518040827 1
gene  1 27 32 1.0654473885398326 0 117.0 1.0654473885398326 1
gene  1 15 28 4.70782994343627 0 145.0 4.70782994343627 1
gene  1 24 41 0.7041611002973363 0 162.0 0.7041611002973363 1
gene  1 41 29 -0.7849467345565301 0 163.0 -0.7849467345565301 1
gene  1 11 28 9.218883268875562 0 192.0 9.218883268875562 1
gene  1 8 29 -2.176334847719313 0 252.0 -2.176334847719313 1
gene  1 8 69 0.6109648487557431 0 286.0 0.6109648487557431 1
gene  1 69 26 2.7645682336002895 0 287.0 2.7645682336002895 0
gene  1 14 28 8.721990907806568 0 325.0 8.721990907806568 1
gene  1 10 28 4.561700536875561 0 337.0 4.561700536875561 1
gene  1 15 32 6.306243292515637 0 371.0 6.306243292515637 1
gene  1 20 99 2.16353396511089 0 420.0 2.16353396511089 1
gene  1 99 27 -2.8094737854649665 0 421.0 -2.8094737854649665 1
gene  1 5 103 -1.0264695869117828 0 442.0 -1.0264695869117828 1
gene  1 103 24 1.3671339875182222 0 443.0 1.3671339875182222 1
gene  1 3 110 -1.3192452305966889 0 466.0 -1.3192452305966889 1
gene  1 110 26 0.17226926783242408 0 467.0 0.17226926783242408 1
gene  1 17 99 8.667263408509712 0 517.0 8.667263408509712 1
gene  1 16 128 -1.1029401447466332 0 542.0 -1.1029401447466332 1
gene  1 128 25 1.5541036770496022 0 543.0 1.5541036770496022 1
gene  1 22 103 -3.6589079271917693 0 584.0 -3.6589079271917693 1
gene  1 24 150 -0.4951572804097779 0 612.0 -0.4951572804097779 1
gene  1 150 29 1.760461199179113 0 613.0 1.760461199179113 1
gene  1 6 128 7.989030214491342 0 659.0 7.989030214491342 1
gene  1 150 69 7.977677494161361 0 697.0 7.977677494161361 1
gene  1 31 32 -7.223103554147636 0 712.0 -7.223103554147636 1
gene  1 26 41 -6.934677827942377 0 740.0 -6.934677827942377 1
gene  1 7 191 2.7026679260086692 0 774.0 2.7026679260086692 1
gene  1 191 26 2.8964560025688257 0 775.0 2.8964560025688257 1
gene  1 103 26 0.9890079923258703 0 816.0 0.9890079923258703 1
gene  1 9 29 -5.980022400228384 0 851.0 -5.980022400228384 1
gene  1 11 99 -3.9682740919211192 0 864.0 -3.9682740919211192 1
gene  1 12 99 -10.457000068568073 0 920.0 -10.457000068568073 1
gene  1 26 236 2.413153052333878 0 945.0 2.413153052333878 1
gene  1 236 28 -0.39879288095864707 0 946.0 -0.39879288095864707 1
gene  1 22 242 0.9659975009029367 0 964.0 0.9659975009029367 1
gene  1 242 24 1.9563221533460138 0 965.0 1.9563221533460138 1
gene  1 15 99 9.470992938607854 0 1027.0 9.470992938607854 1
gene  1 191 69 2.1652779438076055 0 1052.0 2.1652779438076055 1
gene  1 15 277 0.9471773128246486 0 1090.0 0.9471773128246486 1
gene  1 277 28 2.35561451715437 0 1091.0 2.35561451715437 1
gene  1 27 286 -0.12275845610281455 0 1116.0 -0.12275845610281455 1
gene  1 286 28 0.025667614407639316 0 1117.0 0.025667614407639316 0
gene  1 191 295 1.462792961073816 0 1142.0 1.462792961073816 1
gene  1 295 26 -0.6328061547708835 0 1143.0 -0.6328061547708835 1
gene  1 22 128 0.47233297098327853 0 1174.0 0.47233297098327853 0
gene  1 19 310 2.4856618195935347 0 1209.0 2.4856618195935347 1
gene  1 310 24 -1.6364077796782248 0 1210.0 -1.6364077796782248 1
gene  1 242 103 8.287160315783602 0 1238.0 8.287160315783602 1
gene  1 16 236 -0.9082556621137352 0 1287.0 -0.9082556621137352 1
gene  1 20 333 1.0 0 1305.0 1.0 1
gene  1 333 24 -0.43803176646816433 0 1306.0 -0.43803176646816433 1
gene  1 14 277 -7.3398616412898825 0 1364.0 -7.3398616412898825 1
gene  1 2 355 -0.6544197900779483 0 1395.0 -0.6544197900779483 1
gene  1 355 27 0.057231611804800075 0 1396.0 0.057231611804800075 1
gene  1 69 361 -0.018934202235794118 0 1416.0 -0.018934202235794118 1
gene  1 361 26 2.638823677941647 0 1417.0 2.638823677941647 1
gene  1 9 32 -4.24720604900855 0 1466.0 -4.24720604900855 1
gene  1 14 333 -3.785843903385777 0 1482.0 -3.785843903385777 1
gene  1 32 277 2.2177074487957547 0 1522.0 2.2177074487957547 1
gene  1 3 390 1.0 0 1547.0 1.0 1
gene  1 390 26 2.717639197728152 0 1548.0 2.717639197728152 1
gene  1 286 236 0.7913139280449974 0 1594.0 0.7913139280449974 1
gene  1 20 419 1.0 0 1638.0 1.0 1
gene  1 419 27 2.372046399786742 0 1639.0 2.372046399786742 1
gene  1 17 355 -3.941543941741722 0 1648.0 -3.941543941741722 1
gene  1 8 150 0.9703385552652399 0 1688.0 0.9703385552652399 1
gene  1 355 310 -5.568152431032543 0 1725.0 -5.568152431032543 1
gene  1 2 449 2.715246405901041 0 1757.0 2.715246405901041 1
gene  1 449 355 1.1406736985867385 0 1758.0 1.1406736985867385 1
gene  1 10 458 1.0 0 1789.0 1.0 1
gene  1 458 26 0.8334553162957417 0 1790.0 0.8334553162957417 1
gene  1 286 242 0.0177850674950375 0 1819.0 0.0177850674950375 1
gene  1 103 361 -4.425782843693852 0 1881.0 -4.425782843693852 1
gene  1 22 492 1.0 0 1911.0 0.0 1
gene  1 492 128 0.47233297098327853 0 1912.0 0.0 1
gene  1 14 502 1.0 0 1950.0 0.0 1
gene  1 502 25 -2.406576236033213 0 1951.0 0.0 1
gene  1 10 519 1.0 0 2010.0 0.0 1
gene  1 519 25 0.2779443092033518 0 2011.0 0.0 1
gene  1 103 333 -4.925490828342904 0 2033.0 -4.925490828342904 1
gene  1 7 242 -8.589149608783572 0 2047.0 -8.589149608783572 1
gene  1 361 30 -3.364430012547958 0 2081.0 -3.364430012547958 1
gene  1 286 550 1.0 0 2139.0 0.0 1
gene  1 550 28 0.025667614407639316 0 2140.0 0.0 1
gene  1 16 449 -4.819583852973205 0 2207.0 -4.819583852973205 1
gene  1 22 99 -2.805021694326193 0 2256.0 -2.805021694326193 1
gene  1 519 191 5.4862128461960324 0 2286.0 5.4862128461960324 1
gene  1 41 277 -9.127596344581471 0 2326.0 -9.127596344581471 1
gene  1 19 613 1.0 0 2370.0 0.0 1
gene  1 613 24 1.1167443914792334 0 2371.0 0.0 1
gene  1 19 361 -0.9731171545944906 0 2386.0 -0.9731171545944906 1
gene  1 24 626 1.0 0 2421.0 0.0 1
gene  1 626 41 0.7041611002973363 0 2422.0 0.0 1
gene  1 613 191 8.61007281023515 0 2462.0 8.61007281023515 1
gene  1 286 644 1.0 0 2492.0 0.0 1
gene  1 644 242 0.0177850674950375 0 2493.0 0.0 1
gene  1 492 361 6.873881767971453 0 2528.0 6.873881767971453 1
gene  1 99 550 9.694820978337278 0 2554.0 9.694820978337278 1
gene  1 519 69 -2.9993393596543596 0 2590.0 -2.9993393596543596 1
gene  1 14 674 1.0 0 2618.0 0.0 1
gene  1 674 26 -0.5697240976550146 0 2619.0 0.0 1
gene  1 355 26 -1.0618746689138803 0 2649.0 -1.0618746689138803 1
gene  1 24 361 -3.0614201662043516 0 2740.0 -3.0614201662043516 1
gene  1 19 110 8.48201327144358 0 2771.0 8.48201327144358 1
gene  1 128 99 1.9118712444818209 0 2805.0 1.9118712444818209 1
gene  1 13 729 1.0 0 2821.0 0.0 1
gene  1 729 27 -3.29794013327734 0 2822.0 0.0 1
gene  1 626 277 0.4555983170303879 0 2859.0 0.4555983170303879 1
gene  1 390 236 2.5182058722531684 0 2889.0 2.5182058722531684 1
genomeend 0
/* Organism # 001 Fitness:  0,000 Error:  0,000                      */
genomestart  1
trait 1 0.0 0.0 0.0 0.0 0.0 0.0 0.0 0.0 
node 1 1 1 1
node 2 1 1 1
node 3 1 1 1
node 4 1 1 1
node 5 1 1 1
node 6 1 1 1
node 7 1 1 1
node 8 1 1 1
node 9 1 1 1
node 10 1 1 1
node 11 1 1 1
node 12 1 1 1
node 13 1 1 1
node 14 1 1 1
node 15 1 1 1
node 16 1 1 1
node 17 1 1 1
node 18 1 1 1
node 19 1 1 1
node 20 1 1 1
node 21 1 1 1
node 22 1 1 1
node 23 1 1 3
node 24 1 0 0
node 25 1 0 0
node 26 1 0 0
node 27 1 0 0
node 28 1 0 2
node 29 1 0 2
node 30 1 0 2
node 31 1 0 2
node 32 1 0 2
node 41 1 0 0
node 69 1 0 0
node 99 1 0 0
node 103 1 0 0
node 110 1 0 0
node 128 1 0 0
node 150 1 0 0
node 191 1 0 0
node 236 1 0 0
node 242 1 0 0
node 277 1 0 0
node 286 1 0 0
node 295 1 0 0
node 310 1 0 0
node 333 1 0 0
node 355 1 0 0
node 361 1 0 0
node 390 1 0 0
node 419 1 0 0
node 449 1 0 0
node 458 1 0 0
node 492 1 0 0
node 502 1 0 0
node 519 1 0 0
node 550 1 0 0
node 613 1 0 0
node 626 1 0 0
node 644 1 0 0
node 674 1 0 0
node 729 1 0 0
gene  1 1 24 0.6836074841519658 0 1.0 0.6836074841519658 1
gene  1 2 24 0.2418349725060388 0 2.0 0.2418349725060388 1
gene  1 3 24 2.231101296592862 0 3.0 2.231101296592862 1
gene  1 4 24 1.9984107658146633 0 4.0 1.9984107658146633 1
gene  1 5 24 -1.295047861402809 0 5.0 -1.295047861402809 1
gene  1 6 24 -0.46614332725808727 0 6.0 -0.46614332725808727 1
gene  1 7 24 -0.6632373714736616 0 7.0 -0.6632373714736616 1
gene  1 8 24 -1.1786407631101534 0 8.0 -1.1786407631101534 1
gene  1 9 24 0.7083499676735852 0 9.0 0.7083499676735852 1
gene  1 10 24 1.8287682424176324 0 10.0 1.8287682424176324 1
gene  1 11 24 0.13114292736241406 0 11.0 0.13114292736241406 1
gene  1 12 24 0.20129052057887642 0 12.0 0.20129052057887642 1
gene  1 13 24 0.15119511013894327 0 13.0 0.15119511013894327 1
gene  1 14 24 -2.305494291515135 0 14.0 -2.305494291515135 1
gene  1 15 24 1.7866237942300476 0 15.0 1.7866237942300476 1
gene  1 16 24 0.4609847206181178 0 16.0 0.4609847206181178 1
gene  1 17 24 1.1367228621818093 0 17.0 1.1367228621818093 1
gene  1 18 24 1.0832013029571876 0 18.0 1.0832013029571876 1
gene  1 19 24 1.1167443914792334 0 19.0 1.1167443914792334 1
gene  1 20 24 0.07414205454090883 0 20.0 0.07414205454090883 1
gene  1 21 24 0.5418885079930811 0 21.0 0.5418885079930811 1
gene  1 22 24 2.484950267181405 0 22.0 2.484950267181405 1
gene  1 23 24 0.425929415896056 0 23.0 0.425929415896056 1
gene  1 1 25 0.6154095691625152 0 24.0 0.6154095691625152 1
gene  1 2 25 -2.8755165268856366 0 25.0 -2.8755165268856366 1
gene  1 3 25 2.689302679798512 0 26.0 2.689302679798512 1
gene  1 4 25 -0.7614296740576152 0 27.0 -0.7614296740576152 1
gene  1 5 25 -0.12017325232786724 0 28.0 -0.12017325232786724 1
gene  1 6 25 -0.8995478796312145 0 29.0 -0.8995478796312145 1
gene  1 7 25 -0.012654369140360444 0 30.0 -0.012654369140360444 1
gene  1 8 25 1.3910890901314834 0 31.0 1.3910890901314834 1
gene  1 9 25 0.3584175622867064 0 32.0 0.3584175622867064 1
gene  1 10 25 0.2779443092033518 0 33.0 0.2779443092033518 1
gene  1 11 25 1.142465146794125 0 34.0 1.142465146794125 1
gene  1 12 25 0.9036541395774667 0 35.0 0.9036541395774667 1
gene  1 13 25 -1.2351814578924105 0 36.0 -1.2351814578924105 1
gene  1 14 25 -2.406576236033213 0 37.0 -2.406576236033213 1
gene  1 15 25 -1.3059963432256165 0 38.0 -1.3059963432256165 1
gene  1 16 25 -0.07279068140327355 0 39.0 -0.07279068140327355 1
gene  1 17 25 2.1463068148221858 0 40.0 2.1463068148221858 1
gene  1 18 25 -0.8147305052695352 0 41.0 -0.8147305052695352 1
gene  1 19 25 -1.8963916370755176 0 42.0 -1.8963916370755176 1
gene  1 20 25 -0.17530964326477716 0 43.0 -0.17530964326477716 1
gene  1 21 25 -2.1615664960138625 0 44.0 -2.1615664960138625 1
gene  1 22 25 -0.5353496319643707 0 45.0 -0.5353496319643707 1
gene  1 23 25 2.211182550883856 0 46.0 2.211182550883856 1
gene  1 1 26 -0.1813538282281052 0 47.0 -0.1813538282281052 1
gene  1 2 26 1.0348232233393615 0 48.0 1.0348232233393615 1
gene  1 3 26 -0.26852393576716355 0 49.0 -0.26852393576716355 1
gene  1 4 26 -0.5462351900443294 0 50.0 -0.5462351900443294 1
gene  1 5 26 1.841798679175527 0 51.0 1.841798679175527 1
gene  1 6 26 0.9246057866887103 0 52.0 0.9246057866887103 1
gene  1 7 26 2.961718684201993 0 53.0 2.961718684201993 1
gene  1 8 26 1.3531921659176516 0 54.0 1.3531921659176516 1
gene  1 9 26 -1.7276248866576271 0 55.0 -1.7276248866576271 1
gene  1 10 26 2.0139802487278704 0 56.0 2.0139802487278704 1
gene  1 11 26 1.528778550886252 0 57.0 1.528778550886252 1
gene  1 12 26 -0.5785609867130133 0 58.0 -0.5785609867130133 1
gene  1 13 26 -2.6797800697851013 0 59.0 -2.6797800697851013 1
gene  1 14 26 -0.5697240976550146 0 60.0 -0.5697240976550146 0
gene  1 15 26 -0.6337731619541322 0 61.0 -0.6337731619541322 1
gene  1 16 26 -3.0562620734655126 0 62.0 -3.0562620734655126 1
gene  1 17 26 -0.6658234717228073 0 63.0 -0.6658234717228073 1
gene  1 18 26 3.3403867808578074 0 64.0 3.3403867808578074 1
gene  1 19 26 0.7776803632315288 0 65.0 0.7776803632315288 1
gene  1 20 26 -0.7243609006292111 0 66.0 -0.7243609006292111 1
gene  1 21 26 -3.0739483612397973 0 67.0 -3.0739483612397973 1
gene  1 22 26 -0.8853447786938764 0 68.0 -0.8853447786938764 1
gene  1 23 26 -1.392668583310223 0 69.0 -1.392668583310223 1
gene  1 1 27 0.1950912962028929 0 70.0 0.1950912962028929 1
gene  1 2 27 -2.3849842766314993 0 71.0 -2.3849842766314993 1
gene  1 3 27 -1.4510293084069832 0 72.0 -1.4510293084069832 1
gene  1 4 27 -2.108078397682316 0 73.0 -2.108078397682316 1
gene  1 5 27 0.9853093818432086 0 74.0 0.9853093818432086 1
gene  1 6 27 1.9012442085109171 0 75.0 1.9012442085109171 1
gene  1 7 27 -1.1359514906506512 0 76.0 -1.1359514906506512 1
gene  1 8 27 1.3588260773815568 0 77.0 1.3588260773815568 1
gene  1 9 27 -2.8086161361721667 0 78.0 -2.8086161361721667 1
gene  1 10 27 0.6822866399342444 0 79.0 0.6822866399342444 1
gene  1 11 27 -1.4192574802827127 0 80.0 -1.4192574802827127 1
gene  1 12 27 2.0194659787646483 0 81.0 2.0194659787646483 1
gene  1 13 27 -3.29794013327734 0 82.0 -3.29794013327734 0
gene  1 14 27 -1.0273223382155723 0 83.0 -1.0273223382155723 1
gene  1 15 27 0.8854793246663014 0 84.0 0.8854793246663014 1
gene  1 16 27 -2.4100030796377325 0 85.0 -2.4100030796377325 1
gene  1 17 27 1.1641354279973304 0 86.0 1.1641354279973304 1
gene  1 18 27 -1.5657621004727782 0 87.0 -1.5657621004727782 1
gene  1 19 27 0.9635940309111093 0 88.0 0.9635940309111093 1
gene  1 20 27 -1.5141808232294682 0 89.0 -1.5141808232294682 1
gene  1 21 27 -1.6098739089238192 0 90.0 -1.6098739089238192 1
gene  1 22 27 -0.20721715934182405 0 91.0 -0.20721715934182405 1
gene  1 23 27 -2.7987944125960222 0 92.0 -2.7987944125960222 1
gene  1 23 28 1.3272888213665466 0 93.0 1.3272888213665466 1
gene  1 24 28 1.3820786340802313 0 94.0 1.3820786340802313 1
gene  1 25 28 0.8152174332290762 0 95.0 0.8152174332290762 1
gene  1 26 28 -1.8871519098029614 0 96.0 -1.8871519098029614 1
gene  1 27 28 -1.0416194194378714 0 97.0 -1.0416194194378714 1
gene  1 23 29 1.712662646035409 0 98.0 1.712662646035409 1
gene  1 24 29 0.3750308964985809 0 99.0 0.3750308964985809 1
gene  1 25 29 2.0081239104076944 0 100.0 2.0081239104076944 1
gene  1 26 29 -1.8177506182944394 0 101.0 -1.8177506182944394 1
gene  1 27 29 0.24578722111506612 0 102.0 0.24578722111506612 1
gene  1 23 30 -0.9792201881248785 0 103.0 -0.9792201881248785 1
gene  1 24 30 0.3847222154010963 0 104.0 0.3847222154010963 1
gene  1 25 30 1.8066113481737804 0 105.0 1.8066113481737804 1
gene  1 26 30 0.2284221571408082 0 106.0 0.2284221571408082 1
gene  1 27 30 2.7779870153214823 0 107.0 2.7779870153214823 1
gene  1 23 31 0.4191893547743016 0 108.0 0.4191893547743016 1
gene  1 24 31 0.77248384192597 0 109.0 0.77248384192597 1
gene  1 25 31 -2.4322039769326436 0 110.0 -2.4322039769326436 1
gene  1 26 31 1.9221518817702068 0 111.0 1.9221518817702068 1
gene  1 27 31 -1.706516430146761 0 112.0 -1.706516430146761 1
gene  1 23 32 -1.20797389976055 0 113.0 -1.20797389976055 1
gene  1 24 32 0.41904467590066785 0 114.0 0.41904467590066785 1
gene  1 25 32 -1.5085101012937148 0 115.0 -1.5085101012937148 1
gene  1 26 32 -0.2604847518040827 0 116.0 -0.2604847518040827 1
gene  1 27 32 1.0654473885398326 0 117.0 1.0654473885398326 1
gene  1 15 28 4.70782994343627 0 145.0 4.70782994343627 1
gene  1 24 41 0.7041611002973363 0 162.0 0.7041611002973363 1
gene  1 41 29 -0.7849467345565301 0 163.0 -0.7849467345565301 1
gene  1 11 28 9.218883268875562 0 192.0 9.218883268875562 1
gene  1 8 29 -2.176334847719313 0 252.0 -2.176334847719313 1
gene  1 8 69 0.6109648487557431 0 286.0 0.6109648487557431 1
gene  1 69 26 2.7645682336002895 0 287.0 2.7645682336002895 0
gene  1 14 28 8.721990907806568 0 325.0 8.721990907806568 1
gene  1 10 28 4.561700536875561 0 337.0 4.561700536875561 1
gene  1 15 32 6.306243292515637 0 371.0 6.306243292515637 1
gene  1 20 99 2.16353396511089 0 420.0 2.16353396511089 1
gene  1 99 27 -2.8094737854649665 0 421.0 -2.8094737854649665 1
gene  1 5 103 -1.0264695869117828 0 442.0 -1.0264695869117828 1
gene  1 103 24 1.3671339875182222 0 443.0 1.3671339875182222 1
gene  1 3 110 -1.3192452305966889 0 466.0 -1.3192452305966889 1
gene  1 110 26 0.17226926783242408 0 467.0 0.17226926783242408 1
gene  1 17 99 8.667263408509712 0 517.0 8.667263408509712 1
gene  1 16 128 -1.1029401447466332 0 542.0 -1.1029401447466332 1
gene  1 128 25 1.5541036770496022 0 543.0 1.5541036770496022 1
gene  1 22 103 -3.6589079271917693 0 584.0 -3.6589079271917693 1
gene  1 24 150 -0.4951572804097779 0 612.0 -0.4951572804097779 1
gene  1 150 29 1.760461199179113 0 613.0 1.760461199179113 1
gene  1 6 128 7.989030214491342 0 659.0 7.989030214491342 1
gene  1 150 69 7.977677494161361 0 697.0 7.977677494161361 1
gene  1 31 32 -7.223103554147636 0 712.0 -7.223103554147636 1
gene  1 26 41 -6.934677827942377 0 740.0 -6.934677827942377 1
gene  1 7 191 2.7026679260086692 0 774.0 2.7026679260086692 1
gene  1 191 26 2.8964560025688257 0 775.0 2.8964560025688257 1
gene  1 103 26 0.9890079923258703 0 816.0 0.9890079923258703 1
gene  1 9 29 -5.980022400228384 0 851.0 -5.980022400228384 1
gene  1 11 99 -3.9682740919211192 0 864.0 -3.9682740919211192 1
gene  1 12 99 -10.457000068568073 0 920.0 -10.457000068568073 1
gene  1 26 236 2.413153052333878 0 945.0 2.413153052333878 1
gene  1 236 28 -0.39879288095864707 0 946.0 -0.39879288095864707 1
gene  1 22 242 0.9659975009029367 0 964.0 0.9659975009029367 1
gene  1 242 24 1.9563221533460138 0 965.0 1.9563221533460138 1
gene  1 15 99 9.470992938607854 0 1027.0 9.470992938607854 1
gene  1 191 69 2.1652779438076055 0 1052.0 2.1652779438076055 1
gene  1 15 277 0.9471773128246486 0 1090.0 0.9471773128246486 1
gene  1 277 28 2.35561451715437 0 1091.0 2.35561451715437 1
gene  1 27 286 -0.12275845610281455 0 1116.0 -0.12275845610281455 1
gene  1 286 28 0.025667614407639316 0 1117.0 0.025667614407639316 0
gene  1 191 295 1.462792961073816 0 1142.0 1.462792961073816 1
gene  1 295 26 -0.6328061547708835 0 1143.0 -0.6328061547708835 1
gene  1 22 128 0.47233297098327853 0 1174.0 0.47233297098327853 0
gene  1 19 310 2.4856618195935347 0 1209.0 2.4856618195935347 1
gene  1 310 24 -1.6364077796782248 0 1210.0 -1.6364077796782248 1
gene  1 242 103 8.287160315783602 0 1238.0 8.287160315783602 1
gene  1 16 236 -0.9082556621137352 0 1287.0 -0.9082556621137352 1
gene  1 20 333 1.0 0 1305.0 1.0 1
gene  1 333 24 -0.43803176646816433 0 1306.0 -0.43803176646816433 1
gene  1 14 277 -7.3398616412898825 0 1364.0 -7.3398616412898825 1
gene  1 2 355 -0.6544197900779483 0 1395.0 -0.6544197900779483 1
gene  1 355 27 0.057231611804800075 0 1396.0 0.057231611804800075 1
gene  1 69 361 -0.018934202235794118 0 1416.0 -0.018934202235794118 1
gene  1 361 26 2.638823677941647 0 1417.0 2.638823677941647 1
gene  1 9 32 -4.24720604900855 0 1466.0 -4.24720604900855 1
gene  1 14 333 -3.785843903385777 0 1482.0 -3.785843903385777 1
gene  1 32 277 2.2177074487957547 0 1522.0 2.2177074487957547 1
gene  1 3 390 1.0 0 1547.0 1.0 1
gene  1 390 26 2.717639197728152 0 1548.0 2.717639197728152 1
gene  1 286 236 0.7913139280449974 0 1594.0 0.7913139280449974 1
gene  1 20 419 1.0 0 1638.0 1.0 1
gene  1 419 27 2.372046399786742 0 1639.0 2.372046399786742 1
gene  1 17 355 -3.941543941741722 0 1648.0 -3.941543941741722 1
gene  1 8 150 0.9703385552652399 0 1688.0 0.9703385552652399 1
gene  1 355 310 -5.568152431032543 0 1725.0 -5.568152431032543 1
gene  1 2 449 2.715246405901041 0 1757.0 2.715246405901041 1
gene  1 449 355 1.1406736985867385 0 1758.0 1.1406736985867385 1
gene  1 10 458 1.0 0 1789.0 1.0 1
gene  1 458 26 0.8334553162957417 0 1790.0 0.8334553162957417 1
gene  1 286 242 0.0177850674950375 0 1819.0 0.0177850674950375 1
gene  1 103 361 -4.425782843693852 0 1881.0 -4.425782843693852 1
gene  1 22 492 1.0 0 1911.0 0.0 1
gene  1 492 128 0.47233297098327853 0 1912.0 0.0 1
gene  1 14 502 1.0 0 1950.0 0.0 1
gene  1 502 25 -2.406576236033213 0 1951.0 0.0 1
gene  1 10 519 1.0 0 2010.0 0.0 1
gene  1 519 25 0.2779443092033518 0 2011.0 0.0 1
gene  1 103 333 -4.925490828342904 0 2033.0 -4.925490828342904 1
gene  1 7 242 -8.589149608783572 0 2047.0 -8.589149608783572 1
gene  1 361 30 -3.364430012547958 0 2081.0 -3.364430012547958 1
gene  1 286 550 1.0 0 2139.0 0.0 1
gene  1 550 28 0.025667614407639316 0 2140.0 0.0 1
gene  1 16 449 -4.819583852973205 0 2207.0 -4.819583852973205 1
gene  1 22 99 -2.805021694326193 0 2256.0 -2.805021694326193 1
gene  1 519 191 5.4862128461960324 0 2286.0 5.4862128461960324 1
gene  1 41 277 -9.127596344581471 0 2326.0 -9.127596344581471 1
gene  1 19 613 1.0 0 2370.0 0.0 1
gene  1 613 24 1.1167443914792334 0 2371.0 0.0 1
gene  1 19 361 -0.9731171545944906 0 2386.0 -0.9731171545944906 1
gene  1 24 626 1.0 0 2421.0 0.0 1
gene  1 626 41 0.7041611002973363 0 2422.0 0.0 1
gene  1 613 191 8.61007281023515 0 2462.0 8.61007281023515 1
gene  1 286 644 1.0 0 2492.0 0.0 1
gene  1 644 242 0.0177850674950375 0 2493.0 0.0 1
gene  1 492 361 6.873881767971453 0 2528.0 6.873881767971453 1
gene  1 99 550 9.694820978337278 0 2554.0 9.694820978337278 1
gene  1 519 69 -2.9993393596543596 0 2590.0 -2.9993393596543596 1
gene  1 14 674 1.0 0 2618.0 0.0 1
gene  1 674 26 -0.5697240976550146 0 2619.0 0.0 1
gene  1 355 26 -1.0618746689138803 0 2649.0 -1.0618746689138803 1
gene  1 24 361 -3.0614201662043516 0 2740.0 -3.0614201662043516 1
gene  1 19 110 8.48201327144358 0 2771.0 8.48201327144358 1
gene  1 128 99 1.9118712444818209 0 2805.0 1.9118712444818209 1
gene  1 13 729 1.0 0 2821.0 0.0 1
gene  1 729 27 -3.29794013327734 0 2822.0 0.0 1
gene  1 626 277 0.4555983170303879 0 2859.0 0.4555983170303879 1
gene  1 390 236 2.5182058722531684 0 2889.0 2.5182058722531684 1
genomeend 1
/* Organism # 002 Fitness:  0,000 Error:  0,000                      */
genomestart  2
trait 1 0.0 0.0 0.0 0.0 0.0 0.0 0.0 0.0 
node 1 1 1 1
node 2 1 1 1
node 3 1 1 1
node 4 1 1 1
node 5 1 1 1
node 6 1 1 1
node 7 1 1 1
node 8 1 1 1
node 9 1 1 1
node 10 1 1 1
node 11 1 1 1
node 12 1 1 1
node 13 1 1 1
node 14 1 1 1
node 15 1 1 1
node 16 1 1 1
node 17 1 1 1
node 18 1 1 1
node 19 1 1 1
node 20 1 1 1
node 21 1 1 1
node 22 1 1 1
node 23 1 1 3
node 24 1 0 0
node 25 1 0 0
node 26 1 0 0
node 27 1 0 0
node 28 1 0 2
node 29 1 0 2
node 30 1 0 2
node 31 1 0 2
node 32 1 0 2
node 41 1 0 0
node 69 1 0 0
node 99 1 0 0
node 103 1 0 0
node 110 1 0 0
node 128 1 0 0
node 150 1 0 0
node 191 1 0 0
node 236 1 0 0
node 242 1 0 0
node 277 1 0 0
node 286 1 0 0
node 295 1 0 0
node 310 1 0 0
node 333 1 0 0
node 355 1 0 0
node 361 1 0 0
node 390 1 0 0
node 419 1 0 0
node 449 1 0 0
node 458 1 0 0
node 492 1 0 0
node 502 1 0 0
node 519 1 0 0
node 550 1 0 0
node 613 1 0 0
node 626 1 0 0
node 644 1 0 0
node 674 1 0 0
node 729 1 0 0
gene  1 1 24 0.6836074841519658 0 1.0 0.6836074841519658 1
gene  1 2 24 0.2418349725060388 0 2.0 0.2418349725060388 1
gene  1 3 24 2.231101296592862 0 3.0 2.231101296592862 1
gene  1 4 24 1.9984107658146633 0 4.0 1.9984107658146633 1
gene  1 5 24 -1.295047861402809 0 5.0 -1.295047861402809 1
gene  1 6 24 -0.46614332725808727 0 6.0 -0.46614332725808727 1
gene  1 7 24 -0.6632373714736616 0 7.0 -0.6632373714736616 1
gene  1 8 24 -1.1786407631101534 0 8.0 -1.1786407631101534 1
gene  1 9 24 0.7083499676735852 0 9.0 0.7083499676735852 1
gene  1 10 24 1.8287682424176324 0 10.0 1.8287682424176324 1
gene  1 11 24 0.13114292736241406 0 11.0 0.13114292736241406 1
gene  1 12 24 0.20129052057887642 0 12.0 0.20129052057887642 1
gene  1 13 24 0.15119511013894327 0 13.0 0.15119511013894327 1
gene  1 14 24 -2.305494291515135 0 14.0 -2.305494291515135 1
gene  1 15 24 1.7866237942300476 0 15.0 1.7866237942300476 1
gene  1 16 24 0.4609847206181178 0 16.0 0.4609847206181178 1
gene  1 17 24 1.1367228621818093 0 17.0 1.1367228621818093 1
gene  1 18 24 1.0832013029571876 0 18.0 1.0832013029571876 1
gene  1 19 24 1.1167443914792334 0 19.0 1.1167443914792334 1
gene  1 20 24 0.07414205454090883 0 20.0 0.07414205454090883 1
gene  1 21 24 0.5418885079930811 0 21.0 0.5418885079930811 1
gene  1 22 24 2.484950267181405 0 22.0 2.484950267181405 1
gene  1 23 24 0.425929415896056 0 23.0 0.425929415896056 1
gene  1 1 25 0.6154095691625152 0 24.0 0.6154095691625152 1
gene  1 2 25 -2.8755165268856366 0 25.0 -2.8755165268856366 1
gene  1 3 25 2.689302679798512 0 26.0 2.689302679798512 1
gene  1 4 25 -0.7614296740576152 0 27.0 -0.7614296740576152 1
gene  1 5 25 -0.12017325232786724 0 28.0 -0.12017325232786724 1
gene  1 6 25 -0.8995478796312145 0 29.0 -0.8995478796312145 1
gene  1 7 25 -0.012654369140360444 0 30.0 -0.012654369140360444 1
gene  1 8 25 1.3910890901314834 0 31.0 1.3910890901314834 1
gene  1 9 25 0.3584175622867064 0 32.0 0.3584175622867064 1
gene  1 10 25 0.2779443092033518 0 33.0 0.2779443092033518 1
gene  1 11 25 1.142465146794125 0 34.0 1.142465146794125 1
gene  1 12 25 0.9036541395774667 0 35.0 0.9036541395774667 1
gene  1 13 25 -1.2351814578924105 0 36.0 -1.2351814578924105 1
gene  1 14 25 -2.406576236033213 0 37.0 -2.406576236033213 1
gene  1 15 25 -1.3059963432256165 0 38.0 -1.3059963432256165 1
gene  1 16 25 -0.07279068140327355 0 39.0 -0.07279068140327355 1
gene  1 17 25 2.1463068148221858 0 40.0 2.1463068148221858 1
gene  1 18 25 -0.8147305052695352 0 41.0 -0.8147305052695352 1
gene  1 19 25 -1.8963916370755176 0 42.0 -1.8963916370755176 1
gene  1 20 25 -0.17530964326477716 0 43.0 -0.17530964326477716 1
gene  1 21 25 -2.1615664960138625 0 44.0 -2.1615664960138625 1
gene  1 22 25 -0.5353496319643707 0 45.0 -0.5353496319643707 1
gene  1 23 25 2.211182550883856 0 46.0 2.211182550883856 1
gene  1 1 26 -0.1813538282281052 0 47.0 -0.1813538282281052 1
gene  1 2 26 1.0348232233393615 0 48.0 1.0348232233393615 1
gene  1 3 26 -0.26852393576716355 0 49.0 -0.26852393576716355 1
gene  1 4 26 -0.5462351900443294 0 50.0 -0.5462351900443294 1
gene  1 5 26 1.841798679175527 0 51.0 1.841798679175527 1
gene  1 6 26 0.9246057866887103 0 52.0 0.9246057866887103 1
gene  1 7 26 2.961718684201993 0 53.0 2.961718684201993 1
gene  1 8 26 1.3531921659176516 0 54.0 1.3531921659176516 1
gene  1 9 26 -1.7276248866576271 0 55.0 -1.7276248866576271 1
gene  1 10 26 2.0139802487278704 0 56.0 2.0139802487278704 1
gene  1 11 26 1.528778550886252 0 57.0 1.528778550886252 1
gene  1 12 26 -0.5785609867130133 0 58.0 -0.5785609867130133 1
gene  1 13 26 -2.6797800697851013 0 59.0 -2.6797800697851013 1
gene  1 14 26 -0.5697240976550146 0 60.0 -0.5697240976550146 1
gene  1 15 26 -0.6337731619541322 0 61.0 -0.6337731619541322 1
gene  1 16 26 -3.0562620734655126 0 62.0 -3.0562620734655126 1
gene  1 17 26 -0.6658234717228073 0 63.0 -0.6658234717228073 1
gene  1 18 26 3.3403867808578074 0 64.0 3.3403867808578074 1
gene  1 19 26 0.7776803632315288 0 65.0 0.7776803632315288 1
gene  1 20 26 -0.7243609006292111 0 66.0 -0.7243609006292111 1
gene  1 21 26 -3.0739483612397973 0 67.0 -3.0739483612397973 1
gene  1 22 26 -0.8853447786938764 0 68.0 -0.8853447786938764 1
gene  1 23 26 -1.392668583310223 0 69.0 -1.392668583310223 1
gene  1 1 27 0.1950912962028929 0 70.0 0.1950912962028929 1
gene  1 2 27 -2.3849842766314993 0 71.0 -2.3849842766314993 1
gene  1 3 27 -1.4510293084069832 0 72.0 -1.4510293084069832 1
gene  1 4 27 -2.108078397682316 0 73.0 -2.108078397682316 1
gene  1 5 27 0.9853093818432086 0 74.0 0.9853093818432086 1
gene  1 6 27 1.9012442085109171 0 75.0 1.9012442085109171 1
gene  1 7 27 -1.1359514906506512 0 76.0 -1.1359514906506512 1
gene  1 8 27 1.3588260773815568 0 77.0 1.3588260773815568 1
gene  1 9 27 -2.8086161361721667 0 78.0 -2.8086161361721667 1
gene  1 10 27 0.6822866399342444 0 79.0 0.6822866399342444 1
gene  1 11 27 -1.4192574802827127 0 80.0 -1.4192574802827127 1
gene  1 12 27 2.0194659787646483 0 81.0 2.0194659787646483 1
gene  1 13 27 -3.29794013327734 0 82.0 -3.29794013327734 1
gene  1 14 27 -1.0273223382155723 0 83.0 -1.0273223382155723 1
gene  1 15 27 0.8854793246663014 0 84.0 0.8854793246663014 1
gene  1 16 27 -2.4100030796377325 0 85.0 -2.4100030796377325 1
gene  1 17 27 1.1641354279973304 0 86.0 1.1641354279973304 1
gene  1 18 27 -1.5657621004727782 0 87.0 -1.5657621004727782 1
gene  1 19 27 0.9635940309111093 0 88.0 0.9635940309111093 1
gene  1 20 27 -1.5141808232294682 0 89.0 -1.5141808232294682 1
gene  1 21 27 -1.6098739089238192 0 90.0 -1.6098739089238192 1
gene  1 22 27 -0.20721715934182405 0 91.0 -0.20721715934182405 1
gene  1 23 27 -2.7987944125960222 0 92.0 -2.7987944125960222 1
gene  1 23 28 1.3272888213665466 0 93.0 1.3272888213665466 1
gene  1 24 28 1.3820786340802313 0 94.0 1.3820786340802313 1
gene  1 25 28 0.8152174332290762 0 95.0 0.8152174332290762 1
gene  1 26 28 -1.8871519098029614 0 96.0 -1.8871519098029614 1
gene  1 27 28 -1.0416194194378714 0 97.0 -1.0416194194378714 1
gene  1 23 29 1.712662646035409 0 98.0 1.712662646035409 1
gene  1 24 29 0.3750308964985809 0 99.0 0.3750308964985809 1
gene  1 25 29 2.0081239104076944 0 100.0 2.0081239104076944 1
gene  1 26 29 -1.8177506182944394 0 101.0 -1.8177506182944394 1
gene  1 27 29 0.24578722111506612 0 102.0 0.24578722111506612 1
gene  1 23 30 -0.9792201881248785 0 103.0 -0.9792201881248785 1
gene  1 24 30 0.3847222154010963 0 104.0 0.3847222154010963 1
gene  1 25 30 1.8066113481737804 0 105.0 1.8066113481737804 1
gene  1 26 30 0.2284221571408082 0 106.0 0.2284221571408082 1
gene  1 27 30 2.7779870153214823 0 107.0 2.7779870153214823 1
gene  1 23 31 0.4191893547743016 0 108.0 0.4191893547743016 1
gene  1 24 31 0.77248384192597 0 109.0 0.77248384192597 1
gene  1 25 31 -2.4322039769326436 0 110.0 -2.4322039769326436 1
gene  1 26 31 1.9221518817702068 0 111.0 1.9221518817702068 1
gene  1 27 31 -1.706516430146761 0 112.0 -1.706516430146761 1
gene  1 23 32 -1.20797389976055 0 113.0 -1.20797389976055 1
gene  1 24 32 0.41904467590066785 0 114.0 0.41904467590066785 1
gene  1 25 32 -1.5085101012937148 0 115.0 -1.5085101012937148 1
gene  1 26 32 -0.2604847518040827 0 116.0 -0.2604847518040827 1
gene  1 27 32 1.0654473885398326 0 117.0 1.0654473885398326 1
gene  1 15 28 4.70782994343627 0 145.0 4.70782994343627 1
gene  1 24 41 0.7041611002973363 0 162.0 0.7041611002973363 1
gene  1 41 29 -0.7849467345565301 0 163.0 -0.7849467345565301 1
gene  1 11 28 9.218883268875562 0 192.0 9.218883268875562 1
gene  1 8 29 -2.176334847719313 0 252.0 -2.176334847719313 1
gene  1 8 69 0.6109648487557431 0 286.0 0.6109648487557431 1
gene  1 69 26 2.7645682336002895 0 287.0 2.7645682336002895 1
gene  1 14 28 8.721990907806568 0 325.0 8.721990907806568 1
gene  1 10 28 4.561700536875561 0 337.0 4.561700536875561 1
gene  1 15 32 6.306243292515637 0 371.0 6.306243292515637 1
gene  1 20 99 2.16353396511089 0 420.0 2.16353396511089 1
gene  1 99 27 -2.8094737854649665 0 421.0 -2.8094737854649665 1
gene  1 5 103 -1.0264695869117828 0 442.0 -1.0264695869117828 1
gene  1 103 24 1.3671339875182222 0 443.0 1.3671339875182222 1
gene  1 3 110 -1.3192452305966889 0 466.0 -1.3192452305966889 1
gene  1 110 26 0.17226926783242408 0 467.0 0.17226926783242408 1
gene  1 17 99 8.667263408509712 0 517.0 8.667263408509712 1
gene  1 16 128 -1.1029401447466332 0 542.0 -1.1029401447466332 1
gene  1 128 25 1.5541036770496022 0 543.0 1.5541036770496022 1
gene  1 22 103 -3.6589079271917693 0 584.0 -3.6589079271917693 1
gene  1 24 150 -0.4951572804097779 0 612.0 -0.4951572804097779 1
gene  1 150 29 1.760461199179113 0 613.0 1.760461199179113 1
gene  1 6 128 7.989030214491342 0 659.0 7.989030214491342 1
gene  1 150 69 7.977677494161361 0 697.0 7.977677494161361 1
gene  1 31 32 -7.223103554147636 0 712.0 -7.223103554147636 1
gene  1 26 41 -6.934677827942377 0 740.0 -6.934677827942377 1
gene  1 7 191 2.7026679260086692 0 774.0 2.7026679260086692 1
gene  1 191 26 2.8964560025688257 0 775.0 2.8964560025688257 1
gene  1 103 26 0.9890079923258703 0 816.0 0.9890079923258703 1
gene  1 9 29 -5.980022400228384 0 851.0 -5.980022400228384 1
gene  1 11 99 -3.9682740919211192 0 864.0 -3.9682740919211192 1
gene  1 12 99 -10.457000068568073 0 920.0 -10.457000068568073 1
gene  1 26 236 2.413153052333878 0 945.0 2.413153052333878 1
gene  1 236 28 -0.39879288095864707 0 946.0 -0.39879288095864707 1
gene  1 22 242 0.9659975009029367 0 964.0 0.9659975009029367 1
gene  1 242 24 1.9563221533460138 0 965.0 1.9563221533460138 1
gene  1 15 99 9.470992938607854 0 1027.0 9.470992938607854 1
gene  1 191 69 2.1652779438076055 0 1052.0 2.1652779438076055 1
gene  1 15 277 0.9471773128246486 0 1090.0 0.9471773128246486 1
gene  1 277 28 2.35561451715437 0 1091.0 2.35561451715437 1
gene  1 27 286 -0.12275845610281455 0 1116.0 -0.12275845610281455 1
gene  1 286 28 0.025667614407639316 0 1117.0 0.025667614407639316 0
gene  1 191 295 1.462792961073816 0 1142.0 1.462792961073816 1
gene  1 295 26 -0.6328061547708835 0 1143.0 -0.6328061547708835 1
gene  1 22 128 0.47233297098327853 0 1174.0 0.47233297098327853 0
gene  1 19 310 2.4856618195935347 0 1209.0 2.4856618195935347 1
gene  1 310 24 -1.6364077796782248 0 1210.0 -1.6364077796782248 1
gene  1 242 103 8.287160315783602 0 1238.0 8.287160315783602 1
gene  1 16 236 -0.9082556621137352 0 1287.0 -0.9082556621137352 1
gene  1 20 333 1.0 0 1305.0 1.0 1
gene  1 333 24 -0.43803176646816433 0 1306.0 -0.43803176646816433 1
gene  1 14 277 -7.3398616412898825 0 1364.0 -7.3398616412898825 1
gene  1 2 355 -0.6544197900779483 0 1395.0 -0.6544197900779483 1
gene  1 355 27 0.057231611804800075 0 1396.0 0.057231611804800075 1
gene  1 69 361 -0.018934202235794118 0 1416.0 -0.018934202235794118 1
gene  1 361 26 2.638823677941647 0 1417.0 2.638823677941647 1
gene  1 9 32 -4.24720604900855 0 1466.0 -4.24720604900855 1
gene  1 14 333 -3.785843903385777 0 1482.0 -3.785843903385777 1
gene  1 32 277 2.2177074487957547 0 1522.0 2.2177074487957547 1
gene  1 3 390 1.0 0 1547.0 1.0 1
gene  1 390 26 2.717639197728152 0 1548.0 2.717639197728152 1
gene  1 286 236 0.7913139280449974 0 1594.0 0.7913139280449974 1
gene  1 20 419 1.0 0 1638.0 1.0 1
gene  1 419 27 2.372046399786742 0 1639.0 2.372046399786742 1
gene  1 17 355 -3.941543941741722 0 1648.0 -3.941543941741722 1
gene  1 8 150 0.9703385552652399 0 1688.0 0.9703385552652399 1
gene  1 355 310 -5.568152431032543 0 1725.0 -5.568152431032543 1
gene  1 2 449 2.715246405901041 0 1757.0 2.715246405901041 1
gene  1 449 355 1.1406736985867385 0 1758.0 1.1406736985867385 1
gene  1 10 458 1.0 0 1789.0 1.0 1
gene  1 458 26 0.8334553162957417 0 1790.0 0.8334553162957417 1
gene  1 286 242 0.0177850674950375 0 1819.0 0.0177850674950375 1
gene  1 103 361 -4.425782843693852 0 1881.0 -4.425782843693852 1
gene  1 22 492 1.0 0 1911.0 0.0 1
gene  1 492 128 0.47233297098327853 0 1912.0 0.0 1
gene  1 14 502 1.0 0 1950.0 0.0 1
gene  1 502 25 -2.406576236033213 0 1951.0 0.0 1
gene  1 10 519 1.0 0 2010.0 0.0 1
gene  1 519 25 0.2779443092033518 0 2011.0 0.0 1
gene  1 103 333 -4.925490828342904 0 2033.0 -4.925490828342904 1
gene  1 7 242 -8.589149608783572 0 2047.0 -8.589149608783572 1
gene  1 361 30 -3.364430012547958 0 2081.0 -3.364430012547958 1
gene  1 286 550 1.0 0 2139.0 0.0 1
gene  1 550 28 0.025667614407639316 0 2140.0 0.0 1
gene  1 16 449 -4.819583852973205 0 2207.0 -4.819583852973205 1
gene  1 22 99 -2.805021694326193 0 2256.0 -2.805021694326193 1
gene  1 519 191 5.4862128461960324 0 2286.0 5.4862128461960324 1
gene  1 41 277 -9.127596344581471 0 2326.0 -9.127596344581471 1
gene  1 19 613 1.0 0 2370.0 0.0 1
gene  1 613 24 1.1167443914792334 0 2371.0 0.0 1
gene  1 19 361 -0.9731171545944906 0 2386.0 -0.9731171545944906 1
gene  1 24 626 1.0 0 2421.0 0.0 1
gene  1 626 41 0.7041611002973363 0 2422.0 0.0 1
gene  1 613 191 8.61007281023515 0 2462.0 8.61007281023515 1
gene  1 286 644 1.0 0 2492.0 0.0 1
gene  1 644 242 0.0177850674950375 0 2493.0 0.0 1
gene  1 492 361 6.873881767971453 0 2528.0 6.873881767971453 1
gene  1 99 550 9.694820978337278 0 2554.0 9.694820978337278 1
gene  1 519 69 -2.9993393596543596 0 2590.0 -2.9993393596543596 1
gene  1 14 674 1.0 0 2618.0 0.0 1
gene  1 674 26 -0.5697240976550146 0 2619.0 0.0 1
gene  1 355 26 -1.0618746689138803 0 2649.0 -1.0618746689138803 1
gene  1 24 361 -3.0614201662043516 0 2740.0 -3.0614201662043516 1
gene  1 19 110 8.48201327144358 0 2771.0 8.48201327144358 1
gene  1 128 99 1.9118712444818209 0 2805.0 1.9118712444818209 1
gene  1 13 729 1.0 0 2821.0 0.0 1
gene  1 729 27 -3.29794013327734 0 2822.0 0.0 1
gene  1 626 277 0.4555983170303879 0 2859.0 0.4555983170303879 1
gene  1 390 236 2.5182058722531684 0 2889.0 2.5182058722531684 1
gene  1 355 30 1.2289740779026292 0 2914.0 1.2289740779026292 1
genomeend 2
/* Organism # 003 Fitness:  0,000 Error:  0,000                      */
genomestart  3
trait 1 0.0 0.0 0.0 0.0 0.0 0.0 0.0 0.0 
node 1 1 1 1
node 2 1 1 1
node 3 1 1 1
node 4 1 1 1
node 5 1 1 1
node 6 1 1 1
node 7 1 1 1
node 8 1 1 1
node 9 1 1 1
node 10 1 1 1
node 11 1 1 1
node 12 1 1 1
node 13 1 1 1
node 14 1 1 1
node 15 1 1 1
node 16 1 1 1
node 17 1 1 1
node 18 1 1 1
node 19 1 1 1
node 20 1 1 1
node 21 1 1 1
node 22 1 1 1
node 23 1 1 3
node 24 1 0 0
node 25 1 0 0
node 26 1 0 0
node 27 1 0 0
node 28 1 0 2
node 29 1 0 2
node 30 1 0 2
node 31 1 0 2
node 32 1 0 2
node 41 1 0 0
node 69 1 0 0
node 99 1 0 0
node 103 1 0 0
node 110 1 0 0
node 128 1 0 0
node 150 1 0 0
node 191 1 0 0
node 236 1 0 0
node 242 1 0 0
node 277 1 0 0
node 286 1 0 0
node 295 1 0 0
node 310 1 0 0
node 333 1 0 0
node 355 1 0 0
node 361 1 0 0
node 390 1 0 0
node 419 1 0 0
node 449 1 0 0
node 458 1 0 0
node 492 1 0 0
node 502 1 0 0
node 519 1 0 0
node 550 1 0 0
node 613 1 0 0
node 626 1 0 0
node 644 1 0 0
node 674 1 0 0
node 729 1 0 0
gene  1 1 24 0.6836074841519658 0 1.0 0.6836074841519658 1
gene  1 2 24 0.2418349725060388 0 2.0 0.2418349725060388 1
gene  1 3 24 2.231101296592862 0 3.0 2.231101296592862 1
gene  1 4 24 1.9984107658146633 0 4.0 1.9984107658146633 1
gene  1 5 24 -1.295047861402809 0 5.0 -1.295047861402809 1
gene  1 6 24 -0.46614332725808727 0 6.0 -0.46614332725808727 1
gene  1 7 24 -0.6632373714736616 0 7.0 -0.6632373714736616 1
gene  1 8 24 -1.1786407631101534 0 8.0 -1.1786407631101534 1
gene  1 9 24 0.7083499676735852 0 9.0 0.7083499676735852 1
gene  1 10 24 1.8287682424176324 0 10.0 1.8287682424176324 1
gene  1 11 24 0.13114292736241406 0 11.0 0.13114292736241406 1
gene  1 12 24 0.20129052057887642 0 12.0 0.20129052057887642 1
gene  1 13 24 0.15119511013894327 0 13.0 0.15119511013894327 1
gene  1 14 24 -2.305494291515135 0 14.0 -2.305494291515135 1
gene  1 15 24 1.7866237942300476 0 15.0 1.7866237942300476 1
gene  1 16 24 0.4609847206181178 0 16.0 0.4609847206181178 1
gene  1 17 24 1.1367228621818093 0 17.0 1.1367228621818093 1
gene  1 18 24 1.0832013029571876 0 18.0 1.0832013029571876 1
gene  1 19 24 1.1167443914792334 0 19.0 1.1167443914792334 1
gene  1 20 24 0.07414205454090883 0 20.0 0.07414205454090883 1
gene  1 21 24 0.5418885079930811 0 21.0 0.5418885079930811 1
gene  1 22 24 2.484950267181405 0 22.0 2.484950267181405 1
gene  1 23 24 0.425929415896056 0 23.0 0.425929415896056 1
gene  1 1 25 0.6154095691625152 0 24.0 0.6154095691625152 1
gene  1 2 25 -2.8755165268856366 0 25.0 -2.8755165268856366 1
gene  1 3 25 2.689302679798512 0 26.0 2.689302679798512 1
gene  1 4 25 -0.7614296740576152 0 27.0 -0.7614296740576152 1
gene  1 5 25 -0.12017325232786724 0 28.0 -0.12017325232786724 1
gene  1 6 25 -0.8995478796312145 0 29.0 -0.8995478796312145 1
gene  1 7 25 -0.012654369140360444 0 30.0 -0.012654369140360444 1
gene  1 8 25 1.3910890901314834 0 31.0 1.3910890901314834 1
gene  1 9 25 0.3584175622867064 0 32.0 0.3584175622867064 1
gene  1 10 25 0.2779443092033518 0 33.0 0.2779443092033518 1
gene  1 11 25 1.142465146794125 0 34.0 1.142465146794125 1
gene  1 12 25 0.9036541395774667 0 35.0 0.9036541395774667 1
gene  1 13 25 -1.2351814578924105 0 36.0 -1.2351814578924105 1
gene  1 14 25 -2.406576236033213 0 37.0 -2.406576236033213 1
gene  1 15 25 -1.3059963432256165 0 38.0 -1.3059963432256165 1
gene  1 16 25 -0.07279068140327355 0 39.0 -0.07279068140327355 1
gene  1 17 25 2.1463068148221858 0 40.0 2.1463068148221858 1
gene  1 18 25 -0.8147305052695352 0 41.0 -0.8147305052695352 1
gene  1 19 25 -1.8963916370755176 0 42.0 -1.8963916370755176 1
gene  1 20 25 -0.17530964326477716 0 43.0 -0.17530964326477716 1
gene  1 21 25 -2.1615664960138625 0 44.0 -2.1615664960138625 1
gene  1 22 25 -0.5353496319643707 0 45.0 -0.5353496319643707 1
gene  1 23 25 2.211182550883856 0 46.0 2.211182550883856 1
gene  1 1 26 -0.1813538282281052 0 47.0 -0.1813538282281052 1
gene  1 2 26 1.0348232233393615 0 48.0 1.0348232233393615 1
gene  1 3 26 -0.26852393576716355 0 49.0 -0.26852393576716355 1
gene  1 4 26 -0.5462351900443294 0 50.0 -0.5462351900443294 1
gene  1 5 26 1.841798679175527 0 51.0 1.841798679175527 1
gene  1 6 26 0.9246057866887103 0 52.0 0.9246057866887103 1
gene  1 7 26 2.961718684201993 0 53.0 2.961718684201993 1
gene  1 8 26 1.3531921659176516 0 54.0 1.3531921659176516 1
gene  1 9 26 -1.7276248866576271 0 55.0 -1.7276248866576271 1
gene  1 10 26 2.0139802487278704 0 56.0 2.0139802487278704 1
gene  1 11 26 1.528778550886252 0 57.0 1.528778550886252 1
gene  1 12 26 -0.5785609867130133 0 58.0 -0.5785609867130133 1
gene  1 13 26 -2.6797800697851013 0 59.0 -2.6797800697851013 1
gene  1 14 26 -0.5697240976550146 0 60.0 -0.5697240976550146 0
gene  1 15 26 -0.6337731619541322 0 61.0 -0.6337731619541322 1
gene  1 16 26 -3.0562620734655126 0 62.0 -3.0562620734655126 1
gene  1 17 26 -0.6658234717228073 0 63.0 -0.6658234717228073 1
gene  1 18 26 3.3403867808578074 0 64.0 3.3403867808578074 1
gene  1 19 26 0.7776803632315288 0 65.0 0.7776803632315288 1
gene  1 20 26 -0.7243609006292111 0 66.0 -0.7243609006292111 1
gene  1 21 26 -3.0739483612397973 0 67.0 -3.0739483612397973 1
gene  1 22 26 -0.8853447786938764 0 68.0 -0.8853447786938764 1
gene  1 23 26 -1.392668583310223 0 69.0 -1.392668583310223 1
gene  1 1 27 0.1950912962028929 0 70.0 0.1950912962028929 1
gene  1 2 27 -2.3849842766314993 0 71.0 -2.3849842766314993 1
gene  1 3 27 -1.4510293084069832 0 72.0 -1.4510293084069832 1
gene  1 4 27 -2.108078397682316 0 73.0 -2.108078397682316 1
gene  1 5 27 0.9853093818432086 0 74.0 0.9853093818432086 1
gene  1 6 27 1.9012442085109171 0 75.0 1.9012442085109171 1
gene  1 7 27 -1.1359514906506512 0 76.0 -1.1359514906506512 1
gene  1 8 27 1.3588260773815568 0 77.0 1.3588260773815568 1
gene  1 9 27 -2.8086161361721667 0 78.0 -2.8086161361721667 1
gene  1 10 27 0.6822866399342444 0 79.0 0.6822866399342444 1
gene  1 11 27 -1.4192574802827127 0 80.0 -1.4192574802827127 1
gene  1 12 27 2.0194659787646483 0 81.0 2.0194659787646483 1
gene  1 13 27 -3.29794013327734 0 82.0 -3.29794013327734 0
gene  1 14 27 -1.0273223382155723 0 83.0 -1.0273223382155723 1
gene  1 15 27 0.8854793246663014 0 84.0 0.8854793246663014 1
gene  1 16 27 -2.4100030796377325 0 85.0 -2.4100030796377325 1
gene  1 17 27 1.1641354279973304 0 86.0 1.1641354279973304 1
gene  1 18 27 -1.5657621004727782 0 87.0 -1.5657621004727782 1
gene  1 19 27 0.9635940309111093 0 88.0 0.9635940309111093 1
gene  1 20 27 -1.5141808232294682 0 89.0 -1.5141808232294682 1
gene  1 21 27 -1.6098739089238192 0 90.0 -1.6098739089238192 1
gene  1 22 27 -0.20721715934182405 0 91.0 -0.20721715934182405 1
gene  1 23 27 -2.7987944125960222 0 92.0 -2.7987944125960222 1
gene  1 23 28 1.3272888213665466 0 93.0 1.3272888213665466 1
gene  1 24 28 1.3820786340802313 0 94.0 1.3820786340802313 1
gene  1 25 28 0.8152174332290762 0 95.0 0.8152174332290762 1
gene  1 26 28 -1.8871519098029614 0 96.0 -1.8871519098029614 1
gene  1 27 28 -1.0416194194378714 0 97.0 -1.0416194194378714 1
gene  1 23 29 1.712662646035409 0 98.0 1.712662646035409 1
gene  1 24 29 0.3750308964985809 0 99.0 0.3750308964985809 1
gene  1 25 29 2.0081239104076944 0 100.0 2.0081239104076944 1
gene  1 26 29 -1.8177506182944394 0 101.0 -1.8177506182944394 1
gene  1 27 29 0.24578722111506612 0 102.0 0.24578722111506612 1
gene  1 23 30 -0.9792201881248785 0 103.0 -0.9792201881248785 1
gene  1 24 30 0.3847222154010963 0 104.0 0.3847222154010963 1
gene  1 25 30 1.8066113481737804 0 105.0 1.8066113481737804 1
gene  1 26 30 0.2284221571408082 0 106.0 0.2284221571408082 1
gene  1 27 30 2.7779870153214823 0 107.0 2.7779870153214823 1
gene  1 23 31 0.4191893547743016 0 108.0 0.4191893547743016 1
gene  1 24 31 0.77248384192597 0 109.0 0.77248384192597 1
gene  1 25 31 -2.4322039769326436 0 110.0 -2.4322039769326436 1
gene  1 26 31 1.9221518817702068 0 111.0 1.9221518817702068 1
gene  1 27 31 -1.706516430146761 0 112.0 -1.706516430146761 1
gene  1 23 32 -1.20797389976055 0 113.0 -1.20797389976055 1
gene  1 24 32 0.41904467590066785 0 114.0 0.41904467590066785 1
gene  1 25 32 -1.5085101012937148 0 115.0 -1.5085101012937148 1
gene  1 26 32 -0.2604847518040827 0 116.0 -0.2604847518040827 1
gene  1 27 32 1.0654473885398326 0 117.0 1.0654473885398326 1
gene  1 15 28 4.70782994343627 0 145.0 4.70782994343627 1
gene  1 24 41 0.7041611002973363 0 162.0 0.7041611002973363 1
gene  1 41 29 -0.7849467345565301 0 163.0 -0.7849467345565301 1
gene  1 11 28 9.218883268875562 0 192.0 9.218883268875562 1
gene  1 8 29 -2.176334847719313 0 252.0 -2.176334847719313 1
gene  1 8 69 0.6109648487557431 0 286.0 0.6109648487557431 1
gene  1 69 26 2.7645682336002895 0 287.0 2.7645682336002895 0
gene  1 14 28 8.721990907806568 0 325.0 8.721990907806568 1
gene  1 10 28 4.561700536875561 0 337.0 4.561700536875561 1
gene  1 15 32 6.306243292515637 0 371.0 6.306243292515637 1
gene  1 20 99 2.16353396511089 0 420.0 2.16353396511089 1
gene  1 99 27 -2.8094737854649665 0 421.0 -2.8094737854649665 1
gene  1 5 103 -1.0264695869117828 0 442.0 -1.0264695869117828 1
gene  1 103 24 1.3671339875182222 0 443.0 1.3671339875182222 1
gene  1 3 110 -1.3192452305966889 0 466.0 -1.3192452305966889 1
gene  1 110 26 0.17226926783242408 0 467.0 0.17226926783242408 1
gene  1 17 99 8.667263408509712 0 517.0 8.667263408509712 1
gene  1 16 128 -1.1029401447466332 0 542.0 -1.1029401447466332 1
gene  1 128 25 1.5541036770496022 0 543.0 1.5541036770496022 1
gene  1 22 103 -3.6589079271917693 0 584.0 -3.6589079271917693 1
gene  1 24 150 -0.4951572804097779 0 612.0 -0.4951572804097779 1
gene  1 150 29 1.760461199179113 0 613.0 1.760461199179113 1
gene  1 6 128 7.989030214491342 0 659.0 7.989030214491342 1
gene  1 150 69 7.977677494161361 0 697.0 7.977677494161361 1
gene  1 31 32 -7.223103554147636 0 712.0 -7.223103554147636 1
gene  1 26 41 -6.934677827942377 0 740.0 -6.934677827942377 1
gene  1 7 191 2.7026679260086692 0 774.0 2.7026679260086692 1
gene  1 191 26 2.8964560025688257 0 775.0 2.8964560025688257 1
gene  1 103 26 0.9890079923258703 0 816.0 0.9890079923258703 1
gene  1 9 29 -5.980022400228384 0 851.0 -5.980022400228384 1
gene  1 11 99 -3.9682740919211192 0 864.0 -3.9682740919211192 1
gene  1 12 99 -10.457000068568073 0 920.0 -10.457000068568073 1
gene  1 26 236 2.413153052333878 0 945.0 2.413153052333878 1
gene  1 236 28 -0.39879288095864707 0 946.0 -0.39879288095864707 1
gene  1 22 242 0.9659975009029367 0 964.0 0.9659975009029367 1
gene  1 242 24 1.9563221533460138 0 965.0 1.9563221533460138 1
gene  1 15 99 9.470992938607854 0 1027.0 9.470992938607854 1
gene  1 191 69 2.1652779438076055 0 1052.0 2.1652779438076055 1
gene  1 15 277 0.9471773128246486 0 1090.0 0.9471773128246486 1
gene  1 277 28 2.35561451715437 0 1091.0 2.35561451715437 1
gene  1 27 286 -0.12275845610281455 0 1116.0 -0.12275845610281455 1
gene  1 286 28 0.025667614407639316 0 1117.0 0.025667614407639316 0
gene  1 191 295 1.462792961073816 0 1142.0 1.462792961073816 1
gene  1 295 26 -0.6328061547708835 0 1143.0 -0.6328061547708835 1
gene  1 22 128 0.47233297098327853 0 1174.0 0.47233297098327853 0
gene  1 19 310 2.4856618195935347 0 1209.0 2.4856618195935347 1
gene  1 310 24 -1.6364077796782248 0 1210.0 -1.6364077796782248 1
gene  1 242 103 8.287160315783602 0 1238.0 8.287160315783602 1
gene  1 16 236 -0.9082556621137352 0 1287.0 -0.9082556621137352 1
gene  1 20 333 1.0 0 1305.0 1.0 1
gene  1 333 24 -0.43803176646816433 0 1306.0 -0.43803176646816433 1
gene  1 14 277 -7.3398616412898825 0 1364.0 -7.3398616412898825 1
gene  1 2 355 -0.6544197900779483 0 1395.0 -0.6544197900779483 1
gene  1 355 27 0.057231611804800075 0 1396.0 0.057231611804800075 1
gene  1 69 361 -0.018934202235794118 0 1416.0 -0.018934202235794118 1
gene  1 361 26 2.638823677941647 0 1417.0 2.638823677941647 1
gene  1 9 32 -4.24720604900855 0 1466.0 -4.24720604900855 1
gene  1 14 333 -3.785843903385777 0 1482.0 -3.785843903385777 1
gene  1 32 277 2.2177074487957547 0 1522.0 2.2177074487957547 1
gene  1 3 390 1.0 0 1547.0 1.0 1
gene  1 390 26 2.717639197728152 0 1548.0 2.717639197728152 1
gene  1 286 236 0.7913139280449974 0 1594.0 0.7913139280449974 1
gene  1 20 419 1.0 0 1638.0 1.0 1
gene  1 419 27 2.372046399786742 0 1639.0 2.372046399786742 1
gene  1 17 355 -3.941543941741722 0 1648.0 -3.941543941741722 1
gene  1 8 150 0.9703385552652399 0 1688.0 0.9703385552652399 1
gene  1 355 310 -5.568152431032543 0 1725.0 -5.568152431032543 1
gene  1 2 449 2.715246405901041 0 1757.0 2.715246405901041 1
gene  1 449 355 1.1406736985867385 0 1758.0 1.1406736985867385 1
gene  1 10 458 1.0 0 1789.0 1.0 1
gene  1 458 26 0.8334553162957417 0 1790.0 0.8334553162957417 1
gene  1 286 242 0.0177850674950375 0 1819.0 0.0177850674950375 1
gene  1 103 361 -4.425782843693852 0 1881.0 -4.425782843693852 1
gene  1 22 492 1.0 0 1911.0 0.0 1
gene  1 492 128 0.47233297098327853 0 1912.0 0.0 1
gene  1 14 502 1.0 0 1950.0 0.0 1
gene  1 502 25 -2.406576236033213 0 1951.0 0.0 1
gene  1 10 519 1.0 0 2010.0 0.0 1
gene  1 519 25 0.2779443092033518 0 2011.0 0.0 1
gene  1 103 333 -4.925490828342904 0 2033.0 -4.925490828342904 1
gene  1 7 242 -8.589149608783572 0 2047.0 -8.589149608783572 1
gene  1 361 30 -3.364430012547958 0 2081.0 -3.364430012547958 1
gene  1 286 550 1.0 0 2139.0 0.0 1
gene  1 550 28 0.025667614407639316 0 2140.0 0.0 1
gene  1 16 449 -4.819583852973205 0 2207.0 -4.819583852973205 1
gene  1 22 99 -2.805021694326193 0 2256.0 -2.805021694326193 1
gene  1 519 191 5.4862128461960324 0 2286.0 5.4862128461960324 1
gene  1 41 277 -9.127596344581471 0 2326.0 -9.127596344581471 1
gene  1 19 613 1.0 0 2370.0 0.0 1
gene  1 613 24 1.1167443914792334 0 2371.0 0.0 1
gene  1 19 361 -0.9731171545944906 0 2386.0 -0.9731171545944906 1
gene  1 24 626 1.0 0 2421.0 0.0 1
gene  1 626 41 0.7041611002973363 0 2422.0 0.0 1
gene  1 613 191 8.61007281023515 0 2462.0 8.61007281023515 1
gene  1 286 644 1.0 0 2492.0 0.0 1
gene  1 644 242 0.0177850674950375 0 2493.0 0.0 1
gene  1 492 361 6.873881767971453 0 2528.0 6.873881767971453 1
gene  1 99 550 9.694820978337278 0 2554.0 9.694820978337278 1
gene  1 519 69 -2.9993393596543596 0 2590.0 -2.9993393596543596 1
gene  1 14 674 1.0 0 2618.0 0.0 1
gene  1 674 26 -0.5697240976550146 0 2619.0 0.0 1
gene  1 355 26 -1.0618746689138803 0 2649.0 -1.0618746689138803 1
gene  1 24 361 -3.0614201662043516 0 2740.0 -3.0614201662043516 1
gene  1 19 110 8.48201327144358 0 2771.0 8.48201327144358 1
gene  1 128 99 1.9118712444818209 0 2805.0 1.9118712444818209 1
gene  1 13 729 1.0 0 2821.0 0.0 1
gene  1 729 27 -3.29794013327734 0 2822.0 0.0 1
gene  1 626 277 0.4555983170303879 0 2859.0 0.4555983170303879 1
gene  1 390 236 2.5182058722531684 0 2889.0 2.5182058722531684 1
gene  1 21 30 6.697580622746145 0 2915.0 6.697580622746145 1
genomeend 3
/* Organism # 004 Fitness:  0,000 Error:  0,000                      */
genomestart  4
trait 1 0.0 0.0 0.0 0.0 0.0 0.0 0.0 0.0 
node 1 1 1 1
node 2 1 1 1
node 3 1 1 1
node 4 1 1 1
node 5 1 1 1
node 6 1 1 1
node 7 1 1 1
node 8 1 1 1
node 9 1 1 1
node 10 1 1 1
node 11 1 1 1
node 12 1 1 1
node 13 1 1 1
node 14 1 1 1
node 15 1 1 1
node 16 1 1 1
node 17 1 1 1
node 18 1 1 1
node 19 1 1 1
node 20 1 1 1
node 21 1 1 1
node 22 1 1 1
node 23 1 1 3
node 24 1 0 0
node 25 1 0 0
node 26 1 0 0
node 27 1 0 0
node 28 1 0 2
node 29 1 0 2
node 30 1 0 2
node 31 1 0 2
node 32 1 0 2
node 41 1 0 0
node 69 1 0 0
node 99 1 0 0
node 103 1 0 0
node 110 1 0 0
node 128 1 0 0
node 150 1 0 0
node 191 1 0 0
node 236 1 0 0
node 242 1 0 0
node 277 1 0 0
node 286 1 0 0
node 295 1 0 0
node 310 1 0 0
node 333 1 0 0
node 355 1 0 0
node 361 1 0 0
node 390 1 0 0
node 419 1 0 0
node 449 1 0 0
node 458 1 0 0
node 492 1 0 0
node 502 1 0 0
node 519 1 0 0
node 550 1 0 0
node 613 1 0 0
node 626 1 0 0
node 644 1 0 0
node 674 1 0 0
node 729 1 0 0
node 752 1 0 0
gene  1 1 24 0.6836074841519658 0 1.0 0.6836074841519658 1
gene  1 2 24 0.2418349725060388 0 2.0 0.2418349725060388 1
gene  1 3 24 2.231101296592862 0 3.0 2.231101296592862 1
gene  1 4 24 1.9984107658146633 0 4.0 1.9984107658146633 1
gene  1 5 24 -1.295047861402809 0 5.0 -1.295047861402809 1
gene  1 6 24 -0.46614332725808727 0 6.0 -0.46614332725808727 1
gene  1 7 24 -0.6632373714736616 0 7.0 -0.6632373714736616 1
gene  1 8 24 -1.1786407631101534 0 8.0 -1.1786407631101534 1
gene  1 9 24 0.7083499676735852 0 9.0 0.7083499676735852 1
gene  1 10 24 1.8287682424176324 0 10.0 1.8287682424176324 1
gene  1 11 24 0.13114292736241406 0 11.0 0.13114292736241406 1
gene  1 12 24 0.20129052057887642 0 12.0 0.20129052057887642 1
gene  1 13 24 0.15119511013894327 0 13.0 0.15119511013894327 1
gene  1 14 24 -2.305494291515135 0 14.0 -2.305494291515135 1
gene  1 15 24 1.7866237942300476 0 15.0 1.7866237942300476 1
gene  1 16 24 0.4609847206181178 0 16.0 0.4609847206181178 1
gene  1 17 24 1.1367228621818093 0 17.0 1.1367228621818093 1
gene  1 18 24 1.0832013029571876 0 18.0 1.0832013029571876 1
gene  1 19 24 1.1167443914792334 0 19.0 1.1167443914792334 1
gene  1 20 24 0.07414205454090883 0 20.0 0.07414205454090883 1
gene  1 21 24 0.5418885079930811 0 21.0 0.5418885079930811 1
gene  1 22 24 2.484950267181405 0 22.0 2.484950267181405 1
gene  1 23 24 0.425929415896056 0 23.0 0.425929415896056 1
gene  1 1 25 0.6154095691625152 0 24.0 0.6154095691625152 1
gene  1 2 25 -2.8755165268856366 0 25.0 -2.8755165268856366 1
gene  1 3 25 2.689302679798512 0 26.0 2.689302679798512 1
gene  1 4 25 -0.7614296740576152 0 27.0 -0.7614296740576152 1
gene  1 5 25 -0.12017325232786724 0 28.0 -0.12017325232786724 1
gene  1 6 25 -0.8995478796312145 0 29.0 -0.8995478796312145 1
gene  1 7 25 -0.012654369140360444 0 30.0 -0.012654369140360444 1
gene  1 8 25 1.3910890901314834 0 31.0 1.3910890901314834 1
gene  1 9 25 0.3584175622867064 0 32.0 0.3584175622867064 1
gene  1 10 25 0.2779443092033518 0 33.0 0.2779443092033518 1
gene  1 11 25 1.142465146794125 0 34.0 1.142465146794125 1
gene  1 12 25 0.9036541395774667 0 35.0 0.9036541395774667 1
gene  1 13 25 -1.2351814578924105 0 36.0 -1.2351814578924105 1
gene  1 14 25 -2.406576236033213 0 37.0 -2.406576236033213 1
gene  1 15 25 -1.3059963432256165 0 38.0 -1.3059963432256165 1
gene  1 16 25 -0.07279068140327355 0 39.0 -0.07279068140327355 1
gene  1 17 25 2.1463068148221858 0 40.0 2.1463068148221858 1
gene  1 18 25 -0.8147305052695352 0 41.0 -0.8147305052695352 1
gene  1 19 25 -1.8963916370755176 0 42.0 -1.8963916370755176 1
gene  1 20 25 -0.17530964326477716 0 43.0 -0.17530964326477716 1
gene  1 21 25 -2.1615664960138625 0 44.0 -2.1615664960138625 1
gene  1 22 25 -0.5353496319643707 0 45.0 -0.5353496319643707 1
gene  1 23 25 2.211182550883856 0 46.0 2.211182550883856 1
gene  1 1 26 -0.1813538282281052 0 47.0 -0.1813538282281052 1
gene  1 2 26 1.0348232233393615 0 48.0 1.0348232233393615 1
gene  1 3 26 -0.26852393576716355 0 49.0 -0.26852393576716355 1
gene  1 4 26 -0.5462351900443294 0 50.0 -0.5462351900443294 1
gene  1 5 26 1.841798679175527 0 51.0 1.841798679175527 1
gene  1 6 26 0.9246057866887103 0 52.0 0.9246057866887103 1
gene  1 7 26 2.961718684201993 0 53.0 2.961718684201993 1
gene  1 8 26 1.3531921659176516 0 54.0 1.3531921659176516 1
gene  1 9 26 -1.7276248866576271 0 55.0 -1.7276248866576271 1
gene  1 10 26 2.0139802487278704 0 56.0 2.0139802487278704 1
gene  1 11 26 1.528778550886252 0 57.0 1.528778550886252 1
gene  1 12 26 -0.5785609867130133 0 58.0 -0.5785609867130133 1
gene  1 13 26 -2.6797800697851013 0 59.0 -2.6797800697851013 1
gene  1 14 26 -0.5697240976550146 0 60.0 -0.5697240976550146 0
gene  1 15 26 -0.6337731619541322 0 61.0 -0.6337731619541322 1
gene  1 16 26 -3.0562620734655126 0 62.0 -3.0562620734655126 1
gene  1 17 26 -0.6658234717228073 0 63.0 -0.6658234717228073 1
gene  1 18 26 3.3403867808578074 0 64.0 3.3403867808578074 1
gene  1 19 26 0.7776803632315288 0 65.0 0.7776803632315288 1
gene  1 20 26 -0.7243609006292111 0 66.0 -0.7243609006292111 1
gene  1 21 26 -3.0739483612397973 0 67.0 -3.0739483612397973 1
gene  1 22 26 -0.8853447786938764 0 68.0 -0.8853447786938764 1
gene  1 23 26 -1.392668583310223 0 69.0 -1.392668583310223 1
gene  1 1 27 0.1950912962028929 0 70.0 0.1950912962028929 1
gene  1 2 27 -2.3849842766314993 0 71.0 -2.3849842766314993 1
gene  1 3 27 -1.4510293084069832 0 72.0 -1.4510293084069832 1
gene  1 4 27 -2.108078397682316 0 73.0 -2.108078397682316 1
gene  1 5 27 0.9853093818432086 0 74.0 0.9853093818432086 1
gene  1 6 27 1.9012442085109171 0 75.0 1.9012442085109171 1
gene  1 7 27 -1.1359514906506512 0 76.0 -1.1359514906506512 1
gene  1 8 27 1.3588260773815568 0 77.0 1.3588260773815568 1
gene  1 9 27 -2.8086161361721667 0 78.0 -2.8086161361721667 1
gene  1 10 27 0.6822866399342444 0 79.0 0.6822866399342444 1
gene  1 11 27 -1.4192574802827127 0 80.0 -1.4192574802827127 1
gene  1 12 27 2.0194659787646483 0 81.0 2.0194659787646483 1
gene  1 13 27 -3.29794013327734 0 82.0 -3.29794013327734 0
gene  1 14 27 -1.0273223382155723 0 83.0 -1.0273223382155723 1
gene  1 15 27 0.8854793246663014 0 84.0 0.8854793246663014 1
gene  1 16 27 -2.4100030796377325 0 85.0 -2.4100030796377325 1
gene  1 17 27 1.1641354279973304 0 86.0 1.1641354279973304 1
gene  1 18 27 -1.5657621004727782 0 87.0 -1.5657621004727782 1
gene  1 19 27 0.9635940309111093 0 88.0 0.9635940309111093 1
gene  1 20 27 -1.5141808232294682 0 89.0 -1.5141808232294682 1
gene  1 21 27 -1.6098739089238192 0 90.0 -1.6098739089238192 1
gene  1 22 27 -0.20721715934182405 0 91.0 -0.20721715934182405 1
gene  1 23 27 -2.7987944125960222 0 92.0 -2.7987944125960222 1
gene  1 23 28 1.3272888213665466 0 93.0 1.3272888213665466 1
gene  1 24 28 1.3820786340802313 0 94.0 1.3820786340802313 1
gene  1 25 28 0.8152174332290762 0 95.0 0.8152174332290762 1
gene  1 26 28 -1.8871519098029614 0 96.0 -1.8871519098029614 1
gene  1 27 28 -1.0416194194378714 0 97.0 -1.0416194194378714 1
gene  1 23 29 1.712662646035409 0 98.0 1.712662646035409 1
gene  1 24 29 0.3750308964985809 0 99.0 0.3750308964985809 1
gene  1 25 29 2.0081239104076944 0 100.0 2.0081239104076944 1
gene  1 26 29 -1.8177506182944394 0 101.0 -1.8177506182944394 1
gene  1 27 29 0.24578722111506612 0 102.0 0.24578722111506612 1
gene  1 23 30 -0.9792201881248785 0 103.0 -0.9792201881248785 1
gene  1 24 30 0.3847222154010963 0 104.0 0.3847222154010963 1
gene  1 25 30 1.8066113481737804 0 105.0 1.8066113481737804 1
gene  1 26 30 0.2284221571408082 0 106.0 0.2284221571408082 1
gene  1 27 30 2.7779870153214823 0 107.0 2.7779870153214823 1
gene  1 23 31 0.4191893547743016 0 108.0 0.4191893547743016 1
gene  1 24 31 0.77248384192597 0 109.0 0.77248384192597 1
gene  1 25 31 -2.4322039769326436 0 110.0 -2.4322039769326436 1
gene  1 26 31 1.9221518817702068 0 111.0 1.9221518817702068 1
gene  1 27 31 -1.706516430146761 0 112.0 -1.706516430146761 1
gene  1 23 32 -1.20797389976055 0 113.0 -1.20797389976055 1
gene  1 24 32 0.41904467590066785 0 114.0 0.41904467590066785 1
gene  1 25 32 -1.5085101012937148 0 115.0 -1.5085101012937148 1
gene  1 26 32 -0.2604847518040827 0 116.0 -0.2604847518040827 1
gene  1 27 32 1.0654473885398326 0 117.0 1.0654473885398326 1
gene  1 15 28 4.70782994343627 0 145.0 4.70782994343627 1
gene  1 24 41 0.7041611002973363 0 162.0 0.7041611002973363 1
gene  1 41 29 -0.7849467345565301 0 163.0 -0.7849467345565301 1
gene  1 11 28 9.218883268875562 0 192.0 9.218883268875562 1
gene  1 8 29 -2.176334847719313 0 252.0 -2.176334847719313 1
gene  1 8 69 0.6109648487557431 0 286.0 0.6109648487557431 1
gene  1 69 26 2.7645682336002895 0 287.0 2.7645682336002895 0
gene  1 14 28 8.721990907806568 0 325.0 8.721990907806568 1
gene  1 10 28 4.561700536875561 0 337.0 4.561700536875561 1
gene  1 15 32 6.306243292515637 0 371.0 6.306243292515637 1
gene  1 20 99 2.16353396511089 0 420.0 2.16353396511089 1
gene  1 99 27 -2.8094737854649665 0 421.0 -2.8094737854649665 1
gene  1 5 103 -1.0264695869117828 0 442.0 -1.0264695869117828 1
gene  1 103 24 1.3671339875182222 0 443.0 1.3671339875182222 1
gene  1 3 110 -1.3192452305966889 0 466.0 -1.3192452305966889 1
gene  1 110 26 0.17226926783242408 0 467.0 0.17226926783242408 0
gene  1 17 99 8.667263408509712 0 517.0 8.667263408509712 1
gene  1 16 128 -1.1029401447466332 0 542.0 -1.1029401447466332 1
gene  1 128 25 1.5541036770496022 0 543.0 1.5541036770496022 1
gene  1 22 103 -3.6589079271917693 0 584.0 -3.6589079271917693 1
gene  1 24 150 -0.4951572804097779 0 612.0 -0.4951572804097779 1
gene  1 150 29 1.760461199179113 0 613.0 1.760461199179113 1
gene  1 6 128 7.989030214491342 0 659.0 7.989030214491342 1
gene  1 150 69 7.977677494161361 0 697.0 7.977677494161361 1
gene  1 31 32 -7.223103554147636 0 712.0 -7.223103554147636 1
gene  1 26 41 -6.934677827942377 0 740.0 -6.934677827942377 1
gene  1 7 191 2.7026679260086692 0 774.0 2.7026679260086692 1
gene  1 191 26 2.8964560025688257 0 775.0 2.8964560025688257 1
gene  1 103 26 0.9890079923258703 0 816.0 0.9890079923258703 1
gene  1 9 29 -5.980022400228384 0 851.0 -5.980022400228384 1
gene  1 11 99 -3.9682740919211192 0 864.0 -3.9682740919211192 1
gene  1 12 99 -10.457000068568073 0 920.0 -10.457000068568073 1
gene  1 26 236 2.413153052333878 0 945.0 2.413153052333878 1
gene  1 236 28 -0.39879288095864707 0 946.0 -0.39879288095864707 1
gene  1 22 242 0.9659975009029367 0 964.0 0.9659975009029367 1
gene  1 242 24 1.9563221533460138 0 965.0 1.9563221533460138 1
gene  1 15 99 9.470992938607854 0 1027.0 9.470992938607854 1
gene  1 191 69 2.1652779438076055 0 1052.0 2.1652779438076055 1
gene  1 15 277 0.9471773128246486 0 1090.0 0.9471773128246486 1
gene  1 277 28 2.35561451715437 0 1091.0 2.35561451715437 1
gene  1 27 286 -0.12275845610281455 0 1116.0 -0.12275845610281455 1
gene  1 286 28 0.025667614407639316 0 1117.0 0.025667614407639316 0
gene  1 191 295 1.462792961073816 0 1142.0 1.462792961073816 1
gene  1 295 26 -0.6328061547708835 0 1143.0 -0.6328061547708835 1
gene  1 22 128 0.47233297098327853 0 1174.0 0.47233297098327853 0
gene  1 19 310 2.4856618195935347 0 1209.0 2.4856618195935347 1
gene  1 310 24 -1.6364077796782248 0 1210.0 -1.6364077796782248 1
gene  1 242 103 8.287160315783602 0 1238.0 8.287160315783602 1
gene  1 16 236 -0.9082556621137352 0 1287.0 -0.9082556621137352 1
gene  1 20 333 1.0 0 1305.0 1.0 1
gene  1 333 24 -0.43803176646816433 0 1306.0 -0.43803176646816433 1
gene  1 14 277 -7.3398616412898825 0 1364.0 -7.3398616412898825 1
gene  1 2 355 -0.6544197900779483 0 1395.0 -0.6544197900779483 1
gene  1 355 27 0.057231611804800075 0 1396.0 0.057231611804800075 1
gene  1 69 361 -0.018934202235794118 0 1416.0 -0.018934202235794118 1
gene  1 361 26 2.638823677941647 0 1417.0 2.638823677941647 1
gene  1 9 32 -4.24720604900855 0 1466.0 -4.24720604900855 1
gene  1 14 333 -3.785843903385777 0 1482.0 -3.785843903385777 1
gene  1 32 277 2.2177074487957547 0 1522.0 2.2177074487957547 1
gene  1 3 390 1.0 0 1547.0 1.0 1
gene  1 390 26 2.717639197728152 0 1548.0 2.717639197728152 1
gene  1 286 236 0.7913139280449974 0 1594.0 0.7913139280449974 1
gene  1 20 419 1.0 0 1638.0 1.0 1
gene  1 419 27 2.372046399786742 0 1639.0 2.372046399786742 1
gene  1 17 355 -3.941543941741722 0 1648.0 -3.941543941741722 1
gene  1 8 150 0.9703385552652399 0 1688.0 0.9703385552652399 1
gene  1 355 310 -5.568152431032543 0 1725.0 -5.568152431032543 1
gene  1 2 449 2.715246405901041 0 1757.0 2.715246405901041 1
gene  1 449 355 1.1406736985867385 0 1758.0 1.1406736985867385 1
gene  1 10 458 1.0 0 1789.0 1.0 1
gene  1 458 26 0.8334553162957417 0 1790.0 0.8334553162957417 1
gene  1 286 242 0.0177850674950375 0 1819.0 0.0177850674950375 1
gene  1 103 361 -4.425782843693852 0 1881.0 -4.425782843693852 1
gene  1 22 492 1.0 0 1911.0 0.0 1
gene  1 492 128 0.47233297098327853 0 1912.0 0.0 1
gene  1 14 502 1.0 0 1950.0 0.0 1
gene  1 502 25 -2.406576236033213 0 1951.0 0.0 1
gene  1 10 519 1.0 0 2010.0 0.0 1
gene  1 519 25 0.2779443092033518 0 2011.0 0.0 1
gene  1 103 333 -4.925490828342904 0 2033.0 -4.925490828342904 1
gene  1 7 242 -8.589149608783572 0 2047.0 -8.589149608783572 1
gene  1 361 30 -3.364430012547958 0 2081.0 -3.364430012547958 1
gene  1 286 550 1.0 0 2139.0 0.0 1
gene  1 550 28 0.025667614407639316 0 2140.0 0.0 1
gene  1 16 449 -4.819583852973205 0 2207.0 -4.819583852973205 1
gene  1 22 99 -2.805021694326193 0 2256.0 -2.805021694326193 1
gene  1 519 191 5.4862128461960324 0 2286.0 5.4862128461960324 1
gene  1 41 277 -9.127596344581471 0 2326.0 -9.127596344581471 1
gene  1 19 613 1.0 0 2370.0 0.0 1
gene  1 613 24 1.1167443914792334 0 2371.0 0.0 1
gene  1 19 361 -0.9731171545944906 0 2386.0 -0.9731171545944906 1
gene  1 24 626 1.0 0 2421.0 0.0 1
gene  1 626 41 0.7041611002973363 0 2422.0 0.0 1
gene  1 613 191 8.61007281023515 0 2462.0 8.61007281023515 1
gene  1 286 644 1.0 0 2492.0 0.0 1
gene  1 644 242 0.0177850674950375 0 2493.0 0.0 1
gene  1 492 361 6.873881767971453 0 2528.0 6.873881767971453 1
gene  1 99 550 9.694820978337278 0 2554.0 9.694820978337278 1
gene  1 519 69 -2.9993393596543596 0 2590.0 -2.9993393596543596 1
gene  1 14 674 1.0 0 2618.0 0.0 1
gene  1 674 26 -0.5697240976550146 0 2619.0 0.0 1
gene  1 355 26 -1.0618746689138803 0 2649.0 -1.0618746689138803 1
gene  1 24 361 -3.0614201662043516 0 2740.0 -3.0614201662043516 1
gene  1 19 110 8.48201327144358 0 2771.0 8.48201327144358 1
gene  1 128 99 1.9118712444818209 0 2805.0 1.9118712444818209 1
gene  1 13 729 1.0 0 2821.0 0.0 1
gene  1 729 27 -3.29794013327734 0 2822.0 0.0 1
gene  1 626 277 0.4555983170303879 0 2859.0 0.4555983170303879 1
gene  1 390 236 2.5182058722531684 0 2889.0 2.5182058722531684 1
gene  1 110 752 1.0 0 2916.0 0.0 1
gene  1 752 26 0.17226926783242408 0 2917.0 0.0 1
genomeend 4
/* Organism # 005 Fitness:  0,000 Error:  0,000                      */
genomestart  5
trait 1 0.0 0.0 0.0 0.0 0.15421144259329644 0.0 0.0 0.0 
node 1 1 1 1
node 2 1 1 1
node 3 1 1 1
node 4 1 1 1
node 5 1 1 1
node 6 1 1 1
node 7 1 1 1
node 8 1 1 1
node 9 1 1 1
node 10 1 1 1
node 11 1 1 1
node 12 1 1 1
node 13 1 1 1
node 14 1 1 1
node 15 1 1 1
node 16 1 1 1
node 17 1 1 1
node 18 1 1 1
node 19 1 1 1
node 20 1 1 1
node 21 1 1 1
node 22 1 1 1
node 23 1 1 3
node 24 1 0 0
node 25 1 0 0
node 26 1 0 0
node 27 1 0 0
node 28 1 0 2
node 29 1 0 2
node 30 1 0 2
node 31 1 0 2
node 32 1 0 2
node 41 1 0 0
node 69 1 0 0
node 99 1 0 0
node 103 1 0 0
node 110 1 0 0
node 128 1 0 0
node 150 1 0 0
node 191 1 0 0
node 236 1 0 0
node 242 1 0 0
node 277 1 0 0
node 286 1 0 0
node 295 1 0 0
node 310 1 0 0
node 333 1 0 0
node 355 1 0 0
node 361 1 0 0
node 390 1 0 0
node 419 1 0 0
node 449 1 0 0
node 458 1 0 0
node 492 1 0 0
node 502 1 0 0
node 519 1 0 0
node 550 1 0 0
node 613 1 0 0
node 626 1 0 0
node 644 1 0 0
node 674 1 0 0
node 729 1 0 0
gene  1 1 24 0.35214845833127684 0 1.0 0.35214845833127684 1
gene  1 2 24 2.724776931690466 0 2.0 2.724776931690466 1
gene  1 3 24 4.362642683124688 0 3.0 4.362642683124688 1
gene  1 4 24 3.486251384423974 0 4.0 3.486251384423974 1
gene  1 5 24 -1.4342122284940988 0 5.0 -1.4342122284940988 1
gene  1 6 24 0.2665610900776355 0 6.0 0.2665610900776355 1
gene  1 7 24 -2.934858263740528 0 7.0 -2.934858263740528 1
gene  1 8 24 -1.8634166962397933 0 8.0 -1.8634166962397933 1
gene  1 9 24 -1.7117769741211324 0 9.0 -1.7117769741211324 1
gene  1 10 24 1.7833897519793467 0 10.0 1.7833897519793467 1
gene  1 11 24 -0.4028386246387494 0 11.0 -0.4028386246387494 1
gene  1 12 24 1.594562276287801 0 12.0 1.594562276287801 1
gene  1 13 24 1.8962292993900358 0 13.0 1.8962292993900358 1
gene  1 14 24 -0.18249668076535386 0 14.0 -0.18249668076535386 1
gene  1 15 24 2.0163057892495964 0 15.0 2.0163057892495964 1
gene  1 16 24 2.467714263431527 0 16.0 2.467714263431527 1
gene  1 17 24 -1.0781475294525027 0 17.0 -1.0781475294525027 1
gene  1 18 24 3.0900740457052747 0 18.0 3.0900740457052747 1
gene  1 19 24 0.423195031116803 0 19.0 0.423195031116803 1
gene  1 20 24 -1.9030709641110257 0 20.0 -1.9030709641110257 1
gene  1 21 24 -1.3249006584198115 0 21.0 -1.3249006584198115 1
gene  1 22 24 2.361710820751533 0 22.0 2.361710820751533 1
gene  1 23 24 1.5602659152408904 0 23.0 1.5602659152408904 1
gene  1 1 25 0.6577896734994104 0 24.0 0.6577896734994104 1
gene  1 2 25 -1.5329699208906034 0 25.0 -1.5329699208906034 1
gene  1 3 25 3.3503802062859585 0 26.0 3.3503802062859585 1
gene  1 4 25 -0.805282184869329 0 27.0 -0.805282184869329 1
gene  1 5 25 -0.7393776046062134 0 28.0 -0.7393776046062134 1
gene  1 6 25 0.6326876848016164 0 29.0 0.6326876848016164 1
gene  1 7 25 -1.3295594112675282 0 30.0 -1.3295594112675282 1
gene  1 8 25 3.5778610367626955 0 31.0 3.5778610367626955 1
gene  1 9 25 0.1860334764965993 0 32.0 0.1860334764965993 1
gene  1 10 25 0.3123042746474636 0 33.0 0.3123042746474636 1
gene  1 11 25 2.7853649782416636 0 34.0 2.7853649782416636 1
gene  1 12 25 -1.222204894048225 0 35.0 -1.222204894048225 1
gene  1 13 25 -1.5171403709220892 0 36.0 -1.5171403709220892 1
gene  1 14 25 -2.6452890104363984 0 37.0 -2.6452890104363984 1
gene  1 15 25 -3.4044433593656924 0 38.0 -3.4044433593656924 1
gene  1 16 25 -0.9369829076575626 0 39.0 -0.9369829076575626 1
gene  1 17 25 0.2118859313081054 0 40.0 0.2118859313081054 1
gene  1 18 25 -3.1047319293486035 0 41.0 -3.1047319293486035 1
gene  1 19 25 -2.94718369356033 0 42.0 -2.94718369356033 1
gene  1 20 25 0.3044736244324661 0 43.0 0.3044736244324661 1
gene  1 21 25 -2.646813916069077 0 44.0 -2.646813916069077 1
gene  1 22 25 -0.7416578464309083 0 45.0 -0.7416578464309083 1
gene  1 23 25 4.377133618890673 0 46.0 4.377133618890673 1
gene  1 1 26 1.1227357985229585 0 47.0 1.1227357985229585 1
gene  1 2 26 1.7747759563352723 0 48.0 1.7747759563352723 1
gene  1 3 26 0.37206525342804014 0 49.0 0.37206525342804014 1
gene  1 4 26 1.871672113015077 0 50.0 1.871672113015077 1
gene  1 5 26 0.004964099317977588 0 51.0 0.004964099317977588 1
gene  1 6 26 2.387660325449933 0 52.0 2.387660325449933 1
gene  1 7 26 0.9632374620395137 0 53.0 0.9632374620395137 1
gene  1 8 26 -0.9091446272754209 0 54.0 -0.9091446272754209 1
gene  1 9 26 0.5423632835612848 0 55.0 0.5423632835612848 1
gene  1 10 26 1.4156656466087527 0 56.0 1.4156656466087527 1
gene  1 11 26 2.508168009187246 0 57.0 2.508168009187246 1
gene  1 12 26 -2.4126054872267937 0 58.0 -2.4126054872267937 1
gene  1 13 26 -0.27416769560061205 0 59.0 -0.27416769560061205 1
gene  1 14 26 1.3339869273776512 0 60.0 1.3339869273776512 0
gene  1 15 26 -1.2712958836126635 0 61.0 -1.2712958836126635 1
gene  1 16 26 -0.6094964071516058 0 62.0 -0.6094964071516058 1
gene  1 17 26 -1.995447158987945 0 63.0 -1.995447158987945 1
gene  1 18 26 5.456633949192081 0 64.0 5.456633949192081 1
gene  1 19 26 2.644964517562702 0 65.0 2.644964517562702 1
gene  1 20 26 -1.809611129792635 0 66.0 -1.809611129792635 1
gene  1 21 26 -3.821588880354704 0 67.0 -3.821588880354704 1
gene  1 22 26 0.1608959142103341 0 68.0 0.1608959142103341 1
gene  1 23 26 -1.30771677934982 0 69.0 -1.30771677934982 1
gene  1 1 27 -0.07120596670534624 0 70.0 -0.07120596670534624 1
gene  1 2 27 -0.19156192267016348 0 71.0 -0.19156192267016348 1
gene  1 3 27 -2.4514862447438133 0 72.0 -2.4514862447438133 1
gene  1 4 27 -0.215762054028811 0 73.0 -0.215762054028811 1
gene  1 5 27 -0.42945157220115293 0 74.0 -0.42945157220115293 1
gene  1 6 27 0.6056312517169982 0 75.0 0.6056312517169982 1
gene  1 7 27 -0.5593793905524882 0 76.0 -0.5593793905524882 1
gene  1 8 27 3.042828647317968 0 77.0 3.042828647317968 1
gene  1 9 27 -4.01670411497876 0 78.0 -4.01670411497876 1
gene  1 10 27 2.2696933290947787 0 79.0 2.2696933290947787 1
gene  1 11 27 -0.12212125878053182 0 80.0 -0.12212125878053182 1
gene  1 12 27 2.5888481188258887 0 81.0 2.5888481188258887 1
gene  1 13 27 -5.215600248117725 0 82.0 -5.215600248117725 0
gene  1 14 27 -2.5137051059220585 0 83.0 -2.5137051059220585 1
gene  1 15 27 1.6200278915442055 0 84.0 1.6200278915442055 1
gene  1 16 27 -1.0372239373407302 0 85.0 -1.0372239373407302 1
gene  1 17 27 -0.5804211519220737 0 86.0 -0.5804211519220737 1
gene  1 18 27 -0.49545719483824 0 87.0 -0.49545719483824 1
gene  1 19 27 -1.1920045739482812 0 88.0 -1.1920045739482812 1
gene  1 20 27 -1.1069300220586087 0 89.0 -1.1069300220586087 1
gene  1 21 27 0.052318170152059196 0 90.0 0.052318170152059196 1
gene  1 22 27 -0.46577342781782055 0 91.0 -0.46577342781782055 1
gene  1 23 27 -1.9919627783791254 0 92.0 -1.9919627783791254 1
gene  1 23 28 2.499747913833374 0 93.0 2.499747913833374 1
gene  1 24 28 2.020022484590471 0 94.0 2.020022484590471 1
gene  1 25 28 1.1648747750869064 0 95.0 1.1648747750869064 1
gene  1 26 28 0.11612990292368042 0 96.0 0.11612990292368042 1
gene  1 27 28 -1.1872029485289408 0 97.0 -1.1872029485289408 1
gene  1 23 29 0.8295477230231141 0 98.0 0.8295477230231141 1
gene  1 24 29 1.6767932608517935 0 99.0 1.6767932608517935 1
gene  1 25 29 3.749951692908863 0 100.0 3.749951692908863 1
gene  1 26 29 -1.6826516349903864 0 101.0 -1.6826516349903864 1
gene  1 27 29 2.1923600158351344 0 102.0 2.1923600158351344 1
gene  1 23 30 -2.885329143032701 0 103.0 -2.885329143032701 1
gene  1 24 30 -1.7816219687247028 0 104.0 -1.7816219687247028 1
gene  1 25 30 0.03212671790156141 0 105.0 0.03212671790156141 1
gene  1 26 30 -1.2883694160933556 0 106.0 -1.2883694160933556 1
gene  1 27 30 3.719235856420018 0 107.0 3.719235856420018 1
gene  1 23 31 -0.06148879149689934 0 108.0 -0.06148879149689934 1
gene  1 24 31 -0.3276651741128057 0 109.0 -0.3276651741128057 1
gene  1 25 31 -1.5593336984858075 0 110.0 -1.5593336984858075 1
gene  1 26 31 -0.1766942198319692 0 111.0 -0.1766942198319692 1
gene  1 27 31 -1.0425887210654405 0 112.0 -1.0425887210654405 1
gene  1 23 32 -3.001330256110354 0 113.0 -3.001330256110354 1
gene  1 24 32 -0.5248647636463235 0 114.0 -0.5248647636463235 1
gene  1 25 32 -1.9059242726780927 0 115.0 -1.9059242726780927 1
gene  1 26 32 -2.0136208256714614 0 116.0 -2.0136208256714614 1
gene  1 27 32 -1.1922604486244093 0 117.0 -1.1922604486244093 1
gene  1 15 28 5.920668720197266 0 145.0 5.920668720197266 1
gene  1 24 41 2.102442037594775 0 162.0 2.102442037594775 1
gene  1 41 29 -1.9298299891961723 0 163.0 -1.9298299891961723 1
gene  1 11 28 8.974439797116567 0 192.0 8.974439797116567 1
gene  1 8 29 -2.102548639630056 0 252.0 -2.102548639630056 1
gene  1 8 69 0.2357491574961298 0 286.0 0.2357491574961298 1
gene  1 69 26 3.8033865974241428 0 287.0 3.8033865974241428 1
gene  1 14 28 7.072140719457273 0 325.0 7.072140719457273 1
gene  1 10 28 3.853528683974247 0 337.0 3.853528683974247 1
gene  1 15 32 5.331637919719123 0 371.0 5.331637919719123 1
gene  1 20 99 0.4401827417555739 0 420.0 0.4401827417555739 1
gene  1 99 27 -4.678913646954436 0 421.0 -4.678913646954436 1
gene  1 5 103 -1.370628425748079 0 442.0 -1.370628425748079 1
gene  1 103 24 1.3802362131079424 0 443.0 1.3802362131079424 1
gene  1 3 110 0.8236046516298692 0 466.0 0.8236046516298692 1
gene  1 110 26 -0.6867656060731426 0 467.0 -0.6867656060731426 1
gene  1 17 99 8.101677659977648 0 517.0 8.101677659977648 1
gene  1 16 128 0.9597915595468636 0 542.0 0.9597915595468636 1
gene  1 128 25 0.25003930915327466 0 543.0 0.25003930915327466 1
gene  1 22 103 -5.9438029793668665 0 584.0 -5.9438029793668665 1
gene  1 24 150 0.8270145666449715 0 612.0 0.8270145666449715 1
gene  1 150 29 3.9156618990883603 0 613.0 3.9156618990883603 1
gene  1 6 128 6.10869753086624 0 659.0 6.10869753086624 1
gene  1 150 69 6.743024100839726 0 697.0 6.743024100839726 1
gene  1 31 32 -6.929911207518887 0 712.0 -6.929911207518887 1
gene  1 26 41 -6.109270995870096 0 740.0 -6.109270995870096 1
gene  1 7 191 0.8330819791590323 0 774.0 0.8330819791590323 1
gene  1 191 26 2.042561646000144 0 775.0 2.042561646000144 1
gene  1 103 26 2.364978322852636 0 816.0 2.364978322852636 1
gene  1 9 29 -5.776078679544396 0 851.0 -5.776078679544396 1
gene  1 11 99 -4.174629083267799 0 864.0 -4.174629083267799 1
gene  1 12 99 -8.36179761157945 0 920.0 -8.36179761157945 1
gene  1 26 236 1.102283437190093 0 945.0 1.102283437190093 1
gene  1 236 28 1.948137337718442 0 946.0 1.948137337718442 1
gene  1 22 242 -0.6639222241580562 0 964.0 -0.6639222241580562 1
gene  1 242 24 1.0087199650003018 0 965.0 1.0087199650003018 1
gene  1 15 99 10.312862763898112 0 1027.0 10.312862763898112 1
gene  1 191 69 1.2021208973449176 0 1052.0 1.2021208973449176 1
gene  1 15 277 -0.8202387046569639 0 1090.0 -0.8202387046569639 1
gene  1 277 28 2.769981270443268 0 1091.0 2.769981270443268 1
gene  1 27 286 -0.14334560601987634 0 1116.0 -0.14334560601987634 1
gene  1 286 28 -0.3842597094643551 0 1117.0 -0.3842597094643551 0
gene  1 191 295 2.3728189993026745 0 1142.0 2.3728189993026745 1
gene  1 295 26 -0.5920621329302276 0 1143.0 -0.5920621329302276 1
gene  1 22 128 0.7118511209076142 0 1174.0 0.7118511209076142 0
gene  1 19 310 2.8794950597183004 0 1209.0 2.8794950597183004 1
gene  1 310 24 0.14976964079522448 0 1210.0 0.14976964079522448 1
gene  1 242 103 8.841633624076106 0 1238.0 8.841633624076106 1
gene  1 16 236 -1.581781025685115 0 1287.0 -1.581781025685115 1
gene  1 20 333 -1.3370221825283206 0 1305.0 -1.3370221825283206 1
gene  1 333 24 -0.2652809889366578 0 1306.0 -0.2652809889366578 1
gene  1 14 277 -5.769894322607023 0 1364.0 -5.769894322607023 1
gene  1 2 355 -1.0411979479254825 0 1395.0 -1.0411979479254825 1
gene  1 355 27 0.1336302248023617 0 1396.0 0.1336302248023617 1
gene  1 69 361 0.40542894406686264 0 1416.0 0.40542894406686264 1
gene  1 361 26 3.2891527923722927 0 1417.0 3.2891527923722927 1
gene  1 9 32 -4.690786072567427 0 1466.0 -4.690786072567427 1
gene  1 14 333 -4.203869322316496 0 1482.0 -4.203869322316496 1
gene  1 32 277 2.074186599813539 0 1522.0 2.074186599813539 1
gene  1 3 390 0.7967402638334905 0 1547.0 0.7967402638334905 1
gene  1 390 26 0.9803845670181448 0 1548.0 0.9803845670181448 1
gene  1 286 236 -0.6129256108448131 0 1594.0 -0.6129256108448131 1
gene  1 20 419 0.7015870613240087 0 1638.0 0.7015870613240087 1
gene  1 419 27 4.142426509283724 0 1639.0 4.142426509283724 1
gene  1 17 355 -0.8165168817580126 0 1648.0 -0.8165168817580126 1
gene  1 8 150 2.8364155160747933 0 1688.0 2.8364155160747933 1
gene  1 355 310 -6.5648918083715415 0 1725.0 -6.5648918083715415 1
gene  1 2 449 2.715246405901041 0 1757.0 2.715246405901041 1
gene  1 449 355 2.893553861728864 0 1758.0 2.893553861728864 1
gene  1 10 458 0.16442793832139313 0 1789.0 0.16442793832139313 1
gene  1 458 26 2.739907218898076 0 1790.0 2.739907218898076 1
gene  1 286 242 1.0726605683830703 0 1819.0 1.0726605683830703 1
gene  1 103 361 -4.288380754884289 0 1881.0 -4.288380754884289 1
gene  1 22 492 0.2262855248035508 0 1911.0 0.2262855248035508 1
gene  1 492 128 1.2573209569284773 0 1912.0 1.2573209569284773 1
gene  1 14 502 1.2361055435224118 0 1950.0 1.2361055435224118 1
gene  1 502 25 -1.3569083078901143 0 1951.0 -1.3569083078901143 1
gene  1 10 519 1.0 0 2010.0 1.0 1
gene  1 519 25 2.164498072577733 0 2011.0 2.164498072577733 1
gene  1 103 333 -4.925490828342904 0 2033.0 -4.925490828342904 1
gene  1 7 242 -8.589149608783572 0 2047.0 -8.589149608783572 1
gene  1 361 30 -3.364430012547958 0 2081.0 -3.364430012547958 1
gene  1 286 550 1.0 0 2139.0 1.0 1
gene  1 550 28 0.025667614407639316 0 2140.0 0.025667614407639316 1
gene  1 16 449 1.2903151010480953 0 2207.0 1.2903151010480953 1
gene  1 22 99 -2.805021694326193 0 2256.0 -2.805021694326193 1
gene  1 519 191 3.8046375607870178 0 2286.0 3.8046375607870178 1
gene  1 41 277 -9.35100599187063 0 2326.0 -9.35100599187063 1
gene  1 19 613 1.802305018277638 0 2370.0 1.802305018277638 1
gene  1 613 24 -0.138883661605411 0 2371.0 -0.138883661605411 1
gene  1 19 361 -2.0630137048748614 0 2386.0 -2.0630137048748614 1
gene  1 24 626 -1.1356604348304198 0 2421.0 -1.1356604348304198 1
gene  1 626 41 0.7041611002973363 0 2422.0 0.7041611002973363 1
gene  1 613 191 8.61007281023515 0 2462.0 8.61007281023515 1
gene  1 286 644 -0.6211341865164322 0 2492.0 -0.6211341865164322 1
gene  1 644 242 -1.6839745995554822 0 2493.0 -1.6839745995554822 1
gene  1 492 361 6.873881767971453 0 2528.0 6.873881767971453 1
gene  1 99 550 -2.2029840359863893 0 2554.0 -2.2029840359863893 1
gene  1 519 69 -2.388405464818604 0 2590.0 -2.388405464818604 1
gene  1 14 674 1.0 0 2618.0 1.0 1
gene  1 674 26 -1.8907163221189776 0 2619.0 -1.8907163221189776 1
gene  1 355 26 0.23642332090938378 0 2649.0 0.23642332090938378 1
gene  1 24 361 -3.0614201662043516 0 2740.0 -3.0614201662043516 1
gene  1 19 110 9.771615053990562 0 2771.0 9.771615053990562 1
gene  1 128 99 2.827935186930017 0 2805.0 2.827935186930017 1
gene  1 13 729 1.0 0 2821.0 1.0 1
gene  1 729 27 -1.3393897857127426 0 2822.0 -1.3393897857127426 1
gene  1 626 277 1.0570662407396827 0 2859.0 1.0570662407396827 1
gene  1 390 236 4.441894930397336 0 2889.0 4.441894930397336 1
genomeend 5
/*-------------------------------------------------------------------*/
/* Species # 032         : (size= 001) (AvfFit= 260,000) (Age= 38,000)  */
/*-------------------------------------------------------------------*/
/* Organism # 006 Fitness:  0,000 Error:  0,000                      */
genomestart  6
trait 1 0.0 0.4447040931572258 0.17141728378837895 0.0 0.10367948650246206 0.0 0.0 0.0 
node 1 1 1 1
node 2 1 1 1
node 3 1 1 1
node 4 1 1 1
node 5 1 1 1
node 6 1 1 1
node 7 1 1 1
node 8 1 1 1
node 9 1 1 1
node 10 1 1 1
node 11 1 1 1
node 12 1 1 1
node 13 1 1 1
node 14 1 1 1
node 15 1 1 1
node 16 1 1 1
node 17 1 1 1
node 18 1 1 1
node 19 1 1 1
node 20 1 1 1
node 21 1 1 1
node 22 1 1 1
node 23 1 1 3
node 24 1 0 0
node 25 1 0 0
node 26 1 0 0
node 27 1 0 0
node 28 1 0 2
node 29 1 0 2
node 30 1 0 2
node 31 1 0 2
node 32 1 0 2
node 41 1 0 0
node 69 1 0 0
node 99 1 0 0
node 103 1 0 0
node 110 1 0 0
node 128 1 0 0
node 150 1 0 0
node 191 1 0 0
node 236 1 0 0
node 242 1 0 0
node 277 1 0 0
node 286 1 0 0
node 295 1 0 0
node 310 1 0 0
node 333 1 0 0
node 355 1 0 0
node 361 1 0 0
node 390 1 0 0
node 419 1 0 0
node 421 1 0 0
node 442 1 0 0
node 450 1 0 0
node 471 1 0 0
node 482 1 0 0
node 499 1 0 0
node 526 1 0 0
node 537 1 0 0
node 548 1 0 0
node 605 1 0 0
node 625 1 0 0
node 710 1 0 0
node 744 1 0 0
gene  1 1 24 0.05487304878817212 0 1.0 0.05487304878817212 1
gene  1 2 24 1.3704320485637829 0 2.0 1.3704320485637829 1
gene  1 3 24 3.004428168647425 0 3.0 3.004428168647425 1
gene  1 4 24 -3.0082164357517036 0 4.0 -3.0082164357517036 1
gene  1 5 24 -1.933644583031615 0 5.0 -1.933644583031615 1
gene  1 6 24 1.5984523780588713 0 6.0 1.5984523780588713 1
gene  1 7 24 0.7308920455778032 0 7.0 0.7308920455778032 1
gene  1 8 24 -2.3779417115199966 0 8.0 -2.3779417115199966 1
gene  1 9 24 -3.719336583908465 0 9.0 -3.719336583908465 1
gene  1 10 24 1.8882087331271558 0 10.0 1.8882087331271558 1
gene  1 11 24 -1.960028419335446 0 11.0 -1.960028419335446 1
gene  1 12 24 -2.2747638052345622 0 12.0 -2.2747638052345622 1
gene  1 13 24 -0.6592777883450478 0 13.0 -0.6592777883450478 1
gene  1 14 24 1.4941426508602729 0 14.0 1.4941426508602729 1
gene  1 15 24 -1.8754574662194468 0 15.0 -1.8754574662194468 1
gene  1 16 24 -5.4181388666398504 0 16.0 -5.4181388666398504 1
gene  1 17 24 -1.3519557353084357 0 17.0 -1.3519557353084357 1
gene  1 18 24 -0.7459523115881597 0 18.0 -0.7459523115881597 1
gene  1 19 24 1.9089062038291906 0 19.0 1.9089062038291906 1
gene  1 20 24 1.060682987624495 0 20.0 1.060682987624495 1
gene  1 21 24 -3.3943121797366698 0 21.0 -3.3943121797366698 1
gene  1 22 24 -0.08310363783426644 0 22.0 -0.08310363783426644 1
gene  1 23 24 3.293326504288882 0 23.0 3.293326504288882 1
gene  1 1 25 0.5630747485880163 0 24.0 0.5630747485880163 1
gene  1 2 25 -0.89327125982922 0 25.0 -0.89327125982922 1
gene  1 3 25 3.002526488429254 0 26.0 3.002526488429254 1
gene  1 4 25 5.788118351282158 0 27.0 5.788118351282158 1
gene  1 5 25 2.7482085216431758 0 28.0 2.7482085216431758 1
gene  1 6 25 1.6723227150465687 0 29.0 1.6723227150465687 1
gene  1 7 25 1.3581813434866785 0 30.0 1.3581813434866785 1
gene  1 8 25 3.764741898061725 0 31.0 3.764741898061725 1
gene  1 9 25 -1.1344449450422451 0 32.0 -1.1344449450422451 1
gene  1 10 25 -0.157127207639704 0 33.0 -0.157127207639704 1
gene  1 11 25 3.71869215347094 0 34.0 3.71869215347094 1
gene  1 12 25 0.8984983518784067 0 35.0 0.8984983518784067 1
gene  1 13 25 -0.014293259714284412 0 36.0 -0.014293259714284412 1
gene  1 14 25 1.5080138298332535 0 37.0 1.5080138298332535 1
gene  1 15 25 -1.891422034523452 0 38.0 -1.891422034523452 1
gene  1 16 25 0.42365120254044575 0 39.0 0.42365120254044575 1
gene  1 17 25 3.3131713915481473 0 40.0 3.3131713915481473 1
gene  1 18 25 -0.7527135786312493 0 41.0 -0.7527135786312493 1
gene  1 19 25 0.7602245440935534 0 42.0 0.7602245440935534 1
gene  1 20 25 1.2346385007616165 0 43.0 1.2346385007616165 1
gene  1 21 25 -0.8626953424551453 0 44.0 -0.8626953424551453 1
gene  1 22 25 -1.0506341259756078 0 45.0 -1.0506341259756078 1
gene  1 23 25 -2.612291201528369 0 46.0 -2.612291201528369 1
gene  1 1 26 0.3316422214355441 0 47.0 0.3316422214355441 1
gene  1 2 26 1.270413163579376 0 48.0 1.270413163579376 1
gene  1 3 26 0.7469432100305364 0 49.0 0.7469432100305364 1
gene  1 4 26 2.347211929641132 0 50.0 2.347211929641132 1
gene  1 5 26 -0.9575127702124314 0 51.0 -0.9575127702124314 1
gene  1 6 26 -1.0277425391903776 0 52.0 -1.0277425391903776 1
gene  1 7 26 2.651411511366898 0 53.0 2.651411511366898 1
gene  1 8 26 0.2657244722733303 0 54.0 0.2657244722733303 1
gene  1 9 26 -2.955622536446853 0 55.0 -2.955622536446853 1
gene  1 10 26 -1.743117950008135 0 56.0 -1.743117950008135 1
gene  1 11 26 1.2191581394602502 0 57.0 1.2191581394602502 1
gene  1 12 26 0.5146987447668674 0 58.0 0.5146987447668674 1
gene  1 13 26 -3.9916895869302165 0 59.0 -3.9916895869302165 1
gene  1 14 26 -1.5534343663033052 0 60.0 -1.5534343663033052 1
gene  1 15 26 0.6321812633767339 0 61.0 0.6321812633767339 1
gene  1 16 26 1.8645441557025633 0 62.0 1.8645441557025633 1
gene  1 17 26 0.6774190040917683 0 63.0 0.6774190040917683 1
gene  1 18 26 3.8533607138555 0 64.0 3.8533607138555 1
gene  1 19 26 -1.4575317274794974 0 65.0 -1.4575317274794974 1
gene  1 20 26 -4.016299209805882 0 66.0 -4.016299209805882 1
gene  1 21 26 -2.7482745347182593 0 67.0 -2.7482745347182593 1
gene  1 22 26 1.190707537820944 0 68.0 1.190707537820944 1
gene  1 23 26 1.9724446928378025 0 69.0 1.9724446928378025 1
gene  1 1 27 -2.827976513642384 0 70.0 -2.827976513642384 1
gene  1 2 27 1.2794284767181192 0 71.0 1.2794284767181192 1
gene  1 3 27 -1.7466246115723527 0 72.0 -1.7466246115723527 1
gene  1 4 27 1.243708501962325 0 73.0 1.243708501962325 1
gene  1 5 27 -0.7228720307890466 0 74.0 -0.7228720307890466 1
gene  1 6 27 -0.740765436994089 0 75.0 -0.740765436994089 1
gene  1 7 27 0.15980624769464796 0 76.0 0.15980624769464796 1
gene  1 8 27 1.1169360023235961 0 77.0 1.1169360023235961 1
gene  1 9 27 0.12619342953365797 0 78.0 0.12619342953365797 1
gene  1 10 27 0.4806714111676505 0 79.0 0.4806714111676505 1
gene  1 11 27 -0.21682145934451058 0 80.0 -0.21682145934451058 1
gene  1 12 27 2.228551321305315 0 81.0 2.228551321305315 1
gene  1 13 27 0.17706393685082056 0 82.0 0.17706393685082056 1
gene  1 14 27 -1.4195869928331453 0 83.0 -1.4195869928331453 1
gene  1 15 27 0.6110050168688874 0 84.0 0.6110050168688874 1
gene  1 16 27 2.705034343290714 0 85.0 2.705034343290714 1
gene  1 17 27 -0.13776910430237627 0 86.0 -0.13776910430237627 1
gene  1 18 27 -0.09368033456705538 0 87.0 -0.09368033456705538 1
gene  1 19 27 -3.3922546860046814 0 88.0 -3.3922546860046814 1
gene  1 20 27 -2.8806108850941934 0 89.0 -2.8806108850941934 1
gene  1 21 27 0.24756153276170711 0 90.0 0.24756153276170711 1
gene  1 22 27 0.34590750907001055 0 91.0 0.34590750907001055 1
gene  1 23 27 -0.5327778202596414 0 92.0 -0.5327778202596414 1
gene  1 23 28 1.6408874103955664 0 93.0 1.6408874103955664 1
gene  1 24 28 0.570687149653927 0 94.0 0.570687149653927 1
gene  1 25 28 0.9805370864096346 0 95.0 0.9805370864096346 1
gene  1 26 28 -0.16467787781583754 0 96.0 -0.16467787781583754 1
gene  1 27 28 1.767812740096415 0 97.0 1.767812740096415 1
gene  1 23 29 2.5929763216119017 0 98.0 2.5929763216119017 1
gene  1 24 29 -1.6383297542355322 0 99.0 -1.6383297542355322 1
gene  1 25 29 1.0113351132314272 0 100.0 1.0113351132314272 1
gene  1 26 29 -0.4385832037786922 0 101.0 -0.4385832037786922 1
gene  1 27 29 -1.2143377263176753 0 102.0 -1.2143377263176753 1
gene  1 23 30 2.1042279024201553 0 103.0 2.1042279024201553 1
gene  1 24 30 2.8188932652517575 0 104.0 2.8188932652517575 1
gene  1 25 30 2.1271911299008543 0 105.0 2.1271911299008543 1
gene  1 26 30 -3.040592384834608 0 106.0 -3.040592384834608 1
gene  1 27 30 -0.2616452642277214 0 107.0 -0.2616452642277214 1
gene  1 23 31 4.0728291284943365 0 108.0 4.0728291284943365 1
gene  1 24 31 2.6770867815510098 0 109.0 2.6770867815510098 1
gene  1 25 31 -1.7316498919122747 0 110.0 -1.7316498919122747 1
gene  1 26 31 1.5235818695235075 0 111.0 1.5235818695235075 1
gene  1 27 31 -0.7356420542407283 0 112.0 -0.7356420542407283 1
gene  1 23 32 0.9101456958176581 0 113.0 0.9101456958176581 1
gene  1 24 32 -0.05285372160008883 0 114.0 -0.05285372160008883 1
gene  1 25 32 1.0003201380344207 0 115.0 1.0003201380344207 1
gene  1 26 32 -3.907720886920871 0 116.0 -3.907720886920871 1
gene  1 27 32 -0.8383830882814456 0 117.0 -0.8383830882814456 1
gene  1 15 28 -0.7802348489928568 0 145.0 -0.7802348489928568 1
gene  1 24 41 4.143776690499004 0 162.0 4.143776690499004 1
gene  1 41 29 2.7575097003733786 0 163.0 2.7575097003733786 1
gene  1 11 28 5.885008438657462 0 192.0 5.885008438657462 1
gene  1 8 29 -2.4150194104223606 0 252.0 -2.4150194104223606 1
gene  1 8 69 -1.143544130817486 0 286.0 -1.143544130817486 1
gene  1 69 26 2.475353382509619 0 287.0 2.475353382509619 1
gene  1 14 28 11.426426116340124 0 325.0 11.426426116340124 1
gene  1 10 28 8.719330988106748 0 337.0 8.719330988106748 1
gene  1 15 32 7.211198129978655 0 371.0 7.211198129978655 1
gene  1 20 99 0.8000438247275462 0 420.0 0.8000438247275462 1
gene  1 99 27 -1.1155676815383868 0 421.0 -1.1155676815383868 1
gene  1 5 103 -2.9489440696615645 0 442.0 -2.9489440696615645 1
gene  1 103 24 0.24110893669255562 0 443.0 0.24110893669255562 1
gene  1 3 110 -3.6093831734678523 0 466.0 -3.6093831734678523 1
gene  1 110 26 -2.255165857936803 0 467.0 -2.255165857936803 1
gene  1 17 99 5.077100029337993 0 517.0 5.077100029337993 1
gene  1 16 128 -2.270614981417178 0 542.0 -2.270614981417178 1
gene  1 128 25 -1.2554626209698325 0 543.0 -1.2554626209698325 1
gene  1 22 103 -3.8580201062987993 0 584.0 -3.8580201062987993 1
gene  1 24 150 -0.3081523707336975 0 612.0 -0.3081523707336975 1
gene  1 150 29 -0.3524521177954538 0 613.0 -0.3524521177954538 1
gene  1 6 128 11.507452203462957 0 659.0 11.507452203462957 1
gene  1 150 69 4.678896682875798 0 697.0 4.678896682875798 1
gene  1 31 32 -3.5604790352092706 0 712.0 -3.5604790352092706 1
gene  1 26 41 -9.096922448286335 0 740.0 -9.096922448286335 1
gene  1 7 191 1.7935830574728875 0 774.0 1.7935830574728875 1
gene  1 191 26 0.03898439898314787 0 775.0 0.03898439898314787 1
gene  1 103 26 0.5578010205045594 0 816.0 0.5578010205045594 1
gene  1 9 29 -3.93944974236761 0 851.0 -3.93944974236761 1
gene  1 11 99 -2.387769980020165 0 864.0 -2.387769980020165 1
gene  1 12 99 -7.722447316523456 0 920.0 -7.722447316523456 1
gene  1 26 236 4.162767947687229 0 945.0 4.162767947687229 1
gene  1 236 28 -0.36431426962928726 0 946.0 -0.36431426962928726 1
gene  1 22 242 0.8885120619271909 0 964.0 0.8885120619271909 1
gene  1 242 24 1.6347598876875589 0 965.0 1.6347598876875589 1
gene  1 15 99 5.366768116663764 0 1027.0 5.366768116663764 1
gene  1 191 69 0.8197490864136028 0 1052.0 0.8197490864136028 1
gene  1 15 277 0.18845028062287872 0 1090.0 0.18845028062287872 1
gene  1 277 28 4.421619572338325 0 1091.0 4.421619572338325 1
gene  1 27 286 2.5657273357231474 0 1116.0 2.5657273357231474 1
gene  1 286 28 -4.110494987752386 0 1117.0 -4.110494987752386 1
gene  1 191 295 -0.22882459768123997 0 1142.0 -0.22882459768123997 1
gene  1 295 26 1.0236198702834387 0 1143.0 1.0236198702834387 1
gene  1 22 128 1.7783904519512799 0 1174.0 1.7783904519512799 1
gene  1 19 310 2.4891877134632225 0 1209.0 2.4891877134632225 1
